
\data\
ngram 1=6429
ngram 2=51429
ngram 3=14177

\1-grams:

-3.778719	*	-0.8338023
-4.699518	1	-0.2610677
-4.699518	10	-0.2610677
-4.699518	11	-0.2610677
-4.699518	12	-0.2610677
-4.699518	13	-0.2610677
-4.699518	14	-0.2610677
-4.699518	15	-0.2610677
-5.176594	15TH	-0.1687227
-4.699518	16	-0.2610677
-4.699518	17	-0.2610677
-4.699518	18	-0.2610677
-5.176594	18TH	-0.1414898
-4.699518	19	-0.2610677
-4.574584	2	-0.3353987
-4.699518	20	-0.2610677
-4.699518	21	-0.2610677
-4.699518	22	-0.2610677
-4.699518	23	-0.2610677
-4.699518	24	-0.2610677
-4.699518	25	-0.2610677
-4.699518	26	-0.2610677
-5.176594	26TH	-0.1577982
-4.699518	27	-0.2610677
-4.699518	28	-0.2610677
-4.699518	29	-0.2610677
-4.699518	3	-0.2610677
-4.699518	30	-0.2610677
-4.699518	31	-0.2610677
-4.699518	32	-0.2610677
-4.699518	33	-0.2610677
-4.699518	34	-0.2610677
-4.699518	35	-0.2610677
-4.699518	36	-0.2610677
-4.699518	37	-0.2610677
-4.699518	38	-0.2610677
-4.699518	39	-0.2610677
-4.699518	4	-0.2610677
-4.699518	40	-0.2610677
-4.699518	41	-0.2610677
-4.699518	42	-0.2610677
-4.699518	43	-0.2610677
-4.699518	44	-0.2610677
-4.699518	45	-0.2610677
-4.699518	46	-0.2610677
-4.699518	47	-0.2610677
-4.699518	48	-0.2610677
-4.699518	49	-0.2610677
-4.699518	5	-0.2610677
-4.699518	50	-0.2610677
-4.699518	51	-0.2610677
-4.699518	52	-0.2610677
-4.699518	53	-0.2610677
-4.699518	54	-0.2610677
-4.699518	55	-0.2610677
-4.699518	56	-0.2610677
-4.699518	57	-0.2610677
-4.699518	58	-0.2610677
-4.699518	59	-0.2610677
-4.574584	6	-0.3353987
-4.699518	60	-0.2610677
-4.699518	61	-0.2610677
-4.699518	7	-0.2610677
-4.699518	8	-0.2610677
-4.699518	9	-0.2610677
-1.885514	A	-0.5692072
-5.176594	ABATEMENT	-0.1577982
-4.398499	ABHORRENCE	-0.335459
-5.176594	ABHORRENT	-0.1565154
-5.176594	ABIDE	-0.1665283
-5.176594	ABIDING	-0.1630796
-4.398499	ABILITIES	-0.117679
-3.444266	ABLE	-1.370953
-5.176594	ABLUTION	-0.168419
-4.273563	ABODE	-0.2489774
-4.398499	ABOMINABLE	-0.2039777
-4.574584	ABOMINABLY	-0.2427887
-4.875597	ABOMINATE	-0.1578338
-5.176594	ABOUND	-0.1630796
-3.090301	ABOUT	-0.4608356
-3.854439	ABOVE	-0.1683685
-4.574584	ABROAD	-0.1211739
-5.176594	ABRUPT	-0.1633519
-4.875597	ABRUPTLY	-0.1686996
-4.875597	ABRUPTNESS	-0.167292
-3.745295	ABSENCE	-0.3561239
-4.574584	ABSENT	-0.2060276
-4.574584	ABSOLUTE	-0.1686331
-3.921385	ABSOLUTELY	-0.2495134
-4.477678	ABSURD	-0.2040699
-4.875597	ABSURDITIES	-0.1391499
-5.176594	ABSURDITY	-0.1677385
-5.176594	ABUNDANT	-0.1666504
-4.699518	ABUNDANTLY	-0.168636
-4.875597	ABUSE	-0.156441
-4.875597	ABUSED	-0.1577152
-4.699518	ABUSING	-0.2778855
-4.875597	ABUSIVE	-0.140963
-5.176594	ACCEDE	-0.1565154
-5.176594	ACCEDED	-0.1565154
-5.176594	ACCEDING	-0.1565154
-4.574584	ACCENT	-0.1546407
-4.875597	ACCENTS	-0.1574037
-3.946208	ACCEPT	-0.2573979
-4.398499	ACCEPTABLE	-0.330627
-4.574584	ACCEPTANCE	-0.324484
-3.972537	ACCEPTED	-0.1703888
-4.574584	ACCEPTING	-0.1556729
-4.398499	ACCIDENT	-0.1211546
-4.699518	ACCIDENTAL	-0.1685695
-4.699518	ACCIDENTALLY	-0.2826432
-4.398499	ACCOMPANIED	-0.3519509
-4.699518	ACCOMPANY	-0.2816606
-4.875597	ACCOMPANYING	-0.1609653
-4.097474	ACCOMPLISHED	-0.223594
-4.699518	ACCOMPLISHMENT	-0.2494913
-4.477678	ACCOMPLISHMENTS	-0.2004438
-4.273563	ACCORDING	-0.9420323
-4.398499	ACCORDINGLY	-0.1184231
-4.875597	ACCOSTED	-0.1600135
-3.596876	ACCOUNT	-0.5926226
-4.875597	ACCOUNTED	-0.1533485
-4.699518	ACCOUNTING	-0.4499005
-4.699518	ACCOUNTS	-0.2759796
-5.176594	ACCURACY	-0.1414898
-5.176594	ACCURATE	-0.1685839
-5.176594	ACCUSATION	-0.1414898
-4.699518	ACCUSATIONS	-0.1665022
-4.574584	ACCUSE	-0.3602142
-4.875597	ACCUSED	-0.1564678
-5.176594	ACCUSING	-0.1647811
-4.875597	ACCUSTOMED	-0.1565124
-5.176594	ACHED	-0.1687141
-5.176594	ACHIEVING	-0.1630356
-4.273563	ACKNOWLEDGE	-0.1989989
-3.875628	ACKNOWLEDGED	-0.2849373
-5.176594	ACKNOWLEDGING	-0.1414898
-4.699518	ACKNOWLEDGMENT	-0.1499018
-4.875597	ACKNOWLEDGMENTS	-0.1487377
-4.875597	ACQUAINT	-0.1548677
-3.460657	ACQUAINTANCE	-0.4910004
-4.135262	ACQUAINTANCES	-0.2347736
-3.796447	ACQUAINTED	-0.9902089
-5.176594	ACQUAINTING	-0.167466
-5.176594	ACQUIESCE	-0.1527639
-4.875597	ACQUIESCENCE	-0.3474024
-5.176594	ACQUIRE	-0.1527639
-4.875597	ACQUIRED	-0.1660311
-5.176594	ACQUISITION	-0.1577982
-4.875597	ACQUIT	-0.1652069
-5.176594	ACRIMONY	-0.1577982
-4.477678	ACROSS	-1.062156
-4.222411	ACT	-0.2994424
-4.398499	ACTED	-0.1427134
-4.699518	ACTING	-0.1664818
-4.875597	ACTION	-0.1298456
-4.398499	ACTIONS	-0.2097466
-4.574584	ACTIVE	-0.1412989
-4.574584	ACTIVITY	-0.1219346
-4.477678	ACTUAL	-0.1680282
-4.097474	ACTUALLY	-0.1631821
-5.176594	ACTUATED	-0.1665283
-4.875597	ACUTE	-0.1578664
-4.574584	ACUTELY	-0.1235579
-5.176594	ACUTEST	-0.1685492
-4.699518	ADAPTED	-0.2694931
-4.097474	ADD	-0.1888459
-3.325402	ADDED	-0.568108
-4.477678	ADDING	-0.2756878
-4.273563	ADDITION	-0.6969023
-4.875597	ADDITIONAL	-0.1687112
-5.176594	ADDITIONS	-0.1414898
-3.897904	ADDRESS	-0.206454
-3.946208	ADDRESSED	-0.1605578
-4.398499	ADDRESSES	-0.151002
-4.699518	ADDRESSING	-0.159804
-4.699518	ADDS	-0.1282171
-5.176594	ADEPT	-0.1630796
-5.176594	ADEQUATE	-0.1565154
-5.176594	ADHERED	-0.1681817
-5.176594	ADHERING	-0.1565154
-4.477678	ADIEU	-0.19172
-4.875597	ADIEUS	-0.1561197
-5.176594	ADJUSTING	-0.1622439
-4.699518	ADMIRABLE	-0.167263
-3.778719	ADMIRATION	-0.3753952
-3.921385	ADMIRE	-0.2081533
-4.097474	ADMIRED	-0.1914949
-4.699518	ADMIRER	-0.1408274
-4.875597	ADMIRES	-0.1614125
-4.875597	ADMIRING	-0.1677298
-5.176594	ADMISSION	-0.1565154
-4.398499	ADMIT	-0.2026967
-5.176594	ADMITTANCE	-0.1527639
-4.222411	ADMITTED	-0.1903697
-5.176594	ADMITTING	-0.1630356
-4.699518	ADOPT	-0.1504299
-5.176594	ADOPTED	-0.1666504
-5.176594	ADORATION	-0.1577982
-4.699518	ADORNED	-0.149633
-4.699518	ADVANCE	-0.1493277
-4.477678	ADVANCED	-0.1435629
-5.176594	ADVANCEMENT	-0.1630796
-5.176594	ADVANCES	-0.1637528
-3.64518	ADVANTAGE	-0.4835917
-4.875597	ADVANTAGEOUS	-0.1400899
-4.875597	ADVANTAGEOUSLY	-0.1629009
-4.273563	ADVANTAGES	-0.3505443
-4.875597	ADVENTURE	-0.1571424
-5.176594	ADVERTISED	-0.1665283
-3.972537	ADVICE	-0.229942
-4.398499	ADVISABLE	-0.2270609
-4.273563	ADVISE	-0.5109951
-4.699518	ADVISED	-0.280611
-5.176594	ADVISING	-0.1622439
-4.574584	AFFABILITY	-0.2102525
-5.176594	AFFABLE	-0.1565154
-3.921385	AFFAIR	-0.2889543
-4.331553	AFFAIRS	-0.2045569
-4.699518	AFFECT	-0.1660893
-4.699518	AFFECTATION	-0.2663105
-3.897904	AFFECTED	-0.2510504
-3.413232	AFFECTION	-0.5010905
-3.946208	AFFECTIONATE	-0.1867958
-4.574584	AFFECTIONATELY	-0.157555
-4.574584	AFFECTIONS	-0.2406888
-4.875597	AFFINITY	-0.3511538
-4.875597	AFFIRMATIVE	-0.1244746
-5.176594	AFFLICTED	-0.1527639
-5.176594	AFFLICTING	-0.1565154
-5.176594	AFFLICTION	-0.1647811
-4.331553	AFFORD	-0.1642289
-4.477678	AFFORDED	-0.1386389
-4.875597	AFFORDING	-0.1619738
-5.176594	AFFORDS	-0.1414898
-4.574584	AFFRONT	-0.1259735
-4.875597	AFFRONTED	-0.1642322
-3.608458	AFRAID	-0.541891
-5.176594	AFRESH	-0.1527639
-2.875631	AFTER	-0.4560846
-4.699518	AFTERNOON	-0.2607258
-3.671509	AFTERWARDS	-0.1211108
-2.928688	AGAIN	-0.5052672
-3.460657	AGAINST	-0.4089271
-4.000566	AGE	-0.1835731
-4.477678	AGITATED	-0.1573176
-4.398499	AGITATION	-0.1652667
-5.176594	AGITATIONS	-0.1577982
-3.761685	AGO	-0.5423037
-5.176594	AGONIES	-0.1527639
-5.176594	AGONY	-0.1577982
-4.398499	AGREE	-0.7181337
-3.523447	AGREEABLE	-0.2435485
-4.699518	AGREEABLY	-0.1297254
-4.097474	AGREED	-0.3805473
-4.699518	AGREEING	-0.1486226
-4.699518	AGREEMENT	-0.1531597
-4.477678	AH	-0.4500625
-5.176594	AID	-0.1414898
-5.176594	AIMED	-0.1414898
-3.699538	AIR	-0.5248966
-5.176594	AIRING	-0.1673616
-5.176594	AIRS	-0.1414898
-4.477678	ALACRITY	-0.2013978
-4.030529	ALARM	-0.3301501
-4.273563	ALARMED	-0.1490833
-4.477678	ALARMING	-0.2038611
-5.176594	ALARMS	-0.1681209
-4.875597	ALAS	-0.3619188
-5.176594	ALIENATED	-0.167466
-5.176594	ALIGHTED	-0.1672978
-4.875597	ALIKE	-0.1577033
-4.875597	ALIVE	-0.1400899
-2.380087	ALL	-0.3975595
-5.176594	ALLAYED	-0.1665283
-5.176594	ALLEVIATE	-0.1670192
-5.176594	ALLEVIATED	-0.1666504
-4.699518	ALLIANCE	-0.1402196
-3.685297	ALLOW	-0.2876616
-5.176594	ALLOWABLE	-0.1656469
-4.875597	ALLOWANCE	-0.1411633
-5.176594	ALLOWANCES	-0.1414898
-3.761685	ALLOWED	-0.3980373
-4.273563	ALLOWING	-0.229945
-5.176594	ALLUDE	-0.1414898
-4.398499	ALLUDED	-0.3652685
-5.176594	ALLUDING	-0.1414898
-5.176594	ALLUREMENTS	-0.1681672
-4.574584	ALLUSION	-0.5977275
-4.875597	ALLUSIONS	-0.1452723
-3.405808	ALMOST	-0.2383267
-3.699538	ALONE	-0.6020239
-4.222411	ALONG	-0.4862746
-4.875597	ALOOF	-0.1663103
-4.135262	ALOUD	-0.4424075
-3.729501	ALREADY	-0.1783271
-3.64518	ALSO	-0.124405
-5.176594	ALTAR	-0.1687198
-5.176594	ALTER	-0.1670192
-4.331553	ALTERATION	-0.147105
-5.176594	ALTERATIONS	-0.1648453
-4.331553	ALTERED	-0.2016649
-5.176594	ALTERNATE	-0.1686967
-4.699518	ALTERNATIVE	-0.1215158
-5.176594	ALTHOUGH	-0.1687227
-4.273563	ALTOGETHER	-0.1173016
-3.101114	ALWAYS	-0.1414443
-2.666116	AM	-0.5516098
-5.176594	AMAZE	-0.1558368
-4.477678	AMAZED	-0.4758168
-4.176655	AMAZEMENT	-0.2031092
-5.176594	AMAZES	-0.1674283
-4.875597	AMAZING	-0.1550288
-5.176594	AMBITION	-0.167524
-4.875597	AMENDMENT	-0.1244746
-4.477678	AMENDS	-0.1910431
-3.620357	AMIABLE	-0.3166913
-5.176594	AMID	-0.1673152
-4.574584	AMIDST	-0.3484501
-5.176594	AMISS	-0.1677124
-3.778719	AMONG	-0.4285294
-4.097474	AMONGST	-0.4316929
-4.875597	AMOUNT	-0.1414221
-5.176594	AMOUNTING	-0.1414898
-4.875597	AMPLE	-0.1656032
-4.875597	AMPLY	-0.1414836
-4.477678	AMUSE	-0.2277696
-4.398499	AMUSED	-0.2119484
-4.097474	AMUSEMENT	-0.2691002
-4.699518	AMUSEMENTS	-0.1123586
-4.574584	AMUSING	-0.2388671
-2.619154	AN	-0.4252665
-5.176594	ANCIENT	-0.1680717
-1.607639	AND	-0.2784469
-4.875597	ANECDOTE	-0.1546676
-5.176594	ANECDOTES	-0.1578723
-5.176594	ANEW	-0.1558368
-4.699518	ANGEL	-0.140414
-5.176594	ANGELIC	-0.1642556
-4.062713	ANGER	-0.2354076
-5.176594	ANGRILY	-0.1642556
-3.946208	ANGRY	-0.1986691
-4.875597	ANGUISH	-0.1378417
-5.176594	ANIMAL	-0.1686128
-4.875597	ANIMATED	-0.152749
-5.176594	ANIMATING	-0.1684827
-4.574584	ANIMATION	-0.2099477
-5.176594	ANKLE	-0.1630796
-4.875597	ANKLES	-0.1354758
-4.574584	ANNE	-0.2253859
-5.176594	ANNE'S	-0.1527639
-4.699518	ANNESLEY	-0.1255458
-5.176594	ANNEXED	-0.1565154
-4.574584	ANNOUNCE	-0.2350159
-4.699518	ANNOUNCED	-0.1617359
-5.176594	ANNOYED	-0.1672804
-5.176594	ANNUAL	-0.1687112
-4.875597	ANNUM	-0.3474024
-3.413232	ANOTHER	-0.2038044
-3.363747	ANSWER	-0.5425243
-4.875597	ANSWERABLE	-0.3602853
-3.64518	ANSWERED	-0.2457066
-4.699518	ANSWERING	-0.1575372
-5.176594	ANSWERS	-0.1670889
-5.176594	ANTAGONIST	-0.1664411
-5.176594	ANTE	-0.1687198
-5.176594	ANTICIPATE	-0.1680572
-4.574584	ANTICIPATED	-0.1612243
-4.875597	ANTICIPATING	-0.3504752
-5.176594	ANTICIPATION	-0.1414898
-3.897904	ANXIETY	-0.266034
-3.761685	ANXIOUS	-0.355989
-4.875597	ANXIOUSLY	-0.1685955
-2.746909	ANY	-0.2613342
-3.814931	ANYBODY	-0.2656775
-4.875597	ANYBODY'S	-0.1686331
-5.176594	ANYHOW	-0.1687025
-3.796447	ANYONE	-0.2582082
-3.27357	ANYTHING	-0.2906006
-5.176594	ANYWHERE	-0.1686013
-5.176594	APACE	-0.1527639
-4.574584	APARTMENT	-0.3336122
-4.875597	APARTMENTS	-0.1565005
-4.875597	APOLOGIES	-0.1520825
-4.477678	APOLOGISE	-0.4596812
-4.875597	APOLOGISED	-0.1650991
-4.574584	APOLOGISING	-0.2510705
-4.273563	APOLOGY	-0.2430591
-4.875597	APOTHECARY	-0.1412126
-5.176594	APPAREL	-0.1527639
-4.699518	APPARENT	-0.1413913
-4.875597	APPARENTLY	-0.1649328
-4.875597	APPEAL	-0.1555418
-5.176594	APPEALS	-0.1577982
-3.699538	APPEAR	-0.3548737
-3.658145	APPEARANCE	-0.5243996
-5.176594	APPEARANCES	-0.1670889
-3.685297	APPEARED	-0.2378697
-4.398499	APPEARING	-0.1342598
-4.699518	APPEARS	-0.440769
-5.176594	APPEASE	-0.1622439
-5.176594	APPEASED	-0.1677327
-5.176594	APPERTAIN	-0.1565154
-4.875597	APPETITE	-0.1532886
-4.097474	APPLICATION	-0.3281255
-4.097474	APPLIED	-0.8326396
-5.176594	APPLIES	-0.1656469
-4.699518	APPLY	-0.2597355
-4.699518	APPLYING	-0.440769
-5.176594	APPOINTED	-0.1687054
-5.176594	APPOINTMENT	-0.1642556
-5.176594	APPREHENDED	-0.1414898
-5.176594	APPREHENDING	-0.1641387
-4.097474	APPREHENSION	-0.3513484
-4.875597	APPREHENSIONS	-0.1452723
-5.176594	APPREHENSIVE	-0.1578723
-4.331553	APPROACH	-0.2193907
-4.398499	APPROACHED	-0.1501416
-4.097474	APPROACHING	-0.2970976
-4.331553	APPROBATION	-0.235654
-4.477678	APPROVE	-0.2054852
-4.699518	APPROVED	-0.2828483
-5.176594	APRIL	-0.1414898
-5.176594	APT	-0.1414898
-5.176594	ARCH	-0.1686418
-5.176594	ARCHBISHOP	-0.1414898
-4.875597	ARCHLY	-0.1367289
-5.176594	ARCHNESS	-0.1630796
-5.176594	ARDENT	-0.1684595
-4.875597	ARDENTLY	-0.1619033
-2.643907	ARE	-0.3333875
-5.176594	ARGUED	-0.1683148
-5.176594	ARGUING	-0.1685058
-4.477678	ARGUMENT	-0.1999377
-4.477678	ARGUMENTS	-0.1235162
-4.331553	ARISE	-0.2596575
-4.477678	ARISEN	-0.2189149
-4.477678	ARISING	-0.3071561
-4.574584	ARM	-0.1488315
-4.699518	ARMY	-0.2441202
-4.477678	AROSE	-0.273941
-4.875597	AROUND	-0.1652448
-5.176594	AROUSED	-0.1622439
-5.176594	ARRANGE	-0.1656731
-4.875597	ARRANGED	-0.1382389
-4.273563	ARRANGEMENT	-0.2469451
-5.176594	ARRANGEMENTS	-0.1414898
-5.176594	ARRANGES	-0.1558368
-4.875597	ARRANGING	-0.1667782
-5.176594	ARREAR	-0.1577982
-4.875597	ARRESTED	-0.1600135
-3.699538	ARRIVAL	-0.4345836
-4.875597	ARRIVE	-0.1672891
-4.000566	ARRIVED	-0.1908184
-5.176594	ARRIVING	-0.1527639
-5.176594	ARROGANCE	-0.1414898
-5.176594	ARROGANT	-0.1414898
-4.699518	ART	-0.1463362
-5.176594	ARTFUL	-0.1685926
-5.176594	ARTFULLY	-0.1686794
-4.699518	ARTICLE	-0.2494913
-4.875597	ARTICLES	-0.15567
-5.176594	ARTIFICIAL	-0.1686302
-4.574584	ARTS	-0.1273529
-2.104779	AS	-0.6609131
-4.699518	ASCENDED	-0.1520314
-4.875597	ASCERTAIN	-0.1511109
-5.176594	ASCERTAINING	-0.1672978
-3.972537	ASHAMED	-0.762932
-5.176594	ASHWORTH	-0.1660544
-4.574584	ASIDE	-0.2170934
-3.671509	ASK	-0.1373182
-3.5746	ASKED	-0.3119643
-4.030529	ASKING	-0.2545148
-4.398499	ASPECT	-0.1206349
-5.176594	ASPERITY	-0.1641387
-5.176594	ASPIRE	-0.1414898
-4.398499	ASSEMBLED	-0.2349258
-4.875597	ASSEMBLIES	-0.3361282
-4.222411	ASSEMBLY	-0.1344507
-5.176594	ASSENT	-0.1414898
-4.875597	ASSENTED	-0.1284773
-5.176594	ASSENTS	-0.1666504
-4.477678	ASSERT	-0.271075
-5.176594	ASSERTED	-0.165032
-5.176594	ASSERTING	-0.1641387
-4.699518	ASSERTION	-0.1123586
-4.699518	ASSERTIONS	-0.1585478
-5.176594	ASSIDUOUS	-0.1686504
-5.176594	ASSIDUOUSLY	-0.1687198
-4.331553	ASSIST	-0.3147833
-4.062713	ASSISTANCE	-0.2533378
-5.176594	ASSISTANT	-0.1414898
-4.574584	ASSISTED	-0.3582789
-4.875597	ASSISTING	-0.1554941
-5.176594	ASSOCIATING	-0.1656731
-4.699518	ASSUME	-0.1497266
-5.176594	ASSUMED	-0.1687112
-4.000566	ASSURANCE	-0.3496386
-4.273563	ASSURANCES	-0.2895097
-3.585595	ASSURE	-0.8227568
-3.729501	ASSURED	-0.5837336
-4.574584	ASSURING	-0.1484136
-4.875597	ASTONISH	-0.1569078
-4.030529	ASTONISHED	-0.1799266
-3.699538	ASTONISHMENT	-0.3591135
-2.280135	AT	-0.8740666
-4.699518	ATE	-0.4257434
-4.875597	ATONE	-0.3602853
-5.176594	ATONED	-0.1656469
-4.875597	ATONEMENT	-0.1617388
-4.699518	ATTACH	-0.1491614
-4.135262	ATTACHED	-0.8942202
-3.745295	ATTACHMENT	-0.4952511
-5.176594	ATTACHMENTS	-0.1684682
-4.574584	ATTACK	-0.1295894
-5.176594	ATTACKED	-0.1665109
-4.699518	ATTACKS	-0.1381707
-5.176594	ATTAINED	-0.1642643
-3.854439	ATTEMPT	-0.6002724
-4.574584	ATTEMPTED	-0.1974393
-4.574584	ATTEMPTING	-0.5977275
-4.477678	ATTEND	-0.2027906
-4.477678	ATTENDANCE	-0.2020275
-5.176594	ATTENDANT	-0.1666504
-5.176594	ATTENDANTS	-0.1577982
-3.796447	ATTENDED	-0.527695
-4.222411	ATTENDING	-0.2859679
-3.344151	ATTENTION	-0.5066237
-3.761685	ATTENTIONS	-0.2798078
-4.176655	ATTENTIVE	-0.2881577
-4.699518	ATTENTIVELY	-0.1235708
-5.176594	ATTICS	-0.1677385
-5.176594	ATTITUDE	-0.1527639
-4.699518	ATTORNEY	-0.133235
-4.699518	ATTRACTED	-0.283948
-4.699518	ATTRACTION	-0.1519923
-4.574584	ATTRACTIONS	-0.1104944
-4.574584	ATTRIBUTE	-0.1445025
-4.477678	ATTRIBUTED	-0.2928103
-5.176594	ATTRIBUTING	-0.1679471
-5.176594	AUDIBLE	-0.1686967
-4.875597	AUDIENCE	-0.1614919
-5.176594	AUGHT	-0.1577982
-5.176594	AUGMENT	-0.167466
-5.176594	AUGMENTED	-0.1686475
-5.176594	AUGUST	-0.1687141
-3.284566	AUNT	-0.4624906
-5.176594	AUNTS	-0.1673877
-4.398499	AUNT'S	-0.1679877
-3.384268	AUSTEN	-1.783379
-5.176594	AUSTERITY	-0.1642556
-5.176594	AUTHORISE	-0.1622439
-4.875597	AUTHORISED	-0.155181
-5.176594	AUTHORISING	-0.1683698
-4.875597	AUTHORITATIVE	-0.1627455
-4.222411	AUTHORITY	-0.1716537
-5.176594	AUTHORIZED	-0.1665283
-5.176594	AVAIL	-0.1684537
-5.176594	AVAILED	-0.1680688
-5.176594	AVARICE	-0.168688
-5.176594	AVENUE	-0.1527639
-3.921385	AVOID	-0.2598451
-5.176594	AVOIDANCE	-0.1686013
-5.176594	AVOIDED	-0.1558368
-4.875597	AVOIDING	-0.1655129
-4.699518	AVOWAL	-0.4420519
-4.699518	AVOWED	-0.1276263
-5.176594	AWAITED	-0.1622439
-4.875597	AWAKE	-0.1561137
-4.574584	AWAKENED	-0.1548438
-4.030529	AWARE	-0.6263167
-3.108475	AWAY	-0.5545778
-4.699518	AWE	-0.2610677
-4.875597	AWED	-0.3611667
-4.875597	AWFUL	-0.1671585
-4.176655	AWKWARD	-0.1566839
-4.699518	AWKWARDNESS	-0.145022
-5.176594	AWOKE	-0.1558368
-4.398499	AYE	-0.3769619
-5.176594	B	-0.1527639
-3.563876	BACK	-0.3070603
-5.176594	BACKED	-0.1665283
-4.875597	BACKGAMMON	-0.3474024
-5.176594	BACKWARD	-0.1565154
-5.176594	BACKWARDS	-0.1527639
-4.000566	BAD	-0.1515876
-5.176594	BAGS	-0.1414898
-5.176594	BAKEWELL	-0.1414898
-3.620357	BALL	-0.3195643
-4.273563	BALLS	-0.09619284
-5.176594	BALM	-0.1577982
-5.176594	BANDBOX	-0.1672804
-4.699518	BANISH	-0.1649007
-4.699518	BANISHED	-0.1260661
-4.875597	BANKS	-0.1561941
-5.176594	BARBAROUS	-0.1687025
-5.176594	BARBAROUSLY	-0.1687227
-5.176594	BARE	-0.1577982
-5.176594	BAREFACED	-0.1686794
-5.176594	BARELY	-0.1681383
-4.875597	BARNET	-0.1578308
-5.176594	BAROUCHE	-0.1687227
-5.176594	BASHFUL	-0.1687083
-5.176594	BASIS	-0.1558368
-5.176594	BASS	-0.1578723
-5.176594	BATH	-0.1642556
-4.875597	BATHING	-0.167144
-5.176594	BATTLED	-0.1642643
-2.08289	BE	-0.2689283
-3.778719	BEAR	-0.323983
-4.875597	BEARING	-0.1611802
-4.875597	BEARS	-0.1642585
-5.176594	BEATINGS	-0.1664411
-5.176594	BEAUTEOUS	-0.1687227
-4.574584	BEAUTIES	-0.2029794
-4.000566	BEAUTIFUL	-0.1147913
-3.745295	BEAUTY	-0.2861103
-5.176594	BEAUX	-0.167524
-3.972537	BECAME	-0.1558543
-3.384268	BECAUSE	-0.5519626
-4.222411	BECOME	-0.5045469
-4.574584	BECOMES	-0.1554047
-4.699518	BECOMING	-0.1547512
-4.477678	BED	-0.2658511
-5.176594	BEDROOMS	-0.1414898
-2.464854	BEEN	-0.191854
-4.875597	BEFALL	-0.1582398
-2.820635	BEFORE	-0.6314192
-5.176594	BEFOREHAND	-0.1414898
-5.176594	BEFRIENDED	-0.1622439
-3.946208	BEG	-0.3494582
-3.405808	BEGAN	-0.4007875
-4.273563	BEGGED	-0.1820809
-4.875597	BEGGING	-0.1647344
-4.062713	BEGIN	-0.2442146
-4.097474	BEGINNING	-0.1773665
-4.574584	BEGINS	-0.2368689
-5.176594	BEGS	-0.1565154
-4.875597	BEGUN	-0.1400899
-4.574584	BEHALF	-0.1328143
-4.875597	BEHAVE	-0.1667521
-4.273563	BEHAVED	-0.2152889
-4.875597	BEHAVES	-0.1414128
-4.875597	BEHAVIOR	-0.1503937
-3.452384	BEHAVIOUR	-0.4863864
-4.875597	BEHELD	-0.1615713
-4.030529	BEHIND	-0.3063657
-4.699518	BEHOLDING	-0.2801781
-2.933623	BEING	-0.2109114
-4.000566	BELIEF	-0.737711
-3.237141	BELIEVE	-0.4606517
-3.608458	BELIEVED	-0.2475947
-5.176594	BELIEVES	-0.1641387
-4.097474	BELIEVING	-0.2435148
-4.398499	BELL	-0.7036099
-4.699518	BELONG	-0.440769
-4.699518	BELONGED	-0.2597355
-5.176594	BELONGING	-0.1565154
-4.875597	BELONGS	-0.3511538
-4.875597	BELOVED	-0.1679037
-4.477678	BELOW	-0.1973096
-5.176594	BENCHES	-0.1578723
-4.477678	BENEATH	-0.1558279
-5.176594	BENEFICENCE	-0.1680861
-5.176594	BENEFICIAL	-0.1565154
-4.477678	BENEFIT	-0.1960641
-4.574584	BENEFITED	-0.3444608
-5.176594	BENEFITING	-0.1683583
-5.176594	BENEFITS	-0.1414898
-4.699518	BENEVOLENCE	-0.2494913
-5.176594	BENEVOLENT	-0.1578723
-2.708314	BENNET	-0.4997368
-4.176655	BENNETS	-0.3860229
-3.714261	BENNET'S	-0.188473
-4.699518	BENT	-0.1523738
-5.176594	BEQUEATHED	-0.1674283
-5.176594	BEQUEST	-0.1653002
-4.097474	BESIDES	-0.3171612
-3.563876	BEST	-0.1998762
-4.331553	BESTOW	-0.1809258
-4.273563	BESTOWED	-0.1926523
-5.176594	BESTOWING	-0.1622439
-4.699518	BETRAY	-0.155667
-4.574584	BETRAYED	-0.1385614
-5.176594	BETS	-0.1578723
-3.212873	BETTER	-0.4017729
-3.37732	BETWEEN	-0.5639699
-5.176594	BEWAILED	-0.1642643
-5.176594	BEWILDERED	-0.1641387
-5.176594	BEWITCHED	-0.1665283
-5.176594	BEWITCHING	-0.1687141
-3.620357	BEYOND	-0.3854427
-5.176594	BID	-0.1665283
-4.699518	BIDDING	-0.1622204
-5.176594	BILLIARD	-0.1686244
-5.176594	BILLS	-0.1527639
-2.766728	BINGLEY	-0.4580058
-4.477678	BINGLEYS	-0.1376119
-3.486464	BINGLEY'S	-0.2077427
-4.875597	BIRDS	-0.1392799
-5.176594	BIRMINGHAM	-0.1414898
-4.477678	BIRTH	-0.1662845
-4.699518	BIT	-0.277171
-5.176594	BITING	-0.165032
-4.875597	BITTER	-0.1687054
-5.176594	BITTEREST	-0.1685492
-4.875597	BITTERLY	-0.157644
-4.477678	BITTERNESS	-0.2745559
-5.176594	BLACK	-0.168717
-5.176594	BLACKEN	-0.1558368
-3.972537	BLAME	-0.2142482
-5.176594	BLAMEABLE	-0.1687227
-5.176594	BLAMED	-0.1674283
-5.176594	BLAMELESS	-0.168717
-5.176594	BLAMELESSNESS	-0.1630796
-4.699518	BLAMING	-0.1614713
-5.176594	BLASTED	-0.1558368
-5.176594	BLEMISH	-0.1414898
-5.176594	BLENHEIM	-0.1414898
-4.699518	BLESS	-0.1628071
-4.574584	BLESSED	-0.2246791
-4.574584	BLESSING	-0.1503756
-4.398499	BLIND	-0.2461244
-4.875597	BLINDED	-0.3611667
-5.176594	BLINDS	-0.1414898
-5.176594	BLOTS	-0.1558368
-5.176594	BLOW	-0.1653002
-5.176594	BLOWN	-0.1684624
-5.176594	BLOWSY	-0.1672804
-4.875597	BLUE	-0.3633525
-4.574584	BLUSH	-0.2231657
-4.331553	BLUSHED	-0.1654261
-5.176594	BLUSHING	-0.1656469
-5.176594	BOARD	-0.1578723
-4.135262	BOAST	-0.3479658
-4.875597	BOASTED	-0.1577953
-5.176594	BOASTING	-0.16795
-5.176594	BODIES	-0.1414898
-4.875597	BODY	-0.1682627
-5.176594	BOISTEROUSLY	-0.1687025
-4.875597	BOLD	-0.3630574
-5.176594	BOLDLY	-0.1666504
-4.699518	BONNET	-0.1241703
-3.921385	BOOK	-0.3867724
-4.030529	BOOKS	-0.1789309
-4.875597	BORDERED	-0.1512404
-4.699518	BORDERING	-0.450904
-4.222411	BORE	-0.3387839
-4.574584	BORN	-0.1500316
-4.477678	BORNE	-0.1294881
-4.875597	BORROW	-0.1656673
-5.176594	BORROWED	-0.1687227
-5.176594	BOSOM	-0.1414898
-5.176594	BOSOMS	-0.1577982
-3.325402	BOTH	-0.3193564
-4.875597	BOTTLE	-0.157733
-5.176594	BOTTOM	-0.1577982
-4.477678	BOUGHT	-0.1359126
-5.176594	BOULANGER	-0.1583908
-5.176594	BOUND	-0.1565154
-4.875597	BOUNDARY	-0.3612888
-5.176594	BOUNDLESS	-0.1686851
-5.176594	BOUNDS	-0.1577982
-5.176594	BOUNTY	-0.1578723
-3.632591	BOURGH	-0.3382027
-4.574584	BOURGH'S	-0.1675791
-4.135262	BOW	-0.2972512
-4.699518	BOWED	-0.1378511
-5.176594	BOWING	-0.168662
-5.176594	BOWL	-0.1577982
-4.875597	BOWS	-0.1392799
-5.176594	BOX	-0.1414898
-5.176594	BOXES	-0.1414898
-4.574584	BOY	-0.2333861
-4.699518	BOYS	-0.1281346
-5.176594	BRACELETS	-0.1578723
-4.875597	BRAIN	-0.1626018
-5.176594	BRAINS	-0.1673877
-4.574584	BRANCH	-0.2276933
-4.699518	BREACH	-0.2728593
-4.875597	BREAK	-0.1642205
-3.761685	BREAKFAST	-0.4566063
-5.176594	BREAKFASTED	-0.1664411
-4.875597	BREAKING	-0.1682193
-4.875597	BREAST	-0.164279
-4.875597	BREATH	-0.1284773
-5.176594	BREATHED	-0.1414898
-5.176594	BREATHING	-0.1687227
-4.875597	BREATHLESS	-0.1646206
-4.574584	BRED	-0.1285693
-4.398499	BREEDING	-0.1897969
-5.176594	BREVITY	-0.1414898
-5.176594	BRIBE	-0.1414898
-5.176594	BRIBERY	-0.1578723
-4.699518	BRIDE	-0.2729343
-5.176594	BRIDEGROOM	-0.168636
-4.699518	BRIDGE	-0.4257434
-4.574584	BRIEFLY	-0.1522236
-5.176594	BRIGHT	-0.1685752
-5.176594	BRIGHTENED	-0.1665283
-5.176594	BRIGHTENING	-0.1683988
-4.875597	BRIGHTEST	-0.1687141
-3.796447	BRIGHTON	-0.3519951
-4.875597	BRILLIANCY	-0.1626781
-3.921385	BRING	-0.1497494
-4.097474	BRINGING	-0.2235598
-5.176594	BRINGS	-0.1414898
-4.875597	BRINK	-0.3524366
-5.176594	BRITAIN	-0.1565154
-5.176594	BRITISH	-0.1687141
-5.176594	BRITTLE	-0.1679095
-5.176594	BROAD	-0.1687227
-4.875597	BROKE	-0.1647023
-4.331553	BROKEN	-0.2053849
-5.176594	BROMLEY	-0.1414898
-5.176594	BROOKING	-0.1686765
-3.357116	BROTHER	-0.4555885
-4.875597	BROTHERLY	-0.1680659
-4.875597	BROTHERS	-0.1400899
-4.062713	BROTHER'S	-0.170496
-3.608458	BROUGHT	-0.3186607
-5.176594	BROW	-0.168717
-5.176594	BROWN	-0.1578723
-5.176594	BUILD	-0.1674022
-4.699518	BUILDING	-0.4257434
-4.699518	BUILT	-0.1539861
-5.176594	BURNING	-0.1656731
-5.176594	BURNT	-0.1414898
-4.699518	BURST	-0.2879489
-5.176594	BURYING	-0.165032
-4.699518	BUSILY	-0.2882585
-3.523447	BUSINESS	-0.3174826
-5.176594	BUSTLE	-0.1578723
-5.176594	BUSY	-0.1565154
-2.175794	BUT	-0.561652
-5.176594	BUTCHER'S	-0.1414898
-5.176594	BUTLER	-0.1414898
-4.574584	BUY	-0.1627983
-5.176594	BUYING	-0.1686851
-2.296992	BY	-0.5653355
-4.477678	BYE	-0.3706362
-5.176594	CAKE	-0.1414898
-5.176594	CALCULATE	-0.1414898
-4.699518	CALCULATED	-0.2740265
-5.176594	CALCULATION	-0.1414898
-5.176594	CALICO	-0.1414898
-3.729501	CALL	-0.2861592
-3.563876	CALLED	-0.2461141
-4.000566	CALLING	-0.1768128
-5.176594	CALLS	-0.1683698
-4.477678	CALM	-0.2044997
-5.176594	CALMLY	-0.1684277
-4.574584	CALMNESS	-0.1988639
-5.176594	CAMBRIC	-0.1414898
-5.176594	CAMBRIDGE	-0.1681817
-3.222418	CAME	-0.4580627
-4.699518	CAMP	-0.1478072
-5.176594	CAMPFUL	-0.1577982
-2.848281	CAN	-0.3809155
-5.176594	CANDID	-0.1682309
-4.699518	CANDOUR	-0.1547035
-3.127443	CANNOT	-0.363028
-5.176594	CANVAS	-0.1666504
-4.875597	CANVASSED	-0.1640715
-3.921385	CAPABLE	-0.8866075
-5.176594	CAPACITY	-0.1414898
-5.176594	CAPERS	-0.1578723
-4.574584	CAPITAL	-0.123513
-4.574584	CAPRICE	-0.1161217
-4.574584	CAPTAIN	-0.6099262
-5.176594	CAPTIVATE	-0.1630356
-5.176594	CAPTIVATED	-0.1665283
-4.875597	CAPTIVATING	-0.152761
-5.176594	CAPTIVATION	-0.1527639
-4.222411	CARD	-0.4071051
-4.331553	CARDS	-0.2789254
-3.632591	CARE	-0.5183852
-4.331553	CARED	-0.2065242
-4.574584	CAREFUL	-0.2382993
-4.699518	CAREFULLY	-0.1686533
-4.875597	CARELESS	-0.1411572
-4.875597	CARELESSNESS	-0.3524366
-4.875597	CARES	-0.1610271
-4.875597	CARING	-0.1642176
-4.030529	CAROLINE	-0.1726646
-4.699518	CAROLINE'S	-0.1645418
-5.176594	CARPETS	-0.1678544
-3.533207	CARRIAGE	-0.2758349
-4.398499	CARRIAGES	-0.2554768
-4.273563	CARRIED	-0.2370528
-4.477678	CARRY	-0.2277489
-4.574584	CARRYING	-0.1632172
-4.574584	CARTER	-0.1382606
-5.176594	CARVED	-0.1414898
-3.671509	CASE	-0.4626854
-4.398499	CASES	-0.1798026
-5.176594	CASSINO	-0.1414898
-4.875597	CAST	-0.1620296
-5.176594	CASUAL	-0.168717
-4.574584	CATCH	-0.2416565
-5.176594	CATCHING	-0.1622439
-3.135268	CATHERINE	-0.4737252
-3.972537	CATHERINE'S	-0.1866748
-4.135262	CAUGHT	-0.2980098
-3.897904	CAUSE	-0.5488182
-5.176594	CAUSED	-0.1674457
-4.477678	CAUSES	-0.2221516
-4.699518	CAUTION	-0.1283123
-4.875597	CAUTIONING	-0.1582398
-4.574584	CAUTIOUS	-0.2101723
-5.176594	CAUTIOUSNESS	-0.1565154
-4.875597	CEASE	-0.3511538
-4.398499	CEASED	-0.24683
-5.176594	CEASELESS	-0.1687083
-4.875597	CELEBRATED	-0.1656352
-5.176594	CELERITY	-0.1527639
-4.477678	CENSURE	-0.3760072
-4.875597	CENSURED	-0.1299247
-5.176594	CENSURING	-0.1686562
-5.176594	CENTS	-0.1414898
-5.176594	CEREMONIES	-0.1671643
-4.699518	CEREMONIOUS	-0.1686389
-4.477678	CEREMONY	-0.2034307
-3.436297	CERTAIN	-0.3358425
-3.319328	CERTAINLY	-0.1903235
-4.273563	CERTAINTY	-0.184696
-5.176594	CESSATION	-0.1414898
-5.176594	CHAGRIN	-0.1527639
-4.398499	CHAIR	-0.2373207
-4.135262	CHAISE	-0.2249287
-5.176594	CHALLENGE	-0.1414898
-4.875597	CHAMBER	-0.3361282
-5.176594	CHAMBERLAYNE	-0.1630796
-4.875597	CHAMBERMAID	-0.1651515
-3.921385	CHANCE	-0.5788599
-5.176594	CHANCED	-0.1565154
-5.176594	CHANCES	-0.1577982
-3.796447	CHANGE	-0.2574291
-4.273563	CHANGED	-0.1635874
-5.176594	CHANGES	-0.1662841
-4.699518	CHANGING	-0.2754467
-5.176594	CHAPERON	-0.1647811
-2.91421	CHAPTER	-0.452444
-3.37048	CHARACTER	-0.3757272
-5.176594	CHARACTERISE	-0.1622439
-4.875597	CHARACTERISTIC	-0.1244746
-4.699518	CHARACTERS	-0.140414
-4.273563	CHARGE	-0.1432074
-5.176594	CHARGED	-0.1664469
-5.176594	CHARITY	-0.1686996
-4.331553	CHARLES	-0.2239612
-3.344151	CHARLOTTE	-0.2949054
-3.946208	CHARLOTTE'S	-0.1785031
-4.398499	CHARM	-0.3913664
-3.875628	CHARMING	-0.2217913
-4.875597	CHARMINGLY	-0.1414867
-4.574584	CHARMS	-0.1160727
-5.176594	CHATSWORTH	-0.1414898
-5.176594	CHATTY	-0.1527639
-5.176594	CHEAP	-0.1686157
-4.875597	CHEAPSIDE	-0.1244746
-5.176594	CHEAT	-0.1647811
-5.176594	CHEATING	-0.1630356
-4.574584	CHECK	-0.3450876
-4.477678	CHECKED	-0.3069759
-4.875597	CHECKING	-0.161871
-4.574584	CHEEKS	-0.2101723
-4.331553	CHEERFUL	-0.1192437
-4.875597	CHEERFULLY	-0.1244746
-4.331553	CHEERFULNESS	-0.1080807
-4.875597	CHEERING	-0.1299247
-5.176594	CHERISH	-0.1630356
-4.574584	CHERISHED	-0.1330812
-5.176594	CHESTNUTS	-0.1671643
-5.176594	CHICKEN	-0.1527639
-4.000566	CHIEF	-0.9762567
-4.176655	CHIEFLY	-0.1580265
-4.030529	CHILD	-0.6294909
-5.176594	CHILDHOOD	-0.1414898
-3.778719	CHILDREN	-0.274491
-5.176594	CHIMNEY	-0.1687083
-5.176594	CHIN	-0.1630796
-5.176594	CHINA	-0.1666504
-4.000566	CHOICE	-0.4098507
-3.897904	CHOOSE	-0.3015728
-4.273563	CHOOSES	-0.2299559
-5.176594	CHOOSING	-0.1565154
-3.972537	CHOSE	-0.4405882
-4.273563	CHOSEN	-0.1855316
-5.176594	CHRISTENING	-0.1414898
-4.875597	CHRISTIAN	-0.1414836
-4.398499	CHRISTMAS	-0.1907354
-4.135262	CHURCH	-0.2499976
-4.331553	CIRCLE	-0.1710266
-5.176594	CIRCLES	-0.1527639
-5.176594	CIRCUIT	-0.1642556
-5.176594	CIRCULATED	-0.1665283
-5.176594	CIRCULATING	-0.1686591
-4.875597	CIRCULATION	-0.1526619
-5.176594	CIRCUMSPECT	-0.1527639
-4.875597	CIRCUMSPECTION	-0.1512645
-3.897904	CIRCUMSTANCE	-0.1977976
-3.729501	CIRCUMSTANCES	-0.2051583
-5.176594	CITY	-0.1527639
-3.921385	CIVIL	-0.2466878
-4.331553	CIVILITIES	-0.1538036
-3.55341	CIVILITY	-0.4373438
-4.699518	CIVILLY	-0.1381862
-4.477678	CLAIM	-0.2143535
-4.699518	CLAIMED	-0.154318
-4.398499	CLAIMS	-0.1691231
-5.176594	CLAMOROUS	-0.1685174
-4.574584	CLAPHAM	-0.319113
-5.176594	CLARKE'S	-0.1686591
-4.875597	CLASS	-0.1513247
-5.176594	CLEANSE	-0.1665109
-4.222411	CLEAR	-0.1301459
-4.875597	CLEARED	-0.1574512
-5.176594	CLEARER	-0.168529
-5.176594	CLEARING	-0.1665109
-4.699518	CLEARLY	-0.1329148
-5.176594	CLEMENT'S	-0.1414898
-5.176594	CLERGY	-0.1642556
-4.273563	CLERGYMAN	-0.1964076
-5.176594	CLERICAL	-0.1687083
-5.176594	CLERK	-0.1565154
-4.331553	CLEVER	-0.1425743
-4.398499	CLOCK	-0.1593819
-4.222411	CLOSE	-0.2097767
-4.398499	CLOSED	-0.1821643
-5.176594	CLOSELY	-0.1687054
-5.176594	CLOSER	-0.1565154
-4.875597	CLOSEST	-0.1682425
-5.176594	CLOSET	-0.1686967
-5.176594	CLOSURE	-0.1656731
-4.062713	CLOTHES	-0.1782134
-5.176594	CLOUDED	-0.1527639
-5.176594	CLUE	-0.1653002
-5.176594	CLUMP	-0.1527639
-5.176594	CLUSTER	-0.1577982
-4.176655	COACH	-0.2626322
-5.176594	COACHMAN	-0.1653089
-5.176594	COACHMAN'S	-0.1687198
-5.176594	COARSE	-0.1672804
-4.875597	COARSENESS	-0.3524366
-4.574584	COAT	-0.2106788
-5.176594	COATS	-0.1677037
-5.176594	COAXED	-0.1578723
-4.331553	COFFEE	-0.1008458
-5.176594	COGENT	-0.1687112
-5.176594	COHERENT	-0.1527639
-5.176594	COINCIDE	-0.1414898
-5.176594	COINCIDED	-0.1630796
-5.176594	COINCIDENCE	-0.1577982
-3.921385	COLD	-0.2849711
-5.176594	COLDER	-0.168662
-4.875597	COLDLY	-0.1672659
-5.176594	COLDS	-0.1527639
-4.875597	COLLECT	-0.1391499
-4.699518	COLLECTED	-0.1616477
-4.875597	COLLECTING	-0.1670221
-4.574584	COLLECTION	-0.2145606
-2.983536	COLLINS	-0.3644298
-4.477678	COLLINSES	-0.2061679
-3.796447	COLLINS'S	-0.1796097
-3.363747	COLONEL	-1.017878
-5.176594	COLONEL'S	-0.1682859
-4.097474	COLOUR	-0.2085924
-4.398499	COLOURED	-0.1793666
-4.699518	COLOURING	-0.1449243
-5.176594	COMBATED	-0.1665283
-3.208178	COME	-0.4793299
-3.972537	COMES	-0.1629599
-3.685297	COMFORT	-0.3004521
-4.097474	COMFORTABLE	-0.1441233
-4.875597	COMFORTABLY	-0.1682801
-5.176594	COMFORTED	-0.1558368
-5.176594	COMFORTLESS	-0.1687227
-4.574584	COMFORTS	-0.1988639
-3.39133	COMING	-0.339317
-4.331553	COMMAND	-0.1650556
-4.875597	COMMANDED	-0.1624141
-4.875597	COMMENCEMENT	-0.1466648
-5.176594	COMMENDABLE	-0.1414898
-4.273563	COMMENDATION	-0.2516115
-5.176594	COMMENDATIONS	-0.1577982
-4.875597	COMMENDED	-0.1390632
-5.176594	COMMERCE	-0.1642556
-5.176594	COMMISERATION	-0.1414898
-4.331553	COMMISSION	-0.196935
-5.176594	COMMISSIONED	-0.1665109
-5.176594	COMMISSIONING	-0.1622439
-3.897904	COMMON	-0.1656117
-5.176594	COMMONEST	-0.1414898
-5.176594	COMMONLY	-0.1686504
-4.699518	COMMUNICATE	-0.1464884
-4.699518	COMMUNICATED	-0.2473991
-4.135262	COMMUNICATION	-0.1674619
-5.176594	COMMUNICATIONS	-0.1565154
-5.176594	COMMUNICATIVE	-0.1414898
-5.176594	COMMUNICATIVENESS	-0.1665283
-3.972537	COMPANION	-0.1924845
-4.331553	COMPANIONS	-0.1560668
-3.834235	COMPANY	-0.4776379
-4.699518	COMPARATIVE	-0.1687025
-4.699518	COMPARATIVELY	-0.1685608
-5.176594	COMPARE	-0.1685087
-4.574584	COMPARED	-0.6068852
-4.875597	COMPARING	-0.1609653
-4.062713	COMPARISON	-0.3317283
-5.176594	COMPARISONS	-0.1685434
-5.176594	COMPASS	-0.1642643
-4.030529	COMPASSION	-0.2118735
-4.875597	COMPASSIONATE	-0.1652011
-4.875597	COMPATIBLE	-0.3603115
-5.176594	COMPENSATION	-0.1414898
-4.699518	COMPETITION	-0.1533725
-4.477678	COMPLACENCY	-0.1836574
-4.574584	COMPLAIN	-0.3507625
-5.176594	COMPLAINED	-0.1687198
-5.176594	COMPLAINING	-0.1527639
-5.176594	COMPLAINT	-0.1414898
-4.574584	COMPLAINTS	-0.2156768
-4.477678	COMPLAISANCE	-0.1766222
-5.176594	COMPLAISANT	-0.1686967
-4.273563	COMPLETE	-0.2470776
-4.875597	COMPLETED	-0.1585507
-4.331553	COMPLETELY	-0.1618064
-5.176594	COMPLETION	-0.1687141
-4.331553	COMPLEXION	-0.2897265
-5.176594	COMPLIANCE	-0.1414898
-4.574584	COMPLIED	-0.6068852
-3.761685	COMPLIMENT	-0.3546356
-4.699518	COMPLIMENTED	-0.1589827
-5.176594	COMPLIMENTING	-0.1664469
-4.135262	COMPLIMENTS	-0.2692054
-4.699518	COMPLY	-0.4499267
-4.699518	COMPLYING	-0.2578846
-4.699518	COMPOSE	-0.2812228
-4.699518	COMPOSED	-0.1124409
-4.699518	COMPOSEDLY	-0.2722926
-5.176594	COMPOSITION	-0.1414898
-3.972537	COMPOSURE	-0.4927117
-3.897904	COMPREHEND	-0.1650421
-4.699518	COMPREHENDED	-0.1479498
-5.176594	COMPREHENDS	-0.1681527
-5.176594	COMPREHENSION	-0.1414898
-5.176594	COMPRISE	-0.1673384
-4.875597	COMPRISED	-0.1552466
-5.176594	COMPROMISED	-0.1687083
-4.062713	CONCEAL	-0.1409983
-4.331553	CONCEALED	-0.2072477
-5.176594	CONCEALING	-0.1414898
-4.875597	CONCEALMENT	-0.3361282
-5.176594	CONCEALS	-0.1622439
-4.477678	CONCEIT	-0.09335767
-4.398499	CONCEITED	-0.1188709
-4.699518	CONCEIVE	-0.1400868
-5.176594	CONCEPTION	-0.1577982
-3.761685	CONCERN	-0.3784637
-3.921385	CONCERNED	-0.3263342
-4.477678	CONCERNING	-0.1499803
-4.273563	CONCERNS	-0.1949559
-5.176594	CONCERTO	-0.1414898
-5.176594	CONCILIATE	-0.1622439
-5.176594	CONCILIATING	-0.1414898
-5.176594	CONCILIATORY	-0.1684393
-5.176594	CONCISE	-0.1578723
-4.875597	CONCISELY	-0.1366043
-4.477678	CONCLUDE	-0.201636
-4.176655	CONCLUDED	-0.2909742
-5.176594	CONCLUDING	-0.1641387
-4.273563	CONCLUSION	-0.272124
-4.875597	CONCURRENCE	-0.3474024
-4.699518	CONDEMN	-0.1377827
-4.875597	CONDEMNED	-0.1543599
-5.176594	CONDESCEND	-0.1565154
-4.477678	CONDESCENDED	-1.062835
-5.176594	CONDESCENDINGLY	-0.1686822
-5.176594	CONDESCENDS	-0.1565154
-4.331553	CONDESCENSION	-0.8909793
-4.699518	CONDITION	-0.1452632
-5.176594	CONDITIONAL	-0.1687141
-4.875597	CONDITIONALLY	-0.362739
-5.176594	CONDITIONS	-0.1671643
-4.875597	CONDOLE	-0.3603115
-5.176594	CONDOLENCE	-0.1687227
-3.814931	CONDUCT	-0.2744441
-4.875597	CONDUCTED	-0.168063
-5.176594	CONFEDERACY	-0.1641387
-4.574584	CONFERENCE	-0.3322155
-3.972537	CONFESS	-0.2869586
-4.574584	CONFESSED	-0.2496084
-4.699518	CONFESSION	-0.264918
-4.875597	CONFIDANTE	-0.3474024
-5.176594	CONFIDE	-0.1630796
-4.135262	CONFIDENCE	-0.1701114
-4.699518	CONFIDENT	-0.1507253
-5.176594	CONFIDENTIAL	-0.1684248
-5.176594	CONFIDENTLY	-0.1687141
-4.875597	CONFIDING	-0.1618035
-4.477678	CONFINED	-0.2902073
-5.176594	CONFINEMENT	-0.1577982
-5.176594	CONFIRM	-0.165032
-4.574584	CONFIRMATION	-0.3503106
-4.699518	CONFIRMED	-0.1236927
-4.875597	CONFIRMING	-0.1660369
-5.176594	CONFIRMS	-0.1666417
-4.574584	CONFUSED	-0.2210405
-4.135262	CONFUSION	-0.3258562
-5.176594	CONGENIAL	-0.1656731
-4.331553	CONGRATULATE	-0.3535774
-4.875597	CONGRATULATED	-0.1681527
-5.176594	CONGRATULATION	-0.1642556
-4.097474	CONGRATULATIONS	-0.1735844
-5.176594	CONGRATULATORY	-0.1683901
-4.331553	CONJECTURE	-0.2311094
-4.875597	CONJECTURED	-0.1399694
-4.574584	CONJECTURES	-0.2126033
-4.875597	CONJECTURING	-0.1646264
-4.875597	CONJUGAL	-0.1686562
-5.176594	CONJUNCTION	-0.1656731
-4.875597	CONNECT	-0.1682599
-4.030529	CONNECTED	-0.6056644
-3.875628	CONNECTION	-0.3258185
-3.921385	CONNECTIONS	-0.2911779
-5.176594	CONNIVANCE	-0.1578723
-5.176594	CONNUBIAL	-0.1686736
-4.875597	CONQUER	-0.1577063
-5.176594	CONQUERED	-0.1658186
-4.699518	CONQUEST	-0.1413081
-4.477678	CONSCIENCE	-0.1937507
-5.176594	CONSCIENTIOUS	-0.1578723
-5.176594	CONSCIENTIOUSLY	-0.1565154
-4.699518	CONSCIOUS	-0.1479164
-4.875597	CONSCIOUSNESS	-0.3524366
-4.062713	CONSENT	-0.3562613
-4.875597	CONSENTED	-0.1244746
-5.176594	CONSENTING	-0.1565154
-3.671509	CONSEQUENCE	-0.5479729
-5.176594	CONSEQUENCES	-0.1577982
-5.176594	CONSEQUENT	-0.1687198
-5.176594	CONSEQUENTIAL	-0.1684769
-4.176655	CONSEQUENTLY	-0.2346155
-3.658145	CONSIDER	-0.2875265
-4.222411	CONSIDERABLE	-0.1535816
-4.699518	CONSIDERABLY	-0.1555239
-4.030529	CONSIDERATION	-0.2125241
-5.176594	CONSIDERATIONS	-0.1414898
-3.814931	CONSIDERED	-0.3219446
-4.030529	CONSIDERING	-0.2815971
-5.176594	CONSIGN	-0.1622439
-5.176594	CONSIGNED	-0.1684624
-4.875597	CONSISTED	-0.1576233
-5.176594	CONSISTENCY	-0.1577982
-4.699518	CONSISTENT	-0.2578846
-5.176594	CONSISTS	-0.1630796
-4.176655	CONSOLATION	-0.2858833
-5.176594	CONSOLATORY	-0.1565154
-4.222411	CONSOLE	-0.2560133
-4.875597	CONSOLED	-0.1600135
-4.699518	CONSOLING	-0.1450556
-5.176594	CONSTANCY	-0.1527639
-4.097474	CONSTANT	-0.1953492
-4.699518	CONSTANTLY	-0.152746
-5.176594	CONSTERNATION	-0.1414898
-5.176594	CONSTITUTE	-0.1666417
-5.176594	CONSTITUTION	-0.1414898
-5.176594	CONSTRAINED	-0.1684393
-5.176594	CONSTRUCTION	-0.1642556
-5.176594	CONSTRUED	-0.1527639
-5.176594	CONSTRUING	-0.1669118
-4.699518	CONSULT	-0.1521155
-4.875597	CONSULTED	-0.1521155
-4.875597	CONSULTING	-0.1651807
-4.398499	CONTAIN	-0.2798007
-4.331553	CONTAINED	-0.1528089
-4.875597	CONTAINING	-0.1675559
-5.176594	CONTAINS	-0.1680861
-4.574584	CONTEMPLATION	-0.3238222
-4.097474	CONTEMPT	-0.1992277
-5.176594	CONTEMPTUOUSLY	-0.1642556
-5.176594	CONTENT	-0.1642556
-4.574584	CONTENTED	-0.1371395
-4.699518	CONTENTMENT	-0.1284615
-4.222411	CONTENTS	-0.3038207
-4.699518	CONTINUAL	-0.1686823
-4.398499	CONTINUALLY	-0.1609889
-4.699518	CONTINUANCE	-0.1195223
-4.222411	CONTINUE	-0.2792454
-3.46909	CONTINUED	-0.6943618
-4.875597	CONTINUING	-0.1609447
-4.699518	CONTRACTED	-0.1410339
-4.875597	CONTRADICT	-0.1608034
-5.176594	CONTRADICTED	-0.1527639
-5.176594	CONTRADICTIONS	-0.1578723
-5.176594	CONTRARIETY	-0.1577982
-5.176594	CONTRARIWISE	-0.1527639
-4.176655	CONTRARY	-1.141099
-4.699518	CONTRAST	-0.155518
-5.176594	CONTRASTED	-0.1656731
-4.875597	CONTRIBUTE	-0.1555388
-5.176594	CONTRIBUTED	-0.1565154
-4.574584	CONTRIVANCE	-0.1211804
-4.699518	CONTRIVE	-0.2715719
-4.699518	CONTRIVED	-0.440769
-5.176594	CONTROVERTED	-0.1527639
-4.699518	CONVENIENCE	-0.4420519
-4.477678	CONVENIENT	-0.2261765
-3.39133	CONVERSATION	-0.4154657
-5.176594	CONVERSATIONS	-0.1687198
-4.574584	CONVERSE	-0.2406619
-5.176594	CONVERSED	-0.1656731
-5.176594	CONVERSIBLE	-0.1686794
-4.699518	CONVERSING	-0.165408
-5.176594	CONVERT	-0.1558368
-5.176594	CONVERTING	-0.1673384
-4.875597	CONVEY	-0.1663539
-4.875597	CONVEYED	-0.1535552
-5.176594	CONVEYING	-0.1558368
-3.972537	CONVICTION	-0.4650728
-4.574584	CONVINCE	-0.2424761
-3.5746	CONVINCED	-0.7311258
-5.176594	COOK	-0.1414898
-5.176594	COOKING	-0.1633519
-5.176594	COOKS	-0.1664411
-4.699518	COOL	-0.2597263
-4.574584	COOLLY	-0.1410801
-5.176594	COPIED	-0.1527639
-5.176594	COPPICE	-0.1687112
-4.574584	COPSE	-0.2060276
-5.176594	COQUETRY	-0.1577982
-4.699518	CORDIAL	-0.1523048
-4.574584	CORDIALITY	-0.1297254
-4.699518	CORDIALLY	-0.1623437
-5.176594	CORNER	-0.1414898
-4.398499	CORPS	-0.2396793
-4.875597	CORRECT	-0.1557355
-5.176594	CORRESPOND	-0.1656731
-4.477678	CORRESPONDENCE	-0.2084903
-4.875597	CORRESPONDENT	-0.1367289
-5.176594	CORRESPONDENTS	-0.1527639
-5.176594	CORROBORATED	-0.1642643
-5.176594	CORROBORATION	-0.1527639
-5.176594	CORRUPTION	-0.1414898
-4.574584	COST	-0.1660253
-5.176594	COSTING	-0.1622439
-5.176594	COTTAGERS	-0.1670889
-4.875597	COUGH	-0.162197
-5.176594	COUGHING	-0.1670192
-5.176594	COUGHS	-0.1414898
-2.455675	COULD	-0.5731785
-5.176594	COUNTED	-0.1558368
-3.699538	COUNTENANCE	-0.3016998
-5.176594	COUNTERACT	-0.1622439
-4.875597	COUNTERACTED	-0.3611667
-5.176594	COUNTERBALANCE	-0.1685261
-5.176594	COUNTERPART	-0.1577982
-5.176594	COUNTING	-0.1558368
-3.563876	COUNTRY	-0.391999
-4.398499	COUNTY	-0.1155926
-4.273563	COUPLE	-0.2891302
-5.176594	COUPLES	-0.1527639
-4.097474	COURAGE	-0.3579997
-5.176594	COURIER	-0.1414898
-3.513902	COURSE	-0.4602163
-4.699518	COURSES	-0.1464062
-4.574584	COURT	-0.1107523
-4.875597	COURTED	-0.1647753
-5.176594	COURTEOUS	-0.1527639
-4.875597	COURTESY	-0.1400899
-5.176594	COURTIER	-0.167202
-5.176594	COURTING	-0.1558368
-4.875597	COURTSHIP	-0.1663452
-3.563876	COUSIN	-0.3474413
-4.135262	COUSINS	-0.3255114
-4.273563	COUSIN'S	-0.1523438
-5.176594	COVER	-0.1687227
-4.875597	COVERED	-0.3603115
-4.875597	COVERING	-0.1564678
-5.176594	COVIES	-0.1656469
-5.176594	COWS	-0.1578723
-5.176594	CRADLES	-0.1414898
-5.176594	CRAMMED	-0.1630796
-5.176594	CRAYONS	-0.1414898
-4.477678	CREATED	-0.109624
-5.176594	CREATIVE	-0.1686822
-4.030529	CREATURE	-0.1896491
-4.699518	CREATURES	-0.2816988
-3.745295	CREDIT	-0.3907963
-4.875597	CREDITABLE	-0.1284773
-5.176594	CREDITABLY	-0.1527639
-4.875597	CREDITORS	-0.1520074
-3.217619	CRIED	-0.672294
-5.176594	CRITICAL	-0.1686822
-5.176594	CRITICISE	-0.1527639
-5.176594	CRITICISMS	-0.1666504
-4.574584	CROSS	-0.1397839
-4.477678	CROSSED	-0.207125
-4.875597	CROSSING	-0.1558279
-5.176594	CROWD	-0.1658186
-4.699518	CROWDED	-0.1619033
-5.176594	CROWN	-0.1558368
-5.176594	CROWNED	-0.1656731
-4.574584	CRUEL	-0.1101339
-4.699518	CRUELLY	-0.1673123
-4.574584	CRUELTY	-0.2417609
-5.176594	CRUSHING	-0.1642643
-5.176594	CRY	-0.1527639
-4.875597	CRYING	-0.3629764
-5.176594	CUCUMBER	-0.1527639
-5.176594	CULPRIT	-0.1414898
-5.176594	CULTIVATION	-0.1577982
-5.176594	CUNNING	-0.1660544
-5.176594	CUP	-0.1683583
-5.176594	CURE	-0.1558368
-5.176594	CURIOSITIES	-0.165032
-3.814931	CURIOSITY	-0.4435305
-4.477678	CURIOUS	-0.3041301
-4.875597	CURRICLE	-0.1414775
-5.176594	CURTAILED	-0.1684219
-5.176594	CURTAINS	-0.1527639
-4.699518	CURTSEY	-0.2729343
-5.176594	CURTSEYED	-0.1565154
-5.176594	CUSTODY	-0.1577982
-4.875597	CUSTOM	-0.1298456
-5.176594	CUTTING	-0.1685463
-4.699518	DAILY	-0.1677385
-5.176594	DALE	-0.1656731
-5.176594	DAMP	-0.1565154
-3.671509	DANCE	-0.5086781
-4.097474	DANCED	-0.4077716
-4.176655	DANCES	-0.2248595
-3.854439	DANCING	-0.1844409
-3.897904	DANGER	-0.4601952
-5.176594	DANGEROUS	-0.1687141
-2.603789	DARCY	-0.5037442
-3.533207	DARCY'S	-0.1455288
-3.5746	DARE	-0.9921391
-4.062713	DARED	-0.6982471
-4.875597	DARING	-0.1529919
-4.875597	DARK	-0.1526079
-5.176594	DARLING	-0.1684451
-5.176594	DARTING	-0.1672978
-4.875597	DATE	-0.1532227
-4.875597	DATED	-0.1615889
-3.290169	DAUGHTER	-0.461074
-3.46909	DAUGHTERS	-0.3841033
-4.331553	DAUGHTER'S	-0.1676254
-5.176594	DAWDLED	-0.1683727
-5.176594	DAWSON	-0.1684798
-3.030533	DAY	-0.5559745
-3.699538	DAYS	-0.1727629
-4.574584	DAY'S	-0.2551298
-5.176594	DAZZLING	-0.1656731
-3.585595	DE	-1.59883
-4.477678	DEAD	-0.271726
-5.176594	DEADEN	-0.167466
-3.64518	DEAL	-0.4444169
-2.978004	DEAR	-0.6573939
-3.946208	DEAREST	-0.3834715
-4.699518	DEARLY	-0.1524729
-4.273563	DEATH	-0.3580534
-4.574584	DEBT	-0.1114291
-4.176655	DEBTS	-0.2135464
-5.176594	DECAMPING	-0.1653002
-4.699518	DECEASE	-0.2494913
-4.875597	DECEITFUL	-0.1378417
-4.574584	DECEIVE	-0.1626605
-4.062713	DECEIVED	-0.2132097
-5.176594	DECEIVES	-0.1683698
-4.875597	DECEIVING	-0.1679993
-4.875597	DECENCY	-0.1299247
-4.699518	DECENT	-0.1685666
-4.875597	DECEPTION	-0.1661824
-4.574584	DECIDE	-0.3575334
-4.135262	DECIDED	-0.2003194
-4.574584	DECIDEDLY	-0.1653206
-5.176594	DECIDING	-0.1685695
-5.176594	DECISIONS	-0.1677385
-4.875597	DECISIVE	-0.135429
-5.176594	DECKED	-0.1558368
-4.477678	DECLARATION	-0.1131315
-4.273563	DECLARE	-0.1931294
-4.000566	DECLARED	-0.1905223
-5.176594	DECLARES	-0.1637528
-5.176594	DECLARING	-0.1666417
-4.875597	DECLINE	-0.1545392
-4.398499	DECLINED	-0.1918994
-4.574584	DECORUM	-0.2092508
-5.176594	DECORUMS	-0.1671643
-5.176594	DEDUCED	-0.1672978
-5.176594	DEEMED	-0.1687227
-4.331553	DEEP	-0.5621799
-4.699518	DEEPER	-0.1686909
-4.875597	DEEPEST	-0.1686823
-4.477678	DEEPLY	-0.1633285
-5.176594	DEFAULT	-0.1577982
-4.574584	DEFECT	-0.1093158
-5.176594	DEFECTION	-0.1677762
-5.176594	DEFECTIVE	-0.1527639
-4.477678	DEFECTS	-0.462119
-4.875597	DEFENCE	-0.1298456
-4.699518	DEFEND	-0.1490071
-5.176594	DEFENDED	-0.168555
-5.176594	DEFENSE	-0.1577982
-4.699518	DEFER	-0.1628598
-4.398499	DEFERENCE	-0.2270609
-4.875597	DEFERRED	-0.1481348
-4.699518	DEFIANCE	-0.4420519
-4.875597	DEFICIENCY	-0.3524366
-4.477678	DEFICIENT	-0.4455875
-5.176594	DEFIED	-0.1622439
-4.875597	DEFINED	-0.3474024
-5.176594	DEFINITION	-0.1527639
-4.574584	DEFY	-0.2537654
-5.176594	DEGENERATE	-0.1672978
-5.176594	DEGRADATION	-0.1577982
-3.814931	DEGREE	-0.6110935
-5.176594	DEGREES	-0.168688
-4.699518	DEIGNED	-0.2718903
-4.699518	DEJECTION	-0.1185205
-4.398499	DELAY	-0.2310748
-4.398499	DELAYED	-0.1936194
-5.176594	DELIBERATED	-0.1666504
-4.875597	DELIBERATELY	-0.1686996
-4.574584	DELIBERATION	-0.1367351
-4.135262	DELICACY	-0.3250089
-4.398499	DELICATE	-0.1303702
-5.176594	DELICIOUS	-0.1686736
-3.778719	DELIGHT	-0.416709
-3.814931	DELIGHTED	-0.394817
-3.897904	DELIGHTFUL	-0.1528856
-4.574584	DELIGHTFULLY	-0.1244457
-5.176594	DELIGHTING	-0.1685203
-4.875597	DELIGHTS	-0.1617711
-4.574584	DELIVERED	-0.2370679
-5.176594	DELIVERING	-0.1622439
-4.699518	DEMAND	-0.1518511
-5.176594	DEMANDING	-0.1674457
-5.176594	DEMANDS	-0.1577982
-5.176594	DEMEAN	-0.1684537
-4.398499	DENIAL	-0.3066379
-4.699518	DENIED	-0.1673384
-4.097474	DENNY	-0.1524405
-5.176594	DENOMINATED	-0.1672978
-4.875597	DENOTED	-0.1564678
-4.273563	DENY	-0.2406395
-5.176594	DENYING	-0.1641387
-4.574584	DEPART	-0.333946
-4.875597	DEPARTED	-0.1244746
-4.398499	DEPARTURE	-0.1616866
-3.814931	DEPEND	-1.512109
-4.574584	DEPENDED	-0.248438
-4.331553	DEPENDENCE	-0.1851623
-4.699518	DEPENDENT	-0.1392551
-4.875597	DEPENDING	-0.3612888
-5.176594	DEPORTMENT	-0.1637528
-5.176594	DEPRAVITY	-0.1414898
-5.176594	DEPRECIATE	-0.1675994
-4.875597	DEPRESSED	-0.1679645
-5.176594	DEPRIVE	-0.1647811
-4.699518	DEPRIVED	-0.2473991
-5.176594	DERANGED	-0.1414898
-3.796447	DERBYSHIRE	-0.4790424
-4.875597	DERISION	-0.1633461
-4.875597	DERIVE	-0.1672833
-5.176594	DERIVED	-0.1672513
-5.176594	DERIVES	-0.1685521
-4.699518	DESCENDED	-0.2473991
-4.875597	DESCENDING	-0.3511538
-4.699518	DESCENT	-0.1413205
-4.331553	DESCRIBE	-0.1401084
-4.477678	DESCRIBED	-0.1873935
-4.875597	DESCRIBING	-0.1432534
-4.331553	DESCRIPTION	-0.5548732
-5.176594	DESERT	-0.1527639
-5.176594	DESERTED	-0.1622439
-5.176594	DESERTION	-0.1414898
-4.875597	DESERTS	-0.1620179
-4.222411	DESERVE	-0.1503696
-4.331553	DESERVED	-0.3344634
-5.176594	DESERVEDLY	-0.1682685
-4.574584	DESERVES	-0.1310614
-4.875597	DESERVING	-0.1620942
-3.834235	DESIGN	-0.3336046
-4.477678	DESIGNED	-0.3995101
-5.176594	DESIGNEDLY	-0.1684595
-5.176594	DESIGNING	-0.1685666
-4.574584	DESIGNS	-0.2208747
-4.135262	DESIRABLE	-0.1596126
-3.814931	DESIRE	-0.3465493
-4.398499	DESIRED	-0.1519743
-4.875597	DESIRING	-0.1601285
-4.331553	DESIROUS	-0.5809078
-5.176594	DESPAIR	-0.1527639
-4.699518	DESPAIRED	-0.4420519
-4.699518	DESPERATE	-0.1244137
-5.176594	DESPERATION	-0.1577982
-5.176594	DESPICABLE	-0.1527639
-5.176594	DESPICABLY	-0.1627015
-4.699518	DESPISE	-0.259754
-4.699518	DESPISED	-0.127728
-5.176594	DESPISES	-0.1687054
-4.875597	DESPISING	-0.1629302
-5.176594	DESPONDING	-0.1414898
-4.574584	DESTINED	-0.3574105
-5.176594	DESTITUTE	-0.168419
-4.875597	DESTROYED	-0.152665
-5.176594	DESTRUCTIVE	-0.1577982
-4.699518	DETACHED	-0.1649649
-5.176594	DETACHING	-0.1674457
-5.176594	DETAIL	-0.1577982
-5.176594	DETAILED	-0.1642556
-4.875597	DETAIN	-0.16351
-4.699518	DETAINED	-0.156081
-4.875597	DETAINING	-0.16351
-5.176594	DETECT	-0.1414898
-4.875597	DETECTED	-0.152692
-4.875597	DETECTION	-0.1658594
-5.176594	DETER	-0.1665109
-4.699518	DETERMINATION	-0.1291493
-4.062713	DETERMINE	-0.1717835
-3.671509	DETERMINED	-0.3452634
-4.875597	DETERMINING	-0.16764
-4.699518	DETEST	-0.1473943
-5.176594	DETESTABLE	-0.1653002
-5.176594	DETESTED	-0.1414898
-5.176594	DEVELOP	-0.1527639
-4.875597	DEVELOPMENT	-0.1414221
-5.176594	DEVICE	-0.1414898
-5.176594	DEVOID	-0.1577982
-5.176594	DEVOTE	-0.1672513
-4.699518	DEVOTED	-0.1631235
-5.176594	DEVOTING	-0.1683148
-4.875597	DIALOGUE	-0.1392799
-5.176594	DICTATE	-0.1414898
-5.176594	DICTATED	-0.1681151
-5.176594	DICTATES	-0.1577982
-5.176594	DICTATING	-0.1565154
-5.176594	DICTATORIAL	-0.1578723
-2.742092	DID	-0.6211636
-4.574584	DIE	-0.3238222
-4.699518	DIED	-0.1520464
-5.176594	DIFFER	-0.1672978
-4.176655	DIFFERENCE	-0.2647976
-5.176594	DIFFERENCES	-0.1414898
-3.620357	DIFFERENT	-0.2227779
-4.331553	DIFFERENTLY	-0.1884961
-4.135262	DIFFICULT	-0.3148335
-4.273563	DIFFICULTY	-0.4630425
-4.477678	DIFFIDENCE	-0.1108415
-5.176594	DIFFIDENT	-0.168555
-5.176594	DIFFUSE	-0.1630796
-5.176594	DIFFUSED	-0.1684624
-5.176594	DIFFUSENESS	-0.1578723
-4.699518	DIGNIFIED	-0.1413913
-4.477678	DIGNITY	-0.1188774
-5.176594	DIGRESSIONS	-0.1630796
-4.875597	DILATORY	-0.1630737
-5.176594	DILIGENCE	-0.1578723
-5.176594	DIMENSIONS	-0.1577982
-5.176594	DIMINUTION	-0.1577982
-3.972537	DINE	-0.504594
-4.273563	DINED	-0.2233557
-5.176594	DINES	-0.168529
-3.921385	DINING	-0.7966617
-3.632591	DINNER	-0.5508083
-4.875597	DINNERS	-0.1404387
-4.331553	DIRECT	-0.1465188
-4.222411	DIRECTED	-0.2696048
-4.875597	DIRECTING	-0.3596704
-4.176655	DIRECTION	-0.2543456
-4.331553	DIRECTIONS	-0.2196436
-3.834235	DIRECTLY	-0.3389557
-4.875597	DIRT	-0.1399508
-4.574584	DIRTY	-0.1578427
-4.477678	DISADVANTAGE	-0.2055535
-4.875597	DISADVANTAGES	-0.1561971
-4.030529	DISAGREEABLE	-0.2655161
-5.176594	DISAGREEABLY	-0.1527639
-5.176594	DISAGREEMENT	-0.1687198
-4.875597	DISAPPOINT	-0.1655828
-4.097474	DISAPPOINTED	-0.1476021
-4.699518	DISAPPOINTING	-0.1511953
-3.946208	DISAPPOINTMENT	-0.2134122
-5.176594	DISAPPOINTMENTS	-0.1687141
-4.331553	DISAPPROBATION	-0.282509
-5.176594	DISAPPROVE	-0.1577982
-5.176594	DISARM	-0.1687141
-5.176594	DISBELIEVING	-0.1558368
-4.875597	DISCERN	-0.1622469
-5.176594	DISCERNIBLE	-0.1527639
-5.176594	DISCERNING	-0.1675994
-4.875597	DISCERNMENT	-0.1638435
-4.875597	DISCHARGE	-0.1445759
-4.699518	DISCHARGED	-0.2441202
-4.875597	DISCHARGING	-0.1637411
-5.176594	DISCLAIM	-0.1669118
-5.176594	DISCLAIMED	-0.1669118
-5.176594	DISCLOSE	-0.1558368
-5.176594	DISCLOSED	-0.1630796
-5.176594	DISCLOSURE	-0.1527639
-5.176594	DISCOMPOSE	-0.1668217
-4.875597	DISCOMPOSED	-0.1390632
-4.699518	DISCOMPOSURE	-0.1405529
-4.699518	DISCONCERTED	-0.1195223
-4.875597	DISCONTENTED	-0.3361282
-5.176594	DISCONTENTEDNESS	-0.1577982
-5.176594	DISCONTINUANCE	-0.1527639
-4.875597	DISCOURAGE	-0.1627983
-4.875597	DISCOURAGED	-0.1650932
-4.331553	DISCOURSE	-0.2077884
-5.176594	DISCOURSES	-0.1671643
-4.273563	DISCOVER	-0.1637578
-4.331553	DISCOVERED	-0.09180368
-5.176594	DISCOVERING	-0.167466
-4.331553	DISCOVERY	-0.1819466
-4.875597	DISCREDIT	-0.1532976
-5.176594	DISCREDITABLE	-0.1565154
-4.477678	DISCRETION	-0.1302913
-5.176594	DISCRIMINATION	-0.1642556
-4.875597	DISCUSS	-0.1277535
-4.699518	DISCUSSED	-0.1195223
-4.477678	DISCUSSION	-0.2772789
-4.398499	DISDAIN	-0.3240364
-4.699518	DISDAINED	-0.2473991
-4.875597	DISENGAGED	-0.1414775
-4.135262	DISGRACE	-0.1884463
-5.176594	DISGRACED	-0.1527639
-4.477678	DISGRACEFUL	-0.2306218
-4.875597	DISGRACING	-0.1551601
-4.574584	DISGUISE	-0.1355413
-4.477678	DISGUST	-0.1297064
-4.699518	DISGUSTED	-0.2578846
-5.176594	DISGUSTING	-0.1565154
-4.477678	DISH	-0.1177213
-5.176594	DISHEARTENED	-0.1414898
-5.176594	DISHES	-0.1664411
-5.176594	DISHONEST	-0.1656469
-5.176594	DISHONESTY	-0.1627015
-5.176594	DISHONORABLE	-0.1565154
-5.176594	DISHONOURABLE	-0.1686996
-4.875597	DISINCLINATION	-0.3602853
-5.176594	DISINCLINED	-0.1664411
-4.699518	DISINTERESTED	-0.1642877
-5.176594	DISINTERESTEDNESS	-0.1677385
-3.814931	DISLIKE	-0.2370145
-4.574584	DISLIKED	-0.1571513
-5.176594	DISLIKES	-0.1558368
-5.176594	DISLIKING	-0.1622439
-5.176594	DISMAY	-0.1669118
-4.699518	DISMISSED	-0.1530638
-5.176594	DISMISSION	-0.1672978
-5.176594	DISOBLIGING	-0.165032
-4.574584	DISPATCHED	-0.2100761
-5.176594	DISPELLING	-0.1558368
-5.176594	DISPENSE	-0.1527639
-5.176594	DISPIRITED	-0.1679095
-4.574584	DISPLAY	-0.136651
-4.699518	DISPLAYED	-0.1354009
-4.875597	DISPLAYING	-0.3504752
-5.176594	DISPLEASE	-0.1647811
-4.574584	DISPLEASED	-0.1148174
-4.398499	DISPLEASURE	-0.1725091
-4.875597	DISPOSAL	-0.3474024
-5.176594	DISPOSE	-0.1577982
-4.000566	DISPOSED	-0.8019864
-5.176594	DISPOSING	-0.1577982
-3.778719	DISPOSITION	-0.2632069
-5.176594	DISPOSITIONS	-0.1577982
-5.176594	DISPUTABLE	-0.1527639
-4.875597	DISPUTE	-0.1677617
-5.176594	DISPUTES	-0.1527639
-5.176594	DISQUIET	-0.1414898
-5.176594	DISREGARDED	-0.1673877
-4.875597	DISRESPECT	-0.1533485
-5.176594	DISRESPECTFUL	-0.1565154
-4.574584	DISSATISFIED	-0.2075986
-5.176594	DISSEMBLE	-0.1642556
-5.176594	DISSERVICE	-0.1414898
-5.176594	DISSIPATION	-0.1527639
-5.176594	DISSOLVED	-0.1527639
-5.176594	DISSUADE	-0.1665109
-5.176594	DISSUADED	-0.1672978
-3.972537	DISTANCE	-0.2594174
-4.477678	DISTANT	-0.1685637
-4.477678	DISTINCTION	-0.1241447
-4.875597	DISTINGUISH	-0.1663074
-4.398499	DISTINGUISHED	-0.2142634
-4.875597	DISTINGUISHING	-0.3504752
-4.875597	DISTRACTED	-0.3474024
-5.176594	DISTRACTEDLY	-0.1630796
-5.176594	DISTRACTION	-0.1577982
-3.972537	DISTRESS	-0.2387501
-4.062713	DISTRESSED	-0.2670367
-4.398499	DISTRESSING	-0.1933803
-5.176594	DISTRIBUTE	-0.1622439
-4.875597	DISTRUST	-0.1629624
-5.176594	DISTRUSTED	-0.1558368
-5.176594	DISTURB	-0.1683698
-5.176594	DISTURBANCE	-0.1577982
-4.875597	DISTURBED	-0.1391499
-5.176594	DISTURBERS	-0.1577982
-5.176594	DIVERSIFIED	-0.1665283
-4.699518	DIVERSION	-0.2441202
-5.176594	DIVERT	-0.1674283
-4.699518	DIVERTED	-0.1490888
-4.699518	DIVIDE	-0.2840502
-4.574584	DIVIDED	-0.3624853
-5.176594	DIVIDING	-0.167466
-2.636332	DO	-0.6311182
-3.247242	DOES	-0.6004852
-3.761685	DOING	-0.08821442
-4.875597	DOINGS	-0.1672746
-5.176594	DOLEFUL	-0.168662
-3.39133	DOMAIN	-1.77643
-4.331553	DOMESTIC	-0.2156257
-5.176594	DOMESTICS	-0.1414898
-4.398499	DON	-0.7514845
-3.212873	DONE	-0.3099073
-3.632591	DOOR	-0.5637928
-4.273563	DOORS	-0.15236
-5.176594	DOORWAY	-0.1414898
-5.176594	DOSE	-0.1653089
-5.176594	DOT	-0.1687227
-4.875597	DOUBLE	-0.1685724
-5.176594	DOUBLED	-0.1527639
-5.176594	DOUBLY	-0.1686157
-3.608458	DOUBT	-0.4589805
-4.273563	DOUBTED	-0.1571196
-4.875597	DOUBTFUL	-0.1284773
-4.875597	DOUBTING	-0.3632079
-5.176594	DOUBTINGLY	-0.1527639
-4.875597	DOUBTLESS	-0.1616683
-4.875597	DOUBTS	-0.1244746
-5.176594	DOVE	-0.1687227
-5.176594	DOVEDALE	-0.1414898
-3.313337	DOWN	-0.5844284
-5.176594	DOWNS	-0.1527639
-4.398499	DOWNSTAIRS	-0.1742945
-4.875597	DOZEN	-0.141382
-4.875597	DRAUGHTS	-0.1400899
-4.398499	DRAW	-0.2070072
-3.854439	DRAWING	-0.8606936
-5.176594	DRAWINGS	-0.1577982
-4.273563	DRAWN	-0.185397
-4.574584	DREAD	-0.1277344
-4.331553	DREADED	-0.1682176
-4.135262	DREADFUL	-0.3045119
-4.875597	DREADFULLY	-0.152761
-5.176594	DREADING	-0.1630356
-4.477678	DRESS	-0.1858789
-4.398499	DRESSED	-0.1726166
-5.176594	DRESSES	-0.1527639
-4.222411	DRESSING	-0.4983436
-3.897904	DREW	-0.315308
-4.875597	DRILY	-0.358894
-4.331553	DRINK	-0.2830908
-5.176594	DRINKING	-0.168688
-4.574584	DRIVE	-0.2524841
-4.477678	DRIVEN	-0.2344619
-4.574584	DRIVING	-0.2523473
-5.176594	DROOPING	-0.1687227
-4.699518	DROP	-0.1261937
-4.699518	DROPPED	-0.2701298
-4.875597	DROPT	-0.1395583
-4.135262	DROVE	-0.2421522
-5.176594	DUCHESS	-0.1414898
-5.176594	DUCKS	-0.1685145
-5.176594	DUCTILITY	-0.1577982
-4.135262	DUE	-0.2626857
-5.176594	DUEL	-0.1527639
-5.176594	DUETS	-0.1681469
-4.574584	DULL	-0.2363044
-5.176594	DULLEST	-0.1414898
-5.176594	DULLNESS	-0.1577982
-5.176594	DUPE	-0.1577982
-5.176594	DUPED	-0.1414898
-4.875597	DUPLICITY	-0.1609771
-4.875597	DURATION	-0.3474024
-3.745295	DURING	-0.5733214
-4.875597	DUTIES	-0.1298456
-4.875597	DUTIFULLY	-0.1685405
-4.000566	DUTY	-0.3327306
-4.875597	DWELL	-0.1678979
-4.331553	DWELLING	-0.336178
-4.477678	DWELT	-0.3111367
-4.699518	DYING	-0.1389734
-5.176594	E	-0.1527639
-3.37732	EACH	-0.7302607
-4.062713	EAGER	-0.3346268
-4.030529	EAGERLY	-0.1804421
-4.273563	EAGERNESS	-0.2553319
-5.176594	EAR	-0.1683409
-5.176594	EARL	-0.1681093
-4.699518	EARLIER	-0.1235708
-4.398499	EARLIEST	-0.1574957
-5.176594	EARL'S	-0.1686389
-3.729501	EARLY	-0.1489584
-4.000566	EARNEST	-0.1664414
-4.135262	EARNESTLY	-0.2019983
-4.875597	EARNESTNESS	-0.1298456
-5.176594	EARTH	-0.1672804
-5.176594	EARTHLY	-0.1685174
-3.946208	EASE	-0.2780902
-3.745295	EASILY	-0.2349637
-4.699518	EASINESS	-0.2494913
-5.176594	EASTBOURNE	-0.1656469
-4.699518	EASTER	-0.1353291
-3.796447	EASY	-0.2286102
-4.477678	EAT	-0.1924438
-4.875597	EATING	-0.1628012
-5.176594	ECCENTRIC	-0.1414898
-5.176594	ECHO	-0.1686273
-5.176594	ECLAT	-0.1577982
-5.176594	ECLIPSED	-0.1665283
-5.176594	ECONOMICALLY	-0.1414898
-4.477678	ECONOMY	-0.1799483
-4.875597	ECSTASY	-0.1244746
-4.875597	EDGE	-0.3524366
-4.875597	EDGED	-0.1511109
-4.699518	EDUCATED	-0.1350698
-4.135262	EDUCATION	-0.2510991
-5.176594	EDW	-0.1527639
-5.176594	EDWARD	-0.1686707
-3.897904	EFFECT	-0.35549
-4.699518	EFFECTS	-0.2727395
-5.176594	EFFECTUAL	-0.1642556
-4.699518	EFFECTUALLY	-0.1561286
-5.176594	EFFICACY	-0.1577982
-4.477678	EFFORT	-0.2032872
-4.875597	EFFORTS	-0.3524366
-4.875597	EFFUSION	-0.135766
-4.875597	EFFUSIONS	-0.1630298
-4.222411	EIGHT	-0.2040448
-3.405808	EITHER	-0.3988502
-4.875597	ELAPSED	-0.1675733
-5.176594	ELATED	-0.1665283
-4.097474	ELDER	-0.3605917
-5.176594	ELDERLY	-0.1685637
-3.875628	ELDEST	-0.4070892
-4.222411	ELEGANCE	-0.2700236
-4.030529	ELEGANT	-0.1960955
-5.176594	ELEVATE	-0.1622439
-4.875597	ELEVATED	-0.166476
-5.176594	ELEVATING	-0.1687198
-5.176594	ELEVATION	-0.1577982
-5.176594	ELEVEN	-0.1687083
-5.176594	ELIGIBILITY	-0.1578723
-4.331553	ELIGIBLE	-0.1920674
-3.834235	ELIZA	-0.6765038
-2.359096	ELIZABETH	-0.5268859
-3.596876	ELIZABETH'S	-0.2223784
-5.176594	ELLIZABETH	-0.1685492
-5.176594	ELOPE	-0.1656731
-5.176594	ELOPED	-0.1642556
-4.222411	ELOPEMENT	-0.2359471
-5.176594	ELOPING	-0.1578723
-5.176594	ELOQUENCE	-0.1687227
-4.875597	ELOQUENT	-0.1609771
-3.543191	ELSE	-0.3755963
-4.477678	ELSEWHERE	-0.4614875
-5.176594	ELUDED	-0.1558368
-5.176594	EMBARGO	-0.1666504
-4.331553	EMBARRASSED	-0.1817026
-4.176655	EMBARRASSMENT	-0.1458048
-4.875597	EMBRACED	-0.3568823
-4.875597	EMBRACING	-0.3568823
-5.176594	EMERGENCE	-0.1687112
-5.176594	EMINENCE	-0.1414898
-5.176594	EMINENT	-0.1687227
-4.477678	EMOTION	-0.1968125
-5.176594	EMOTIONS	-0.1670889
-5.176594	EMPHASIS	-0.1414898
-5.176594	EMPHATIC	-0.1687198
-5.176594	EMPHATICALLY	-0.1666504
-4.875597	EMPLOY	-0.152665
-4.273563	EMPLOYED	-0.4783745
-5.176594	EMPLOYING	-0.1622439
-4.398499	EMPLOYMENT	-0.1619237
-4.574584	EMPLOYMENTS	-0.3184512
-5.176594	EMPTINESS	-0.1577982
-5.176594	EMPTY	-0.1687227
-5.176594	ENABLE	-0.1679819
-4.875597	ENABLED	-0.1552198
-5.176594	ENABLING	-0.167466
-5.176594	ENCAMPED	-0.1686157
-4.699518	ENCOUNTER	-0.1519803
-4.398499	ENCOURAGE	-0.2671058
-4.273563	ENCOURAGED	-0.3449923
-4.176655	ENCOURAGEMENT	-0.3147679
-4.574584	ENCOURAGING	-0.1088912
-5.176594	ENCROACHING	-0.1666504
-5.176594	ENCUMBRANCE	-0.1577982
-3.217619	END	-0.9941446
-5.176594	ENDEARED	-0.1565154
-3.854439	ENDEAVOUR	-1.172171
-4.176655	ENDEAVOURED	-1.150707
-4.477678	ENDEAVOURING	-0.4663831
-4.331553	ENDEAVOURS	-0.3530857
-4.574584	ENDED	-0.245204
-4.875597	ENDLESS	-0.152749
-5.176594	ENDURABLE	-0.1565154
-5.176594	ENDURE	-0.1527639
-4.574584	ENDURED	-0.1365234
-5.176594	ENDURING	-0.1665109
-5.176594	ENEMIES	-0.1414898
-5.176594	ENEMY	-0.1414898
-5.176594	ENERGETIC	-0.1527639
-4.477678	ENERGY	-0.1151545
-5.176594	ENFORCED	-0.167466
-4.477678	ENGAGE	-0.222056
-3.596876	ENGAGED	-0.5896342
-3.875628	ENGAGEMENT	-0.2359909
-4.097474	ENGAGEMENTS	-0.1636533
-4.398499	ENGAGING	-0.1507766
-4.477678	ENGLAND	-0.1863789
-5.176594	ENGROSS	-0.1622439
-4.477678	ENGROSSED	-1.072848
-5.176594	ENGROSSING	-0.1665109
-5.176594	ENHANCE	-0.1681527
-4.273563	ENJOY	-0.1381521
-4.574584	ENJOYING	-0.2349765
-4.062713	ENJOYMENT	-0.3700646
-5.176594	ENJOYMENTS	-0.1527639
-5.176594	ENLARGING	-0.1558368
-5.176594	ENNIGHT	-0.1686591
-5.176594	ENORMITY	-0.1414898
-3.151355	ENOUGH	-0.8495581
-5.176594	ENRAGED	-0.1685752
-5.176594	ENSIGN	-0.1527639
-5.176594	ENSIGNCY	-0.1630796
-5.176594	ENSUE	-0.1414898
-4.875597	ENSUED	-0.1411017
-5.176594	ENSUING	-0.1686996
-4.875597	ENSURE	-0.1584945
-4.273563	ENTAIL	-0.2476633
-4.398499	ENTAILED	-0.1736969
-5.176594	ENTAILING	-0.1687141
-4.097474	ENTER	-0.387112
-3.620357	ENTERED	-0.6425628
-4.222411	ENTERING	-0.439341
-4.477678	ENTERTAIN	-0.1529679
-4.331553	ENTERTAINED	-0.1749378
-4.398499	ENTERTAINMENT	-0.1751925
-3.778719	ENTIRELY	-0.1293338
-4.574584	ENTITLED	-0.5977275
-4.062713	ENTRANCE	-0.3661158
-4.477678	ENTREAT	-0.3069077
-4.875597	ENTREATED	-0.1622263
-4.574584	ENTREATIES	-0.2113319
-5.176594	ENTREATING	-0.1622439
-4.273563	ENTREATY	-0.2472078
-4.477678	ENUMERATING	-0.2984423
-5.176594	ENUMERATION	-0.1577982
-4.699518	ENVELOPE	-0.1686736
-4.875597	ENVIED	-0.1674138
-5.176594	ENVIRONS	-0.1565154
-4.699518	ENVY	-0.1473123
-5.176594	ENVYING	-0.1679066
-5.176594	EPITHET	-0.1527639
-4.699518	EPSOM	-0.1124409
-3.699538	EQUAL	-0.3190531
-5.176594	EQUALLED	-0.1414898
-3.875628	EQUALLY	-0.1770426
-5.176594	EQUALS	-0.1630796
-5.176594	EQUIPAGE	-0.1679384
-5.176594	EQUIVALENT	-0.1565154
-5.176594	EQUIVOCAL	-0.1414898
-4.875597	ERE	-0.1666504
-4.699518	ERR	-0.4370176
-5.176594	ERRAND	-0.1682135
-4.398499	ERROR	-0.2180744
-4.699518	ERRORS	-0.1573265
-4.176655	ESCAPE	-0.1818249
-4.477678	ESCAPED	-0.3044691
-5.176594	ESCAPING	-0.1558368
-3.834235	ESPECIALLY	-0.5042262
-5.176594	ESQ	-0.1527639
-5.176594	ESSENCE	-0.1577982
-4.875597	ESSENTIAL	-0.1564202
-4.875597	ESSENTIALS	-0.1244746
-4.875597	ESTABLISH	-0.1499743
-4.331553	ESTABLISHED	-0.2085087
-4.398499	ESTABLISHMENT	-0.1164055
-3.875628	ESTATE	-0.1917777
-4.574584	ESTATES	-0.1215577
-4.135262	ESTEEM	-0.3893492
-4.331553	ESTEEMED	-0.1172658
-4.875597	ESTIMABLE	-0.1406208
-5.176594	ESTIMATED	-0.1686215
-4.477678	ESTIMATION	-0.1983495
-4.062713	ETC	-1.130166
-4.875597	ETIQUETTE	-0.1581687
-5.176594	EVADE	-0.1414898
-3.262847	EVEN	-0.177431
-3.319328	EVENING	-0.4172934
-4.574584	EVENINGS	-0.2465424
-4.875597	EVENING'S	-0.168688
-4.875597	EVENNESS	-0.3524366
-3.854439	EVENT	-0.2691243
-4.398499	EVENTS	-0.1802702
-3.062717	EVER	-0.2389435
-2.879996	EVERY	-0.4211643
-3.620357	EVERYBODY	-0.2900493
-4.875597	EVERYBODY'S	-0.168474
-4.477678	EVERYONE	-0.1786585
-5.176594	EVERYONE'S	-0.1686909
-3.533207	EVERYTHING	-0.1868879
-4.875597	EVERYWHERE	-0.152755
-3.921385	EVIDENT	-0.2371907
-4.477678	EVIDENTLY	-0.1574096
-4.000566	EVIL	-0.3062446
-4.273563	EVILS	-0.1628985
-4.699518	EXACT	-0.1366573
-3.699538	EXACTLY	-0.3988968
-5.176594	EXAGGERATE	-0.167466
-5.176594	EXAGGERATION	-0.1414898
-4.699518	EXAMINATION	-0.2494913
-4.875597	EXAMINE	-0.1545183
-4.574584	EXAMINED	-0.1254308
-4.574584	EXAMINING	-0.212852
-4.477678	EXAMPLE	-0.2742063
-4.875597	EXASPERATE	-0.1680253
-4.875597	EXCEED	-0.1661184
-4.875597	EXCEEDED	-0.1604027
-5.176594	EXCEEDING	-0.1674457
-3.761685	EXCEEDINGLY	-0.1763175
-4.875597	EXCEL	-0.166002
-4.875597	EXCELLENCE	-0.1622527
-5.176594	EXCELLENCY	-0.1577982
-3.875628	EXCELLENT	-0.1714515
-3.834235	EXCEPT	-0.1877559
-4.699518	EXCEPTING	-0.1606826
-5.176594	EXCEPTION	-0.1414898
-5.176594	EXCEPTIONAL	-0.1686736
-4.875597	EXCESS	-0.1298456
-4.574584	EXCESSIVE	-0.1684421
-4.135262	EXCESSIVELY	-0.1959949
-5.176594	EXCHANGED	-0.1414898
-4.699518	EXCITE	-0.2611447
-4.176655	EXCITED	-0.246048
-4.875597	EXCITING	-0.1588733
-5.176594	EXCLAIM	-0.1630796
-4.273563	EXCLAIMED	-0.2054715
-4.574584	EXCLAIMING	-0.3348503
-4.875597	EXCLAMATION	-0.1564262
-4.699518	EXCLAMATIONS	-0.2663105
-5.176594	EXCLUDE	-0.1674283
-5.176594	EXCLUSION	-0.1577982
-3.972537	EXCUSE	-0.3642708
-4.875597	EXCUSED	-0.1666387
-4.875597	EXCUSES	-0.1533485
-5.176594	EXECUTED	-0.1414898
-4.574584	EXECUTION	-0.1989462
-5.176594	EXECUTORS	-0.1577982
-4.398499	EXERCISE	-0.2277405
-4.875597	EXERCISING	-0.1638493
-4.875597	EXERT	-0.1677008
-4.875597	EXERTED	-0.3627072
-5.176594	EXERTING	-0.1680688
-4.222411	EXERTION	-0.2270064
-5.176594	EXHAUSTED	-0.1665283
-5.176594	EXHIBIT	-0.1527639
-5.176594	EXHIBITING	-0.1633519
-4.875597	EXHIBITION	-0.1492188
-5.176594	EXIGENCE	-0.1414898
-5.176594	EXIST	-0.1630796
-4.699518	EXISTED	-0.1453852
-4.699518	EXISTENCE	-0.1518841
-4.875597	EXISTING	-0.1284773
-3.632591	EXPECT	-0.3050596
-3.897904	EXPECTATION	-0.3879405
-4.331553	EXPECTATIONS	-0.2985612
-3.543191	EXPECTED	-0.3652833
-4.477678	EXPECTING	-0.1579583
-5.176594	EXPECTS	-0.1685145
-4.875597	EXPEDIENT	-0.151797
-5.176594	EXPEDITE	-0.1630356
-4.875597	EXPEDITIOUSLY	-0.1378417
-5.176594	EXPENCE	-0.1577982
-5.176594	EXPENCES	-0.1414898
-4.398499	EXPENSE	-0.1665307
-4.699518	EXPENSES	-0.1519322
-4.875597	EXPERIENCE	-0.1538186
-4.574584	EXPERIENCED	-0.161727
-4.398499	EXPLAIN	-0.1961235
-4.222411	EXPLAINED	-0.1661589
-4.699518	EXPLAINING	-0.149929
-4.273563	EXPLANATION	-0.1780613
-4.875597	EXPLANATIONS	-0.141499
-5.176594	EXPLANATORY	-0.1683901
-4.875597	EXPLICIT	-0.3474024
-5.176594	EXPLICITLY	-0.1527639
-5.176594	EXPLORE	-0.1684219
-4.331553	EXPOSE	-0.1449578
-4.875597	EXPOSED	-0.1558398
-4.477678	EXPOSING	-0.1482317
-5.176594	EXPOSTULATION	-0.1656731
-5.176594	EXPOSURE	-0.1642556
-3.796447	EXPRESS	-0.3205114
-3.761685	EXPRESSED	-0.1651555
-4.273563	EXPRESSING	-0.2361292
-3.834235	EXPRESSION	-0.6686811
-4.097474	EXPRESSIONS	-0.2361037
-4.875597	EXPRESSIVE	-0.1577122
-4.875597	EXPRESSIVELY	-0.139057
-5.176594	EXPRESSLY	-0.1687025
-5.176594	EXQUISITE	-0.1527639
-4.699518	EXTENDED	-0.1676458
-4.574584	EXTENSIVE	-0.1685694
-4.331553	EXTENT	-0.2589805
-5.176594	EXTENUATING	-0.1686447
-5.176594	EXTINGUISHED	-0.1656469
-5.176594	EXTORT	-0.1672978
-5.176594	EXTORTED	-0.1672978
-5.176594	EXTRACTIONS	-0.1672978
-4.875597	EXTRACTS	-0.1400899
-3.972537	EXTRAORDINARY	-0.1110727
-4.574584	EXTRAVAGANCE	-0.1169825
-4.574584	EXTRAVAGANT	-0.2219905
-4.574584	EXTREME	-0.319113
-4.000566	EXTREMELY	-0.2868064
-5.176594	EXUBERANCE	-0.1527639
-5.176594	EXUBERANT	-0.1686128
-5.176594	EXULTATION	-0.1641387
-4.000566	EYE	-0.2115973
-5.176594	EYEING	-0.1665109
-5.176594	EYELASHES	-0.1414898
-3.460657	EYES	-0.4501622
-4.477678	F	-1.059083
-3.745295	FACE	-0.4015265
-5.176594	FACED	-0.1414898
-4.699518	FACES	-0.2494913
-4.030529	FACT	-0.1980206
-5.176594	FACTS	-0.1414898
-5.176594	FACULTIES	-0.1527639
-4.398499	FAIL	-0.1623309
-4.699518	FAILED	-0.1450861
-4.875597	FAILING	-0.1411972
-5.176594	FAILURE	-0.1577982
-5.176594	FAINT	-0.1687141
-4.875597	FAINTER	-0.1532886
-5.176594	FAINTLY	-0.1686967
-3.834235	FAIR	-0.3017794
-5.176594	FAIREST	-0.1684132
-4.875597	FAIRLY	-0.1642497
-4.699518	FAITHFUL	-0.168717
-5.176594	FAITHFULLY	-0.1672804
-4.222411	FALL	-0.2036066
-4.699518	FALLEN	-0.2825993
-4.699518	FALLING	-0.2816665
-4.875597	FALLS	-0.1354758
-4.097474	FALSE	-0.2248994
-4.331553	FALSEHOOD	-0.1021825
-5.176594	FALSELY	-0.168717
-5.176594	FAME	-0.1653089
-4.699518	FAMILIAR	-0.1530518
-4.875597	FAMILIARITY	-0.1657954
-4.875597	FAMILIARLY	-0.1578012
-4.331553	FAMILIES	-0.217164
-2.994817	FAMILY	-0.4437725
-4.331553	FANCIED	-0.2584056
-3.897904	FANCY	-0.2701932
-4.574584	FANCYING	-0.3584058
-3.413232	FAR	-0.4898967
-4.875597	FARE	-0.1399694
-4.699518	FAREWELL	-0.1411356
-4.875597	FARM	-0.1404788
-5.176594	FARMHOUSE	-0.1527639
-4.000566	FARTHER	-0.2147348
-5.176594	FARTHING	-0.1685029
-4.331553	FASHION	-0.2825187
-5.176594	FASHIONABLE	-0.1685347
-4.875597	FASHIONS	-0.1512825
-4.273563	FAST	-0.2729873
-5.176594	FASTENED	-0.1666504
-4.875597	FASTIDIOUS	-0.1378417
-5.176594	FAT	-0.1630356
-4.875597	FATE	-0.1625139
-3.112203	FATHER	-0.4588098
-3.897904	FATHER'S	-0.1921563
-4.574584	FATIGUE	-0.3352355
-4.574584	FATIGUED	-0.147531
-4.331553	FAULT	-0.1652571
-5.176594	FAULTLESS	-0.1414898
-4.574584	FAULTS	-0.1270092
-4.699518	FAULTY	-0.1244009
-5.176594	FAVOR	-0.1577982
-3.854439	FAVOUR	-0.3778595
-4.097474	FAVOURABLE	-0.1957186
-4.875597	FAVOURABLY	-0.168581
-5.176594	FAVOURED	-0.1665283
-3.854439	FAVOURITE	-0.2421125
-4.875597	FAVOURITES	-0.3474024
-5.176594	FAVOURITE'S	-0.168717
-4.875597	FAVOURS	-0.1554017
-3.796447	FEAR	-0.5583923
-4.135262	FEARED	-0.2492437
-4.477678	FEARFUL	-0.4399573
-4.699518	FEARING	-0.1590891
-5.176594	FEARLESS	-0.1527639
-4.222411	FEARS	-0.1236944
-5.176594	FEATHER	-0.1527639
-5.176594	FEATHERS	-0.1414898
-4.875597	FEATURE	-0.1469051
-4.273563	FEATURES	-0.3659201
-5.176594	FEBRUARY	-0.1686794
-3.585595	FEEL	-0.425558
-3.596876	FEELING	-0.1345779
-5.176594	FEELINGLY	-0.1527639
-3.242162	FEELINGS	-0.3947933
-4.574584	FEELS	-0.1312789
-5.176594	FEET	-0.1527639
-5.176594	FELICITATIONS	-0.1656731
-3.921385	FELICITY	-0.2118012
-4.875597	FELL	-0.1410524
-4.273563	FELLOW	-0.3685388
-4.875597	FELLOWS	-0.1519112
-5.176594	FELLOW'S	-0.1686967
-3.176661	FELT	-0.3592562
-4.273563	FEMALE	-0.109014
-4.875597	FEMALES	-0.1414221
-5.176594	FENDER	-0.1414898
-5.176594	FERVENT	-0.1414898
-5.176594	FERVENTLY	-0.1679384
-4.699518	FETCH	-0.2781402
-5.176594	FETCHED	-0.167466
-4.875597	FEVERISH	-0.1414836
-3.325402	FEW	-0.6299477
-5.176594	FEWER	-0.1577982
-5.176594	FIDGET	-0.1683727
-5.176594	FIDGETS	-0.1527639
-5.176594	FIDGETY	-0.1672978
-4.699518	FIELD	-0.1658565
-5.176594	FIELDS	-0.1630796
-4.574584	FIFTEEN	-0.3345388
-5.176594	FIFTH	-0.1656731
-4.398499	FIFTY	-0.2235903
-4.875597	FIGHT	-0.3628954
-5.176594	FIGHTING	-0.1527639
-4.273563	FIGURE	-0.1276135
-5.176594	FIGURES	-0.1686389
-4.875597	FILIAL	-0.1682222
-5.176594	FILL	-0.1669118
-5.176594	FILLED	-0.1558368
-5.176594	FILLING	-0.1665109
-5.176594	FINAL	-0.1687198
-4.331553	FINALLY	-0.3290027
-5.176594	FINANCES	-0.1414898
-3.413232	FIND	-0.422258
-4.062713	FINDING	-0.2923364
-5.176594	FINDS	-0.1679066
-3.671509	FINE	-0.2379973
-4.477678	FINER	-0.141382
-4.875597	FINERY	-0.141499
-4.875597	FINEST	-0.1686996
-5.176594	FINGERING	-0.1414898
-4.699518	FINGERS	-0.137789
-4.574584	FINISH	-0.235352
-4.135262	FINISHED	-0.2295045
-5.176594	FINISHING	-0.1672513
-4.398499	FIRE	-0.1539743
-5.176594	FIREPLACE	-0.1414898
-4.699518	FIRM	-0.1524309
-4.875597	FIRMEST	-0.1685203
-5.176594	FIRMLY	-0.1686186
-5.176594	FIRMNESS	-0.1641387
-3.015293	FIRST	-0.1772942
-4.477678	FISH	-0.2140583
-4.574584	FISHING	-0.1366697
-4.574584	FIT	-0.339249
-4.398499	FITTED	-0.3573001
-3.671509	FITZWILLIAM	-0.4253715
-4.477678	FITZWILLIAM'S	-0.2253881
-3.671509	FIVE	-0.3757808
-4.699518	FIX	-0.1498746
-3.834235	FIXED	-0.4049048
-4.875597	FIXING	-0.1608358
-5.176594	FLAMING	-0.1685405
-5.176594	FLAT	-0.1687083
-4.176655	FLATTER	-0.4811966
-4.331553	FLATTERED	-0.2496527
-4.574584	FLATTERING	-0.1650961
-4.875597	FLEW	-0.1561524
-4.699518	FLIGHT	-0.1596623
-4.574584	FLIRT	-0.132431
-4.875597	FLIRTATION	-0.1367289
-4.875597	FLIRTING	-0.1643257
-5.176594	FLOGGED	-0.1414898
-4.574584	FLOW	-0.132085
-5.176594	FLOWED	-0.168393
-5.176594	FLOWING	-0.1686533
-5.176594	FLUCTUATING	-0.1658186
-5.176594	FLUENTLY	-0.1414898
-4.699518	FLUTTER	-0.1123586
-5.176594	FLUTTERED	-0.1665283
-5.176594	FLUTTERINGS	-0.1414898
-4.875597	FLYING	-0.1561524
-5.176594	FOLDED	-0.1683988
-5.176594	FOLIOS	-0.1630796
-4.574584	FOLLIES	-0.5990844
-4.135262	FOLLOW	-0.1978266
-3.778719	FOLLOWED	-0.3318131
-3.814931	FOLLOWING	-0.222321
-4.273563	FOLLOWS	-0.5910624
-4.135262	FOLLY	-0.194219
-3.972537	FOND	-1.348696
-4.875597	FONDER	-0.1677675
-5.176594	FOOD	-0.1577982
-4.875597	FOOL	-0.1646264
-4.273563	FOOLISH	-0.1603105
-5.176594	FOOL'S	-0.1687227
-5.176594	FOOT	-0.168338
-4.875597	FOOTING	-0.1635158
-5.176594	FOOTMAN	-0.1656731
-5.176594	FOOTSTOOL	-0.1414898
-2.150946	FOR	-0.5166473
-5.176594	FORBADE	-0.1558368
-4.398499	FORBEARANCE	-0.23258
-5.176594	FORBEARING	-0.1687198
-4.574584	FORBID	-0.3574426
-5.176594	FORBIDDING	-0.1414898
-5.176594	FORBORE	-0.1565154
-4.273563	FORCE	-0.217084
-3.875628	FORCED	-0.7504251
-4.574584	FORCIBLY	-0.1322895
-5.176594	FORCING	-0.1630356
-5.176594	FORDYCE'S	-0.168717
-5.176594	FOREGO	-0.1681527
-5.176594	FORESAW	-0.1681788
-5.176594	FORESEE	-0.1641387
-4.875597	FORESEEN	-0.1515955
-5.176594	FORETOLD	-0.1414898
-4.699518	FOREVER	-0.4370176
-5.176594	FORFEIT	-0.1642643
-5.176594	FORFEITED	-0.1669118
-5.176594	FORGAVE	-0.1414898
-3.946208	FORGET	-0.1849958
-5.176594	FORGETFULNESS	-0.1527639
-5.176594	FORGETS	-0.1622439
-4.875597	FORGETTING	-0.1637411
-4.176655	FORGIVE	-0.2091614
-5.176594	FORGIVEN	-0.1674283
-4.875597	FORGIVENESS	-0.1399508
-4.875597	FORGIVING	-0.1685261
-4.477678	FORGOT	-0.1770534
-4.097474	FORGOTTEN	-0.2764423
-5.176594	FORLORN	-0.1682309
-4.062713	FORM	-0.1882981
-4.222411	FORMAL	-0.1409014
-4.699518	FORMALITY	-0.1165556
-5.176594	FORMATION	-0.1578723
-3.972537	FORMED	-0.2666479
-3.596876	FORMER	-0.1751937
-4.331553	FORMERLY	-0.1315026
-4.574584	FORMIDABLE	-0.1504419
-4.574584	FORMING	-0.2464333
-4.875597	FORMS	-0.3524366
-3.596876	FORSTER	-0.2666419
-5.176594	FORSTERS	-0.1683496
-5.176594	FORSTER'S	-0.1527639
-4.574584	FORTH	-0.2215376
-5.176594	FORTITUDE	-0.1414898
-3.854439	FORTNIGHT	-0.2717195
-4.875597	FORTNIGHT'S	-0.1679877
-4.000566	FORTUNATE	-0.486325
-4.875597	FORTUNATELY	-0.1650291
-3.585595	FORTUNE	-0.4702755
-5.176594	FORTUNES	-0.1577982
-5.176594	FORTY	-0.1675994
-3.745295	FORWARD	-0.1875523
-4.875597	FORWARDED	-0.1629976
-5.176594	FORWARDER	-0.1679095
-5.176594	FORWARDING	-0.1558368
-5.176594	FORWARDS	-0.1414898
-5.176594	FOUL	-0.1687198
-3.357116	FOUND	-0.2926721
-4.574584	FOUNDATION	-0.2332827
-5.176594	FOUNDATIONS	-0.1577982
-4.699518	FOUNDED	-0.2441202
-3.632591	FOUR	-0.2780933
-4.875597	FOURTH	-0.1495967
-5.176594	FOURTHLY	-0.1414898
-5.176594	FOXHOUNDS	-0.1414898
-5.176594	FRAILTY	-0.1673616
-5.176594	FRAME	-0.1414898
-5.176594	FRANKLY	-0.1578723
-4.574584	FRANKNESS	-0.1130296
-5.176594	FRECKLED	-0.1686042
-4.331553	FREE	-0.5916974
-4.574584	FREEDOM	-0.2075986
-4.574584	FREELY	-0.2046751
-5.176594	FRENCH	-0.1687227
-4.062713	FREQUENT	-0.1311465
-3.814931	FREQUENTLY	-0.1496275
-4.222411	FRESH	-0.2111206
-5.176594	FRESHER	-0.1686707
-4.699518	FRET	-0.2866881
-4.875597	FRETFULLY	-0.3474024
-4.875597	FRETFULNESS	-0.1658303
-5.176594	FRIDAY	-0.1414898
-3.159627	FRIEND	-0.4113376
-5.176594	FRIENDLESS	-0.1414898
-5.176594	FRIENDLIER	-0.1686562
-4.331553	FRIENDLY	-0.1722116
-3.436297	FRIENDS	-0.3535532
-4.273563	FRIEND'S	-0.1682251
-4.222411	FRIENDSHIP	-0.183972
-5.176594	FRIGHTED	-0.168338
-5.176594	FRIGHTEN	-0.1674283
-4.331553	FRIGHTENED	-0.1411849
-5.176594	FRISKS	-0.1414898
-4.699518	FRIVOLOUS	-0.1649882
-2.483814	FROM	-0.6546928
-4.477678	FRONT	-0.2778433
-4.875597	FRONTED	-0.3504752
-5.176594	FROST	-0.1414898
-5.176594	FRUIT	-0.1577982
-4.875597	FRUITS	-0.1520074
-5.176594	FUGITIVES	-0.1527639
-5.176594	FULFIL	-0.1558368
-3.897904	FULL	-0.4162413
-5.176594	FULLEST	-0.1686822
-4.477678	FULLY	-0.1243048
-4.273563	FUN	-0.2220008
-4.574584	FURNISH	-0.1607562
-5.176594	FURNISHED	-0.1414898
-4.176655	FURNITURE	-0.2729969
-3.854439	FURTHER	-0.1764951
-5.176594	FUSS	-0.1672804
-4.000566	FUTURE	-0.1216766
-4.875597	GAIETIES	-0.1561971
-4.875597	GAIETY	-0.3361282
-4.875597	GAILY	-0.1683988
-4.875597	GAIN	-0.1660282
-4.135262	GAINED	-0.1740881
-4.699518	GAINING	-0.1667637
-5.176594	GALLANT	-0.1686042
-4.273563	GALLANTRY	-0.1946138
-4.477678	GALLERY	-0.1207737
-4.331553	GAME	-0.2703083
-5.176594	GAMESTER	-0.1672804
-5.176594	GAMING	-0.1686967
-5.176594	GAPED	-0.1653002
-4.097474	GARDEN	-0.212116
-5.176594	GARDENER	-0.1414898
-5.176594	GARDENER'S	-0.168662
-3.252381	GARDINER	-0.443672
-4.398499	GARDINERS	-0.2445298
-4.062713	GARDINER'S	-0.1609123
-4.398499	GATE	-0.2520106
-4.875597	GATES	-0.1574512
-4.875597	GATHERED	-0.3633149
-5.176594	GATHERING	-0.1622439
-5.176594	GAUDY	-0.1685145
-3.444266	GAVE	-0.6054543
-4.875597	GAY	-0.1414836
-5.176594	GAYER	-0.1686794
-5.176594	GAZE	-0.1414898
-3.486464	GENERAL	-0.1249647
-4.875597	GENERALITY	-0.3524366
-3.972537	GENERALLY	-0.2043966
-4.875597	GENERAL'S	-0.3633091
-5.176594	GENERATION	-0.1565154
-5.176594	GENERATIONS	-0.1527639
-4.097474	GENEROUS	-0.2423752
-5.176594	GENEROUSLY	-0.1687141
-4.875597	GENIUS	-0.141265
-4.699518	GENTEEL	-0.2495703
-4.477678	GENTLE	-0.1497296
-3.685297	GENTLEMAN	-0.3417084
-4.273563	GENTLEMANLIKE	-0.300277
-4.273563	GENTLEMAN'S	-0.2094462
-3.632591	GENTLEMEN	-0.1820849
-4.699518	GENTLEMEN'S	-0.1685868
-4.574584	GENTLENESS	-0.1468868
-5.176594	GENTLEST	-0.1577982
-5.176594	GENTLEWOMAN	-0.1656469
-4.875597	GENUINE	-0.1686823
-4.273563	GEORGE	-0.6926208
-4.097474	GEORGIANA	-0.1789046
-4.699518	GEORGIANA'S	-0.1684364
-3.460657	GET	-0.2370432
-5.176594	GETS	-0.1565154
-4.331553	GETTING	-0.1643753
-5.176594	GIDDINESS	-0.1577982
-5.176594	GIFT	-0.1527639
-5.176594	GIG	-0.1414898
-3.596876	GIRL	-0.3614019
-3.523447	GIRLS	-0.3549131
-3.086756	GIVE	-0.456722
-3.436297	GIVEN	-0.3192722
-4.222411	GIVES	-0.4449525
-3.778719	GIVING	-0.2826162
-3.608458	GLAD	-0.6415998
-5.176594	GLADLY	-0.1578723
-4.331553	GLANCE	-0.1844041
-4.574584	GLANCING	-0.2461617
-4.875597	GLASS	-0.1575877
-5.176594	GLAZING	-0.1687025
-5.176594	GLEN	-0.1414898
-4.875597	GLIMPSE	-0.1298456
-4.699518	GLOOM	-0.1559262
-4.875597	GLOOMY	-0.152689
-5.176594	GLORIED	-0.1630796
-5.176594	GLORIES	-0.1577982
-5.176594	GLORY	-0.1642556
-5.176594	GLOVE	-0.1414898
-4.699518	GLOW	-0.2494913
-5.176594	GLOWING	-0.1656731
-3.159627	GO	-0.4408026
-4.699518	GOD	-0.2869173
-5.176594	GODFATHER	-0.1414898
-5.176594	GOD'S	-0.1686591
-4.875597	GODSON	-0.3361282
-4.875597	GOES	-0.1400899
-3.420785	GOING	-0.4560055
-3.384268	GONE	-0.5385221
-2.873465	GOOD	-0.3366289
-4.176655	GOODNESS	-0.2612568
-4.875597	GOODWILL	-0.1561971
-5.176594	GOSSIPING	-0.1686851
-3.778719	GOT	-0.2610893
-5.176594	GOULDING	-0.1630796
-4.875597	GOULDINGS	-0.1665748
-4.875597	GOVERNED	-0.1652244
-4.273563	GOVERNESS	-0.1480812
-4.331553	GOWN	-0.2105865
-4.875597	GOWNS	-0.1585507
-5.176594	GRACE	-0.1653002
-4.222411	GRACECHURCH	-0.999945
-5.176594	GRACEFUL	-0.1527639
-5.176594	GRACEFULLY	-0.1527639
-5.176594	GRACES	-0.1527639
-4.273563	GRACIOUS	-0.5068392
-5.176594	GRACIOUSLY	-0.1686128
-5.176594	GRACIOUSNESS	-0.1414898
-5.176594	GRADUAL	-0.1686562
-4.398499	GRADUALLY	-0.1379566
-5.176594	GRAIN	-0.1642556
-4.875597	GRAND	-0.1682801
-4.574584	GRANDEUR	-0.2428988
-5.176594	GRANDFATHER'S	-0.1687025
-5.176594	GRANTLEY'S	-0.1527639
-5.176594	GRAPES	-0.1414898
-5.176594	GRASP	-0.1664411
-4.062713	GRATEFUL	-0.3526465
-4.699518	GRATEFULLY	-0.1624757
-5.176594	GRATIFICATION	-0.1642556
-4.030529	GRATIFIED	-0.2026753
-4.875597	GRATIFY	-0.1664121
-4.398499	GRATIFYING	-0.2436496
-3.796447	GRATITUDE	-0.2252576
-4.875597	GRATULATION	-0.1621588
-4.222411	GRAVE	-0.2266867
-4.699518	GRAVEL	-0.4528318
-4.574584	GRAVELY	-0.1301396
-4.574584	GRAVITY	-0.223119
-3.024372	GREAT	-0.2756176
-3.778719	GREATER	-0.182121
-3.875628	GREATEST	-0.2243962
-4.030529	GREATLY	-0.1535811
-4.875597	GREATNESS	-0.1571246
-4.699518	GREEN	-0.2611293
-4.875597	GRETNA	-0.3633554
-4.398499	GREW	-0.1644542
-4.875597	GRIEF	-0.1532137
-5.176594	GRIEFS	-0.1565154
-4.875597	GRIEVANCES	-0.1284773
-4.699518	GRIEVE	-0.1495725
-4.097474	GRIEVED	-0.1535384
-5.176594	GRIEVING	-0.1578723
-4.699518	GRIEVOUS	-0.1681643
-5.176594	GRIEVOUSLY	-0.1565154
-4.875597	GROSS	-0.1630298
-5.176594	GROSSEST	-0.1687054
-4.875597	GROSVENOR	-0.3633091
-4.135262	GROUND	-0.3841249
-4.398499	GROUNDS	-0.1090405
-5.176594	GROUNDWORK	-0.1577982
-4.875597	GROUP	-0.1367289
-5.176594	GROUPED	-0.1414898
-4.699518	GROVE	-0.2861972
-4.574584	GROW	-0.1679326
-4.699518	GROWING	-0.1669263
-4.477678	GROWN	-0.23418
-5.176594	GROWTH	-0.1577982
-4.331553	GUARD	-0.1572867
-4.222411	GUARDED	-0.160669
-5.176594	GUARDIAN	-0.1577982
-5.176594	GUARDIANS	-0.1677211
-4.699518	GUARDIANSHIP	-0.2759618
-4.477678	GUESS	-0.1173895
-4.699518	GUESSED	-0.1477586
-4.477678	GUEST	-0.1971481
-5.176594	GUESTS	-0.1527639
-4.875597	GUIDANCE	-0.1298456
-4.875597	GUIDE	-0.141111
-4.875597	GUIDED	-0.161918
-5.176594	GUIDING	-0.1414898
-4.699518	GUILT	-0.1419606
-4.875597	GUILTY	-0.3524366
-5.176594	GUINEA	-0.1565154
-5.176594	GULF	-0.1687227
-4.331553	HABIT	-0.9072877
-4.699518	HABITS	-0.1249546
-5.176594	HABITUAL	-0.1687054
-5.176594	HACK	-0.1686938
-4.699518	HACKNEY	-0.4529504
-5.176594	HACKNEYED	-0.1414898
-2.105885	HAD	-0.4629098
-4.875597	HAGGERSTON	-0.1650028
-4.699518	HAIR	-0.1242504
-3.331562	HALF	-0.5255864
-4.062713	HALL	-0.2812162
-5.176594	HAM	-0.1578723
-3.778719	HAND	-0.4106626
-4.699518	HANDED	-0.1489375
-5.176594	HANDKERCHIEF	-0.1414898
-4.331553	HANDS	-0.2024901
-3.608458	HANDSOME	-0.3964682
-4.875597	HANDSOMELY	-0.1414713
-4.699518	HANDSOMER	-0.4521631
-4.574584	HANDSOMEST	-0.2438615
-5.176594	HANDWRITING	-0.1414898
-5.176594	HANG	-0.1685261
-5.176594	HANGING	-0.1687054
-4.097474	HAPPEN	-0.3068425
-3.796447	HAPPENED	-0.3570668
-4.875597	HAPPENING	-0.1559887
-4.574584	HAPPENS	-0.1974393
-4.699518	HAPPIER	-0.168448
-4.176655	HAPPIEST	-0.2355497
-4.477678	HAPPILY	-0.3106457
-3.319328	HAPPINESS	-0.4766177
-3.257582	HAPPY	-0.2612934
-5.176594	HARBOURED	-0.1578723
-4.097474	HARD	-0.2400668
-5.176594	HARDENED	-0.1630796
-5.176594	HARDEST	-0.1686042
-3.513902	HARDLY	-0.3235452
-5.176594	HARDSHIP	-0.1565154
-5.176594	HARDSHIPS	-0.1577982
-4.574584	HARM	-0.3399107
-5.176594	HARMONY	-0.1578723
-5.176594	HARP	-0.1642556
-4.875597	HARRIET	-0.135766
-5.176594	HARRINGTONS	-0.1565154
-5.176594	HARSHLY	-0.1414898
-2.832269	HAS	-0.3560402
-4.222411	HASTE	-0.3626561
-5.176594	HASTEN	-0.1565154
-4.574584	HASTENED	-0.1240485
-4.875597	HASTENING	-0.1561673
-4.222411	HASTILY	-0.1402658
-4.477678	HASTY	-0.2032247
-4.875597	HAT	-0.135429
-4.222411	HATE	-0.1253541
-4.574584	HATED	-0.2514323
-5.176594	HATEFULLY	-0.1687112
-4.875597	HATES	-0.1672688
-5.176594	HATFIELD	-0.1414898
-5.176594	HATING	-0.1685434
-5.176594	HATRED	-0.1653089
-4.699518	HAUGHTY	-0.1244233
-5.176594	HAUNCH	-0.1527639
-5.176594	HAUNT	-0.1577982
-4.875597	HAUTEUR	-0.1678457
-2.251349	HAVE	-0.3948622
-3.194389	HAVING	-0.186194
-5.176594	HAYE	-0.168662
-5.176594	HAZARDED	-0.1675994
-2.050855	HE	-0.6718849
-3.671509	HEAD	-0.5649407
-4.875597	HEADACHE	-0.1367289
-5.176594	HEADED	-0.1653002
-5.176594	HEADQUARTERS	-0.1527639
-5.176594	HEADS	-0.1414898
-4.574584	HEADSTRONG	-0.1236253
-5.176594	HEAL	-0.1558368
-3.921385	HEALTH	-0.4127931
-5.176594	HEALTHFUL	-0.1578723
-5.176594	HEALTHFULNESS	-0.1577982
-5.176594	HEALTHY	-0.1684595
-3.325402	HEAR	-0.3294069
-3.242162	HEARD	-0.3019983
-5.176594	HEARERS	-0.1642556
-3.796447	HEARING	-0.2632967
-5.176594	HEARS	-0.168688
-3.523447	HEART	-0.4350332
-5.176594	HEARTED	-0.1687141
-5.176594	HEARTEDNESS	-0.1630796
-5.176594	HEARTENING	-0.167466
-5.176594	HEARTFELT	-0.1686533
-5.176594	HEARTH	-0.1414898
-4.176655	HEARTILY	-0.1800746
-4.875597	HEARTY	-0.1686852
-4.176655	HEAVEN	-0.4332795
-5.176594	HEAVENS	-0.1672804
-4.875597	HEAVEN'S	-0.3632975
-5.176594	HEAVIER	-0.1687227
-4.574584	HEAVY	-0.1683235
-5.176594	HEDGE	-0.1414898
-5.176594	HEEDLESS	-0.1577982
-4.699518	HEIGHT	-0.1179619
-5.176594	HEIGHTEN	-0.1622439
-4.273563	HEIGHTENED	-0.2379775
-5.176594	HEINOUS	-0.168717
-5.176594	HEIRESS	-0.1577982
-5.176594	HEIRS	-0.1687227
-4.477678	HELD	-0.1316318
-3.563876	HELP	-0.189748
-5.176594	HENCE	-0.1642643
-5.176594	HENCEFORTH	-0.1577982
-1.829331	HER	-0.3346125
-3.344151	HERE	-0.3444396
-4.875597	HEREABOUTS	-0.1623818
-4.699518	HEREAFTER	-0.1458091
-5.176594	HERE'S	-0.1664469
-5.176594	HERETOFORE	-0.1414898
-5.176594	HERMITAGE	-0.1527639
-4.273563	HERS	-0.3129318
-2.820635	HERSELF	-0.477633
-3.563876	HERTFORDSHIRE	-0.3979209
-4.699518	HESITATE	-0.2677713
-4.699518	HESITATED	-0.1337555
-5.176594	HESITATING	-0.1684393
-4.699518	HESITATION	-0.4473332
-4.875597	HIDE	-0.1585152
-3.946208	HIGH	-0.1567399
-4.574584	HIGHER	-0.1568751
-4.222411	HIGHEST	-0.3128684
-5.176594	HIGHFLOWN	-0.1686909
-3.729501	HIGHLY	-0.1826459
-4.176655	HILL	-0.2353235
-4.699518	HILLS	-0.1366853
-2.293568	HIM	-0.5500165
-3.072857	HIMSELF	-0.5593925
-4.097474	HINT	-0.394944
-5.176594	HINTED	-0.1641387
-4.574584	HINTS	-0.2148685
-5.176594	HIRE	-0.1665109
-5.176594	HIRED	-0.1414898
-2.072174	HIS	-0.4097043
-5.176594	HISTORIES	-0.1577982
-4.574584	HISTORY	-0.3238222
-4.699518	HITHER	-0.1229929
-4.875597	HITHERTO	-0.1675298
-4.331553	HOLD	-0.2013271
-4.875597	HOLDING	-0.1618505
-3.357116	HOME	-0.3944193
-5.176594	HONEST	-0.168717
-4.574584	HONESTLY	-0.1575372
-3.55341	HONOUR	-0.667581
-4.398499	HONOURABLE	-0.1832275
-4.222411	HONOURED	-0.3559582
-4.875597	HONOURS	-0.1574334
-3.093875	HOPE	-0.5636361
-3.875628	HOPED	-0.3221399
-4.331553	HOPELESS	-0.1546703
-3.814931	HOPES	-0.4137503
-4.574584	HOPING	-0.2264932
-5.176594	HORRIBLE	-0.1672804
-4.699518	HORRID	-0.2879258
-4.477678	HORROR	-0.2599911
-4.699518	HORSE	-0.1235098
-4.875597	HORSEBACK	-0.3361282
-4.273563	HORSES	-0.2623615
-5.176594	HORSEWOMAN	-0.1414898
-4.699518	HOSPITALITY	-0.1296305
-4.699518	HOT	-0.1678139
-5.176594	HOTEL	-0.1527639
-5.176594	HOTELS	-0.1630796
-3.64518	HOUR	-0.3626591
-3.745295	HOURS	-0.2407919
-4.574584	HOUR'S	-0.1683785
-3.147277	HOUSE	-0.5552609
-5.176594	HOUSEHOLD	-0.1414898
-4.000566	HOUSEKEEPER	-0.310434
-5.176594	HOUSEKEEPER'S	-0.1682917
-4.699518	HOUSEKEEPING	-0.4257434
-4.875597	HOUSEMAID	-0.1354758
-5.176594	HOUSEMAIDS	-0.1527639
-4.574584	HOUSES	-0.2199191
-2.813049	HOW	-0.4069155
-3.049556	HOWEVER	-1.067759
-5.176594	HOWSOEVER	-0.1641387
-5.176594	HUG	-0.1683583
-4.398499	HUMAN	-0.3623382
-4.875597	HUMANITY	-0.3361282
-4.222411	HUMBLE	-0.5318472
-4.574584	HUMBLED	-0.1170606
-5.176594	HUMBLING	-0.1684537
-4.875597	HUMILIATING	-0.1660165
-4.875597	HUMILIATION	-0.1399508
-4.477678	HUMILITY	-0.2604669
-3.778719	HUMOUR	-0.2473268
-4.331553	HUMOURED	-0.1847927
-4.398499	HUNDRED	-0.2778618
-3.778719	HUNSFORD	-0.3418591
-5.176594	HUNTING	-0.1656469
-4.176655	HURRIED	-0.2223094
-4.135262	HURRY	-0.2916528
-4.699518	HURRYING	-0.1680456
-3.671509	HURST	-0.4456079
-5.176594	HURSTS	-0.1662841
-5.176594	HURST'S	-0.1687054
-4.398499	HURT	-0.2456816
-5.176594	HURTS	-0.1674283
-3.55341	HUSBAND	-0.2922135
-4.574584	HUSBANDS	-0.2075696
-4.273563	HUSBAND'S	-0.1468625
-5.176594	HUSHED	-0.1683988
-5.176594	HYPOCRISY	-0.1577982
-4.875597	HYPOCRITICAL	-0.1525959
-5.176594	HYSTERICS	-0.1414898
-1.860901	I	-0.9627416
-3.486464	IDEA	-0.5360438
-4.062713	IDEAS	-0.1776733
-4.273563	IDLE	-0.3584552
-4.875597	IDLENESS	-0.3525108
-2.632593	IF	-0.8549187
-4.331553	IGNORANCE	-0.1976427
-3.972537	IGNORANT	-0.6768451
-3.301599	ILL	-0.4131624
-5.176594	ILLIBERAL	-0.1685608
-5.176594	ILLITERATE	-0.1578723
-4.875597	ILLNESS	-0.1623261
-5.176594	ILLUSTRATION	-0.1577982
-5.176594	ILLUSTRIOUS	-0.1687227
-4.875597	IMAGINABLE	-0.1525479
-4.477678	IMAGINARY	-0.187264
-4.574584	IMAGINATION	-0.131912
-5.176594	IMAGINATIONS	-0.1642556
-3.745295	IMAGINE	-0.3900877
-4.477678	IMAGINED	-0.2982585
-5.176594	IMITATE	-0.165032
-5.176594	IMITATED	-0.1414898
-5.176594	IMITATION	-0.1527639
-5.176594	IMITATIONS	-0.1577982
-4.097474	IMMEDIATE	-0.1239299
-3.398509	IMMEDIATELY	-0.3035195
-5.176594	IMMORAL	-0.168717
-4.875597	IMMOVABLE	-0.1615889
-5.176594	IMPARTED	-0.1673065
-4.699518	IMPARTIAL	-0.1525149
-5.176594	IMPARTIALITY	-0.1687227
-5.176594	IMPASSABLE	-0.1685434
-4.176655	IMPATIENCE	-0.1542644
-4.273563	IMPATIENT	-0.3818772
-4.477678	IMPATIENTLY	-0.1920853
-5.176594	IMPELLED	-0.1665283
-5.176594	IMPENETRABLY	-0.1686996
-5.176594	IMPERFECTION	-0.1577982
-5.176594	IMPERFECTLY	-0.168688
-4.273563	IMPERTINENCE	-0.1406311
-4.398499	IMPERTINENT	-0.1967865
-5.176594	IMPERTURBABLY	-0.1686996
-5.176594	IMPETUOUS	-0.1684393
-5.176594	IMPLACABILITY	-0.1577982
-5.176594	IMPLACABLE	-0.1686765
-5.176594	IMPLICIT	-0.1686938
-5.176594	IMPLICITNESS	-0.1577982
-5.176594	IMPLIED	-0.1686186
-5.176594	IMPLIES	-0.1527639
-5.176594	IMPLY	-0.1642643
-5.176594	IMPOLITIC	-0.1683148
-3.745295	IMPORTANCE	-0.3071016
-4.176655	IMPORTANT	-0.1562158
-5.176594	IMPORTING	-0.1641387
-5.176594	IMPORTUNE	-0.1666417
-5.176594	IMPORTUNED	-0.1673065
-4.875597	IMPOSE	-0.1664295
-4.574584	IMPOSED	-0.3445874
-5.176594	IMPOSING	-0.1685984
-3.533207	IMPOSSIBLE	-0.6994596
-5.176594	IMPRESSED	-0.1666504
-5.176594	IMPRESSING	-0.1674283
-4.331553	IMPRESSION	-0.2705467
-5.176594	IMPRESSIVE	-0.1630796
-4.331553	IMPROBABLE	-0.1613886
-4.875597	IMPROPER	-0.1522537
-5.176594	IMPROPRIETIES	-0.1577982
-4.477678	IMPROPRIETY	-1.064117
-4.699518	IMPROVE	-0.1660078
-4.398499	IMPROVED	-0.1839899
-4.222411	IMPROVEMENT	-0.4097385
-5.176594	IMPROVEMENTS	-0.1642643
-4.875597	IMPROVES	-0.1671672
-4.222411	IMPRUDENCE	-0.2636608
-4.135262	IMPRUDENT	-0.153761
-4.699518	IMPUDENCE	-0.2663105
-5.176594	IMPUDENT	-0.1683033
-4.699518	IMPULSE	-0.4420519
-5.176594	IMPULSES	-0.1684885
-5.176594	IMPUNITY	-0.1414898
-5.176594	IMPURITIES	-0.1414898
-5.176594	IMPUTE	-0.1642643
-4.574584	IMPUTED	-0.2274283
-5.176594	IMPUTING	-0.165032
-1.88886	IN	-0.6351514
-5.176594	INADEQUATE	-0.1565154
-4.875597	INATTENTION	-0.1400899
-4.875597	INATTENTIVE	-0.3511538
-4.273563	INCAPABLE	-0.9433151
-5.176594	INCAUTIOUSLY	-0.1687083
-4.875597	INCENSED	-0.1517338
-5.176594	INCESSANT	-0.1687083
-4.875597	INCESSANTLY	-0.1414221
-5.176594	INCHES	-0.1687054
-4.699518	INCIVILITY	-0.1228387
-3.834235	INCLINATION	-0.3930133
-5.176594	INCLINATIONS	-0.1577982
-4.176655	INCLINED	-0.8524982
-5.176594	INCLUDE	-0.1647811
-4.875597	INCLUDED	-0.1655653
-4.875597	INCLUDING	-0.1535552
-4.135262	INCOME	-0.2904896
-4.875597	INCOMPREHENSIBLE	-0.3474024
-5.176594	INCONCEIVABLE	-0.1686765
-5.176594	INCONSIDERABLE	-0.1684595
-4.875597	INCONSISTENCIES	-0.1404387
-4.875597	INCONSISTENCY	-0.3524366
-4.398499	INCONVENIENCE	-0.2285768
-4.875597	INCONVENIENCES	-0.1577775
-4.574584	INCONVENIENT	-0.1413851
-4.398499	INCREASE	-0.1017442
-4.135262	INCREASED	-0.1642857
-5.176594	INCREASES	-0.1527639
-4.176655	INCREASING	-0.1437861
-4.699518	INCREDIBLE	-0.1502942
-4.699518	INCREDULITY	-0.1124409
-4.699518	INCREDULOUS	-0.1640335
-4.574584	INCUMBENT	-0.3496466
-5.176594	INCUR	-0.1665283
-5.176594	INCURRED	-0.1630796
-4.273563	INDEBTED	-0.425332
-5.176594	INDECISION	-0.1630796
-5.176594	INDECORUM	-0.1577982
-3.198937	INDEED	-0.8697087
-5.176594	INDEFINITE	-0.1414898
-4.875597	INDELICACY	-0.1520074
-5.176594	INDELICATE	-0.1687141
-4.398499	INDEPENDENCE	-0.1623876
-4.875597	INDEPENDENT	-0.1576826
-5.176594	INDICATED	-0.1687112
-3.946208	INDIFFERENCE	-0.3256875
-3.972537	INDIFFERENT	-0.2015885
-4.875597	INDIGNANT	-0.1666155
-4.273563	INDIGNATION	-0.2142429
-4.875597	INDIGNITY	-0.1631235
-4.875597	INDIRECT	-0.3633322
-5.176594	INDISCREET	-0.1627015
-5.176594	INDISPENSABLY	-0.168636
-4.875597	INDISPOSED	-0.1495695
-5.176594	INDISTINCTLY	-0.1577982
-4.875597	INDIVIDUAL	-0.1244746
-5.176594	INDIVIDUALLY	-0.1565154
-4.875597	INDOLENCE	-0.141499
-5.176594	INDOLENT	-0.1683033
-4.699518	INDUCE	-0.2831176
-4.875597	INDUCED	-0.1625461
-4.477678	INDUCEMENT	-0.1786784
-5.176594	INDUCEMENTS	-0.1671643
-4.477678	INDULGE	-0.1456262
-4.875597	INDULGED	-0.1401269
-4.398499	INDULGENCE	-0.1661704
-5.176594	INDULGENT	-0.1653002
-5.176594	INDULGING	-0.1558368
-5.176594	INDUSTRIOUSLY	-0.1687227
-5.176594	INEFFECTUAL	-0.1527639
-4.699518	INEVITABLE	-0.136704
-5.176594	INEVITABLY	-0.168717
-5.176594	INEXHAUSTIBLE	-0.1684827
-5.176594	INEXPRESSIBLE	-0.1686967
-5.176594	INEXPRESSIBLY	-0.1686851
-4.574584	INFAMOUS	-0.1409938
-4.574584	INFAMY	-0.1234616
-4.875597	INFANCY	-0.1244746
-5.176594	INFATUATION	-0.1414898
-5.176594	INFERENCES	-0.1414898
-4.477678	INFERIOR	-0.1425383
-4.699518	INFERIORITY	-0.4420519
-4.875597	INFINITE	-0.1685753
-4.574584	INFINITELY	-0.2548954
-5.176594	INFLEXIBLY	-0.1687227
-4.875597	INFLICT	-0.1414036
-5.176594	INFLICTED	-0.1527639
-5.176594	INFLICTION	-0.1414898
-4.030529	INFLUENCE	-0.3559855
-5.176594	INFLUENCED	-0.1665283
-5.176594	INFLUENCING	-0.165032
-4.331553	INFORM	-0.3241291
-5.176594	INFORMALITY	-0.1630796
-3.729501	INFORMATION	-0.4446051
-4.097474	INFORMED	-0.1988432
-4.875597	INFORMING	-0.1609653
-5.176594	INFORMS	-0.1674283
-4.875597	INGENIOUS	-0.165644
-4.875597	INGENUITY	-0.1284773
-5.176594	INGRATITUDE	-0.1578723
-4.699518	INHABITANTS	-0.2610677
-5.176594	INHERIT	-0.1672513
-5.176594	INHERITED	-0.1687025
-4.875597	INHERITING	-0.1671904
-5.176594	INHUMANITY	-0.1653002
-5.176594	INIQUITOUS	-0.1686736
-5.176594	INJUNCTION	-0.1578723
-5.176594	INJUNCTIONS	-0.1641387
-4.875597	INJURE	-0.1599958
-4.574584	INJURED	-0.1376057
-5.176594	INJURIES	-0.1565154
-5.176594	INJURING	-0.1674022
-4.875597	INJURIOUS	-0.3511538
-5.176594	INJURY	-0.1565154
-4.574584	INJUSTICE	-0.09842866
-5.176594	INMATE	-0.1577982
-5.176594	INMATES	-0.1577982
-4.331553	INN	-0.2141166
-5.176594	INNOCENCE	-0.1527639
-4.875597	INNOCENT	-0.1578635
-5.176594	INNOCENTLY	-0.1675646
-5.176594	INNS	-0.1630796
-5.176594	INOFFENSIVE	-0.1414898
-4.176655	INQUIRE	-0.2311223
-4.273563	INQUIRED	-0.1905178
-3.814931	INQUIRIES	-0.2925382
-4.477678	INQUIRING	-0.2084625
-4.176655	INQUIRY	-0.2605515
-4.477678	INSENSIBILITY	-0.2015263
-4.574584	INSENSIBLE	-0.2029794
-4.699518	INSIGNIFICANCE	-0.2677713
-5.176594	INSIGNIFICANT	-0.1642556
-4.875597	INSINCERE	-0.1486711
-5.176594	INSINUATING	-0.1527639
-5.176594	INSIPID	-0.1527639
-5.176594	INSIPIDITY	-0.1414898
-4.273563	INSIST	-0.6073282
-5.176594	INSISTED	-0.1666504
-5.176594	INSISTS	-0.1685058
-5.176594	INSOLENCE	-0.1527639
-4.477678	INSOLENT	-0.1412219
-4.875597	INSPECTION	-0.1542941
-5.176594	INSPIRE	-0.1414898
-4.875597	INSPIRED	-0.1630708
-5.176594	INSPIRES	-0.1630796
-5.176594	INSPIRING	-0.1675994
-5.176594	INSTABILITY	-0.1414898
-4.331553	INSTANCE	-0.3092627
-4.574584	INSTANCES	-0.112319
-4.398499	INSTANT	-0.2477199
-5.176594	INSTANTANEOUS	-0.1686794
-3.685297	INSTANTLY	-0.1915709
-3.854439	INSTEAD	-1.478535
-4.875597	INSTINCTIVELY	-0.168448
-5.176594	INSTITUTED	-0.1665283
-5.176594	INSTRUCT	-0.1414898
-5.176594	INSTRUCTED	-0.1622439
-5.176594	INSTRUCTING	-0.167466
-4.875597	INSTRUCTION	-0.1244746
-4.699518	INSTRUCTIONS	-0.1374162
-4.135262	INSTRUMENT	-0.2656302
-5.176594	INSUFFERABLE	-0.1527639
-5.176594	INSUFFERABLY	-0.1687227
-4.176655	INSUFFICIENT	-0.3445835
-5.176594	INSULTED	-0.1674283
-5.176594	INSULTING	-0.1674283
-4.699518	INSUPPORTABLE	-0.1472789
-4.699518	INTEGRITY	-0.1403369
-3.897904	INTELLIGENCE	-0.4147151
-4.574584	INTELLIGENT	-0.1386977
-4.574584	INTELLIGIBLE	-0.1243977
-4.699518	INTEND	-0.1518631
-3.854439	INTENDED	-0.5146983
-4.331553	INTENDING	-0.9060048
-4.000566	INTENTION	-0.6366751
-4.875597	INTENTIONALLY	-0.1414775
-4.398499	INTENTIONS	-0.2000622
-4.875597	INTENTLY	-0.1643549
-4.398499	INTERCOURSE	-0.1495997
-3.761685	INTEREST	-0.3690403
-4.273563	INTERESTED	-0.2418087
-4.030529	INTERESTING	-0.1538737
-5.176594	INTERFERE	-0.1527639
-4.062713	INTERFERENCE	-0.2027211
-5.176594	INTERFERING	-0.1642556
-5.176594	INTERMARRIAGE	-0.1414898
-5.176594	INTERMEDIATE	-0.1687112
-4.699518	INTERMISSION	-0.1364393
-5.176594	INTERPOSE	-0.1674022
-5.176594	INTERPRETATION	-0.1414898
-4.477678	INTERRUPT	-0.1487286
-4.222411	INTERRUPTED	-0.2633623
-4.875597	INTERRUPTING	-0.3594195
-4.176655	INTERRUPTION	-0.1866904
-5.176594	INTERRUPTIONS	-0.1577982
-4.574584	INTERVAL	-0.339249
-4.699518	INTERVALS	-0.2716079
-5.176594	INTERVENE	-0.1680688
-4.699518	INTERVIEW	-0.1373634
-4.176655	INTIMACY	-0.2349641
-4.062713	INTIMATE	-0.1671545
-4.875597	INTIMATELY	-0.3632946
-5.176594	INTIMATES	-0.1630796
-5.176594	INTIMATION	-0.1577982
-5.176594	INTIMIDATE	-0.1674283
-5.176594	INTIMIDATED	-0.1683148
-3.024372	INTO	-0.5291635
-4.699518	INTOLERABLE	-0.2441202
-5.176594	INTREPIDITY	-0.1683409
-4.875597	INTRICATE	-0.1685319
-5.176594	INTRIGUES	-0.1414898
-4.135262	INTRODUCE	-0.2352929
-4.222411	INTRODUCED	-0.1345768
-4.574584	INTRODUCING	-0.236235
-4.135262	INTRODUCTION	-0.1187675
-4.875597	INTRUDE	-0.1398273
-5.176594	INTRUDER	-0.1653002
-4.875597	INTRUDING	-0.1665516
-4.699518	INTRUSION	-0.2587956
-5.176594	INURED	-0.1565154
-5.176594	INVALID	-0.1414898
-4.699518	INVALUABLE	-0.2835973
-5.176594	INVARIABLE	-0.1686418
-4.875597	INVARIABLY	-0.1686273
-5.176594	INVECTIVES	-0.1685752
-5.176594	INVENT	-0.1675994
-5.176594	INVENTING	-0.1681527
-5.176594	INVENTION	-0.1633519
-5.176594	INVESTIGATION	-0.1578723
-3.64518	INVITATION	-0.522365
-5.176594	INVITATIONS	-0.1414898
-4.398499	INVITE	-0.5078933
-4.135262	INVITED	-0.264644
-4.699518	INVITING	-0.1480893
-4.875597	INVOLUNTARILY	-0.1685521
-5.176594	INVOLUNTARY	-0.1687054
-4.875597	INVOLVE	-0.1663656
-4.699518	INVOLVED	-0.4473332
-5.176594	INVOLVES	-0.1622439
-4.875597	INVOLVING	-0.1545392
-5.176594	IRISH	-0.1687227
-4.875597	IRKSOME	-0.1244746
-5.176594	IRREGULARITY	-0.1414898
-5.176594	IRRELIGIOUS	-0.1678544
-5.176594	IRREMEDIABLE	-0.1687141
-5.176594	IRREPROACHABLE	-0.1642556
-5.176594	IRRETRIEVABLE	-0.1642556
-5.176594	IRREVOCABLY	-0.1686938
-4.875597	IRRITABLE	-0.3361282
-5.176594	IRRITATED	-0.1665109
-4.699518	IRRITATION	-0.148356
-2.212402	IS	-0.4823227
-1.990553	IT	-0.7182724
-5.176594	ITALIAN	-0.1687227
-3.155471	ITS	-0.2811733
-4.222411	ITSELF	-0.2242416
-4.398499	JAMES'S	-0.1746578
-2.664778	JANE	-0.6303836
-3.729501	JANE'S	-0.1680796
-4.875597	JANUARY	-0.141499
-4.699518	JEALOUS	-0.1531957
-4.574584	JEALOUSY	-0.1085492
-4.273563	JENKINSON	-0.2060762
-5.176594	JENKINSON'S	-0.1682917
-5.176594	JESTINGLY	-0.1642556
-5.176594	JEWEL	-0.1577982
-5.176594	JEWELS	-0.1414898
-5.176594	JILT	-0.1647811
-4.875597	JOHN	-0.1654721
-3.897904	JOIN	-0.3097761
-3.729501	JOINED	-0.6357308
-4.477678	JOINING	-0.3071856
-5.176594	JOINTS	-0.1577982
-4.699518	JOKE	-0.119532
-5.176594	JOKES	-0.1414898
-5.176594	JOKING	-0.1414898
-4.574584	JONES	-0.1672397
-5.176594	JONES'S	-0.1687083
-5.176594	JOT	-0.1685029
-3.854439	JOURNEY	-0.4030165
-5.176594	JOURNEYS	-0.1578723
-4.097474	JOY	-0.2377731
-4.875597	JOYFUL	-0.1686042
-5.176594	JOYFULLY	-0.1577982
-4.097474	JUDGE	-0.1607099
-4.331553	JUDGED	-0.1890565
-4.135262	JUDGEMENT	-0.1310971
-4.699518	JUDGING	-0.1686823
-4.875597	JUDGMENT	-0.1354758
-5.176594	JULY	-0.1414898
-5.176594	JUMBLED	-0.1685405
-5.176594	JUMPED	-0.168338
-5.176594	JUMPING	-0.1684624
-5.176594	JUMPS	-0.1672978
-4.699518	JUNE	-0.2441202
-5.176594	JUNIOR	-0.1414898
-3.313337	JUST	-0.3125935
-4.000566	JUSTICE	-0.4790258
-5.176594	JUSTIFICATION	-0.1577982
-4.477678	JUSTIFIED	-0.1960197
-4.398499	JUSTIFY	-0.197833
-5.176594	JUSTIFYING	-0.1622439
-4.699518	JUSTLY	-0.1681151
-5.176594	KEENER	-0.1686215
-4.699518	KEENEST	-0.157558
-3.761685	KEEP	-0.2262546
-4.574584	KEEPING	-0.2471909
-4.699518	KEEPS	-0.1541895
-5.176594	KENILWORTH	-0.1414898
-4.030529	KENT	-0.1701358
-3.946208	KEPT	-0.1575616
-5.176594	KILL	-0.1677791
-4.574584	KILLED	-0.1161804
-3.39133	KIND	-0.5448794
-4.875597	KINDER	-0.1677211
-5.176594	KINDEST	-0.1686504
-5.176594	KINDLED	-0.1558368
-4.331553	KINDLY	-0.1669292
-3.714261	KINDNESS	-0.4399076
-5.176594	KINDRED	-0.1414898
-5.176594	KINDS	-0.1577982
-4.273563	KING	-0.2046102
-4.574584	KINGDOM	-0.1496571
-5.176594	KISS	-0.1414898
-4.875597	KISSED	-0.1620267
-5.176594	KITCHEN	-0.1527639
-3.337811	KITTY	-0.4753606
-4.875597	KITTY'S	-0.1578605
-3.39133	KLETT	-1.77643
-5.176594	KNEES	-0.1687227
-3.413232	KNEW	-0.3615086
-4.875597	KNIGHTHOOD	-0.1620355
-2.800084	KNOW	-0.5475425
-3.745295	KNOWING	-0.2376117
-3.875628	KNOWLEDGE	-0.6141263
-3.413232	KNOWN	-0.2722657
-4.222411	KNOWS	-0.1589393
-5.176594	KYMPTON	-0.1673877
-4.699518	LA	-0.451534
-5.176594	LABOUR	-0.1565154
-5.176594	LACE	-0.1685058
-5.176594	LACONIC	-0.1630796
-5.176594	LAD	-0.1671643
-3.307429	LADIES	-0.2640341
-2.91421	LADY	-0.8199475
-4.273563	LADY'S	-0.1678312
-3.699538	LADYSHIP	-0.3264346
-4.097474	LADYSHIP'S	-0.1951524
-4.875597	LAGGED	-0.3633236
-4.273563	LAID	-0.136704
-5.176594	LAITY	-0.1414898
-4.398499	LAKES	-0.3127176
-4.176655	LAMBTON	-0.4435396
-4.699518	LAMENT	-0.2836353
-4.699518	LAMENTATIONS	-0.1575254
-5.176594	LAMENTED	-0.1414898
-5.176594	LAMENTING	-0.1642643
-5.176594	LAND	-0.1527639
-5.176594	LANDING	-0.1685087
-4.875597	LANDLORD	-0.3361282
-4.176655	LANE	-0.3601323
-5.176594	LANES	-0.1687198
-4.477678	LANGUAGE	-0.12376
-5.176594	LANGUAGES	-0.1414898
-5.176594	LANGUOR	-0.1684624
-5.176594	LARDER	-0.1687025
-3.814931	LARGE	-0.3382593
-4.398499	LARGER	-0.1439917
-5.176594	LARGEST	-0.1687227
-3.09748	LAST	-0.2515678
-4.699518	LASTED	-0.1613772
-4.875597	LASTING	-0.1676719
-5.176594	LASTLY	-0.1414898
-3.897904	LATE	-0.3496486
-4.097474	LATELY	-0.1892893
-4.699518	LATER	-0.1345946
-5.176594	LATEST	-0.1414898
