
\data\
ngram 1=7217
ngram 2=52528
ngram 3=8609

\1-grams:
-1.087646	</s>
-99	<s>	0.03819096
-1.799394	a	-0.4959868
-5.084726	abandoned	-0.1363291
-5.084726	abatement	-0.1437733
-5.084726	abbeyland	-0.1132224
-5.084726	abhor	-0.1489971
-4.783696	abhorred	-0.143951
-4.482666	abhorrence	-0.3474526
-4.130484	abilities	-0.1704293
-4.607605	ability	-0.09980662
-3.441274	able	-1.223109
-5.084726	ablest	-0.1502424
-4.482666	abode	-0.1381002
-5.084726	abominably	-0.1501709
-5.084726	abounded	-0.1437733
-2.951187	about	-0.4214937
-3.805973	above	-0.3312902
-5.084726	abridge	-0.1467804
-5.084726	abridgement	-0.1495415
-4.239628	abroad	-0.1549401
-4.607605	abruptly	-0.2633485
-5.084726	abruptness	-0.1433015
-4.306575	absence	-0.2845644
-5.084726	absenceoh	-0.148409
-4.607605	absent	-0.1434976
-4.607605	absolute	-0.1500458
-4.181636	absolutely	-0.1494347
-5.084726	abstracted	-0.1484772
-5.084726	abstraction	-0.1380304
-4.783696	absurd	-0.1335642
-4.482666	absurdity	-0.2149974
-5.084726	abundance	-0.1380304
-5.084726	abundantly	-0.1502388
-4.607605	abuse	-0.2611782
-5.084726	abused	-0.1417666
-5.084726	abuses	-0.1380304
-5.084726	acacia	-0.1387795
-5.084726	accelerate	-0.1456299
-5.084726	accent	-0.1380304
-5.084726	accents	-0.1499564
-4.084726	accept	-0.125848
-4.607605	acceptable	-0.1422255
-5.084726	acceptably	-0.1460595
-4.783696	acceptance	-0.09989892
-5.084726	acceptancebut	-0.1456299
-4.306575	accepted	-0.1536139
-4.306575	accepting	-0.2510754
-4.385756	accident	-0.2949276
-5.084726	accidental	-0.1502245
-4.482666	accidentally	-0.1497955
-5.084726	accidently	-0.1502317
-4.607605	accommodate	-0.1393661
-4.783696	accommodating	-0.1485777
-4.239628	accommodation	-0.1495396
-5.084726	accommodations	-0.148409
-4.783696	accompanied	-0.1462146
-4.482666	accompany	-0.3877763
-4.783696	accomplished	-0.1345916
-4.783696	accomplishment	-0.1360302
-5.084726	accordant	-0.1469065
-4.783696	according	-0.3398762
-4.607605	accordingly	-0.1031608
-5.084726	accosted	-0.1477375
-3.528424	account	-0.3990411
-5.084726	accounted	-0.1460595
-4.385756	accounts	-0.1698417
-5.084726	accountshe	-0.1499457
-5.084726	accrue	-0.1363291
-5.084726	accurately	-0.1486028
-5.084726	accusation	-0.1132224
-5.084726	accuse	-0.1496775
-5.084726	accustom	-0.1494126
-4.607605	accustomary	-0.1502138
-5.084726	aches	-0.150246
-4.783696	aching	-0.3536751
-4.043334	acknowledge	-0.1215242
-4.043334	acknowledged	-0.06578366
-4.385756	acknowledging	-0.155957
-4.482666	acknowledgment	-0.3835174
-4.607605	acknowledgments	-0.2565403
-3.306575	acquaintance	-0.2120169
-5.084726	acquaintanceoh	-0.148409
-5.084726	acquaintancepoor	-0.150246
-5.084726	acquaintances	-0.1363291
-3.669753	acquainted	-0.7061211
-5.084726	acquiesced	-0.1437733
-4.783696	acquiescence	-0.1112802
-5.084726	acquired	-0.1477087
-4.783696	acquisition	-0.3415775
-4.482666	acquit	-0.2333195
-4.783696	acquitted	-0.1123109
-5.084726	acquitting	-0.1480788
-4.306575	across	-0.6162509
-4.084726	act	-0.1712542
-4.482666	acted	-0.1339057
-4.306575	acting	-0.1512865
-4.385756	action	-0.1954196
-4.306575	actions	-0.08323246
-4.130484	active	-0.1072316
-4.783696	acts	-0.1338352
-5.084726	actual	-0.1501888
-4.306575	actually	-0.1474858
-5.084726	acute	-0.1501959
-5.084726	acutely	-0.1494269
-4.783696	acuteness	-0.3415775
-5.084726	adapted	-0.1477375
-5.084726	aday	-0.1435701
-4.306575	add	-0.3127924
-3.482666	added	-0.2147623
-5.084726	adding	-0.1500601
-4.239628	addition	-0.2044677
-4.607605	additional	-0.1497025
-4.783696	additions	-0.1342544
-3.783696	address	-0.1577135
-4.607605	addressed	-0.1272847
-5.084726	addresses	-0.1363291
-4.607605	addressing	-0.1391279
-5.084726	adequate	-0.1363291
-5.084726	adhering	-0.1363291
-4.783696	adieu	-0.09804121
-4.783696	adieus	-0.1355943
-4.783696	adjoining	-0.1481219
-5.084726	adjusting	-0.1417666
-5.084726	administer	-0.1474822
-5.084726	administering	-0.1363587
-5.084726	admirable	-0.1502281
-3.805973	admiration	-0.3806512
-5.084726	admirationa	-0.1132224
-5.084726	admirationshe	-0.1132224
-4.084726	admire	-0.1643727
-4.385756	admired	-0.08545327
-5.084726	admirers	-0.14952
-4.607605	admires	-0.2705788
-4.607605	admiring	-0.1358751
-5.084726	admission	-0.1380304
-4.306575	admit	-0.1187246
-4.783696	admittance	-0.1473995
-4.385756	admitted	-0.07240407
-4.607605	admitting	-0.1347471
-4.482666	adopt	-0.1409424
-5.084726	adopted	-0.1363587
-4.783696	adorned	-0.1351617
-4.607605	advance	-0.1478201
-4.130484	advanced	-0.2143442
-5.084726	advancement	-0.1380304
-4.783696	advances	-0.1385556
-4.783696	advancing	-0.1321286
-3.686786	advantage	-0.3875068
-5.084726	advantageous	-0.1502067
-5.084726	advantageousher	-0.1502353
-4.607605	advantages	-0.1327912
-4.084726	advice	-0.1129205
-4.385756	advisable	-0.2495133
-4.181636	advise	-0.2458516
-4.482666	advised	-0.3852862
-4.783696	affability	-0.1061651
-4.783696	affable	-0.1007167
-3.669753	affair	-0.1806723
-5.084726	affairi	-0.1440561
-4.482666	affairs	-0.1050483
-4.607605	affect	-0.1129188
-4.607605	affectation	-0.2245193
-4.306575	affected	-0.2052262
-5.084726	affectedly	-0.150246
-5.084726	affectedlyno	-0.148409
-4.482666	affecting	-0.3791119
-3.227394	affection	-0.3900853
-3.742304	affectionate	-0.23894
-4.783696	affectionately	-0.1476908
-4.130484	affections	-0.1275833
-5.084726	affectionthat	-0.1485956
-5.084726	affects	-0.1501209
-5.084726	affirmative	-0.1132224
-5.084726	affixed	-0.1363291
-5.084726	afflict	-0.1363587
-5.084726	afflicted	-0.1475721
-5.084726	afflicting	-0.1500565
-3.908635	affliction	-0.09279677
-5.084726	afflictionher	-0.1500959
-5.084726	afflictions	-0.1469065
-4.607605	affluence	-0.1392489
-3.938598	afford	-0.3127779
-4.306575	afforded	-0.2078487
-4.607605	affording	-0.2354783
-4.783696	affront	-0.1300673
-4.783696	affronting	-0.1413438
-3.742304	afraid	-0.3033981
-2.815213	after	-0.3810745
-5.084726	afterdays	-0.1461713
-4.783696	afternoon	-0.1466003
-5.084726	afterward	-0.1502281
-3.579576	afterwards	-0.125562
-5.084726	afterwardsis	-0.1496989
-2.974137	again	-0.3294
-5.084726	againand	-0.1474822
-4.783696	againbut	-0.1397873
-5.084726	againhis	-0.150246
-5.084726	againso	-0.150246
-3.285386	against	-0.2956557
-5.084726	againyet	-0.1449649
-3.805973	age	-0.2603045
-5.084726	ages	-0.1488
-5.084726	aggrandizement	-0.1469065
-5.084726	aggravation	-0.1380304
-5.084726	agitate	-0.1417666
-4.783696	agitated	-0.1007167
-3.938598	agitation	-0.1322885
-3.970783	ago	-0.2174338
-5.084726	agobut	-0.1500458
-4.783696	agonies	-0.3415775
-4.306575	agony	-0.1144425
-4.385756	agree	-0.2899813
-3.722999	agreeable	-0.1931478
-5.084726	agreeablewant	-0.1380304
-4.181636	agreed	-0.2768088
-5.084726	agreeing	-0.1363291
-4.783696	agreement	-0.138541
-4.181636	ah	-0.1862886
-5.084726	ahnohave	-0.1462939
-4.607605	aid	-0.1418359
-4.783696	ailment	-0.1456119
-5.084726	ailments	-0.147953
-5.084726	aim	-0.1474822
-4.783696	aimed	-0.3510293
-3.908635	air	-0.2795455
-5.084726	airnor	-0.1467804
-4.783696	alacrity	-0.1007167
-3.829454	alarm	-0.111487
-4.607605	alarmed	-0.1444945
-4.783696	alarming	-0.1387245
-5.084726	alarms	-0.1387795
-5.084726	alienated	-0.1484772
-4.239628	alike	-0.11737
-4.783696	alive	-0.1428947
-2.296558	all	-0.3983054
-5.084726	alleged	-0.1440561
-3.854277	allenham	-0.1409758
-5.084726	alleviation	-0.1380304
-5.084726	allfor	-0.1495844
-5.084726	allhis	-0.1132224
-4.783696	alli	-0.1494019
-3.686786	allow	-0.344745
-5.084726	allowable	-0.1502353
-4.482666	allowance	-0.1253137
-5.084726	allowances	-0.1482403
-3.880606	allowed	-0.2448375
-4.783696	allowing	-0.1363218
-5.084726	alloy	-0.1132224
-5.084726	allshe	-0.14952
-4.607605	alluded	-0.5123664
-5.084726	allusion	-0.1363291
-3.165648	almost	-0.266486
-3.669753	alone	-0.1211121
-5.084726	aloneand	-0.1501781
-5.084726	alonenonot	-0.1499243
-4.084726	along	-0.1783255
-4.783696	aloud	-0.1452397
-5.084726	alphabet	-0.1468921
-3.412628	already	-0.1923426
-5.084726	alreadyfor	-0.1486673
-4.607605	also	-0.1319721
-4.783696	altar	-0.1347175
-4.783696	alter	-0.1039764
-3.970783	alteration	-0.3973128
-5.084726	alterations	-0.1483229
-4.385756	altered	-0.1831833
-5.084726	alteredso	-0.150246
-5.084726	alternately	-0.150246
-5.084726	alternative	-0.1492658
-4.482666	although	-0.09444399
-3.908635	altogether	-0.1300123
-3.020268	always	-0.1836382
-2.719238	am	-0.552006
-4.130484	amazement	-0.1812614
-5.084726	amazementand	-0.1495271
-5.084726	amazementwell	-0.150246
-5.084726	amazing	-0.1495379
-5.084726	amazingly	-0.150103
-4.783696	ambition	-0.1294305
-5.084726	amended	-0.1387795
-4.239628	amendment	-0.1176086
-4.306575	amends	-0.5973111
-3.854277	amiable	-0.2688754
-5.084726	amiably	-0.150246
-5.084726	amidst	-0.1363587
-5.084726	amiss	-0.1460595
-3.805973	among	-0.2430273
-4.239628	amongst	-0.1987969
-4.482666	amount	-0.2177868
-5.084726	amounted	-0.1460847
-5.084726	ample	-0.1502424
-4.607605	amply	-0.1502102
-4.783696	amuse	-0.3453137
-4.607605	amused	-0.2638252
-3.970783	amusement	-0.1716211
-4.783696	amusements	-0.1358086
-5.084726	amusing	-0.1387795
-2.574181	an	-0.3650178
-4.783696	ancient	-0.1461208
-1.583941	and	-0.1731445
-4.783696	anew	-0.1377988
-4.607605	angel	-0.1049294
-4.385756	anger	-0.1793451
-5.084726	angrily	-0.1474822
-4.005545	angry	-0.184605
-4.783696	anguish	-0.3415775
-4.239628	animated	-0.1950907
-4.783696	animating	-0.1501209
-4.607605	animation	-0.2253371
-5.084726	animationbut	-0.1449649
-5.084726	ankle	-0.1440561
-5.084726	ankles	-0.1132224
-4.783696	annamaria	-0.1442917
-5.084726	annamarias	-0.1502281
-4.306575	anne	-0.2541033
-5.084726	annexed	-0.1363291
-4.783696	annihilation	-0.3415775
-4.385756	announce	-0.1971619
-4.783696	announced	-0.09804121
-4.607605	announcing	-0.1355795
-4.482666	annuities	-0.1375634
-4.482666	annuity	-0.1266551
-5.084726	annum	-0.1387795
-3.227394	another	-0.1646485
-5.084726	anotherand	-0.1456299
-4.783696	anothers	-0.1499564
-5.084726	anothersuch	-0.1433015
-3.622328	answer	-0.1702192
-4.783696	answerable	-0.09804121
-3.722999	answered	-0.2001514
-4.783696	answering	-0.1478668
-5.084726	answers	-0.1481254
-4.306575	ant	-0.09106249
-5.084726	anticipate	-0.1501852
-4.783696	anticipated	-0.1341654
-5.084726	anticipating	-0.1363587
-5.084726	anticipation	-0.1449649
-5.084726	anticipations	-0.1380304
-3.908635	anxiety	-0.2097034
-3.669753	anxious	-0.5755717
-4.482666	anxiously	-0.1500709
-2.52482	any	-0.3915873
-4.084726	anybody	-0.0723613
-5.084726	anybodys	-0.1500923
-5.084726	anymore	-0.1490258
-3.722999	anything	-0.06354588
-4.607605	apartment	-0.1175588
-5.084726	apartments	-0.1461713
-4.385756	apiece	-0.162424
-5.084726	apologies	-0.1475721
-4.607605	apologising	-0.2665619
-5.084726	apologize	-0.1499386
-5.084726	apologized	-0.1460595
-4.084726	apology	-0.2332777
-4.607605	apothecary	-0.1003882
-4.783696	apparent	-0.1387245
-4.482666	apparently	-0.1418723
-5.084726	appeal	-0.1363291
-3.704515	appear	-0.2493903
-3.722999	appearance	-0.3269351
-4.783696	appearances	-0.1500458
-3.622328	appeared	-0.3502155
-5.084726	appearedbut	-0.1494591
-4.385756	appearing	-0.2834694
-5.084726	appeased	-0.1132224
-4.783696	appetite	-0.1262286
-5.084726	appetites	-0.1488
-5.084726	applauded	-0.1498706
-4.607605	application	-0.2483265
-4.607605	applied	-0.1264891
-5.084726	applying	-0.1363291
-5.084726	appointed	-0.1132224
-4.607605	appointment	-0.1326573
-5.084726	apprehended	-0.1417666
-4.783696	apprehension	-0.1262286
-4.482666	apprehensions	-0.1448455
-4.783696	apprehensive	-0.1380084
-4.607605	approach	-0.2508489
-4.783696	approached	-0.1414532
-4.783696	approaching	-0.113055
-4.005545	approbation	-0.1451329
-5.084726	appropriate	-0.1502281
-4.239628	approve	-0.5047314
-4.783696	approved	-0.110486
-5.084726	apricot	-0.150246
-5.084726	april	-0.1387795
-5.084726	aptitude	-0.1363291
-4.783696	arbour	-0.148409
-5.084726	archness	-0.1380304
-4.783696	ardent	-0.1496703
-4.607605	ardour	-0.2508489
-2.740334	are	-0.2715699
-5.084726	areas	-0.1449649
-5.084726	areyou	-0.1492945
-5.084726	argue	-0.14991
-4.783696	argument	-0.1374861
-4.482666	arguments	-0.2210815
-4.306575	arise	-0.3284258
-5.084726	ariseand	-0.1417666
-4.783696	arisen	-0.3520243
-4.783696	arm	-0.1439764
-5.084726	armfor	-0.1435701
-4.482666	arms	-0.1054486
-4.130484	arose	-0.1547073
-4.239628	around	-0.2339091
-4.239628	arranged	-0.1805982
-4.306575	arrangement	-0.1516896
-4.783696	arrangements	-0.1007167
-5.084726	arranging	-0.1486028
-3.653363	arrival	-0.2624405
-5.084726	arrive	-0.1440561
-3.854277	arrived	-0.1329421
-5.084726	arrives	-0.1495486
-4.783696	arriving	-0.1381627
-4.783696	art	-0.1496202
-4.783696	artful	-0.1319199
-4.783696	article	-0.09989892
-5.084726	articulate	-0.1501209
-5.084726	articulation	-0.1490903
-5.084726	artificial	-0.1387795
-5.084726	artless	-0.150246
-5.084726	artlessness	-0.1449649
-2.029348	as	-0.5507326
-5.084726	ascended	-0.1363587
-5.084726	ascending	-0.1363587
-5.084726	ascertain	-0.1487677
-4.783696	ascertained	-0.1471369
-4.130484	ashamed	-0.6255484
-4.385756	aside	-0.1855839
-3.566212	ask	-0.2685946
-3.783696	asked	-0.1177452
-4.482666	asking	-0.1321509
-4.783696	asleep	-0.1333525
-4.783696	aspect	-0.1275671
-5.084726	assembled	-0.1474822
-5.084726	assemblies	-0.1387795
-4.482666	assent	-0.09404156
-4.783696	assented	-0.1357827
-5.084726	asserted	-0.1363291
-4.181636	assertion	-0.08689441
-5.084726	assertions	-0.1495271
-4.783696	assiduities	-0.1413
-5.084726	assiduous	-0.1132224
-4.783696	assigned	-0.1472376
-3.970783	assist	-0.2239353
-3.938598	assistance	-0.1137353
-4.385756	assisted	-0.1709209
-5.084726	assisting	-0.1132224
-5.084726	associate	-0.1469065
-5.084726	associating	-0.1469065
-5.084726	assuage	-0.1363587
-3.970783	assurance	-0.3394152
-4.084726	assurances	-0.3605444
-3.593365	assure	-0.7545378
-3.686786	assured	-0.4547789
-4.783696	assuring	-0.1403067
-4.005545	astonished	-0.3018661
-5.084726	astonishing	-0.1492658
-5.084726	astonishinghe	-0.1499743
-5.084726	astonishingno	-0.150246
-3.880606	astonishment	-0.1744829
-5.084726	astonishmentbut	-0.1444691
-5.084726	astray	-0.1132224
-5.084726	asunder	-0.1493517
-2.197109	at	-0.8308612
-4.783696	ate	-0.1486135
-5.084726	atmosphere	-0.1462939
-4.783696	atone	-0.3496065
-5.084726	atoned	-0.1460595
-4.607605	atonement	-0.2483265
-5.084726	atoning	-0.1460595
-4.385756	attach	-0.1716415
-4.084726	attached	-1.133705
-4.482666	attaching	-0.1079412
-3.566212	attachment	-0.3164088
-4.482666	attachments	-0.1000835
-4.607605	attack	-0.1313642
-5.084726	attacked	-0.1417666
-5.084726	attacks	-0.1469065
-4.783696	attainable	-0.1007167
-5.084726	attained	-0.1444691
-3.880606	attempt	-0.3266931
-4.084726	attempted	-0.2891636
-4.181636	attempting	-0.4403846
-4.783696	attempts	-0.1351839
-4.130484	attend	-0.1885982
-4.482666	attendance	-0.1363439
-5.084726	attendant	-0.1488968
-4.783696	attendants	-0.141701
-3.854277	attended	-0.1549359
-4.084726	attending	-0.2334625
-3.352333	attention	-0.3836111
-4.181636	attentions	-0.118209
-5.084726	attentionto	-0.1497633
-4.239628	attentive	-0.1832736
-4.607605	attentively	-0.1457708
-5.084726	atthey	-0.1494591
-4.783696	attitude	-0.1360487
-4.607605	attract	-0.1341134
-4.607605	attracted	-0.270835
-4.607605	attraction	-0.142822
-4.306575	attractions	-0.1797536
-4.783696	attractive	-0.1387098
-4.482666	attribute	-0.202875
-4.607605	attributed	-0.1255218
-4.783696	attributing	-0.1444546
-5.084726	audacity	-0.1481937
-5.084726	audible	-0.1502281
-5.084726	auditors	-0.1387795
-5.084726	augmented	-0.1502281
-5.084726	augmenting	-0.1486028
-5.084726	aunt	-0.1485633
-5.084726	auspicious	-0.1132224
-5.084726	auspiciously	-0.1461713
-5.084726	author	-0.1132224
-4.607605	authorised	-0.1218143
-4.607605	authority	-0.1097532
-5.084726	authoritynot	-0.1456299
-4.783696	authors	-0.1476728
-4.783696	autumn	-0.1125565
-4.783696	avail	-0.1123109
-5.084726	availed	-0.1484664
-5.084726	availwas	-0.1435701
-5.084726	avarice	-0.1491261
-5.084726	avariceor	-0.1487677
-4.783696	avignon	-0.1319199
-3.880606	avoid	-0.1951173
-4.306575	avoided	-0.2510604
-4.607605	avoiding	-0.1354686
-5.084726	avowal	-0.1380304
-5.084726	awaited	-0.1488179
-5.084726	awake	-0.1363587
-5.084726	awaken	-0.1484772
-4.482666	awakened	-0.1312261
-5.084726	awaking	-0.150246
-3.880606	aware	-0.7451771
-3.084726	away	-0.4569758
-5.084726	awayand	-0.1456299
-4.607605	awful	-0.1432507
-5.084726	awhile	-0.1495271
-4.607605	awkward	-0.1129227
-5.084726	awkwardness	-0.1435701
-5.084726	awoke	-0.1363587
-4.181636	ay	-0.26596
-4.043334	aye	-0.2931477
-3.880606	ayear	-0.08141968
-5.084726	ayearwere	-0.149298
-4.783696	baby	-0.1262286
-5.084726	babys	-0.1501209
-4.607605	bachelor	-0.1022918
-3.540658	back	-0.2644054
-5.084726	backlord	-0.1495486
-4.783696	backwardness	-0.1340986
-5.084726	backwards	-0.1387795
-4.005545	bad	-0.2067941
-5.084726	badness	-0.1380304
-4.607605	balls	-0.1344397
-5.084726	banditti	-0.1437733
-5.084726	banish	-0.1489971
-4.607605	banished	-0.1324898
-5.084726	bankers	-0.1132224
-5.084726	banknotes	-0.1498492
-5.084726	banns	-0.1380304
-4.783696	barbarous	-0.1334417
-5.084726	barbarously	-0.150246
-4.783696	bargain	-0.1007167
-4.783696	barouche	-0.1475326
-5.084726	barouches	-0.14805
-4.306575	bartletts	-0.6388675
-3.150228	barton	-0.2628064
-5.084726	bashful	-0.1469065
-5.084726	basis	-0.1380304
-4.306575	basket	-0.1328247
-4.783696	bath	-0.1468885
-5.084726	bathed	-0.1469065
-1.999079	be	-0.2161778
-5.084726	beall	-0.1456299
-5.084726	beamed	-0.1437733
-4.783696	beand	-0.1059435
-3.762507	bear	-0.2719557
-5.084726	bearbut	-0.1435701
-4.783696	bearing	-0.1461028
-5.084726	bears	-0.1444691
-5.084726	beasts	-0.1474822
-5.084726	beat	-0.1500244
-4.084726	beau	-0.1065999
-4.482666	beauties	-0.2118734
-4.043334	beautiful	-0.1267758
-4.783696	beautifully	-0.1128876
-3.762507	beauty	-0.2140504
-4.239628	beaux	-0.1332522
-5.084726	beauxthey	-0.1474535
-5.084726	beauxyou	-0.1490509
-5.084726	bebut	-0.1497275
-3.880606	became	-0.1805586
-3.306575	because	-0.4493059
-5.084726	becauseto	-0.1497097
-3.854277	become	-0.1902649
-4.783696	becoming	-0.1395639
-5.084726	becould	-0.1496775
-3.704515	bed	-0.1507716
-4.783696	bedchamber	-0.1074643
-5.084726	bedroom	-0.1132224
-4.783696	bedrooms	-0.1381627
-5.084726	bedsand	-0.1363291
-5.084726	bee	-0.1496667
-5.084726	beef	-0.1474822
-2.466678	been	-0.1605785
-5.084726	beenbut	-0.1444691
-5.084726	beenhow	-0.1499135
-5.084726	beensaw	-0.1480788
-5.084726	beevery	-0.1496345
-5.084726	befall	-0.1480788
-5.084726	befallen	-0.1480788
-5.084726	befalls	-0.1480788
-4.783696	befell	-0.1400178
-2.819909	before	-0.439904
-5.084726	beforebeg	-0.1489613
-5.084726	beforebut	-0.1435701
-5.084726	beforehand	-0.1469065
-5.084726	beforei	-0.1494198
-5.084726	beforemy	-0.1502174
-4.181636	beg	-0.2505402
-3.482666	began	-0.383414
-5.084726	beganbut	-0.1469065
-4.385756	begged	-0.1907823
-4.482666	begging	-0.1231436
-4.306575	begin	-0.1446755
-5.084726	beginhow	-0.1449649
-4.084726	beginning	-0.2868135
-5.084726	begins	-0.1469065
-4.239628	begun	-0.1367125
-4.482666	behave	-0.1444112
-4.130484	behaved	-0.1719935
-3.321298	behaviour	-0.3574074
-5.084726	behaviourand	-0.1498992
-4.607605	beheld	-0.1305835
-3.880606	behind	-0.1397824
-5.084726	behold	-0.1475721
-5.084726	beholding	-0.1502424
-5.084726	bei	-0.1492945
-5.084726	bein	-0.1486673
-2.902883	being	-0.1832387
-5.084726	beings	-0.1477087
-4.239628	belief	-0.5087792
-3.155308	believe	-0.1987899
-3.637568	believed	-0.1763534
-5.084726	believes	-0.14991
-4.181636	believing	-0.1679063
-4.783696	bell	-0.1460487
-5.084726	belonged	-0.1499958
-4.181636	belonging	-0.9403222
-5.084726	belongs	-0.1363291
-4.306575	beloved	-0.1448419
-5.084726	below	-0.1363291
-5.084726	bely	-0.1488179
-4.783696	beneath	-0.113199
-5.084726	benefactress	-0.1380304
-5.084726	beneficial	-0.1502245
-4.482666	benefit	-0.381515
-4.783696	benefited	-0.1449541
-4.607605	benevolence	-0.2245193
-5.084726	benevolent	-0.150246
-5.084726	benignant	-0.1502138
-4.783696	bent	-0.1128604
-5.084726	beor	-0.1489505
-5.084726	bequeath	-0.1444691
-5.084726	bequeathed	-0.14805
-5.084726	bequest	-0.1496524
-4.005545	berkeley	-0.7151151
-5.084726	beset	-0.1469065
-5.084726	beshe	-0.1440561
-4.005545	besides	-0.1124456
-4.783696	bespeak	-0.1489434
-5.084726	bespoke	-0.1363587
-3.669753	best	-0.132596
-4.130484	bestow	-0.1265419
-4.239628	bestowed	-0.259957
-4.607605	bestowing	-0.1439945
-5.084726	bethere	-0.1496524
-4.306575	betrayed	-0.1859757
-4.385756	betraying	-0.09026738
-3.203913	better	-0.3030924
-4.783696	betty	-0.1124279
-4.783696	bettys	-0.3530957
-3.271813	between	-0.4035931
-5.084726	bewhom	-0.1494269
-4.783696	bewitching	-0.143581
-3.451258	beyond	-0.208763
-5.084726	beyour	-0.1501817
-5.084726	bias	-0.1437733
-5.084726	biased	-0.1437733
-4.482666	bid	-0.1073065
-5.084726	bidding	-0.1132224
-5.084726	biddy	-0.150246
-4.783696	bide	-0.1486135
-5.084726	biggerwith	-0.1497347
-5.084726	billiard	-0.1499457
-5.084726	billiards	-0.1482403
-5.084726	bind	-0.1499064
-5.084726	birth	-0.1132224
-5.084726	bishop	-0.1466039
-5.084726	bit	-0.1417666
-5.084726	bitch	-0.1380304
-4.783696	bitter	-0.1487964
-4.783696	bitterly	-0.1081892
-5.084726	bitternessto	-0.1501709
-5.084726	black	-0.150246
-5.084726	blackest	-0.1502424
-5.084726	blackguard	-0.1491798
-4.607605	blamable	-0.1423893
-4.385756	blame	-0.125204
-5.084726	blameable	-0.1500351
-5.084726	blamed	-0.1494556
-5.084726	blameless	-0.1498313
-5.084726	blank	-0.1440561
-5.084726	blast	-0.1387795
-5.084726	blasted	-0.1502388
-4.385756	bless	-0.1777309
-4.607605	blessed	-0.1039009
-4.385756	blessing	-0.145174
-4.783696	blessings	-0.1360487
-5.084726	blights	-0.1437733
-4.385756	blind	-0.2084613
-5.084726	blinded	-0.1477375
-5.084726	blindly	-0.1435701
-5.084726	bliss	-0.1132224
-5.084726	blockhead	-0.1435701
-5.084726	blood	-0.1482403
-5.084726	bloodbut	-0.1462939
-4.607605	bloom	-0.1333674
-5.084726	blooming	-0.150246
-5.084726	blossoms	-0.1435701
-4.239628	blow	-0.09437898
-5.084726	blown	-0.1499171
-5.084726	blue	-0.1502388
-5.084726	blunder	-0.1440561
-5.084726	blundered	-0.147953
-5.084726	blunt	-0.1502245
-5.084726	bluntly	-0.1461713
-5.084726	blush	-0.1501137
-4.482666	blushed	-0.1363402
-5.084726	blushes	-0.1387795
-5.084726	blushing	-0.1500101
-5.084726	bluster	-0.1440561
-4.783696	board	-0.1469281
-4.607605	boast	-0.2626434
-5.084726	boasting	-0.1380304
-5.084726	bodily	-0.1501888
-3.421968	body	-0.2163007
-4.783696	bodys	-0.1126929
-5.084726	bodythank	-0.1462939
-5.084726	boiled	-0.150246
-5.084726	boisterous	-0.1502353
-4.607605	bold	-0.1501995
-4.783696	bolder	-0.3537895
-5.084726	boldly	-0.1380304
-4.482666	bond	-0.3606203
-5.084726	bondstreet	-0.1500101
-5.084726	bones	-0.1380304
-5.084726	bonnet	-0.1499672
-5.084726	bonomis	-0.1435701
-4.306575	book	-0.1514413
-4.130484	books	-0.1951696
-5.084726	booksellers	-0.1132224
-5.084726	booksthomson	-0.1502388
-4.482666	bore	-0.2256096
-4.385756	born	-0.3735021
-4.084726	borne	-0.2218959
-5.084726	borrow	-0.1380304
-5.084726	borrowed	-0.14805
-3.135336	both	-0.1612949
-4.783696	bottom	-0.131368
-5.084726	bottoms	-0.1492945
-4.306575	bound	-0.265835
-5.084726	bout	-0.1502424
-4.482666	bow	-0.09569365
-4.783696	bowed	-0.1300673
-5.084726	bowing	-0.1363291
-5.084726	bowlinggreen	-0.1501924
-4.385756	boy	-0.09653556
-5.084726	boyish	-0.1501316
-4.482666	boys	-0.2015881
-5.084726	branch	-0.1501888
-5.084726	branched	-0.1496989
-3.039403	brandon	-0.1473964
-5.084726	brandonhe	-0.150078
-5.084726	brandonneither	-0.1467804
-5.084726	brandonor	-0.1490437
-3.742304	brandons	-0.1554464
-5.084726	brandonscan	-0.1444691
-5.084726	braving	-0.1467804
-4.385756	breach	-0.1636929
-5.084726	break	-0.1500458
-3.938598	breakfast	-0.1775452
-5.084726	breakfasting	-0.1474822
-5.084726	breakfastroom	-0.1363587
-4.385756	breaking	-0.2049559
-5.084726	breast	-0.1440561
-4.783696	breath	-0.1275972
-5.084726	breathing	-0.1499958
-5.084726	bred	-0.1498706
-5.084726	breed	-0.1380304
-5.084726	breeding	-0.1380304
-5.084726	bribing	-0.1491798
-4.306575	brief	-0.1482942
-5.084726	bright	-0.1363291
-5.084726	brightened	-0.1474822
-5.084726	brighter	-0.1502281
-5.084726	brightness	-0.1380304
-5.084726	brilliancy	-0.1467804
-4.783696	brilliant	-0.1417083
-3.880606	bring	-0.2066123
-4.005545	bringing	-0.1478643
-4.783696	brings	-0.1422364
-5.084726	bristol	-0.1363587
-5.084726	broad	-0.150246
-5.084726	broader	-0.150246
-4.306575	broke	-0.2529638
-4.084726	broken	-0.2965569
-5.084726	brokenhearted	-0.1474822
-5.084726	brood	-0.1449649
-5.084726	brooding	-0.1499171
-3.245877	brother	-0.2175395
-5.084726	brotherinlaw	-0.1380304
-4.043334	brothers	-0.138347
-5.084726	brothersilly	-0.1387795
-5.084726	brotheryou	-0.1501209
-3.360451	brought	-0.1331796
-4.783696	brow	-0.1095649
-4.607605	brown	-0.1439002
-5.084726	bruised	-0.1502388
-5.084726	brush	-0.1502388
-4.306575	build	-0.2704744
-4.385756	building	-0.1346694
-4.385756	buildings	-0.1327206
-5.084726	built	-0.14991
-5.084726	builtand	-0.1132224
-5.084726	bulk	-0.1380304
-5.084726	burgess	-0.1437733
-5.084726	burnt	-0.14805
-4.043334	burst	-0.4214057
-5.084726	bursts	-0.1380304
-5.084726	bury	-0.1500708
-4.783696	busily	-0.1502102
-3.482666	business	-0.167999
-4.607605	bustle	-0.1316216
-4.385756	busy	-0.1625629
-2.211406	but	-0.467685
-5.084726	butcher	-0.1502245
-5.084726	butit	-0.1440561
-4.181636	buy	-0.130748
-5.084726	buying	-0.1433015
-2.239008	by	-0.5323575
-5.084726	byandby	-0.1495486
-4.482666	bye	-0.1957256
-5.084726	byegod	-0.1502317
-4.385756	c	-0.08977482
-5.084726	calculate	-0.1363587
-4.385756	calculated	-0.3139913
-5.084726	calculation	-0.1502317
-3.566212	call	-0.1805423
-3.451258	called	-0.2979384
-4.084726	calling	-0.1965429
-4.783696	calls	-0.1475614
-3.938598	calm	-0.1343402
-4.783696	calmer	-0.1131523
-5.084726	calming	-0.1489971
-4.181636	calmly	-0.1456267
-3.880606	calmness	-0.1434948
-5.084726	calmso	-0.150246
-3.181636	came	-0.4047143
-2.79026	can	-0.3055727
-4.783696	canal	-0.3423266
-4.783696	candid	-0.1384088
-5.084726	candidly	-0.1387795
-5.084726	candlelight	-0.1387795
-5.084726	candles	-0.1481254
-4.783696	candour	-0.1410555
-5.084726	canit	-0.1490509
-5.084726	canless	-0.1501995
-3.155308	cannot	-0.3658234
-4.130484	cant	-0.2542169
-5.084726	canvassing	-0.1132224
-4.607605	cap	-0.5235195
-5.084726	capability	-0.1380304
-3.854277	capable	-1.330348
-5.084726	capableat	-0.1500172
-5.084726	caprice	-0.1491261
-5.084726	captivate	-0.1500244
-4.607605	captivating	-0.1085276
-4.306575	card	-0.09655979
-4.385756	cards	-0.1586362
-4.482666	cardtable	-0.1028102
-5.084726	cardtables	-0.1496524
-3.566212	care	-0.162848
-4.385756	careful	-0.3005395
-4.482666	carefully	-0.2031513
-5.084726	carefulness	-0.1437733
-4.607605	careless	-0.5140676
-5.084726	carelessly	-0.1502424
-4.783696	carelessness	-0.1311589
-4.385756	cares	-0.262615
-5.084726	caresses	-0.1501888
-5.084726	caressing	-0.1132224
-4.482666	careys	-0.1366758
-5.084726	caricature	-0.1132224
-4.783696	carpetwork	-0.148068
-3.528424	carriage	-0.1527752
-5.084726	carriageeager	-0.1363291
-4.607605	carriages	-0.2362639
-3.880606	carried	-0.197445
-4.783696	carries	-0.1447659
-4.385756	carry	-0.1162856
-4.181636	carrying	-0.2226614
-5.084726	cartwright	-0.1363291
-3.566212	case	-0.07894769
-5.084726	cases	-0.1132224
-5.084726	cash	-0.1484664
-5.084726	casino	-0.1363291
-4.385756	cast	-0.180785
-5.084726	casts	-0.1433015
-4.607605	catch	-0.1420253
-4.181636	catching	-0.07272879
-5.084726	cats	-0.1132224
-4.181636	caught	-0.1335048
-3.970783	cause	-0.1293912
-5.084726	causebut	-0.1501245
-5.084726	caused	-0.1363291
-4.306575	caution	-0.1345471
-5.084726	cautiona	-0.1502281
-4.783696	cautious	-0.1379937
-5.084726	cautiously	-0.1449649
-5.084726	cautiousness	-0.1380304
-5.084726	cavil	-0.1132224
-4.482666	cease	-0.1312224
-4.084726	ceased	-0.3855322
-5.084726	celebrated	-0.1132224
-5.084726	celebration	-0.1380304
-4.084726	censure	-0.1379917
-4.783696	censured	-0.1479782
-5.084726	centered	-0.1437733
-4.783696	centre	-0.1362959
-4.306575	ceremony	-0.1535856
-3.669753	certain	-0.2245418
-5.084726	certaina	-0.1501566
-5.084726	certainand	-0.1485956
-3.321298	certainly	-0.1667978
-5.084726	certainlyand	-0.1435701
-5.084726	certainties	-0.1477087
-4.482666	certainty	-0.1237442
-5.084726	cessation	-0.1380304
-5.084726	chagrined	-0.1387795
-4.181636	chair	-0.2205605
-4.306575	chaise	-0.1523685
-4.783696	chamber	-0.1362517
-3.805973	chance	-0.1559156
-4.607605	chanced	-0.2598449
-5.084726	chanceyou	-0.1501566
-3.686786	change	-0.2532412
-4.239628	changed	-0.2260372
-5.084726	changefrom	-0.1433015
-5.084726	changes	-0.1437733
-5.084726	changing	-0.1363587
-5.084726	chaperon	-0.1462939
-3.579576	character	-0.1304076
-5.084726	characterbut	-0.1435701
-4.482666	characters	-0.1240289
-4.181636	charge	-0.1702476
-5.084726	charged	-0.1469065
-4.783696	chariot	-0.3517874
-4.783696	charity	-0.142251
-3.854277	charlotte	-0.1753065
-4.783696	charlotteand	-0.1429674
-4.482666	charlottes	-0.0992886
-4.607605	charm	-0.2375197
-4.783696	charmed	-0.1353466
-3.970783	charming	-0.1912983
-4.306575	charms	-0.1244273
-4.607605	chat	-0.1001717
-5.084726	chatty	-0.1387795
-5.084726	cheap	-0.1486028
-5.084726	cheat	-0.1486673
-4.783696	cheated	-0.1376407
-4.607605	check	-0.1206912
-4.385756	checked	-0.3179403
-4.607605	checking	-0.1344211
-4.783696	cheek	-0.1502102
-4.783696	cheeks	-0.1132185
-5.084726	cheeksdo	-0.1462939
-5.084726	cheered	-0.1477375
-4.043334	cheerful	-0.1991384
-5.084726	cheerfulhow	-0.1132224
-5.084726	cheerfuller	-0.1502102
-3.880606	cheerfulness	-0.2009979
-5.084726	cheerfulwhen	-0.1435701
-4.783696	cheerless	-0.1132029
-4.783696	cherished	-0.1474679
-5.084726	cherishing	-0.14805
-5.084726	cherries	-0.1496488
-5.084726	chicken	-0.1496989
-4.239628	chief	-0.257532
-4.306575	chiefly	-0.1260435
-3.528424	child	-0.1636315
-5.084726	childhe	-0.1483229
-3.566212	children	-0.129794
-5.084726	childs	-0.1502353
-5.084726	chimneyboard	-0.147953
-4.482666	china	-0.1361409
-4.130484	choice	-0.1588827
-5.084726	choicehow	-0.1491942
-5.084726	choked	-0.1477375
-4.607605	choose	-0.1302843
-4.239628	chose	-0.2056158
-5.084726	chosen	-0.1460595
-4.783696	christian	-0.3536537
-4.783696	christmas	-0.1466832
-5.084726	chuckle	-0.1499171
-4.385756	church	-0.1554134
-4.306575	chuse	-0.2830035
-4.607605	chusing	-0.1348878
-5.084726	ci	-0.1440561
-4.783696	circle	-0.09989892
-5.084726	circuit	-0.1132224
-5.084726	circumspection	-0.1460595
-3.829454	circumstance	-0.1754798
-5.084726	circumstanced	-0.1461713
-3.637568	circumstances	-0.1681167
-3.970783	civil	-0.1731913
-5.084726	civildid	-0.1462939
-4.482666	civilities	-0.1306396
-3.908635	civility	-0.1653584
-5.084726	civilly	-0.1501852
-4.239628	claim	-0.09759772
-5.084726	claimed	-0.1477375
-5.084726	claiming	-0.1433015
-4.385756	claims	-0.1981377
-5.084726	clamorous	-0.150103
-5.084726	clapped	-0.1417666
-5.084726	clarke	-0.1132224
-5.084726	classed	-0.1387795
-4.239628	clear	-0.2140279
-4.607605	cleared	-0.134158
-5.084726	clearer	-0.1502174
-5.084726	clearing	-0.1499064
-4.783696	clearly	-0.1362332
-5.084726	clemency	-0.1500101
-5.084726	clergyman	-0.1387795
-5.084726	clerk	-0.1363291
-3.704515	cleveland	-0.1318566
-5.084726	clevelanda	-0.1500029
-5.084726	clevelandi	-0.1502174
-5.084726	clevelandshe	-0.1499743
-4.385756	clever	-0.1254272
-5.084726	climate	-0.1477087
-5.084726	climbing	-0.1363587
-5.084726	clock	-0.1502174
-5.084726	clogged	-0.1469065
-4.130484	close	-0.3750805
-4.607605	closed	-0.1275558
-5.084726	closely	-0.1502102
-5.084726	closer	-0.1502388
-5.084726	closet	-0.1491261
-4.482666	clothes	-0.1372211
-5.084726	cloud	-0.1484664
-4.783696	clouds	-0.1487677
-5.084726	club	-0.1474822
-5.084726	clue	-0.1495271
-4.482666	coach	-0.2217717
-5.084726	coachmakers	-0.1363587
-5.084726	coachman	-0.1132224
-5.084726	coat	-0.1467804
-5.084726	coats	-0.1489971
-5.084726	cod	-0.1491261
-5.084726	coffee	-0.1499636
-5.084726	coincide	-0.1469065
-3.783696	cold	-0.148576
-4.607605	coldhearted	-0.1366353
-4.385756	coldness	-0.1573772
-4.783696	colicky	-0.3537895
-4.607605	collect	-0.09624025
-4.482666	collected	-0.1472412
-5.084726	collectedmore	-0.150246
-5.084726	collecting	-0.1132224
-5.084726	collection	-0.1380304
-2.891602	colonel	-0.7628965
-4.043334	colonels	-0.1097963
-4.043334	colour	-0.136247
-4.239628	coloured	-0.2370093
-4.482666	colouring	-0.233167
-4.783696	combat	-0.3453137
-3.938598	combe	-0.6186835
-5.084726	combei	-0.1494198
-3.145207	come	-0.3400159
-5.084726	comefor	-0.1449649
-5.084726	comehow	-0.1496596
-5.084726	comei	-0.1501959
-5.084726	comer	-0.1387795
-4.239628	comes	-0.08241869
-4.783696	comeyou	-0.1492622
-3.313874	comfort	-0.3279812
-3.622328	comfortable	-0.2048416
-4.482666	comfortably	-0.2397088
-5.084726	comfortbut	-0.1132224
-5.084726	comforted	-0.1494126
-5.084726	comforter	-0.1380304
-5.084726	comfortno	-0.1435701
-5.084726	comfortnot	-0.1499564
-4.482666	comforts	-0.2142393
-3.528424	coming	-0.33655
-5.084726	comings	-0.1387795
-4.306575	command	-0.2193081
-4.783696	commanded	-0.1356128
-5.084726	commands	-0.1437733
-4.181636	commendation	-0.179353
-5.084726	commended	-0.1417666
-5.084726	comment	-0.1132224
-5.084726	comments	-0.1380304
-5.084726	commercial	-0.1502281
-5.084726	commiseration	-0.1460595
-4.482666	commission	-0.1320504
-5.084726	commissioned	-0.1363291
-3.622328	common	-0.1826904
-4.783696	commonest	-0.149935
-5.084726	commonly	-0.1132224
-4.385756	commonplace	-0.1386437
-4.482666	communicate	-0.1218753
-4.385756	communicated	-0.311992
-4.607605	communicating	-0.0952072
-4.043334	communication	-0.1750165
-4.783696	communicative	-0.1491046
-4.783696	compact	-0.09989892
-3.829454	companion	-0.2073093
-5.084726	companionableness	-0.1363291
-4.306575	companions	-0.176188
-3.704515	company	-0.2254887
-4.783696	comparative	-0.150221
-4.607605	comparatively	-0.1439437
-4.607605	compare	-0.2677839
-5.084726	compared	-0.1132224
-5.084726	compares	-0.1444691
-4.005545	comparison	-0.2952695
-4.607605	comparisons	-0.136709
-5.084726	compass	-0.1498706
-3.829454	compassion	-0.2542149
-4.385756	compassionate	-0.1054764
-5.084726	compassionfor	-0.1496918
-5.084726	compassionshe	-0.1500387
-4.607605	competence	-0.09423266
-4.482666	complacency	-0.1080475
-4.607605	complain	-0.1374457
-4.783696	complained	-0.3415775
-5.084726	complaining	-0.1380304
-4.385756	complaint	-0.1767081
-4.783696	complaints	-0.1344767
-4.783696	complaisance	-0.137626
-4.181636	complete	-0.09817415
-5.084726	completed	-0.1363587
-4.239628	completely	-0.1361594
-5.084726	completelyshut	-0.1498706
-5.084726	completion	-0.1495844
-4.181636	complexion	-0.2337508
-4.607605	compliance	-0.1333525
-5.084726	compliant	-0.1387795
-5.084726	complicated	-0.150246
-4.306575	compliment	-0.1764878
-4.482666	compliments	-0.2143114
-4.783696	composed	-0.1475721
-5.084726	composedly	-0.1477375
-5.084726	composition	-0.1489398
-3.908635	composure	-0.1942302
-5.084726	compound	-0.1494556
-4.181636	comprehend	-0.1160606
-4.607605	comprehended	-0.140058
-4.482666	comprehension	-0.1878644
-5.084726	comprise	-0.1474822
-5.084726	comprised	-0.1132224
-5.084726	compromise	-0.1387795
-5.084726	compunction	-0.1499171
-4.239628	conceal	-0.1444728
-4.130484	concealed	-0.1901985
-4.385756	concealing	-0.2039693
-4.607605	concealment	-0.1439039
-4.607605	conceit	-0.111503
-5.084726	conceited	-0.1387795
-4.385756	conceive	-0.2076594
-3.686786	concern	-0.2684209
-4.005545	concerned	-0.2038494
-5.084726	concernedcolonel	-0.1132224
-4.783696	concerning	-0.1466111
-4.239628	concerns	-0.1191715
-5.084726	concernwell	-0.1435701
-5.084726	concerto	-0.1132224
-5.084726	concession	-0.1499421
-5.084726	concessions	-0.1477375
-5.084726	concessionsbut	-0.1499457
-5.084726	conciliate	-0.1363587
-5.084726	conciliation	-0.1440561
-5.084726	concise	-0.1449649
-4.783696	conclude	-0.1365505
-4.043334	concluded	-0.2466698
-4.607605	concluding	-0.1392525
-4.385756	conclusion	-0.1523087
-5.084726	conclusions	-0.1440561
-5.084726	concurrence	-0.1497061
-4.783696	condemnation	-0.3415775
-4.783696	condemned	-0.1392049
-5.084726	condemning	-0.1480788
-4.783696	condescend	-0.3398762
-4.181636	condition	-0.2278389
-5.084726	conditionand	-0.1467804
-5.084726	conditioned	-0.1497275
-5.084726	conditions	-0.1435701
-5.084726	condolence	-0.1363291
-3.553247	conduct	-0.1933816
-5.084726	conductdo	-0.1460847
-4.607605	conducted	-0.2680091
-4.306575	conduit	-0.2911227
-5.084726	confederacy	-0.1500244
-4.783696	conference	-0.1494269
-3.970783	confess	-0.1273039
-4.607605	confessed	-0.1235922
-5.084726	confessedly	-0.1387795
-4.306575	confession	-0.6200216
-5.084726	confidant	-0.1380304
-5.084726	confidante	-0.1380304
-3.637568	confidence	-0.1870762
-4.607605	confident	-0.1290367
-5.084726	confidential	-0.1501888
-5.084726	confidingeverything	-0.1456299
-4.181636	confined	-0.2714468
-4.385756	confinement	-0.1984161
-4.783696	confirm	-0.1428002
-4.783696	confirmation	-0.3415775
-4.783696	confirmed	-0.1069238
-4.607605	confirming	-0.2663724
-5.084726	conform	-0.1363291
-5.084726	conforming	-0.1461713
-5.084726	conformity	-0.1380304
-5.084726	confound	-0.1481254
-5.084726	confounded	-0.1132224
-4.783696	confused	-0.1129499
-5.084726	confusedly	-0.1494591
-4.385756	confusion	-0.09502871
-4.482666	congratulate	-0.1966074
-5.084726	congratulated	-0.1417666
-5.084726	congratulating	-0.1494126
-4.783696	congratulations	-0.1433088
-4.783696	conjectural	-0.1387502
-4.306575	conjecture	-0.1284472
-4.783696	conjectured	-0.1445488
-4.482666	conjectures	-0.1098473
-5.084726	conjecturing	-0.1487677
-5.084726	conjure	-0.1496989
-5.084726	conjurer	-0.150246
-5.084726	connect	-0.1467804
-4.385756	connected	-0.3508386
-5.084726	connectedshe	-0.1489398
-3.805973	connection	-0.1587284
-5.084726	connectionbut	-0.1435701
-5.084726	connectionnothing	-0.1132224
-4.385756	connections	-0.1235428
-5.084726	connectionyou	-0.1501566
-5.084726	conning	-0.1499171
-5.084726	connoisseur	-0.1363291
-5.084726	connoisseurship	-0.1132224
-4.482666	conquest	-0.09685487
-4.783696	conquests	-0.1128604
-3.970783	conscience	-0.07171167
-4.783696	conscientious	-0.1495379
-5.084726	conscientiously	-0.1502353
-4.130484	conscious	-0.391019
-4.043334	consciousness	-1.175139
-3.970783	consent	-0.3454548
-4.482666	consented	-0.3356645
-3.880606	consequence	-0.4613907
-4.783696	consequences	-0.1368749
-4.607605	consequent	-0.1131212
-4.783696	consequently	-0.1494663
-3.742304	consider	-0.2278627
-3.908635	considerable	-0.200052
-5.084726	considerably	-0.1502388
-4.482666	considerate	-0.137751
-5.084726	considerately	-0.1502424
-4.043334	consideration	-0.1766147
-4.783696	considerations	-0.1131757
-3.653363	considered	-0.2634293
-4.239628	considering	-0.1708719
-4.783696	considers	-0.1347953
-5.084726	consisted	-0.1380304
-4.783696	consistent	-0.1095805
-5.084726	consists	-0.1380304
-3.970783	consolation	-0.1242451
-5.084726	consolationto	-0.1498241
-4.607605	consoled	-0.1435194
-5.084726	conspicuous	-0.147953
-5.084726	conspired	-0.1363291
-4.385756	constancy	-0.09367132
-3.762507	constant	-0.1422356
-5.084726	constantia	-0.1502317
-4.482666	constantly	-0.1430401
-5.084726	constantwhich	-0.1496667
-5.084726	consternation	-0.1440561
-4.783696	constitution	-0.1361705
-5.084726	constitutional	-0.150246
-5.084726	constitutionand	-0.1491798
-5.084726	constrained	-0.1363291
-5.084726	construction	-0.1483229
-4.783696	consult	-0.3504536
-5.084726	consultation	-0.1444691
-4.783696	consulted	-0.1490079
-5.084726	consumption	-0.150246
-4.482666	contained	-0.2324255
-5.084726	containing	-0.149545
-4.306575	contempt	-0.1739942
-5.084726	contemptible	-0.1387795
-4.783696	contemptuous	-0.1500315
-5.084726	contemptuously	-0.1466039
-4.783696	contend	-0.1385483
-4.783696	content	-0.1376076
-4.482666	contented	-0.3571342
-4.783696	contenting	-0.3529597
-4.783696	contentment	-0.1007167
-4.482666	contents	-0.3801477
-3.970783	continual	-0.1749931
-5.084726	continually	-0.150246
-4.181636	continuance	-0.2883418
-5.084726	continuanceand	-0.1481937
-5.084726	continuation	-0.1380304
-4.482666	continue	-0.2112246
-3.412628	continued	-0.1553325
-5.084726	continuedhe	-0.1502031
-4.239628	continuing	-0.1814247
-4.783696	contracted	-0.1485203
-4.783696	contraction	-0.3415775
-4.783696	contradict	-0.1431999
-4.385756	contradicted	-0.09815001
-5.084726	contradictory	-0.1363291
-4.130484	contrary	-0.1174741
-4.607605	contrast	-0.1479998
-5.084726	contrasted	-0.1500244
-5.084726	contribute	-0.1466039
-4.783696	contributed	-0.3398762
-5.084726	contributing	-0.1474822
-5.084726	contribution	-0.1363291
-4.783696	contrition	-0.1108696
-5.084726	contrivance	-0.1502353
-4.783696	contrived	-0.1471657
-5.084726	contrives	-0.1444691
-5.084726	contriving	-0.150246
-5.084726	controlled	-0.1387795
-4.482666	convenience	-0.08569793
-4.783696	conveniences	-0.1499279
-4.607605	convenient	-0.1359416
-5.084726	conveniently	-0.150053
-3.553247	conversation	-0.1905136
-5.084726	conversationit	-0.1477087
-5.084726	conversations	-0.1363291
-4.607605	converse	-0.2711847
-4.607605	conversed	-0.5229437
-4.783696	conversing	-0.1445922
-5.084726	convert	-0.1363291
-4.783696	conveyed	-0.09804121
-4.783696	conveying	-0.1340875
-3.805973	conviction	-0.4769006
-4.130484	convince	-0.2564136
-3.653363	convinced	-0.4923604
-4.306575	convincing	-0.08750587
-5.084726	cool	-0.1501459
-4.607605	coolness	-0.1358973
-5.084726	copied	-0.1481254
-4.783696	copy	-0.1393148
-5.084726	copying	-0.1490437
-5.084726	cordial	-0.1387795
-4.306575	cordiality	-0.1471741
-4.783696	cordially	-0.1362923
-5.084726	cordials	-0.1502424
-4.607605	corner	-0.149681
-4.783696	correct	-0.1345916
-5.084726	correctness	-0.1380304
-5.084726	correspond	-0.1489971
-4.607605	correspondence	-0.1113897
-4.306575	cost	-0.1841331
-3.328851	cottage	-0.1446733
-5.084726	cottagebut	-0.1501995
-5.084726	cottages	-0.1435701
-5.084726	cottagesand	-0.1484772
-5.084726	couchedit	-0.1492945
-5.084726	cough	-0.1387795
-2.353944	could	-0.5438302
-5.084726	couldbut	-0.1461713
-4.482666	counsel	-0.1302768
-5.084726	counsellor	-0.1380304
-3.686786	countenance	-0.144277
-5.084726	counter	-0.1482403
-4.607605	counteract	-0.1321621
-5.084726	counteracted	-0.1417666
-5.084726	countless	-0.1132224
-3.607605	country	-0.0735786
-5.084726	countrythe	-0.1502067
-4.482666	county	-0.1305648
-4.084726	couple	-0.399847
-5.084726	couples	-0.1437733
-4.482666	courage	-0.1334714
-3.607605	course	-0.2631687
-4.607605	court	-0.1297977
-4.783696	courted	-0.1358788
-5.084726	courtesy	-0.1460595
-4.783696	courting	-0.1346582
-4.783696	courtland	-0.148653
-4.043334	cousin	-0.0726989
-3.829454	cousins	-0.1033334
-5.084726	covenant	-0.1468921
-4.385756	covered	-0.4082334
-5.084726	covering	-0.1417666
-4.783696	covert	-0.3167695
-4.607605	cowper	-0.2253371
-5.084726	cowperbut	-0.1495486
-4.783696	cows	-0.1007167
-4.607605	coxcomb	-0.1073539
-5.084726	coxcombs	-0.1132224
-5.084726	cramps	-0.1132224
-4.783696	create	-0.143708
-4.607605	created	-0.1452542
-5.084726	creating	-0.1489505
-5.084726	creation	-0.1502317
-3.938598	creature	-0.1492229
-4.607605	creatures	-0.1421891
-4.181636	credit	-0.1178566
-4.783696	creditable	-0.1499421
-5.084726	credulous	-0.1417666
-5.084726	crept	-0.147953
-3.198236	cried	-0.4685935
-5.084726	cries	-0.1496989
-4.607605	crime	-0.1004763
-5.084726	criminal	-0.1437733
-5.084726	crimsoned	-0.1499171
-4.783696	critical	-0.1483121
-5.084726	critique	-0.14991
-5.084726	crooked	-0.1502353
-4.607605	cross	-0.1308115
-5.084726	crossing	-0.1363587
-5.084726	crossness	-0.1460847
-4.783696	crowd	-0.3415775
-5.084726	crowned	-0.1444691
-4.181636	cruel	-0.08988567
-5.084726	cruelly	-0.1501852
-5.084726	cruelnothing	-0.149545
-4.385756	cruelty	-0.1903534
-5.084726	crueltyhe	-0.1499135
-5.084726	crueltywhich	-0.148409
-4.783696	cry	-0.353246
-4.385756	crying	-0.192055
-5.084726	cultivated	-0.1387795
-4.607605	cunning	-0.1380047
-4.482666	curacy	-0.2123309
-5.084726	curate	-0.1380304
-4.783696	cure	-0.1346805
-3.722999	curiosity	-0.2092154
-5.084726	curious	-0.1435701
-4.482666	curricle	-0.3482703
-4.385756	cut	-0.1356535
-5.084726	cutand	-0.1132224
-5.084726	cutlets	-0.1485956
-5.084726	cutting	-0.1363587
-5.084726	cutwhat	-0.1490903
-5.084726	dagger	-0.1363291
-5.084726	daggerswhat	-0.1433015
-4.607605	daily	-0.1501531
-5.084726	dairymaid	-0.1477375
-4.783696	damp	-0.1480034
-4.130484	dance	-0.1912756
-5.084726	danced	-0.1484772
-5.084726	dancein	-0.1482403
-5.084726	dances	-0.1488
-4.385756	dancing	-0.201773
-3.742304	danger	-0.2373269
-4.607605	dangerous	-0.2540508
-3.540658	dare	-1.107678
-4.084726	dared	-0.8306998
-5.084726	dares	-0.1460847
-4.783696	dark	-0.1494448
-5.084726	darker	-0.1132224
-4.783696	darling	-0.1499958
-5.084726	dartford	-0.1498349
-5.084726	dashing	-0.1497633
-2.75839	dashwood	-0.234846
-5.084726	dashwooda	-0.1500136
-5.084726	dashwoodbut	-0.1444691
-5.084726	dashwoodit	-0.1490509
-5.084726	dashwoodor	-0.1474535
-5.084726	dashwoodpoor	-0.1496345
-3.352333	dashwoods	-0.1414901
-5.084726	dashwoodswas	-0.1485346
-5.084726	dashwoodthat	-0.1492945
-5.084726	dashwoodyou	-0.1501852
-5.084726	date	-0.1466039
-3.579576	daughter	-0.2287343
-5.084726	daughterbetter	-0.1490258
-4.482666	daughterinlaw	-0.1296778
-5.084726	daughterinlaws	-0.1502388
-3.607605	daughters	-0.1215044
-4.783696	davies	-0.1299325
-5.084726	dawdled	-0.1498921
-5.084726	dawdling	-0.1501209
-4.385756	dawlish	-0.2591364
-5.084726	dawned	-0.1132224
-2.974137	day	-0.2173473
-5.084726	dayno	-0.148409
-3.451258	days	-0.1408305
-5.084726	daysin	-0.1433015
-4.482666	dead	-0.1112568
-3.579576	deal	-0.457952
-5.084726	dealt	-0.1496989
-3.035508	dear	-0.2531521
-5.084726	dearand	-0.1460847
-4.306575	dearer	-0.2884624
-4.181636	dearest	-0.1514639
-5.084726	dearly	-0.1502317
-5.084726	dearsaid	-0.1449649
-5.084726	dearsure	-0.1462939
-4.130484	death	-0.3087649
-5.084726	deatha	-0.1485633
-5.084726	deathlike	-0.150246
-5.084726	deathnow	-0.1499421
-5.084726	deaththat	-0.1440561
-5.084726	debate	-0.1363291
-4.607605	debating	-0.1104939
-4.783696	debt	-0.137626
-5.084726	debts	-0.1387795
-4.607605	decay	-0.08511713
-5.084726	decease	-0.1475721
-4.607605	deceitful	-0.1007127
-5.084726	deceitfulhad	-0.1435701
-4.482666	deceive	-0.0977913
-4.084726	deceived	-0.1962154
-5.084726	deceivedmeeting	-0.1469065
-4.783696	deceiving	-0.141763
-4.607605	decent	-0.1129382
-5.084726	decently	-0.1502353
-4.783696	deception	-0.1483157
-4.482666	decide	-0.1990538
-4.306575	decided	-0.1800358
-4.783696	deciding	-0.3515002
-4.482666	decision	-0.1398641
-5.084726	decisions	-0.150221
-5.084726	decisive	-0.1501995
-5.084726	decisively	-0.1363291
-4.385756	declaration	-0.1914554
-3.908635	declare	-0.2077424
-3.669753	declared	-0.1736052
-4.783696	declares	-0.1419451
-4.607605	declaring	-0.1041711
-5.084726	decline	-0.1417666
-4.239628	declined	-0.1904256
-4.306575	declining	-0.0738124
-4.783696	decorum	-0.1311589
-5.084726	decrease	-0.1380304
-5.084726	decree	-0.1380304
-4.783696	deed	-0.1459332
-5.084726	deemed	-0.1502317
-4.385756	deep	-0.2140734
-4.607605	deeper	-0.1412198
-4.385756	deeply	-0.1387612
-4.607605	defect	-0.2559883
-5.084726	defective	-0.1460595
-4.783696	defects	-0.1380047
-4.783696	defence	-0.3415775
-5.084726	defencei	-0.1494198
-4.482666	defend	-0.1395017
-5.084726	defended	-0.1475721
-4.482666	defer	-0.2161961
-4.783696	deference	-0.1458393
-4.783696	deficiencies	-0.09989892
-4.482666	deficiency	-0.2203378
-4.385756	deficient	-0.3287527
-5.084726	define	-0.1132224
-5.084726	defined	-0.1487677
-5.084726	degrade	-0.1363291
-5.084726	degraded	-0.1363291
-3.970783	degree	-0.2268605
-5.084726	degreeam	-0.1435701
-4.306575	degrees	-0.1756569
-5.084726	dejected	-0.1491261
-4.607605	dejection	-0.1206415
-3.686786	delaford	-0.148408
-5.084726	delaforda	-0.149985
-5.084726	delafordbut	-0.1132224
-5.084726	delaforddelafordthat	-0.1132224
-5.084726	delafordwhich	-0.1474822
-3.908635	delay	-0.1276897
-4.607605	delayed	-0.1341431
-5.084726	delays	-0.1484772
-5.084726	deliberate	-0.1387795
-4.783696	deliberating	-0.1476189
-5.084726	deliberation	-0.1491261
-5.084726	delicacies	-0.1380304
-4.084726	delicacy	-0.3635322
-4.181636	delicate	-0.09255049
-3.722999	delight	-0.2491044
-3.783696	delighted	-0.593176
-3.908635	delightful	-0.1625906
-5.084726	delightfullyhow	-0.1502424
-5.084726	delightfulmy	-0.1499886
-5.084726	delineated	-0.1437733
-5.084726	delirium	-0.147953
-5.084726	deliver	-0.1444691
-4.607605	deliverance	-0.130748
-4.385756	delivered	-0.1806675
-5.084726	delivery	-0.1435701
-4.783696	demand	-0.1478633
-5.084726	demanded	-0.1132224
-4.385756	demands	-0.09023866
-5.084726	demeanor	-0.1387795
-5.084726	demesne	-0.1437733
-5.084726	demonstrations	-0.1380304
-5.084726	demur	-0.1501888
-5.084726	demure	-0.1387795
-4.783696	denial	-0.1440307
-4.385756	denied	-0.1277177
-5.084726	dennisons	-0.1502245
-5.084726	denote	-0.1501817
-5.084726	denoted	-0.1495379
-5.084726	denoting	-0.1417666
-4.239628	deny	-0.1242559
-5.084726	depart	-0.1469065
-5.084726	departed	-0.1363291
-4.783696	departing	-0.1463083
-4.239628	departure	-0.1864902
-4.130484	depend	-0.507843
-4.130484	depended	-0.2271727
-4.306575	dependence	-0.2853464
-4.482666	dependent	-0.2004814
-4.783696	depending	-0.1478022
-4.607605	depends	-0.1128487
-5.084726	deplorable	-0.1363587
-5.084726	depravity	-0.1380304
-5.084726	depressed	-0.1477375
-4.607605	deprive	-0.2719192
-4.607605	deprived	-0.1289053
-5.084726	derive	-0.1501995
-4.783696	descend	-0.3398762
-5.084726	descendant	-0.1132224
-4.306575	describe	-0.1208403
-4.181636	described	-0.1115967
-5.084726	describedfrom	-0.1363587
-5.084726	describing	-0.1480895
-4.607605	description	-0.129333
-5.084726	deserted	-0.1387795
-5.084726	desertion	-0.1380304
-5.084726	deserts	-0.1387795
-5.084726	desertsshe	-0.1500601
-4.239628	deserve	-0.2112881
-4.239628	deserved	-0.1118349
-5.084726	deserves	-0.1433015
-4.783696	deserving	-0.353457
-4.084726	design	-0.2309261
-4.482666	designs	-0.1028341
-5.084726	designsbut	-0.1487677
-4.306575	desirable	-0.08936389
-3.704515	desire	-0.2943579
-4.385756	desired	-0.1166719
-5.084726	desiring	-0.1502353
-4.181636	desirous	-0.4689807
-4.607605	despair	-0.1268965
-5.084726	despairand	-0.1380304
-4.482666	despatch	-0.1219592
-5.084726	despatching	-0.1433015
-4.607605	desperate	-0.1362627
-4.783696	desperately	-0.1437697
-5.084726	desperation	-0.1482403
-4.783696	despise	-0.3453137
-5.084726	despised	-0.1480788
-5.084726	despising	-0.1487354
-5.084726	despondencebut	-0.1132224
-5.084726	dessert	-0.1387795
-5.084726	destiny	-0.1458754
-5.084726	destroy	-0.1132224
-4.607605	destroyed	-0.1453265
-5.084726	destroys	-0.1363587
-4.783696	detail	-0.1007167
-4.482666	detain	-0.2254544
-5.084726	detaining	-0.1487354
-5.084726	detected	-0.1499064
-5.084726	detecting	-0.1502353
-5.084726	detection	-0.1387795
-5.084726	deter	-0.1417666
-5.084726	determinate	-0.1492873
-4.607605	determination	-0.1277817
-4.130484	determine	-0.2118112
-3.451258	determined	-0.3578378
-5.084726	determining	-0.1363291
-5.084726	deterred	-0.1132224
-4.607605	detest	-0.1480249
-5.084726	detestably	-0.1489613
-5.084726	detract	-0.1500101
-4.783696	deviation	-0.145926
-4.482666	devil	-0.138552
-5.084726	devolved	-0.147953
-3.722999	devonshire	-0.09978226
-5.084726	devonshireedward	-0.1132224
-5.084726	devonshirei	-0.1440561
-4.482666	devoted	-0.3817598
-5.084726	diabolical	-0.1502174
-4.783696	dictate	-0.1358714
-5.084726	dictateand	-0.1501817
-5.084726	diction	-0.1475721
-2.722999	did	-0.61142
-5.084726	didi	-0.1501709
-5.084726	didmrs	-0.1132224
-5.084726	didsaid	-0.1466039
-5.084726	didthat	-0.1449649
-4.306575	died	-0.08208019
-5.084726	diedin	-0.1487677
-5.084726	diedit	-0.1484664
-5.084726	dies	-0.1462939
-5.084726	differed	-0.1387795
-3.829454	difference	-0.2769194
-3.653363	different	-0.1213392
-4.783696	differently	-0.1380231
-5.084726	differing	-0.1437733
-4.385756	difficult	-0.2846835
-3.880606	difficulties	-0.1947617
-3.880606	difficulty	-0.1924063
-5.084726	difficultyyou	-0.1494269
-4.607605	diffident	-0.09963402
-5.084726	diffuse	-0.1132224
-4.607605	dignified	-0.2633742
-4.482666	dignity	-0.3737822
-5.084726	dilatoriness	-0.1380304
-4.783696	dimensions	-0.131368
-5.084726	diminished	-0.1491798
-4.783696	diminution	-0.1354464
-4.239628	dine	-0.367694
-4.482666	dined	-0.2348198
-4.181636	dining	-0.2492175
-4.783696	diningroom	-0.1366685
-3.722999	dinner	-0.2261888
-4.783696	dinners	-0.1334714
-4.181636	direct	-0.2071407
-4.607605	directed	-0.2574971
-5.084726	directing	-0.1417666
-4.130484	direction	-0.1783552
-5.084726	directions	-0.1460595
-3.493662	directly	-0.2269837
-4.783696	dirt	-0.1345916
-4.482666	dirty	-0.2220736
-4.783696	disadvantage	-0.3167695
-5.084726	disadvantagebut	-0.1417666
-4.783696	disagreeable	-0.1437262
-5.084726	disagreement	-0.1132224
-5.084726	disagreements	-0.1500172
-4.783696	disappeared	-0.1382031
-4.783696	disappoint	-0.1359453
-3.880606	disappointed	-0.1138286
-4.783696	disappointing	-0.09807344
-3.722999	disappointment	-0.2150455
-4.607605	disappointments	-0.1039406
-5.084726	disapprobation	-0.1380304
-4.783696	disapprove	-0.1350285
-5.084726	disapproved	-0.1490437
-5.084726	disapproves	-0.1132224
-5.084726	disapproving	-0.1435701
-5.084726	disarm	-0.1488179
-5.084726	disastrous	-0.1499886
-5.084726	disbelief	-0.1380304
-5.084726	discarded	-0.1480788
-5.084726	discern	-0.1444691
-5.084726	discerning	-0.1132224
-4.783696	discernment	-0.1380194
-4.607605	discharge	-0.2245193
-4.783696	discharged	-0.1423165
-5.084726	discharging	-0.1481254
-5.084726	disclaiming	-0.14805
-5.084726	disclosing	-0.1132224
-5.084726	disclosure	-0.1380304
-5.084726	discompose	-0.1462939
-5.084726	discomposed	-0.1380304
-4.783696	discontent	-0.09989892
-5.084726	discontented	-0.1469065
-4.783696	discontents	-0.1126539
-3.854277	discourse	-0.06727742
-4.385756	discover	-0.2452562
-4.239628	discovered	-0.2253687
-4.783696	discovering	-0.1315582
-4.239628	discovery	-0.2567139
-5.084726	discreet	-0.1363291
-4.306575	discretion	-0.1560739
-5.084726	discrimination	-0.1437733
-4.482666	discussion	-0.2243848
-5.084726	discussions	-0.1380304
-5.084726	disengagement	-0.1460847
-4.385756	disgrace	-0.1266061
-5.084726	disgraced	-0.1501995
-4.783696	disgraceful	-0.1501745
-4.783696	disgust	-0.1420325
-4.607605	disgusted	-0.2689953
-4.783696	disgusting	-0.150028
-5.084726	dishonorable	-0.150246
-4.783696	disinclination	-0.1320019
-5.084726	disinherited	-0.1363587
-4.783696	disinterested	-0.1498206
-5.084726	disinterestedness	-0.1132224
-4.005545	dislike	-0.2706501
-4.783696	disliked	-0.148427
-4.607605	disliking	-0.1389812
-5.084726	dismiss	-0.1480788
-4.385756	dismissed	-0.09963001
-5.084726	dismounted	-0.1387795
-5.084726	dismountedshe	-0.1132224
-5.084726	disobedient	-0.1387795
-5.084726	disorder	-0.1363291
-5.084726	disordered	-0.1468921
-5.084726	dispatch	-0.1387795
-5.084726	dispatched	-0.1490258
-5.084726	dispatches	-0.1387795
-5.084726	dispersed	-0.1417666
-5.084726	dispersing	-0.1502281
-5.084726	dispirited	-0.1417666
-4.607605	display	-0.2598967
-4.607605	displayed	-0.1329586
-4.607605	displeased	-0.14312
-4.607605	displeasure	-0.1277591
-4.385756	disposal	-0.1890833
-4.482666	dispose	-0.4685096
-3.938598	disposed	-0.4704689
-5.084726	disposing	-0.1380304
-3.805973	disposition	-0.2311243
-5.084726	disproportion	-0.1500172
-5.084726	dispute	-0.1417666
-5.084726	disputes	-0.1132224
-5.084726	disqualifications	-0.1460595
-5.084726	disquiet	-0.1387795
-4.783696	disregard	-0.1495129
-4.482666	disregarded	-0.09579492
-5.084726	disrespectfully	-0.1380304
-5.084726	dissatisfaction	-0.1474822
-4.385756	dissatisfied	-0.2879398
-5.084726	dissembling	-0.1417666
-5.084726	dissent	-0.1440561
-5.084726	dissented	-0.1484772
-5.084726	dissimilar	-0.1437733
-4.783696	dissipated	-0.1386694
-4.783696	dissipation	-0.1353318
-5.084726	dissolving	-0.1363587
-4.607605	dissuade	-0.1015609
-4.043334	distance	-0.1974792
-4.130484	distant	-0.1297949
-4.482666	distinction	-0.1000514
-4.482666	distinguish	-0.1370738
-4.482666	distinguished	-0.188368
-5.084726	distinguishedasthey	-0.1500423
-5.084726	distinguishedwhom	-0.1380304
-4.783696	distinguishing	-0.09807344
-5.084726	distractedly	-0.1501745
-3.704515	distress	-0.1278463
-5.084726	distressbut	-0.1435701
-5.084726	distresscan	-0.1435701
-4.385756	distressed	-0.1207906
-4.482666	distresses	-0.2223008
-4.783696	distressing	-0.1007167
-4.239628	distrust	-0.1675628
-5.084726	distrusts	-0.1467804
-4.385756	disturb	-0.1864469
-4.385756	disturbed	-0.1887758
-4.607605	diverted	-0.2354783
-4.482666	divide	-0.2299191
-4.385756	divided	-0.1289429
-4.607605	dividing	-0.1465463
-5.084726	divine	-0.1363587
-5.084726	division	-0.1380304
-5.084726	divorce	-0.1444691
-2.614904	do	-0.3588427
-5.084726	doand	-0.1499386
-5.084726	doat	-0.14991
-5.084726	doatingly	-0.1501745
-4.181636	doctor	-0.1850063
-5.084726	doctors	-0.1501638
-4.607605	doctrine	-0.1303965
-3.385756	does	-0.3707416
-5.084726	doesshe	-0.1132224
-5.084726	doessometimes	-0.1502388
-5.084726	dog	-0.1444691
-5.084726	dogs	-0.1132224
-3.669753	doing	-0.192223
-5.084726	doingwhat	-0.1449649
-4.181636	domestic	-0.2396158
-4.385756	donavan	-0.1320876
-3.252218	done	-0.2621971
-5.084726	donethe	-0.1132224
-3.722999	dont	-0.302452
-4.783696	doomed	-0.1412343
-5.084726	dooming	-0.1496918
-3.622328	door	-0.1932726
-5.084726	doorof	-0.1417666
-4.482666	doors	-0.2239843
-4.306575	dorsetshire	-0.2489507
-5.084726	doshe	-0.1502353
-4.783696	doted	-0.148427
-5.084726	dothat	-0.1495844
-5.084726	dothe	-0.150221
-5.084726	dothen	-0.1499636
-5.084726	doting	-0.1495737
-5.084726	dotted	-0.1499171
-5.084726	doubly	-0.1502317
-3.471942	doubt	-0.2793061
-4.239628	doubted	-0.1668471
-5.084726	doubtednor	-0.1456299
-4.482666	doubtful	-0.1314874
-5.084726	doubther	-0.150246
-4.783696	doubting	-0.1358714
-5.084726	doubtingly	-0.1387795
-5.084726	doubtless	-0.1490509
-4.482666	doubts	-0.1307442
-5.084726	douceur	-0.1440561
-5.084726	dovecote	-0.149545
-5.084726	dowe	-0.1488
-3.258651	down	-0.3688235
-5.084726	downmrs	-0.1501924
-4.306575	downs	-0.1476549
-4.783696	dr	-0.3537895
-5.084726	drain	-0.1387795
-5.084726	drains	-0.147953
-4.130484	draw	-0.1650542
-5.084726	drawbackexcept	-0.1363587
-4.043334	drawing	-0.3058857
-4.005545	drawingroom	-0.0911192
-5.084726	drawingroomnobody	-0.1440561
-5.084726	drawingroomshe	-0.1501316
-4.607605	drawings	-0.134799
-4.005545	drawn	-0.1448119
-5.084726	draws	-0.1456299
-4.306575	dread	-0.7197481
-4.482666	dreaded	-0.2205584
-4.043334	dreadful	-0.2115812
-4.783696	dreadfully	-0.1478309
-5.084726	dreadfulmy	-0.1501566
-5.084726	dreading	-0.1417666
-5.084726	dreadperhaps	-0.1417666
-5.084726	dream	-0.1380304
-5.084726	dreaming	-0.1487677
-4.239628	dress	-0.07925758
-4.607605	dressed	-0.1296291
-5.084726	dresses	-0.1433015
-4.783696	dressing	-0.1461641
-5.084726	dressingcloset	-0.1387795
-4.783696	dressingroom	-0.112151
-4.005545	drew	-0.1811497
-4.783696	dried	-0.1498885
-5.084726	drift	-0.1380304
-4.607605	drink	-0.2609421
-4.783696	drinking	-0.1244804
-4.385756	drive	-0.1379569
-4.482666	driven	-0.1044293
-5.084726	drives	-0.1499922
-4.482666	driving	-0.1424147
-4.385756	droll	-0.1771625
-5.084726	drollall	-0.1497633
-4.783696	drop	-0.1402519
-4.385756	dropped	-0.1301234
-5.084726	drops	-0.1497275
-4.482666	dropt	-0.09846411
-4.385756	drove	-0.1006446
-5.084726	drunk	-0.1433015
-5.084726	drury	-0.1502388
-4.607605	dry	-0.1007047
-5.084726	dryness	-0.1380304
-4.005545	due	-0.5960725
-5.084726	duets	-0.1387795
-4.181636	dull	-0.1282847
-5.084726	dullbut	-0.1435701
-4.783696	dullness	-0.1474355
-5.084726	duly	-0.1502138
-5.084726	dupe	-0.1460595
-5.084726	duration	-0.1502245
-4.084726	during	-0.8264242
-4.482666	duties	-0.1278231
-4.043334	duty	-0.1399771
-5.084726	dutymy	-0.1501709
-5.084726	dwell	-0.147953
-4.306575	dwelling	-0.1475604
-4.783696	dwelt	-0.1476117
-4.482666	dying	-0.1286613
-5.084726	dyingand	-0.1502353
-3.344364	each	-0.4966382
-5.084726	eachor	-0.1492873
-3.783696	eager	-0.2625295
-3.970783	eagerly	-0.09909651
-4.043334	eagerness	-0.3030157
-4.385756	ear	-0.1232501
-4.607605	earlier	-0.142553
-5.084726	earlieri	-0.149545
-4.482666	earliest	-0.1385813
-3.783696	early	-0.3708543
-4.607605	earned	-0.1327391
-3.762507	earnest	-0.1580372
-4.043334	earnestly	-0.1549041
-4.239628	earnestness	-0.126738
-5.084726	earrings	-0.1460595
-4.482666	ears	-0.1344915
-4.385756	earth	-0.1093529
-5.084726	earthly	-0.1502245
-3.854277	ease	-0.1822704
-4.783696	easier	-0.1334417
-4.783696	easiest	-0.1495093
-3.653363	easily	-0.1129499
-4.607605	east	-0.2748592
-5.084726	easter	-0.1502424
-3.742304	easy	-0.121668
-4.306575	eat	-0.203312
-4.607605	eating	-0.237835
-5.084726	ebullition	-0.1380304
-5.084726	echoed	-0.1469065
-5.084726	eclat	-0.1449649
-5.084726	economical	-0.150246
-5.084726	economically	-0.1502067
-5.084726	economy	-0.1456299
-4.607605	ecstasy	-0.5140676
-5.084726	ecstatic	-0.1501673
-5.084726	edge	-0.1380304
-4.783696	editions	-0.3537859
-4.130484	education	-0.1207591
-2.775096	edward	-0.313544
-4.783696	edwardbut	-0.1130511
-5.084726	edwardfor	-0.150246
-5.084726	edwardhe	-0.14952
-5.084726	edwardhis	-0.1501316
-5.084726	edwardi	-0.1499886
-3.482666	edwards	-0.2206567
-5.084726	edwardshe	-0.1500387
-5.084726	edwardwhether	-0.1444691
-5.084726	edwardwhy	-0.1494269
-3.762507	effect	-0.6247239
-5.084726	effected	-0.1500065
-5.084726	effecting	-0.1363587
-4.239628	effects	-0.167132
-4.783696	effectual	-0.1465967
-5.084726	effectually	-0.150246
-5.084726	efficacy	-0.1380304
-4.181636	effort	-0.0686475
-4.783696	effusion	-0.1362886
-4.783696	effusions	-0.1365394
-4.130484	eight	-0.2230883
-4.385756	eighteen	-0.1683288
-5.084726	eighty	-0.1502138
-3.593365	either	-0.3407511
-5.084726	ejaculation	-0.1132224
-4.482666	elder	-0.2387669
-4.607605	elderly	-0.1494985
-3.783696	eldest	-0.2311224
-5.084726	elect	-0.1132224
-5.084726	election	-0.1387795
-3.854277	elegance	-0.1555961
-5.084726	elegancewant	-0.1380304
-5.084726	elegancewhose	-0.1502317
-4.239628	elegant	-0.2243495
-4.482666	elevated	-0.2208163
-4.783696	eligibility	-0.1380231
-4.239628	eligible	-0.1136269
-2.325814	elinor	-0.2111879
-5.084726	elinorfor	-0.1501709
-5.084726	elinorhere	-0.1440561
-5.084726	elinorhesitatingly	-0.1444691
-5.084726	elinorhow	-0.1494591
-3.313874	elinors	-0.2082176
-5.084726	elinorshe	-0.1132224
-5.084726	elinorthat	-0.1499958
-4.181636	eliza	-0.1221613
-4.607605	elliott	-0.1427929
-5.084726	elliotts	-0.1501459
-4.607605	ellison	-0.1349619
-5.084726	ellisons	-0.1132224
-5.084726	ellisonsand	-0.1417666
-5.084726	eloping	-0.1499958
-4.385756	eloquence	-0.1661345
-3.451258	else	-0.2534109
-5.084726	elseand	-0.1444691
-5.084726	elseburst	-0.147953
-4.482666	elsewhere	-0.1946078
-5.084726	elsewhereoh	-0.1132224
-5.084726	elucidation	-0.1460595
-5.084726	em	-0.1495379
-4.783696	embarrassed	-0.1319199
-4.306575	embarrassment	-0.1939152
-5.084726	embarrassmentwhether	-0.1466039
-5.084726	embellishment	-0.1380304
-5.084726	embellishments	-0.1380304
-5.084726	embraced	-0.1481937
-5.084726	embraces	-0.1433015
-5.084726	emergence	-0.1132224
-5.084726	emergency	-0.1482403
-5.084726	emigrant	-0.1500959
-5.084726	eminence	-0.1499457
-3.829454	emotion	-0.1007272
-5.084726	emotionmy	-0.1500136
-5.084726	emphasis	-0.147953
-4.482666	employ	-0.1147141
-4.130484	employed	-0.2217069
-4.043334	employment	-0.211911
-4.385756	employments	-0.1042228
-5.084726	emptiness	-0.1380304
-4.385756	enable	-0.2041364
-4.607605	enabled	-0.2641733
-5.084726	enamoured	-0.1499171
-5.084726	enclosure	-0.1380304
-4.482666	encourage	-0.1329177
-4.306575	encouraged	-0.1229953
-3.938598	encouragement	-0.2677692
-5.084726	encouragements	-0.1482403
-4.130484	encouraging	-0.1194725
-5.084726	encroachments	-0.1387795
-5.084726	encumbered	-0.1387795
-3.377156	end	-0.6209268
-5.084726	endear	-0.1444691
-5.084726	endeavor	-0.1363291
-5.084726	endeavoring	-0.1477375
-5.084726	endeavors	-0.1363291
-4.385756	endeavour	-0.3747295
-4.239628	endeavoured	-0.2522838
-4.130484	endeavouring	-1.087978
-4.783696	endeavours	-0.1237062
-4.181636	ended	-0.1908491
-5.084726	ending	-0.1494591
-4.783696	endless	-0.1502281
-5.084726	endowed	-0.1469065
-4.783696	ends	-0.1095805
-5.084726	endthey	-0.1490509
-5.084726	endurance	-0.1380304
-4.783696	endure	-0.1303891
-5.084726	endured	-0.1437733
-5.084726	enemy	-0.1501566
-4.783696	energy	-0.1417338
-5.084726	energyif	-0.1435701
-5.084726	enfeebled	-0.1500494
-4.783696	enforced	-0.3399057
-5.084726	enforcement	-0.1132224
-5.084726	enforcing	-0.1444691
-5.084726	enfranchisement	-0.1484772
-3.970783	engage	-0.1846231
-3.493662	engaged	-0.3802093
-5.084726	engagedbut	-0.1495379
-3.299397	engagement	-0.2388639
-3.938598	engagements	-0.1703801
-4.306575	engaging	-0.1586562
-4.181636	england	-0.2033117
-5.084726	engross	-0.1474822
-4.607605	engrossed	-0.1368491
-4.239628	enjoy	-0.07927861
-4.482666	enjoyed	-0.1266023
-4.607605	enjoying	-0.147493
-3.829454	enjoyment	-0.2008892
-5.084726	enjoyments	-0.1477087
-5.084726	enlarge	-0.1486028
-5.084726	enlargement	-0.1380304
-5.084726	enlightened	-0.147953
-5.084726	ennui	-0.1363291
-5.084726	enormously	-0.1502388
-3.116243	enough	-0.7587847
-5.084726	enoughbut	-0.1132224
-5.084726	enoughfor	-0.1502353
-4.306575	enquire	-0.1908215
-5.084726	enquired	-0.1380304
-4.385756	enquiries	-0.1049651
-4.783696	enquiring	-0.1497598
-4.385756	enquiry	-0.1047429
-5.084726	enraged	-0.1500244
-5.084726	enrich	-0.150103
-4.783696	ensued	-0.1464598
-4.607605	ensured	-0.1379679
-5.084726	entanglement	-0.1482403
-4.043334	enter	-0.2872881
-3.566212	entered	-0.4015241
-5.084726	enteredis	-0.1449649
-4.306575	entering	-0.2751592
-5.084726	entertain	-0.150053
-4.783696	entertained	-0.1407489
-5.084726	entertainment	-0.1380304
-4.783696	enthusiasm	-0.3423266
-4.783696	enthusiastic	-0.1501602
-4.783696	entire	-0.1502138
-3.461477	entirely	-0.1095648
-5.084726	entirelynot	-0.1498313
-5.084726	entitled	-0.1363291
-3.908635	entrance	-0.3575202
-4.482666	entreat	-0.1016608
-4.783696	entreated	-0.1392049
-4.306575	entreaties	-0.08071101
-4.385756	entreaty	-0.1144736
-5.084726	entrusted	-0.1437733
-5.084726	entry	-0.1498492
-5.084726	enumeration	-0.1380304
-4.783696	envy	-0.1244804
-5.084726	epicurism	-0.1467804
-3.762507	equal	-0.4905174
-5.084726	equality	-0.1387795
-5.084726	equalled	-0.1481254
-3.540658	equally	-0.1326398
-5.084726	equals	-0.1363291
-4.607605	errand	-0.2706906
-4.783696	erred	-0.1435448
-5.084726	erredfor	-0.1132224
-4.482666	error	-0.1076693
-5.084726	errors	-0.1132224
-4.181636	escape	-0.1731345
-4.306575	escaped	-0.4115205
-3.854277	especially	-0.1779706
-5.084726	esq	-0.1440561
-4.783696	essential	-0.1502174
-5.084726	establish	-0.1132224
-4.181636	established	-0.1830899
-5.084726	establishing	-0.1467804
-4.239628	establishment	-0.2268648
-3.805973	estate	-0.1329053
-3.854277	esteem	-0.3100588
-4.783696	esteemed	-0.1455541
-5.084726	esteeming	-0.1480788
-4.783696	esteems	-0.1470865
-5.084726	estimable	-0.1492658
-5.084726	estimate	-0.1497848
-4.783696	estimating	-0.1346582
-4.482666	estimation	-0.09555993
-5.084726	estranged	-0.1484772
-5.084726	eternal	-0.1132224
-5.084726	etiquette	-0.1487677
-3.016541	even	-0.1715421
-3.461477	evening	-0.2063322
-5.084726	eveninghad	-0.1466039
-5.084726	eveningi	-0.1502174
-4.607605	evenings	-0.1349582
-3.742304	event	-0.1326387
-4.385756	events	-0.1479119
-4.783696	eventually	-0.144451
-2.872539	ever	-0.2534485
-5.084726	everhow	-0.1132224
-5.084726	everi	-0.1440561
-5.084726	everlasting	-0.150246
-2.540658	every	-0.5291442
-4.181636	everybody	-0.1472968
-3.938598	everything	-0.08858574
-5.084726	everythingmariannes	-0.1498134
-5.084726	evidence	-0.1461713
-4.043334	evident	-0.1741883
-4.783696	evidently	-0.1497955
-4.005545	evil	-0.1239212
-4.783696	evils	-0.1379312
-5.084726	evince	-0.1497848
-4.783696	exact	-0.1480141
-3.669753	exactly	-0.2664028
-5.084726	exactness	-0.1363587
-4.385756	examination	-0.1646655
-4.783696	examine	-0.1374273
-4.783696	examined	-0.1409533
-4.607605	examining	-0.1231817
-4.607605	example	-0.1313642
-5.084726	exceed	-0.1363587
-5.084726	exceeded	-0.1456299
-4.607605	exceeding	-0.1126851
-3.686786	exceedingly	-0.1600029
-4.783696	excellence	-0.09989892
-5.084726	excellencies	-0.1380304
-4.005545	excellent	-0.1693897
-3.908635	except	-0.1768029
-4.181636	excess	-0.4834912
-4.385756	excessive	-0.1806479
-4.239628	excessively	-0.1091173
-4.306575	exchange	-0.1209572
-5.084726	exchanged	-0.1491798
-4.783696	excite	-0.1130239
-4.306575	excited	-0.1260888
-4.607605	exciting	-0.1422146
-5.084726	exclaim	-0.1437733
-4.130484	exclaimed	-0.3503049
-5.084726	exclaimedimprove	-0.1488466
-5.084726	exclaiming	-0.1500565
-4.482666	exclamation	-0.3829705
-5.084726	exclusively	-0.1132224
-4.482666	excursion	-0.2243106
-5.084726	excursive	-0.150246
-3.970783	excuse	-0.1170865
-4.783696	excused	-0.1468957
-5.084726	excuses	-0.1132224
-5.084726	excusewhat	-0.1477087
-5.084726	execution	-0.1363587
-4.482666	exercise	-0.1342099
-5.084726	exercised	-0.1363587
-5.084726	exercising	-0.1444691
-4.306575	exert	-0.2620182
-5.084726	exerted	-0.1494126
-3.805973	exertion	-0.1691909
-4.607605	exertions	-0.1353466
-5.084726	exertionthey	-0.1494269
-3.908635	exeter	-0.09133045
-5.084726	exhausted	-0.150053
-5.084726	exhilarated	-0.1477375
-5.084726	exhilaration	-0.1435701
-5.084726	exigence	-0.1380304
-4.607605	exist	-0.2349263
-5.084726	existed	-0.1500172
-5.084726	existedmariannes	-0.1132224
-4.181636	existence	-0.2463636
-5.084726	exorbitant	-0.1475721
-5.084726	expand	-0.1444691
-5.084726	expatiate	-0.147953
-3.653363	expect	-0.1183984
-3.722999	expectation	-0.546651
-4.385756	expectations	-0.1520075
-3.553247	expected	-0.1720883
-4.607605	expecting	-0.09802508
-5.084726	expectinginstead	-0.1132224
-5.084726	expects	-0.1462939
-5.084726	expediency	-0.1380304
-4.607605	expedient	-0.1192507
-4.783696	expeditiously	-0.1329065
-5.084726	expel	-0.1484772
-3.970783	expense	-0.3268847
-4.239628	expenses	-0.1440469
-4.482666	expensive	-0.1486207
-5.084726	expensiveness	-0.1477087
-4.482666	experience	-0.122508
-4.482666	experienced	-0.1404274
-4.783696	experiencing	-0.1321472
-4.239628	explain	-0.1978367
-4.084726	explained	-0.2041827
-4.005545	explanation	-0.1916551
-5.084726	explanations	-0.1501995
-5.084726	explanatory	-0.1380304
-4.783696	expose	-0.1403067
-4.385756	exposed	-0.163697
-3.938598	express	-0.2205951
-3.938598	expressed	-0.1993531
-4.783696	expressing	-0.3480162
-4.084726	expression	-0.1371197
-4.607605	expressions	-0.2584556
-4.607605	expressive	-0.2625773
-4.607605	expressively	-0.1328061
-4.783696	expressly	-0.1132185
-4.482666	exquisite	-0.2397732
-5.084726	extend	-0.1444691
-4.385756	extended	-0.252288
-5.084726	extending	-0.1363587
-4.607605	extensive	-0.09423266
-4.385756	extent	-0.86038
-5.084726	extentand	-0.1466039
-4.783696	exterior	-0.1131601
-5.084726	external	-0.1500387
-5.084726	extinction	-0.1380304
-5.084726	extinguished	-0.1132224
-5.084726	extolling	-0.1486028
-5.084726	extort	-0.1433015
-5.084726	extorting	-0.1132224
-4.130484	extraordinary	-0.1268173
-4.783696	extravagance	-0.137626
-4.607605	extravagant	-0.1321137
-4.607605	extreme	-0.09960993
-3.970783	extremely	-0.2908312
-5.084726	extremest	-0.1502424
-5.084726	extremity	-0.1460595
-5.084726	extremityis	-0.1417666
-5.084726	exuberance	-0.1380304
-4.482666	exultation	-0.2231861
-4.783696	exultingly	-0.1117959
-3.938598	eye	-0.2393203
-4.783696	eyed	-0.1447189
-4.783696	eyeing	-0.1342358
-3.360451	eyes	-0.176601
-5.084726	eyeswill	-0.1462939
-5.084726	eyeyour	-0.1500994
-4.783696	f	-0.1007167
-3.742304	face	-0.1090528
-5.084726	faceand	-0.150246
-5.084726	faces	-0.1363587
-4.043334	fact	-0.2606171
-5.084726	facts	-0.1461713
-5.084726	fadedworn	-0.1500101
-4.482666	fail	-0.2113544
-4.607605	failed	-0.1332931
-5.084726	failedthe	-0.1502317
-5.084726	failing	-0.1132224
-5.084726	failure	-0.1380304
-4.385756	faint	-0.1709289
-5.084726	fainter	-0.1490258
-5.084726	fainting	-0.150221
-5.084726	faintness	-0.1433015
-4.181636	fair	-0.124587
-5.084726	fairer	-0.1502353
-5.084726	fairly	-0.1502067
-4.306575	faith	-0.09893887
-5.084726	faithful	-0.1363291
-4.783696	faithfully	-0.1131134
-4.306575	fall	-0.1853134
-4.783696	fallen	-0.1127864
-4.482666	falling	-0.1339354
-4.783696	falls	-0.1433669
-4.607605	false	-0.1131874
-4.482666	falsehood	-0.3848557
-5.084726	falsehoodengaged	-0.1363291
-5.084726	fame	-0.1363291
-5.084726	familiar	-0.1387795
-4.482666	familiarity	-0.3395108
-5.084726	familiarized	-0.1469065
-4.783696	familiarly	-0.133735
-4.607605	families	-0.1428293
-3.209665	family	-0.1952998
-5.084726	familyit	-0.1440561
-5.084726	famous	-0.1462939
-4.084726	fancied	-0.2299262
-5.084726	fanciful	-0.150246
-3.622328	fancy	-0.2426876
-4.607605	fancying	-0.1488824
-3.471942	fanny	-0.1614458
-4.306575	fannys	-0.1500637
-5.084726	fannyyes	-0.1498313
-3.258651	far	-0.4500909
-4.239628	farewell	-0.1784851
-4.607605	farm	-0.1434867
-5.084726	farmhouse	-0.1490258
-3.39453	farther	-0.1817117
-4.783696	farthest	-0.150221
-4.607605	fashion	-0.1017847
-5.084726	fashionable	-0.1500351
-4.783696	fashioned	-0.1487319
-4.385756	fast	-0.2506358
-5.084726	faster	-0.1490258
-4.783696	fastidious	-0.1345916
-5.084726	fat	-0.1502388
-4.239628	fate	-0.1597852
-5.084726	fates	-0.1486028
-3.704515	father	-0.09648728
-4.306575	fathers	-0.1485776
-4.306575	fatigue	-0.07584856
-5.084726	fatigued	-0.1387795
-4.783696	fatigues	-0.3423266
-5.084726	fatiguing	-0.1363291
-4.385756	fault	-0.09831917
-4.607605	faultless	-0.2707664
-4.607605	faults	-0.1368528
-4.783696	faulty	-0.1118896
-3.653363	favour	-0.3223408
-4.306575	favourable	-0.1298576
-3.704515	favourite	-0.1462322
-5.084726	favourites	-0.1469065
-5.084726	favouriteshe	-0.1132224
-5.084726	favouriteswhy	-0.1484664
-3.669753	fear	-0.3120354
-4.005545	feared	-0.1967325
-4.306575	fearful	-0.2852743
-5.084726	fearing	-0.1363587
-4.130484	fears	-0.1707616
-5.084726	feather	-0.1499171
-4.385756	features	-0.1693916
-4.385756	february	-0.1707967
-5.084726	feeble	-0.1132224
-4.783696	feebleness	-0.131368
-5.084726	feebly	-0.1502138
-5.084726	feed	-0.1417666
-5.084726	feeding	-0.1387795
-3.278546	feel	-0.153332
-5.084726	feeli	-0.1492945
-3.742304	feeling	-0.09252871
-4.783696	feelingly	-0.1362812
-5.084726	feelingof	-0.1502388
-3.265182	feelings	-0.2300714
-5.084726	feelingso	-0.1500101
-5.084726	feelingsshe	-0.1492622
-5.084726	feelingsurely	-0.1462939
-5.084726	feels	-0.1498706
-4.607605	feet	-0.1104743
-4.783696	feigned	-0.1391572
-5.084726	felicitations	-0.147953
-4.482666	felicity	-0.09050935
-5.084726	felicityand	-0.1502353
-4.043334	fell	-0.3061854
-4.043334	fellow	-0.1488079
-5.084726	fellowi	-0.1132224
-5.084726	fellowto	-0.149681
-3.076126	felt	-0.2671095
-5.084726	felta	-0.1501852
-5.084726	feltbut	-0.1492658
-5.084726	female	-0.150246
-5.084726	females	-0.1492622
-5.084726	femininewas	-0.1444691
-3.051303	ferrars	-0.2658151
-4.783696	ferrarsi	-0.1495844
-3.908635	ferrarss	-0.1337056
-5.084726	ferrarsthat	-0.1417666
-5.084726	ferrarsvery	-0.150246
-5.084726	ferrarswas	-0.1501495
-5.084726	fertile	-0.1502245
-4.607605	fervent	-0.1087164
-5.084726	festival	-0.1482403
-4.607605	fetch	-0.1472125
-5.084726	fetches	-0.1499958
-4.783696	fetching	-0.1039764
-4.607605	fettered	-0.2607945
-4.385756	fever	-0.08522922
-4.607605	feverish	-0.1467949
-3.215495	few	-0.5667523
-5.084726	fhad	-0.1487641
-4.783696	fickle	-0.3167695
-5.084726	field	-0.1387795
-4.385756	fifteen	-0.1833702
-4.084726	fifty	-0.3223274
-4.181636	figure	-0.1069474
-4.607605	filigree	-0.147547
-4.783696	fill	-0.3453137
-4.385756	filled	-0.2797783
-4.385756	finally	-0.2203725
-3.385756	find	-0.2827807
-3.938598	finding	-0.1784452
-5.084726	finds	-0.1444691
-3.686786	fine	-0.1878027
-4.607605	finest	-0.1499743
-4.607605	fingers	-0.09478923
-4.607605	finish	-0.09154953
-4.043334	finished	-0.2075621
-4.783696	finishing	-0.141763
-5.084726	fir	-0.1363587
-4.043334	fire	-0.1407091
-4.607605	firm	-0.1428838
-4.783696	firmer	-0.1498957
-4.482666	firmly	-0.2030735
-4.385756	firmness	-0.1907708
-2.897206	first	-0.1845555
-5.084726	fish	-0.1387795
-4.181636	fit	-0.1198863
-5.084726	fitit	-0.1477087
-4.385756	fitted	-0.2037799
-3.653363	five	-0.4277744
-4.239628	fix	-0.1372405
-3.742304	fixed	-0.4311193
-5.084726	fixedand	-0.1132224
-5.084726	fixedbut	-0.1435701
-4.607605	fixing	-0.2640451
-4.607605	flannel	-0.2748592
-5.084726	flaring	-0.150246
-4.482666	flatter	-0.2025439
-4.385756	flattered	-0.3303004
-4.783696	flatteries	-0.1433778
-4.482666	flattering	-0.09662449
-4.385756	flattery	-0.1991076
-5.084726	fled	-0.1484772
-4.783696	flew	-0.1500637
-5.084726	floor	-0.1502317
-5.084726	flourish	-0.1380304
-5.084726	flourishing	-0.1435701
-4.607605	flow	-0.2608277
-5.084726	flowed	-0.1484772
-4.783696	flowergarden	-0.149033
-5.084726	flowing	-0.1502031
-5.084726	fluctuating	-0.1460595
-5.084726	flushed	-0.1502424
-4.783696	flutter	-0.1384088
-5.084726	fly	-0.1132224
-5.084726	foibles	-0.1433015
-4.783696	folded	-0.1441141
-4.239628	follow	-0.1756302
-3.854277	followed	-0.1989276
-5.084726	followedand	-0.1492658
-4.239628	following	-0.1354393
-4.783696	follows	-0.3167695
-3.938598	folly	-0.3097919
-5.084726	follys	-0.150246
-3.762507	fond	-0.7583605
-4.482666	fondly	-0.1129616
-5.084726	fondness	-0.1380304
-5.084726	food	-0.1460595
-4.607605	fool	-0.1132107
-4.385756	foolish	-0.1665354
-5.084726	foolishbusinessthis	-0.1477087
-5.084726	foolishly	-0.1502353
-4.783696	foot	-0.1345768
-4.783696	footman	-0.3528988
-5.084726	footsteps	-0.1488
-2.017656	for	-0.563822
-5.084726	forbade	-0.1363587
-5.084726	forbear	-0.1502067
-4.482666	forbearance	-0.1054169
-5.084726	forbida	-0.150246
-4.783696	forbidding	-0.1480177
-5.084726	forbore	-0.1132224
-4.130484	force	-0.2266351
-3.722999	forced	-0.4789288
-5.084726	forcibly	-0.1363291
-4.482666	forcing	-0.1474247
-4.783696	forebodings	-0.142018
-5.084726	forego	-0.1363587
-5.084726	foregoing	-0.1501638
-4.783696	forenoon	-0.1237366
-5.084726	foreplanned	-0.1437733
-5.084726	foresaw	-0.1433015
-4.482666	foresee	-0.2263186
-5.084726	foreseeing	-0.1474822
-4.783696	foreseen	-0.1007167
-5.084726	foresight	-0.1468921
-5.084726	foretell	-0.1132224
-5.084726	foretold	-0.1489505
-4.783696	forfeit	-0.1275972
-5.084726	forfeited	-0.1477375
-5.084726	forfeiting	-0.1417666
-4.783696	forgave	-0.1480357
-4.043334	forget	-0.2081524
-5.084726	forgetting	-0.1132224
-4.084726	forgive	-0.2668843
-4.084726	forgiven	-0.2078291
-4.239628	forgiveness	-0.2562561
-4.043334	forgot	-0.1164171
-4.385756	forgotten	-0.1203315
-5.084726	fori	-0.1474535
-4.385756	forlorn	-0.09852451
-3.908635	form	-0.1818513
-4.783696	formal	-0.1500458
-4.607605	formality	-0.1305424
-5.084726	formally	-0.1502317
-3.742304	formed	-0.1316807
-3.637568	former	-0.1385497
-5.084726	formerbut	-0.1460847
-4.482666	formerly	-0.3591582
-4.783696	formidable	-0.1502174
-4.482666	forming	-0.1336608
-4.482666	forms	-0.1846642
-5.084726	forsaking	-0.1486028
-5.084726	forte	-0.147953
-4.043334	forth	-0.2311145
-5.084726	forthin	-0.1500708
-4.084726	fortitude	-0.2680372
-4.005545	fortnight	-0.1829152
-5.084726	fortnightand	-0.1485346
-4.607605	fortunate	-0.1128448
-4.385756	fortunately	-0.322473
-3.516525	fortune	-0.1787758
-5.084726	fortuneand	-0.1132224
-4.607605	fortunes	-0.09955773
-4.482666	forty	-0.1979328
-3.829454	forward	-0.2210406
-5.084726	forwarded	-0.1363291
-5.084726	forwarding	-0.1363587
-4.783696	forwards	-0.1460378
-3.252218	found	-0.3143805
-4.482666	foundation	-0.2295567
-5.084726	foundations	-0.1461713
-4.239628	founded	-0.3034869
-3.504943	four	-0.3047279
-5.084726	fourteen	-0.150246
-5.084726	fourteenth	-0.1501245
-4.783696	fourth	-0.1499886
-5.084726	fowls	-0.1363291
-5.084726	fox	-0.1491261
-4.783696	frame	-0.1308825
-4.385756	frank	-0.07235277
-4.607605	frankness	-0.5148167
-5.084726	frantic	-0.1132224
-4.130484	free	-0.1976994
-5.084726	freeand	-0.1449649
-4.607605	freedom	-0.1243438
-5.084726	freespoken	-0.1132224
-5.084726	frequency	-0.1380304
-4.181636	frequent	-0.1398231
-3.938598	frequently	-0.1166085
-3.970783	fresh	-0.1063193
-5.084726	fretful	-0.1502281
-5.084726	fretted	-0.1387795
-4.783696	friday	-0.1364214
-3.403485	friend	-0.165309
-5.084726	friendand	-0.1494591
-5.084726	friendliest	-0.1500565
-4.783696	friendliness	-0.09989892
-4.239628	friendly	-0.1373312
-5.084726	friendnot	-0.1490903
-3.336538	friends	-0.1461294
-5.084726	friendsfrom	-0.1502138
-3.783696	friendship	-0.1809586
-5.084726	friendto	-0.1501459
-4.385756	fright	-0.207092
-5.084726	frighten	-0.1488179
-4.385756	frightened	-0.2111687
-5.084726	frightens	-0.1498921
-5.084726	frightful	-0.1502317
-5.084726	frivolous	-0.1502317
-2.390121	from	-0.563003
-4.607605	front	-0.1179362
-5.084726	frost	-0.1502102
-4.783696	frugality	-0.1387758
-5.084726	fruit	-0.1501888
-5.084726	fruitless	-0.1461713
-5.084726	fruittrees	-0.1437733
-5.084726	fulfil	-0.1132224
-4.607605	fulfill	-0.264843
-4.482666	fulfilled	-0.1387612
-3.637568	full	-0.6600395
-5.084726	fullest	-0.150246
-4.306575	fully	-0.1448636
-5.084726	funeral	-0.1499171
-5.084726	furnished	-0.1132224
-5.084726	furnishing	-0.1486028
-4.130484	furniture	-0.256007
-5.084726	furniturebut	-0.1492873
-4.306575	further	-0.1707392
-5.084726	fury	-0.1387795
-5.084726	fuss	-0.1497633
-3.686786	future	-0.1711402
-5.084726	futurefor	-0.1495271
-4.306575	gaiety	-0.102164
-4.783696	gaily	-0.1502031
-4.181636	gain	-0.1725107
-3.938598	gained	-0.1491146
-4.607605	gaining	-0.1476836
-5.084726	gales	-0.1380304
-5.084726	gallantry	-0.1502102
-5.084726	galling	-0.1363291
-5.084726	gallop	-0.147953
-4.306575	game	-0.08223066
-5.084726	gape	-0.1474822
-4.043334	garden	-0.1040618
-5.084726	gardeners	-0.1502424
-4.607605	gardens	-0.098295
-5.084726	garret	-0.1501817
-5.084726	garrets	-0.1501709
-4.482666	gate	-0.09338222
-5.084726	gates	-0.1380304
-5.084726	gathered	-0.1484772
-5.084726	gathering	-0.1488968
-5.084726	gaucherie	-0.1482403
-3.258651	gave	-0.3374646
-4.043334	gay	-0.1555052
-5.084726	gayand	-0.1494556
-5.084726	gaze	-0.1501959
-4.783696	gazing	-0.1478237
-3.377156	general	-0.1126297
-4.181636	generally	-0.09365909
-5.084726	generations	-0.1485956
-4.306575	generosity	-0.1264777
-4.482666	generous	-0.1361262
-5.084726	generously	-0.1502388
-5.084726	genial	-0.1499994
-4.482666	genius	-0.09603384
-4.607605	genteel	-0.1444329
-5.084726	genteelly	-0.1387795
-4.783696	gentility	-0.1127669
-4.181636	gentle	-0.1428609
-3.686786	gentleman	-0.07078875
-4.607605	gentlemanlike	-0.1002719
-4.783696	gentlemans	-0.1499529
-4.385756	gentlemen	-0.1094
-4.385756	gentleness	-0.08369089
-5.084726	gently	-0.1456299
-4.482666	genuine	-0.2030891
-5.084726	genuinely	-0.1387795
-3.593365	get	-0.2676001
-5.084726	getgood	-0.1502353
-4.181636	getting	-0.1636273
-5.084726	gibson	-0.1501852
-5.084726	giddy	-0.1484772
-4.482666	gift	-0.1025391
-5.084726	giggling	-0.1461713
-5.084726	gilberts	-0.1363291
-3.566212	girl	-0.1542352
-5.084726	girli	-0.1492945
-3.908635	girls	-0.1180485
-5.084726	girlshe	-0.1477087
-3.009179	give	-0.3875786
-3.39453	given	-0.2402606
-5.084726	givenbut	-0.1417666
-5.084726	gives	-0.1488179
-3.516525	giving	-0.1822887
-3.471942	glad	-0.8349398
-4.607605	gladly	-0.2677803
-4.607605	glance	-0.2697914
-5.084726	glances	-0.1449649
-4.783696	glass	-0.3415775
-5.084726	glebe	-0.1502317
-4.783696	glimpse	-0.3415775
-5.084726	gloom	-0.1380304
-5.084726	gloomeven	-0.1132224
-5.084726	gloominess	-0.1380304
-4.607605	gloomy	-0.1499851
-5.084726	gloried	-0.1437733
-5.084726	gloves	-0.1469065
-5.084726	glow	-0.150246
-5.084726	glowing	-0.1469065
-3.140244	go	-0.3449399
-4.482666	god	-0.1328061
-5.084726	godby	-0.1500208
-5.084726	godholding	-0.1496989
-5.084726	gods	-0.1501388
-5.084726	godwhat	-0.1433015
-4.385756	goes	-0.1190588
-3.344364	going	-0.4463724
-5.084726	goingno	-0.1481937
-5.084726	goings	-0.1380304
-4.783696	gold	-0.1387758
-3.622328	gone	-0.08927302
-5.084726	gonehow	-0.150246
-2.951187	good	-0.2071801
-5.084726	goodat	-0.1500172
-4.607605	goodbreeding	-0.1219172
-4.783696	goodby	-0.1414131
-4.783696	goodfornothing	-0.1465643
-4.607605	goodhearted	-0.274702
-5.084726	goodhumored	-0.1502424
-4.607605	goodhumoured	-0.1386731
-4.385756	goodnature	-0.2914596
-4.239628	goodnatured	-0.186284
-4.239628	goodness	-0.1242262
-5.084726	goodnesswith	-0.1433015
-5.084726	goodthe	-0.1501602
-4.306575	goodwill	-0.1612113
-4.783696	gossip	-0.1262286
-3.669753	got	-0.2310646
-4.783696	gout	-0.1451421
-4.783696	govern	-0.1039764
-4.482666	governed	-0.12644
-5.084726	governing	-0.1500923
-4.783696	gown	-0.1245107
-5.084726	gowns	-0.1501959
-4.783696	grace	-0.1479998
-4.482666	graceful	-0.09130813
-5.084726	gracefulness	-0.1488
-4.783696	graces	-0.3415775
-4.482666	gracious	-0.1057773
-5.084726	graciousin	-0.1433015
-4.607605	graciousness	-0.1239454
-4.783696	gradually	-0.1275671
-4.607605	grand	-0.1490867
-4.607605	grandeur	-0.1096551
-5.084726	grandmothers	-0.1469065
-4.783696	granted	-0.1344767
-5.084726	grass	-0.1440561
-5.084726	grate	-0.1460595
-3.970783	grateful	-0.1600735
-4.482666	gratefully	-0.1063865
-5.084726	gratification	-0.1363587
-4.783696	gratify	-0.1377326
-4.306575	gratifying	-0.1797002
-3.880606	gratitude	-0.3082182
-5.084726	gratitudebut	-0.1444691
-5.084726	gratitudeis	-0.1488466
-3.938598	grave	-0.2376199
-4.607605	gravel	-0.09988287
-4.607605	gravely	-0.1450372
-4.385756	gravity	-0.1776204
-4.306575	grays	-0.186682
-2.923358	great	-0.2688423
-5.084726	greatas	-0.1502067
-5.084726	greatbut	-0.1444691
-3.528424	greater	-0.1940612
-3.669753	greatest	-0.2038109
-4.043334	greatly	-0.1500172
-4.607605	greatness	-0.1359822
-4.783696	grecian	-0.3537859
-4.783696	green	-0.1499564
-4.607605	greenhouse	-0.124158
-4.306575	grew	-0.1634744
-4.181636	grey	-0.08809998
-5.084726	greyit	-0.1440561
-4.783696	greys	-0.1502281
-4.084726	grief	-0.1505024
-5.084726	griefthat	-0.150246
-4.783696	grieve	-0.1447261
-5.084726	grieved	-0.1363587
-5.084726	grieves	-0.1488179
-4.385756	grieving	-0.2148961
-4.783696	grievous	-0.3398762
-4.783696	groom	-0.1383684
-5.084726	gross	-0.1387795
-4.239628	ground	-0.2841613
-4.783696	grounded	-0.1444655
-5.084726	groundfloor	-0.1132224
-4.306575	grounds	-0.2822915
-5.084726	groundsnow	-0.1490509
-5.084726	group	-0.1380304
-4.385756	growing	-0.2122119
-4.385756	grown	-0.1389189
-5.084726	grows	-0.1500244
-5.084726	grudge	-0.1363291
-5.084726	guard	-0.1489971
-5.084726	guardat	-0.1500172
-4.783696	guarded	-0.1412234
-4.783696	guardian	-0.3167695
-5.084726	guardians	-0.1481254
-4.783696	guardianship	-0.3415775
-4.783696	guarding	-0.3453137
-4.130484	guess	-0.1949267
-4.482666	guessed	-0.2214883
-5.084726	guessing	-0.149817
-4.607605	guest	-0.096968
-4.482666	guests	-0.1405479
-5.084726	guidance	-0.1380304
-5.084726	guide	-0.1500851
-4.385756	guided	-0.2888603
-4.306575	guilt	-0.1403493
-5.084726	guiltshe	-0.1440561
-4.385756	guilty	-0.124287
-4.607605	guineas	-0.2465986
-4.783696	gum	-0.3423266
-4.783696	gun	-0.1353466
-4.239628	habit	-0.5716362
-5.084726	habitation	-0.1380304
-4.607605	habits	-0.1296403
-5.084726	habitual	-0.150246
-4.783696	hackneyed	-0.1496954
-2.113451	had	-0.3551449
-5.084726	hadassisted	-0.1477375
-3.854277	hair	-0.09947967
-5.084726	hairthat	-0.1496488
-3.344364	half	-0.2836399
-5.084726	halffive	-0.1501745
-5.084726	hall	-0.1387795
-5.084726	halves	-0.1387795
-5.084726	ham	-0.1387795
-5.084726	hamlet	-0.1486673
-3.528424	hand	-0.2079435
-4.783696	handed	-0.1476584
-4.482666	handkerchief	-0.1328619
-5.084726	handle	-0.1444691
-3.908635	hands	-0.2061837
-3.669753	handsome	-0.1647617
-5.084726	handsomely	-0.1502317
-4.783696	handsomer	-0.1405187
-4.783696	handsomest	-0.1500494
-5.084726	handsomeworse	-0.1502388
-4.783696	handwriting	-0.113164
-5.084726	handwritingthat	-0.1484664
-5.084726	hang	-0.1501245
-5.084726	hangerand	-0.1495271
-4.385756	hanging	-0.1348101
-5.084726	hanover	-0.1502388
-5.084726	hanoversquare	-0.1462939
-4.043334	happen	-0.2804121
-3.622328	happened	-0.5168378
-5.084726	happenfor	-0.1492658
-5.084726	happening	-0.1132224
-4.783696	happens	-0.1039764
-4.385756	happier	-0.09997918
-4.306575	happiest	-0.1311589
-4.482666	happily	-0.1495701
-3.321298	happiness	-0.264477
-4.783696	happinessand	-0.1362111
-5.084726	happinessthis	-0.1132224
-3.125685	happy	-0.3286727
-5.084726	happyand	-0.1466039
-5.084726	happythe	-0.1502353
-5.084726	harbour	-0.1132224
-4.239628	hard	-0.1274918
-4.482666	hardened	-0.2029295
-5.084726	hardening	-0.1417666
-5.084726	hardhearted	-0.1502388
-5.084726	hardily	-0.1458754
-3.321298	hardly	-0.2700813
-5.084726	hardness	-0.1380304
-4.783696	hardship	-0.3415775
-5.084726	hardships	-0.1499958
-3.880606	harley	-1.230306
-4.482666	harm	-0.2253324
-5.084726	harmless	-0.1502424
-4.783696	harmony	-0.1436318
-5.084726	harp	-0.1387795
-4.181636	harris	-0.1698926
-4.783696	harriss	-0.1501388
-4.239628	harry	-0.08476412
-4.783696	harshly	-0.1455071
-2.775096	has	-0.4063087
-4.783696	haste	-0.1244804
-4.607605	hastened	-0.2607023
-4.783696	hastening	-0.1360819
-4.084726	hastily	-0.1368085
-4.482666	hasty	-0.1501674
-4.783696	hat	-0.3423266
-4.607605	hate	-0.273094
-5.084726	hated	-0.1480788
-5.084726	hateful	-0.1435701
-5.084726	hates	-0.1502424
-5.084726	hating	-0.1488179
-5.084726	haughty	-0.1132224
-5.084726	hauteur	-0.1387795
-2.192632	have	-0.42796
-5.084726	havepoor	-0.1502424
-3.336538	having	-0.192848
-5.084726	hazard	-0.1489505
-5.084726	hazarded	-0.1490437
-5.084726	hazarding	-0.1417666
-5.084726	hazy	-0.150246
-2.077833	he	-0.4267992
-3.553247	head	-0.1762697
-5.084726	headache	-0.1440561
-4.783696	headaches	-0.1481685
-5.084726	heads	-0.1387795
-5.084726	headstrong	-0.1502174
-5.084726	healing	-0.1132224
-4.043334	health	-0.3462645
-5.084726	healthand	-0.1485956
-5.084726	healthful	-0.1501316
-5.084726	healthy	-0.1132224
-3.278546	hear	-0.2542758
-3.221404	heard	-0.2421913
-5.084726	hearer	-0.1460595
-5.084726	hearfor	-0.149545
-3.669753	hearing	-0.2208171
-5.084726	hears	-0.1380304
-2.998367	heart	-0.255345
-5.084726	heartand	-0.1435701
-4.783696	hearted	-0.113199
-5.084726	hearther	-0.1501817
-5.084726	hearthow	-0.1494269
-4.084726	heartily	-0.1784167
-5.084726	heartiness	-0.1380304
-5.084726	hearts	-0.1501924
-5.084726	heartshe	-0.1502424
-5.084726	hearty	-0.1502067
-5.084726	heath	-0.150246
-4.385756	heaven	-0.128774
-4.783696	heavens	-0.3535214
-4.783696	heavily	-0.1483193
-3.970783	heavy	-0.151796
-5.084726	hei	-0.1490509
-4.607605	height	-0.1301459
-5.084726	heighten	-0.1363587
-4.607605	heightened	-0.1337239
-4.607605	heightening	-0.1358123
-5.084726	heights	-0.1380304
-5.084726	heir	-0.1433015
-5.084726	heirs	-0.1132224
-4.306575	held	-0.1700376
-5.084726	hell	-0.150246
-3.854277	help	-0.1760595
-4.783696	helping	-0.1486745
-5.084726	helpmate	-0.1132224
-4.783696	hence	-0.1244804
-5.084726	henceforth	-0.1458754
-5.084726	henceforward	-0.1363291
-4.607605	henry	-0.5255286
-5.084726	hens	-0.150246
-5.084726	henshawe	-0.1449649
-5.084726	hepray	-0.1502424
-1.713474	her	-0.2062172
-4.607605	herand	-0.1392049
-5.084726	heras	-0.1500101
-4.783696	herbut	-0.1059435
-3.368723	here	-0.1540584
-4.306575	hereafter	-0.1050364
-5.084726	herenor	-0.1132224
-5.084726	herespeaking	-0.1132224
-5.084726	heri	-0.1499457
-5.084726	herilliterate	-0.1502424
-5.084726	heris	-0.1485633
-5.084726	herit	-0.1477087
-5.084726	hermy	-0.1502281
-5.084726	hero	-0.1380304
-5.084726	heroically	-0.1501995
-5.084726	heroism	-0.1437733
-3.854277	hers	-0.1694771
-2.715511	herself	-0.2943063
-5.084726	herselfbut	-0.1417666
-5.084726	herselfher	-0.150221
-5.084726	herselfor	-0.1363291
-5.084726	herselfremained	-0.1437733
-5.084726	herselfto	-0.1467804
-5.084726	herselfwhen	-0.1495486
-5.084726	hershe	-0.1132224
-5.084726	herthat	-0.1437733
-5.084726	herthe	-0.1499171
-5.084726	herthen	-0.1485956
-5.084726	herto	-0.1363587
-5.084726	herwhat	-0.1483229
-5.084726	herwho	-0.1477087
-5.084726	herwith	-0.1433015
-4.607605	hesitated	-0.1261266
-5.084726	hesitatingly	-0.1499135
-4.385756	hesitation	-0.08738615
-4.783696	hiding	-0.1351617
-4.084726	high	-0.121105
-5.084726	highchurch	-0.1500101
-4.783696	higher	-0.1500601
-4.482666	highest	-0.2028477
-3.908635	highly	-0.1219897
-5.084726	highminded	-0.1502138
-5.084726	hilarity	-0.1502102
-4.239628	hill	-0.2262624
-4.005545	hills	-0.2234797
-2.302254	him	-0.2855953
-4.783696	himand	-0.1498742
-5.084726	himbut	-0.1449649
-5.084726	himdid	-0.1462939
-5.084726	himhe	-0.1500387
-5.084726	himin	-0.1132224
-5.084726	himoh	-0.1495379
-3.059421	himself	-0.2134408
-5.084726	himselfhad	-0.1449649
-5.084726	himselfmore	-0.150246
-5.084726	himselfsure	-0.1466039
-5.084726	himshe	-0.1500601
-5.084726	himthat	-0.1435701
-5.084726	himyet	-0.1435701
-5.084726	hinder	-0.1502317
-4.783696	hindrance	-0.1237062
-4.239628	hint	-0.2458547
-4.783696	hinted	-0.1334714
-4.607605	hints	-0.2483265
-2.0993	his	-0.4058664
-5.084726	history	-0.1132224
-5.084726	hit	-0.147953
-5.084726	hither	-0.1495271
-4.181636	hitherto	-0.08720025
-5.084726	hoarded	-0.1487354
-5.084726	hoi	-0.1501566
-5.084726	holborn	-0.1502138
-5.084726	holburn	-0.1502317
-4.043334	hold	-0.1411554
-4.783696	holidays	-0.1371548
-4.783696	hollow	-0.3537466
-3.285386	home	-0.2426646
-5.084726	homeand	-0.1480895
-5.084726	homes	-0.1363291
-5.084726	hon	-0.1495164
-4.239628	honest	-0.122146
-4.607605	honestly	-0.1356239
-5.084726	honestlya	-0.1502388
-4.783696	honesty	-0.1484557
-5.084726	honeysuckles	-0.1433015
-4.783696	honiton	-0.1294605
-4.783696	honor	-0.141865
-5.084726	honorable	-0.1363291
-5.084726	honorably	-0.1502353
-3.854277	honour	-0.2528042
-4.607605	honourable	-0.5148167
-5.084726	honourably	-0.1132224
-4.482666	honoured	-0.2284494
-5.084726	honours	-0.1380304
-5.084726	hop	-0.1474822
-3.170913	hope	-0.2577099
-5.084726	hopecould	-0.1132224
-3.829454	hoped	-0.1412618
-5.084726	hopei	-0.1494198
-4.306575	hopeless	-0.175757
-3.829454	hopes	-0.2412501
-4.482666	hoping	-0.1278645
-5.084726	horizon	-0.1387795
-4.607605	horrible	-0.1363033
-4.482666	horrid	-0.1479603
-5.084726	horridly	-0.1461713
-4.482666	horror	-0.3834915
-4.783696	horrors	-0.1311589
-4.181636	horse	-0.07681018
-4.607605	horseback	-0.1491476
-4.043334	horses	-0.2023071
-5.084726	horsesbut	-0.1497526
-5.084726	hospitable	-0.1460595
-5.084726	hospitality	-0.1132224
-5.084726	hostess	-0.1493517
-5.084726	hostile	-0.1502388
-5.084726	hot	-0.1387795
-3.637568	hour	-0.1708901
-5.084726	hourbut	-0.1132224
-5.084726	hourfor	-0.1501638
-3.471942	hours	-0.2565438
-2.938598	house	-0.1990141
-4.783696	household	-0.1495809
-4.482666	housekeeper	-0.1375597
-5.084726	housekeepers	-0.1499457
-4.783696	housekeeping	-0.1375487
-4.783696	housemaid	-0.1086574
-4.482666	houses	-0.09531265
-2.785873	how	-0.3198228
-2.920373	however	-0.1738459
-5.084726	howeverin	-0.1501316
-5.084726	howeveron	-0.150246
-5.084726	howsever	-0.1492658
-5.084726	hue	-0.1132224
-4.482666	human	-0.203093
-4.607605	humanity	-0.2372431
-4.607605	humble	-0.1128448
-5.084726	humbled	-0.1481254
-5.084726	humiliating	-0.1492945
-5.084726	humiliations	-0.1440561
-4.482666	humility	-0.1365652
-4.239628	humour	-0.1499722
-4.306575	humoured	-0.2784817
-5.084726	humouring	-0.1486028
-5.084726	humsaid	-0.1485346
-3.762507	hundred	-0.4381609
-4.607605	hung	-0.1056467
-5.084726	hunt	-0.1132224
-5.084726	hunted	-0.1387795
-4.482666	hunters	-0.1478597
-5.084726	hunts	-0.1132224
-4.084726	hurried	-0.1356054
-4.181636	hurry	-0.2157729
-4.783696	hurrying	-0.1500744
-4.130484	hurt	-0.2043008
-3.528424	husband	-0.1669305
-4.084726	husbands	-0.1177257
-5.084726	hussy	-0.1387795
-5.084726	huswifes	-0.1449649
-4.783696	hysterical	-0.1417375
-4.385756	hysterics	-0.1450083
-1.816382	i	-0.8539314
-5.084726	ibe	-0.1132224
-5.084726	ice	-0.1462939
-5.084726	id	-0.1502067
-3.742304	idea	-0.6891755
-5.084726	ideai	-0.1492945
-4.043334	ideas	-0.2074929
-5.084726	identify	-0.1363587
-4.385756	idle	-0.1003641
-5.084726	idled	-0.1498921
-4.783696	idleness	-0.1380231
-5.084726	idolized	-0.1477375
-2.654974	if	-0.7153485
-4.005545	ignorance	-0.653885
-4.385756	ignorant	-0.1904491
-5.084726	ihe	-0.1477087
-4.783696	ii	-0.1499171
-3.742304	ill	-0.2105471
-5.084726	illaudable	-0.1501459
-4.607605	illbred	-0.1084765
-5.084726	illbreeding	-0.1488
-4.607605	illdisposed	-0.1454457
-5.084726	illfor	-0.1435701
-5.084726	illhumour	-0.1380304
-4.783696	illiberal	-0.131644
-5.084726	illit	-0.1499743
-5.084726	illiterate	-0.1387795
-4.607605	illjudged	-0.143708
-5.084726	illnature	-0.1495271
-4.385756	illnatured	-0.1368159
-4.005545	illness	-0.237265
-5.084726	illsuited	-0.1363291
-4.607605	illtimed	-0.1378393
-5.084726	illtreatment	-0.1380304
-5.084726	illusion	-0.1380304
-5.084726	illustration	-0.1380304
-4.607605	illwill	-0.1064695
-5.084726	illwind	-0.1460595
-4.783696	im	-0.1127162
-5.084726	image	-0.1380304
-5.084726	imagery	-0.1380304
-5.084726	imaginable	-0.1469065
-4.607605	imaginary	-0.1131835
-4.005545	imagination	-0.2422397
-5.084726	imaginations	-0.1132224
-3.908635	imagine	-0.06386992
-4.181636	imagined	-0.1254393
-5.084726	imagining	-0.1456299
-5.084726	imbibed	-0.1433015
-5.084726	imitate	-0.1489613
-3.762507	immediate	-0.2099017
-3.252218	immediately	-0.1911331
-5.084726	immediatelyi	-0.1496309
-5.084726	imminentthe	-0.1501852
-5.084726	immoderately	-0.1363587
-4.783696	immovable	-0.1502245
-5.084726	imparted	-0.1363291
-4.783696	impartial	-0.1491404
-5.084726	impartiality	-0.147953
-4.385756	impatience	-0.3649642
-4.181636	impatient	-0.3255871
-5.084726	impatiently	-0.1499243
-5.084726	impatientlyi	-0.1474535
-5.084726	impediment	-0.1363291
-5.084726	impenetrable	-0.1501924
-4.783696	imperfect	-0.1444655
-5.084726	imperfection	-0.1132224
-5.084726	imperfections	-0.1480895
-5.084726	imperfectly	-0.1132224
-4.385756	impertinence	-0.1696328
-4.306575	impertinent	-0.3455635
-4.783696	impertinently	-0.1132185
-4.783696	impetuous	-0.1500101
-4.607605	implied	-0.1449541
-5.084726	implieddo	-0.1462939
-5.084726	implies	-0.1501995
-5.084726	imply	-0.1488968
-5.084726	impolitic	-0.150246
-3.938598	importance	-0.1294897
-4.043334	important	-0.09709381
-5.084726	importunate	-0.1132224
-5.084726	importunity	-0.1380304
-5.084726	impose	-0.14991
-4.607605	impossibility	-0.5140676
-3.566212	impossible	-0.3894859
-5.084726	impoverished	-0.1132224
-5.084726	impoverishing	-0.1480788
-5.084726	impracticable	-0.1363587
-4.385756	impression	-0.1938299
-5.084726	imprint	-0.147953
-5.084726	improperly	-0.1363291
-4.385756	impropriety	-0.4300207
-4.482666	improve	-0.1295092
-4.482666	improved	-0.1435484
-5.084726	improvedwant	-0.1380304
-4.181636	improvement	-0.1347831
-4.239628	improvements	-0.1396168
-5.084726	improvident	-0.1132224
-4.306575	improving	-0.1721272
-4.043334	imprudence	-0.1678443
-4.607605	imprudent	-0.4892596
-5.084726	imprudently	-0.1461713
-4.783696	impudence	-0.1059435
-5.084726	impudently	-0.150221
-4.607605	impulse	-0.5140676
-4.385756	imputed	-0.0939887
-1.829695	in	-0.5852417
-5.084726	ina	-0.1501852
-5.084726	inadvertence	-0.1491261
-5.084726	inarticulate	-0.150246
-4.607605	inattention	-0.111503
-5.084726	inattentive	-0.1502245
-4.482666	incapable	-0.4685096
-5.084726	incautiousness	-0.1132224
-5.084726	incessant	-0.1501602
-5.084726	inch	-0.1132224
-5.084726	incitement	-0.1363291
-4.783696	incivility	-0.3473204
-3.908635	inclination	-0.2139023
-4.783696	inclinations	-0.1245107
-4.239628	inclined	-0.2871259
-5.084726	inclosing	-0.1502353
-5.084726	included	-0.1387795
-5.084726	including	-0.1363587
-5.084726	incoherently	-0.147953
-3.722999	income	-0.1611136
-5.084726	incommode	-0.1487354
-5.084726	incommoded	-0.1477375
-5.084726	incompatible	-0.1469065
-4.783696	incomprehensible	-0.1379679
-4.783696	inconsiderable	-0.1460126
-5.084726	inconsiderately	-0.1487677
-4.783696	inconsistency	-0.1414422
-5.084726	inconsolable	-0.1456299
-4.385756	inconstancy	-0.2414905
-5.084726	inconstant	-0.1363291
-4.005545	inconvenience	-0.160134
-4.482666	inconveniences	-0.1348397
-5.084726	inconvenient	-0.149545
-4.043334	increase	-0.3895968
-3.908635	increased	-0.1954124
-4.385756	increasing	-0.1128915
-5.084726	incredulity	-0.1387795
-4.482666	incumbent	-0.1226261
-5.084726	incurable	-0.1501745
-5.084726	incurred	-0.1495916
-4.783696	incurring	-0.1303891
-4.783696	indecision	-0.1059435
-5.084726	indecorous	-0.1363291
-3.150228	indeed	-0.2212511
-5.084726	indeedas	-0.1435701
-5.084726	indeedbut	-0.1363587
-5.084726	indeedher	-0.149749
-5.084726	indeedhow	-0.1502388
-4.783696	indeedi	-0.1493446
-5.084726	indeedpoor	-0.150246
-5.084726	indefatigable	-0.1437733
