
\data\
ngram 1=7632
ngram 2=54787
ngram 3=8129

\1-grams:
-1.087654	</s>
-99	<s>	0.06485295
-3.403449	A	-0.24593
-5.084691	ALL	-0.1050071
-5.084691	ALMOST	-0.1420228
-4.78366	ALWAYS	-0.1420049
-5.084691	AM	-0.14203
-5.084691	ANY	-0.1050071
-5.084691	ARE	-0.1418977
-5.084691	Abbeyland	-0.1050071
-4.239593	About	-0.1200715
-5.084691	Abundance	-0.1298391
-5.084691	Add	-0.1282964
-5.084691	Affecting	-0.1376843
-3.829418	After	-0.3726216
-4.482631	Again	-0.2275244
-5.084691	Against	-0.1289746
-4.181601	Ah	-0.1814114
-5.084691	Ahnohave	-0.1385822
-3.970747	All	-0.3355412
-3.854242	Allenham	-0.1384119
-5.084691	Allow	-0.1406305
-5.084691	Almost	-0.1408312
-5.084691	Altogether	-0.1406699
-4.78366	Am	-0.1353499
-4.78366	Among	-0.1277908
-5.084691	Amongst	-0.1289746
-4.385721	An	-0.2173097
-2.987781	And	-0.2629616
-4.78366	Annamaria	-0.1370269
-5.084691	Annamarias	-0.1420121
-4.30654	Anne	-0.2560812
-4.385721	Another	-0.1801969
-5.084691	Anxiety	-0.1310246
-5.084691	April	-0.1310246
-4.130448	Are	-0.4087455
-3.504907	As	-0.251256
-5.084691	Ashamed	-0.1298391
-5.084691	Astonished	-0.1310246
-5.084691	Astonishment	-0.1376843
-3.669717	At	-0.1709306
-4.78366	Avignon	-0.1241718
-4.181601	Ay	-0.2706462
-4.385721	Aye	-0.3214774
-5.084691	BEEN	-0.1352592
-5.084691	BOTH	-0.141719
-5.084691	Bad	-0.1417869
-4.30654	Bartletts	-0.6023475
-3.150192	Barton	-0.2264987
-4.78366	Bath	-0.1387406
-5.084691	Beautifully	-0.1417869
-4.482631	Because	-0.1338777
-4.78366	Before	-0.1206012
-5.084691	Being	-0.1403723
-4.78366	Believe	-0.1391293
-5.084691	Benevolent	-0.14203
-4.005509	Berkeley	-0.7069114
-5.084691	Besides	-0.1358069
-4.78366	Betty	-0.1042592
-4.78366	Bettys	-0.3622639
-4.78366	Between	-0.1417082
-4.482631	Beyond	-0.1182182
-5.084691	Biddy	-0.14203
-5.084691	Bishop	-0.1390789
-4.482631	Bond	-0.3561361
-5.084691	Bondstreet	-0.1417976
-5.084691	Bonomis	-0.1353536
-5.084691	Born	-0.1282964
-3.039368	Brandon	-0.1271959
-5.084691	Brandonhe	-0.141862
-5.084691	Brandonneither	-0.1388306
-5.084691	Brandonor	-0.1408849
-3.742268	Brandons	-0.1488235
-5.084691	Brandonscan	-0.1368823
-5.084691	Bristol	-0.1289746
-5.084691	Brown	-0.1390789
-5.084691	Building	-0.1420228
-4.385721	Buildings	-0.127329
-5.084691	Burgess	-0.1358069
-2.676451	But	-0.3553221
-5.084691	Butit	-0.1358903
-4.043298	By	-0.1202068
-4.385721	CAN	-0.1362526
-5.084691	CATCHING	-0.1398949
-4.607569	COULD	-0.1365856
-4.30654	Can	-0.2835422
-5.084691	Careless	-0.1298391
-4.482631	Careys	-0.1289561
-5.084691	Cartwright	-0.1282964
-5.084691	Casino	-0.1282964
-4.043298	Certainly	-0.2012634
-5.084691	Certainlyand	-0.1353536
-5.084691	Chagrined	-0.1310246
-3.854242	Charlotte	-0.1799778
-5.084691	CharlotteAnd	-0.1413218
-5.084691	Charlotteand	-0.1358069
-4.482631	Charlottes	-0.09173867
-5.084691	Choicehow	-0.1410784
-4.78366	Christian	-0.362822
-4.78366	Christmas	-0.1393163
-5.084691	CivilDid	-0.1385822
-5.084691	Clarke	-0.1050071
-3.704479	Cleveland	-0.1363387
-5.084691	ClevelandI	-0.1420014
-5.084691	Clevelanda	-0.1417869
-5.084691	Clevelandshe	-0.1417583
-5.084691	Coldhearted	-0.1399811
-2.894359	Colonel	-0.7500825
-4.130448	Colonels	-0.1391653
-3.938563	Combe	-0.6156692
-5.084691	CombeI	-0.1412144
-4.30654	Come	-0.163854
-5.084691	Common	-0.1413218
-5.084691	Comparisons	-0.1402754
-5.084691	Concealing	-0.1368823
-5.084691	Concern	-0.1379225
-4.30654	Conduit	-0.2931092
-5.084691	Confess	-0.1404512
-4.78366	Consider	-0.1374785
-5.084691	Considering	-0.1419835
-5.084691	Constantia	-0.1420157
-5.084691	Continual	-0.1419835
-5.084691	Conversation	-0.1415473
-4.607569	Cottage	-0.1332473
-4.30654	Could	-0.1240117
-5.084691	Court	-0.1282964
-4.78366	Courtland	-0.1404368
-4.607569	Cowper	-0.2272027
-5.084691	Cowperbut	-0.1414793
-5.084691	Cross	-0.1310246
-5.084691	Cruel	-0.14203
-4.78366	DEAR	-0.1420264
-3.970747	DID	-0.1791512
-4.385721	DO	-0.1401247
-4.607569	DOES	-0.1049954
-5.084691	DOESshe	-0.1050071
-5.084691	DOthat	-0.1414328
-5.084691	DRAW	-0.1420014
-5.084691	Dartford	-0.1417404
-2.758355	Dashwood	-0.2098566
-5.084691	DashwoodPoor	-0.1414185
-5.084691	DashwoodTHAT	-0.1410927
-5.084691	Dashwooda	-0.1417976
-5.084691	Dashwoodbut	-0.1368823
-5.084691	Dashwoodit	-0.1408634
-5.084691	Dashwoodor	-0.1392732
-3.352297	Dashwoods	-0.1371912
-5.084691	Dashwoodswas	-0.1403184
-5.084691	Dashwoodyou	-0.1419692
-4.78366	Davies	-0.1219543
-4.385721	Dawlish	-0.2666515
-4.239593	Dear	-0.2658492
-5.084691	Dearest	-0.1404512
-3.686751	Delaford	-0.1492065
-5.084691	DelafordDelafordthat	-0.1050071
-5.084691	DelafordWhich	-0.1393631
-5.084691	Delaforda	-0.141769
-5.084691	Delafordbut	-0.1050071
-5.084691	Dennisons	-0.1420085
-5.084691	Depend	-0.1417297
-5.084691	Design	-0.140139
-5.084691	Determined	-0.1379946
-3.722963	Devonshire	-0.1133954
-5.084691	DevonshireEdward	-0.1050071
-5.084691	DevonshireI	-0.1358903
-3.829418	Did	-0.53955
-5.084691	Disappointment	-0.1050071
-3.722963	Do	-0.7570408
-4.181601	Doctor	-0.181107
-5.084691	Doctors	-0.1419478
-4.78366	Does	-0.1388198
-5.084691	Domestic	-0.1418262
-4.385721	Donavan	-0.1243914
-4.239593	Dont	-0.1903393
-4.30654	Dorsetshire	-0.2428869
-5.084691	Down	-0.1310246
-4.78366	Dr	-0.3629578
-5.084691	Drury	-0.14203
-5.084691	Dullness	-0.1395824
-5.084691	Duty	-0.1417762
-5.084691	EDWARD	-0.141651
-5.084691	ELINOR	-0.1419478
-5.084691	END	-0.1050071
-5.084691	Each	-0.1420264
-5.084691	Early	-0.1358069
-4.607569	East	-0.2762208
-5.084691	Easter	-0.1420264
-2.777194	Edward	-0.2873717
-5.084691	EdwardBut	-0.1050071
-5.084691	EdwardFor	-0.14203
-5.084691	EdwardHis	-0.1419156
-5.084691	EdwardI	-0.1417726
-5.084691	EdwardWhy	-0.1413218
-5.084691	Edwardbut	-0.1419513
-5.084691	Edwardhe	-0.1413469
-3.482631	Edwards	-0.2155445
-5.084691	Edwardshe	-0.1418262
-5.084691	Edwardwhether	-0.1368823
-2.326536	Elinor	-0.2181388
-5.084691	Elinorfor	-0.1419549
-5.084691	Elinorhere	-0.1358903
-5.084691	Elinorhesitatingly	-0.1368823
-5.084691	Elinorhow	-0.1412789
-3.313839	Elinors	-0.2005471
-5.084691	Elinorshe	-0.1050071
-5.084691	Elinorthat	-0.1417797
-4.181601	Eliza	-0.1200715
-4.607569	Elliott	-0.134729
-5.084691	Elliotts	-0.1419299
-4.607569	Ellison	-0.1272698
-5.084691	Ellisons	-0.1050071
-5.084691	Ellisonsand	-0.1339105
-5.084691	Encouraged	-0.1395608
-5.084691	Engaged	-0.1411178
-5.084691	Engagement	-0.1417583
-4.181601	England	-0.2043314
-5.084691	Epicurism	-0.1388306
-5.084691	Esq	-0.1358903
-5.084691	Esteem	-0.1398949
-4.482631	Even	-0.1016513
-3.938563	Every	-0.3519377
-5.084691	Everybody	-0.1413469
-5.084691	Excellent	-0.1417869
-5.084691	Exchange	-0.1310246
-5.084691	Excuse	-0.1406305
-5.084691	Exert	-0.1419049
-3.908599	Exeter	-0.0877353
-5.084691	Extend	-0.1368823
-4.78366	F	-0.0930047
-5.084691	FAITH	-0.1358903
-5.084691	FERRARS	-0.1050071
-3.471907	Fanny	-0.160747
-4.30654	Fannys	-0.1418477
-5.084691	Fannyyes	-0.1416295
-5.084691	Far	-0.1376591
-5.084691	Farm	-0.1385822
-4.385721	February	-0.168135
-3.055307	Ferrars	-0.2607793
-4.78366	FerrarsI	-0.1413755
-3.908599	Ferrarss	-0.1269894
-5.084691	Ferrarsthat	-0.1339105
-5.084691	Ferrarsvery	-0.14203
-5.084691	Ferrarswas	-0.1419335
-4.78366	Few	-0.1048046
-5.084691	Fhad	-0.1405516
-5.084691	Fifteen	-0.1418691
-4.78366	Fifty	-0.3627934
-5.084691	Five	-0.1419549
-5.084691	Follys	-0.14203
-3.742268	For	-0.2901455
-4.78366	Forgive	-0.3615619
-4.607569	Fortunately	-0.2691377
-4.30654	Four	-0.2037873
-4.78366	Friday	-0.1287425
-4.043298	From	-0.1883762
-5.084691	GAUCHERIE	-0.1400242
-4.607569	Gardens	-0.09068619
-5.084691	Gentlemans	-0.1418798
-5.084691	Get	-0.1368823
-5.084691	Gibson	-0.1419692
-5.084691	Gilberts	-0.1282964
-4.482631	God	-0.1251388
-5.084691	Godby	-0.1418083
-5.084691	Godholding	-0.1414829
-5.084691	Gods	-0.1419227
-5.084691	Godwhat	-0.1352592
-5.084691	Going	-0.1399631
-4.30654	Good	-0.2039303
-5.084691	Goodby	-0.1353536
-5.084691	Gracious	-0.1420192
-5.084691	Grandeur	-0.1413469
-4.30654	Grays	-0.1883696
-5.084691	Greatness	-0.1408634
-4.78366	Grecian	-0.3629542
-4.239593	Grey	-0.1196841
-5.084691	Greyit	-0.1358903
-4.78366	Greys	-0.1420121
-4.482631	HAD	-0.1001506
-4.482631	HAS	-0.1286356
-4.130448	HE	-0.162791
-3.637533	HER	-0.1744691
-5.084691	HERS	-0.1410927
-4.130448	HIM	-0.1738084
-4.181601	HIS	-0.2452748
-3.704479	Had	-0.474698
-5.084691	Half	-0.1408921
-5.084691	Hamlet	-0.1404512
-5.084691	HangerAnd	-0.1413505
-5.084691	Hanover	-0.1420264
-5.084691	Hanoversquare	-0.1416224
-4.482631	Happy	-0.08597918
-3.880571	Harley	-1.230313
-4.181601	Harris	-0.1652886
-4.78366	Harriss	-0.1419227
-4.239593	Harry	-0.07689946
-4.181601	Has	-0.191363
-4.084691	Have	-0.4057565
-5.084691	Having	-0.1413218
-2.82224	He	-0.3944232
-4.607569	Heaven	-0.1265742
-4.607569	Henry	-0.5240089
-5.084691	Henshawe	-0.1376338
-3.233432	Her	-0.231061
-4.130448	Here	-0.1690294
-4.78366	Hers	-0.1372293
-5.084691	High	-0.1419906
-5.084691	Highchurch	-0.14203
-3.265147	His	-0.1694111
-5.084691	Hitherto	-0.1376338
-5.084691	Holborn	-0.1419978
-5.084691	Holburn	-0.1420157
-5.084691	Hon	-0.1413075
-4.78366	Honiton	-0.1345399
-5.084691	Hope	-0.1387766
-5.084691	Hour	-0.1414328
-4.78366	House	-0.1308706
-3.461441	How	-0.1958789
-4.084691	However	-0.3718362
-5.084691	Humsaid	-0.1403184
-5.084691	Hunters	-0.1419335
-1.816347	I	-0.8352118
-5.084691	IHe	-0.1395824
-4.78366	II	-0.1417011
-5.084691	IN	-0.1376843
-5.084691	INconvenience	-0.1415723
-4.78366	IS	-0.1049175
-5.084691	Ibe	-0.1050071
-5.084691	Id	-0.1419906
-3.451222	If	-0.4247967
-5.084691	Ill	-0.1419906
-4.78366	Im	-0.1045048
-5.084691	Imagine	-0.1282964
-5.084691	Impossible	-0.1420085
-5.084691	Impudence	-0.1353536
-3.258616	In	-0.4237529
-3.854242	Indeed	-0.2762708
-4.78366	Indies	-0.1244398
-5.084691	Infirmity	-0.1407237
-5.084691	Inn	-0.138092
-4.78366	Instead	-0.3507705
-3.722963	Is	-0.2154277
-2.844141	It	-0.8749263
-5.084691	Ive	-0.1417333
-5.084691	JOHN	-0.14203
-5.084691	James	-0.1418977
-4.30654	January	-0.221533
-2.836717	Jennings	-0.242661
-5.084691	JenningsOh	-0.138092
-3.566177	Jenningss	-0.1687121
-2.954357	John	-0.4577997
-5.084691	JohnIt	-0.1416188
-3.908599	Johns	-0.1079568
-5.084691	Just	-0.1289746
-5.084691	KNEW	-0.1282964
-4.78366	Kensington	-0.3629542
-5.084691	Kingham	-0.14203
-5.084691	Know	-0.1398949
-5.084691	Knowing	-0.1398841
-4.78366	L	-0.1402682
-5.084691	LESS	-0.1420264
-5.084691	LET	-0.1418048
-5.084691	LONG	-0.1419978
-5.084691	LOOK	-0.1339105
-5.084691	LOOKED	-0.1398841
-5.084691	LUCY	-0.14203
-4.607569	La	-0.133794
-3.170877	Lady	-1.924029
-5.084691	Ladyship	-0.1408634
-5.084691	Lane	-0.1420264
-4.78366	Last	-0.3628613
-5.084691	Laughing	-0.14203
-5.084691	Law	-0.1401534
-4.78366	Let	-0.1324809
-5.084691	Life	-0.140139
-4.607569	Like	-0.2738989
-4.78366	Little	-0.1380595
-5.084691	Lodging	-0.138092
-5.084691	Lombardy	-0.14203
-3.607569	London	-0.09144876
-5.084691	Londonand	-0.1412789
-4.607569	Long	-0.134529
-4.181601	Longstaple	-0.08075171
-4.607569	Look	-0.1345799
-3.653327	Lord	-0.2568943
-5.084691	Lords	-0.1419192
-5.084691	Luckily	-0.1417404
-2.894359	Lucy	-0.2140396
-5.084691	LucyMrs	-0.141651
-5.084691	LucyPoor	-0.1050071
-5.084691	LucyTheres	-0.1379225
-3.669717	Lucys	-0.1608099
-5.084691	Lucyshe	-0.1418262
-5.084691	MADAM	-0.1050071
-4.78366	MAY	-0.3259385
-4.607569	MD	-0.4877407
-4.239593	ME	-0.08184905
-5.084691	MEI	-0.1413684
-5.084691	MEyou	-0.141261
-5.084691	MIND	-0.140139
-5.084691	MONTH	-0.1411178
-5.084691	MPBut	-0.1410784
-4.607569	MUST	-0.1376121
-3.938563	MY	-0.2471104
-4.482631	Maam	-0.2368447
-5.084691	MaamShe	-0.1420228
-5.084691	Mab	-0.1416188
-4.607569	Madam	-0.09409948
-5.084691	Mafrom	-0.1408778
-4.043298	Magna	-0.08671411
-4.78366	Mall	-0.1415329
-3.970747	Mama	-0.1956614
-5.084691	Mansionhouse	-0.1403005
-4.78366	Many	-0.140261
-4.607569	March	-0.09864078
-3.593329	Margaret	-0.1344728
-4.607569	Margarets	-0.141887
-2.439268	Marianne	-0.2248985
-5.084691	MarianneTHEN	-0.1412252
-5.084691	Mariannenor	-0.1413684
-5.084691	Marianneremember	-0.1353536
-3.233432	Mariannes	-0.1326203
-5.084691	Mariannestill	-0.1419549
-4.78366	Marlborough	-0.0983129
-5.084691	Marlboroughcried	-0.1399811
-5.084691	Martha	-0.14203
-5.084691	Mary	-0.14203
-5.084691	Masters	-0.1420228
-4.482631	May	-0.2229622
-5.084691	Me	-0.1417869
-5.084691	Men	-0.1412789
-4.482631	Michaelmas	-0.3442817
-3.233432	Middleton	-0.2299413
-3.607569	Middletons	-0.1187507
-5.084691	Middletonss	-0.1419906
-4.78366	Midsummer	-0.1405731
-5.084691	Mind	-0.1406305
-5.084691	Mine	-0.1395824
-5.084691	Misery	-0.1310246
-2.777194	Miss	-1.036766
-5.084691	Misses	-0.1412753
-5.084691	Mistresss	-0.1419799
-4.78366	Monday	-0.1047346
-5.084691	Months	-0.1417583
-5.084691	More	-0.1408097
-3.938563	Morton	-0.1088585
-4.607569	Mortons	-0.1411822
-4.78366	Most	-0.1419442
-2.861974	Mr	-0.8645105
-2.404355	Mrs	-1.504636
-5.084691	MrsMrs	-0.1420264
-4.607569	Much	-0.2722647
-5.084691	Music	-0.1419585
-5.084691	Must	-0.1368823
-3.352297	My	-0.2842068
-3.908599	NOT	-0.08538111
-4.084691	NOW	-0.1186674
-5.084691	NOWAt	-0.1417404
-5.084691	NOWsaid	-0.1414364
-4.30654	Nancy	-0.2657354
-5.084691	NancyCould	-0.1385822
-4.30654	Nay	-0.1245514
-4.78366	Neither	-0.1295376
-5.084691	Never	-0.1358069
-5.084691	New	-0.1419263
-5.084691	Newton	-0.1289746
-3.271777	No	-0.2664719
-5.084691	NoHe	-0.1420049
-4.78366	Nobody	-0.1376771
-5.084691	None	-0.1393631
-5.084691	Nonor	-0.1417011
-4.78366	Nor	-0.1391797
-5.084691	Norfolk	-0.1419656
-3.37712	Norland	-0.2081758
-3.783661	Not	-0.3352202
-3.908599	Nothing	-0.1815773
-5.084691	Noto	-0.1419835
-5.084691	November	-0.1376338
-3.970747	Now	-0.1730808
-5.084691	OCCASION	-0.1379225
-5.084691	ONCE	-0.1050071
-4.005509	ONE	-0.24257
-4.78366	OUGHT	-0.3492278
-5.084691	OWN	-0.1419227
-4.78366	October	-0.1396506
-5.084691	Octoberbut	-0.1050071
-4.239593	Of	-0.1357634
-5.084691	Offended	-0.1406305
-3.368687	Oh	-0.2540725
-5.084691	Ohhe	-0.1413218
-3.783661	On	-0.2329538
-5.084691	Once	-0.1414793
-3.938563	One	-0.1607807
-5.084691	Ones	-0.1419013
-4.78366	Only	-0.128278
-5.084691	Opportunity	-0.1419335
-5.084691	Opposition	-0.1398087
-4.78366	Or	-0.1391113
-4.78366	Other	-0.1415007
-5.084691	Others	-0.1416295
-4.239593	Our	-0.1027637
-4.130448	Oxford	-0.0858084
-5.084691	PARTIES	-0.1420264
-4.78366	Pall	-0.3629578
-3.421933	Palmer	-0.1859423
-5.084691	PalmerNot	-0.1050071
-3.829418	Palmers	-0.12562
-5.084691	Palmersand	-0.1414721
-5.084691	Palmershow	-0.1412144
-5.084691	Palmerthen	-0.1368823
-5.084691	Pardon	-0.1406305
-3.762471	Park	-0.1380705
-5.084691	Parkit	-0.1358903
-5.084691	Parliamentwont	-0.1368823
-5.084691	Parrys	-0.1310246
-4.482631	Parsonage	-0.2243824
-3.722963	Perhaps	-0.2989596
-5.084691	Pity	-0.1406305
-5.084691	Please	-0.1282964
-4.30654	Plymouth	-0.2494593
-3.762471	Poor	-0.2137634
-5.084691	Pope	-0.1404261
-5.084691	Portman	-0.1050071
-4.385721	Pratt	-0.0900986
-4.482631	Pratts	-0.1394925
-4.385721	Pray	-0.1365531
-5.084691	Precious	-0.138092
-5.084691	PreparationdayIn	-0.1420085
-5.084691	Prescriptions	-0.14203
-5.084691	Priory	-0.1310246
-5.084691	Queen	-0.14203
-5.084691	Quite	-0.1289746
-5.084691	REALLY	-0.1388306
-4.78366	ROBERT	-0.1416438
-5.084691	ROBERTS	-0.1050071
-5.084691	Rather	-0.1414936
-5.084691	Reading	-0.1376843
-5.084691	Really	-0.1407237
-5.084691	ReallyWell	-0.1408312
-4.78366	Recollecting	-0.1410676
-5.084691	Reflection	-0.1050071
-5.084691	Regard	-0.1379225
-5.084691	Relate	-0.1410533
-4.385721	Remember	-0.1319911
-5.084691	Reservedhow	-0.1358069
-5.084691	Restless	-0.1310246
-5.084691	Richard	-0.1407237
-4.78366	Richardson	-0.1247225
-4.78366	Richardsons	-0.09772761
-3.669717	Robert	-0.231653
-5.084691	Roberta	-0.1417976
-4.30654	Roberts	-0.2553852
-5.084691	Robertwas	-0.1388306
-5.084691	Rose	-0.1393631
-5.084691	SHALL	-0.1376591
-3.783661	SHE	-0.2254162
-4.482631	SHOULD	-0.09252837
-5.084691	SIR	-0.1050071
-5.084691	SOMETIMES	-0.1406699
-4.78366	STILL	-0.1344781
-5.084691	Sackville	-0.1418977
-5.084691	Sally	-0.1393631
-5.084691	Sandersons	-0.1420192
-5.084691	Saturday	-0.1310246
-5.084691	Scarcely	-0.1387766
-5.084691	Scotland	-0.1412323
-5.084691	Scott	-0.1385822
-5.084691	Scottshe	-0.1402754
-5.084691	Secrecy	-0.1414578
-5.084691	Selfish	-0.1358069
-4.78366	September	-0.1249121
-5.084691	Seven	-0.1418691
-5.084691	Shakespeare	-0.1420014
-4.482631	Shall	-0.2278468
-5.084691	Sharpe	-0.1310246
-2.732508	She	-0.4158988
-5.084691	Short	-0.1358903
-4.607569	Should	-0.2590097
-5.084691	Shyness	-0.1395824
-5.084691	Simpson	-0.1385822
-4.78366	Since	-0.1259294
-5.084691	Sincerely	-0.1417905
-3.080369	Sir	-1.530744
-5.084691	Sit	-0.1417976
-3.880571	Smith	-0.1624416
-5.084691	Smithand	-0.1412252
-5.084691	Smiths	-0.1420121
-3.686751	So	-0.2050682
-4.181601	Some	-0.1397153
-5.084691	Somehow	-0.1409172
-5.084691	Somerset	-0.1379225
-4.30654	Somersetshire	-0.1283591
-5.084691	SomersetshireI	-0.1417297
-5.084691	SomersetshireThere	-0.1050071
-4.607569	Something	-0.100933
-4.385721	Sometimes	-0.1266705
-5.084691	Soon	-0.1414328
-5.084691	Sophia	-0.1420085
-5.084691	Sophias	-0.1050071
-4.78366	Sparks	-0.1373377
-4.78366	Square	-0.1310136
-5.084691	St	-0.14203
-4.607569	Stanhill	-0.1340816
-3.504907	Steele	-0.1884348
-3.637533	Steeles	-0.1090613
-5.084691	SteelesThey	-0.1417476
-5.084691	Steeless	-0.1050071
-5.084691	Still	-0.1418584
-5.084691	Strange	-0.1376843
-3.504907	Street	-0.2536227
-5.084691	Streetbut	-0.1393631
-5.084691	Streets	-0.1310246
-3.880571	Such	-0.2333205
-5.084691	Sunday	-0.138092
-5.084691	Supported	-0.1395608
-5.084691	Supposing	-0.1368823
-5.084691	Sure	-0.1050071
-4.607569	Surely	-0.1030413
-5.084691	Surprised	-0.1310246
-4.130448	Sussex	-0.158451
-3.461441	THAT	-0.1222334
-5.084691	THATand	-0.1413505
-5.084691	THE	-0.14203
-4.78366	THEIR	-0.1419835
-4.385721	THEM	-0.1018709
-4.130448	THEN	-0.07274036
-5.084691	THERE	-0.1282964
-4.78366	THESE	-0.1417046
-4.607569	THEY	-0.1398087
-4.385721	THIS	-0.1400744
-5.084691	THREE	-0.1402754
-5.084691	TIME	-0.141794
-5.084691	TOLD	-0.1406305
-5.084691	TRIED	-0.1282964
-5.084691	TWICE	-0.138092
-5.084691	TWO	-0.141862
-4.78366	Take	-0.1400349
-4.78366	Taylor	-0.104232
-4.385721	Tell	-0.3204958
-4.385721	Thank	-0.4492095
-3.566177	That	-0.2882855
-2.734443	The	-0.2220972
-3.579541	Their	-0.1336965
-3.908599	Then	-0.1956498
-3.669717	There	-0.5641921
-4.385721	These	-0.1796241
-3.192596	They	-0.4019775
-5.084691	Think	-0.1298391
-3.385721	This	-0.2193958
-4.30654	Thomas	-0.1433827
-5.084691	Thomass	-0.1419728
-4.043298	Though	-0.1206049
-5.084691	Three	-0.141862
-4.607569	Thursday	-0.0929967
-5.084691	Thus	-0.1352592
-5.084691	Till	-0.1419871
-5.084691	Time	-0.1352592
-5.084691	Tis	-0.1418334
-3.385721	To	-0.25088
-5.084691	Tomorrow	-0.1404512
-4.607569	Towards	-0.1193379
-5.084691	Truth	-0.1418834
-4.78366	Tuesday	-0.1307313
-4.607569	Twice	-0.1339469
-5.084691	Twill	-0.1376591
-4.239593	Two	-0.1929368
-5.084691	US	-0.1310246
-5.084691	Unaccountable	-0.1415473
-4.607569	Undoubtedly	-0.1301
-5.084691	Ungracious	-0.1419156
-4.084691	Upon	-1.127037
-4.78366	Use	-0.1407201
-4.607569	VERY	-0.1419156
-5.084691	Valley	-0.138092
-5.084691	Vanity	-0.1416903
-4.482631	Very	-0.1411356
-5.084691	Volume	-0.1420264
-5.084691	W	-0.1358069
-4.130448	WAS	-0.2440034
-4.607569	WE	-0.1262742
-5.084691	WERE	-0.141937
-5.084691	WHAT	-0.138092
-5.084691	WHERE	-0.1385822
-4.385721	WILL	-0.1746044
-5.084691	WILLOUGHBY	-0.1050071
-5.084691	WITHOUT	-0.1414936
-5.084691	WORD	-0.1050071
-4.482631	WOULD	-0.2353676
-5.084691	WOULDvex	-0.1406305
-5.084691	Wait	-0.1379225
-5.084691	Walker	-0.1420264
-4.385721	Was	-0.1278241
-5.084691	Watched	-0.1417404
-3.504907	We	-0.3132651
-4.78366	Wednesday	-0.116929
-3.493626	Well	-0.3385604
-5.084691	WellI	-0.1412144
-5.084691	Wellhe	-0.14203
-4.78366	Were	-0.130122
-5.084691	Westminster	-0.138092
-4.607569	Westons	-0.1398159
-5.084691	Weymouth	-0.1419978
-3.299361	What	-0.2417496
-4.239593	Whatever	-0.1518087
-5.084691	Whatwhile	-0.1419978
-3.461441	When	-0.2159106
-4.78366	Whenever	-0.1017886
-4.385721	Where	-0.2141306
-5.084691	Whereas	-0.1358069
-5.084691	Wherever	-0.1406699
-4.78366	While	-0.1362562
-5.084691	Whitakers	-0.1282964
-4.30654	Whitwell	-0.1530162
-4.239593	Who	-0.1893567
-5.084691	Whoever	-0.1414578
-5.084691	Whom	-0.1410784
-3.762471	Why	-0.1836711
-4.607569	Will	-0.5213158
-4.78366	William	-0.1387046
-4.181601	Williams	-0.10684
-5.084691	Willing	-0.1417225
-2.883294	Willoughby	-0.1502464
-5.084691	WilloughbyRemember	-0.1376843
-5.084691	Willoughbybut	-0.1393631
-5.084691	Willoughbyhe	-0.1413469
-3.528388	Willoughbys	-0.1427415
-5.084691	Willoughbyto	-0.1050071
-3.805937	With	-0.2037275
-5.084691	Within	-0.1352592
-5.084691	Without	-0.1420121
-4.607569	Would	-0.1375941
-5.084691	Writing	-0.1282964
-3.686751	YOU	-0.1810113
-4.385721	YOUR	-0.1048553
-3.493626	Yes	-0.2238718
-5.084691	YesI	-0.1417118
-5.084691	Yescould	-0.1376843
-5.084691	Yesnonever	-0.1420049
-4.181601	Yet	-0.07640927
-3.023993	You	-0.6192166
-3.579541	Your	-0.2203128
-1.810302	a	-0.4846907
-5.084691	abandoned	-0.1282964
-5.084691	abatement	-0.1358069
-5.084691	abhor	-0.1408312
-4.78366	abhorred	-0.1359229
-4.482631	abhorrence	-0.3429876
-4.130448	abilities	-0.1687526
-4.607569	ability	-0.09161828
-3.441238	able	-1.217817
-5.084691	ablest	-0.1420264
-4.482631	abode	-0.1310686
-5.084691	abominably	-0.1419585
-5.084691	abounded	-0.1358069
-2.974101	about	-0.416759
-3.805937	above	-0.3258587
-5.084691	abridge	-0.1420049
-5.084691	abridgement	-0.1413254
-4.239593	abroad	-0.150458
-4.607569	abruptly	-0.1305148
-5.084691	abruptness	-0.1352592
-4.30654	absence	-0.2783526
-5.084691	absenceOh	-0.1404261
-4.607569	absent	-0.1353318
-4.607569	absolute	-0.1418298
-4.181601	absolutely	-0.1497935
-5.084691	abstracted	-0.1403005
-5.084691	abstraction	-0.1298391
-4.78366	absurd	-0.1264817
-4.482631	absurdity	-0.2138997
-5.084691	abundantly	-0.1420228
-4.607569	abuse	-0.262594
-5.084691	abused	-0.1339105
-5.084691	abuses	-0.1298391
-5.084691	acacia	-0.1310246
-5.084691	accelerate	-0.1376843
-5.084691	accent	-0.1298391
-5.084691	accents	-0.1417404
-4.084691	accept	-0.1254432
-4.607569	acceptable	-0.134729
-5.084691	acceptably	-0.1379225
-4.78366	acceptance	-0.09171058
-5.084691	acceptancebut	-0.1418834
-4.30654	accepted	-0.1503924
-4.30654	accepting	-0.2539009
-4.385721	accident	-0.2894004
-5.084691	accidental	-0.1420085
-4.482631	accidentally	-0.1415794
-5.084691	accidently	-0.1420157
-4.607569	accommodate	-0.1315301
-4.78366	accommodating	-0.1403794
-4.239593	accommodation	-0.1491389
-5.084691	accommodations	-0.1404261
-4.78366	accompanied	-0.1380559
-4.482631	accompany	-0.3836629
-4.78366	accomplished	-0.1269814
-4.78366	accomplishment	-0.1300853
-5.084691	accordant	-0.1387586
-4.78366	according	-0.3492278
-4.607569	accordingly	-0.09498845
-5.084691	accosted	-0.1395608
-3.528388	account	-0.3963435
-5.084691	accounted	-0.1379225
-4.385721	accounts	-0.1676542
-5.084691	accountshe	-0.1417297
-5.084691	accrue	-0.1282964
-5.084691	accurately	-0.1405085
-5.084691	accusation	-0.1050071
-5.084691	accuse	-0.141465
-5.084691	accustom	-0.1411965
-4.607569	accustomary	-0.1419978
-5.084691	aches	-0.14203
-4.78366	aching	-0.3628434
-4.043298	acknowledge	-0.1252386
-4.043298	acknowledged	-0.05960399
-4.385721	acknowledging	-0.1540774
-4.482631	acknowledgment	-0.3790493
-4.607569	acknowledgments	-0.2583697
-3.306539	acquaintance	-0.2127254
-5.084691	acquaintanceOh	-0.1404261
-5.084691	acquaintancePoor	-0.14203
-5.084691	acquaintances	-0.1282964
-3.669717	acquainted	-0.7188833
-5.084691	acquiesced	-0.1358069
-4.78366	acquiescence	-0.1030921
-5.084691	acquired	-0.1395824
-4.78366	acquisition	-0.3507705
-4.482631	acquit	-0.2322567
-4.78366	acquitted	-0.1040955
-5.084691	acquitting	-0.1398949
-4.30654	across	-0.5809366
-4.084691	act	-0.1644897
-4.482631	acted	-0.1262445
-4.30654	acting	-0.1478095
-4.385721	action	-0.1934576
-4.30654	actions	-0.09276463
-4.130448	active	-0.0992288
-4.78366	acts	-0.1257848
-5.084691	actual	-0.1419728
-4.30654	actually	-0.1392804
-5.084691	acute	-0.1419799
-5.084691	acutely	-0.1413218
-4.78366	acuteness	-0.3507705
-5.084691	adapted	-0.1395608
-5.084691	aday	-0.1353536
-4.385721	add	-0.3029918
-3.482631	added	-0.173455
-5.084691	adding	-0.1418941
-4.239593	addition	-0.1982071
-4.607569	additional	-0.1414864
-4.78366	additions	-0.1262223
-3.783661	address	-0.1576125
-4.607569	addressed	-0.1197142
-5.084691	addresses	-0.1282964
-4.607569	addressing	-0.1314312
-5.084691	adequate	-0.1282964
-5.084691	adhering	-0.1282964
-4.78366	adieu	-0.09002608
-4.78366	adieus	-0.1281415
-4.78366	adjoining	-0.1401498
-5.084691	adjusting	-0.1339105
-5.084691	administer	-0.1393631
-5.084691	administering	-0.1289746
-5.084691	admirable	-0.1420121
-3.805937	admiration	-0.3757614
-5.084691	admirationShe	-0.1050071
-5.084691	admirationa	-0.1050071
-4.084691	admire	-0.1636883
-4.385721	admired	-0.07875134
-5.084691	admirers	-0.1418941
-4.607569	admires	-0.2720771
-4.607569	admiring	-0.1284918
-5.084691	admission	-0.1298391
-4.30654	admit	-0.1122661
-4.78366	admittance	-0.1392804
-4.385721	admitted	-0.06558951
-4.607569	admitting	-0.1273844
-4.482631	adopt	-0.1380487
-5.084691	adopted	-0.1412323
-4.78366	adorned	-0.1275655
-4.607569	advance	-0.1396362
-4.130448	advanced	-0.2122897
-5.084691	advancement	-0.1298391
-4.78366	advances	-0.1308119
-4.78366	advancing	-0.124637
-3.686751	advantage	-0.3918121
-5.084691	advantageous	-0.1419906
-5.084691	advantageousHer	-0.1420192
-4.607569	advantages	-0.1360497
-4.084691	advice	-0.1095238
-4.385721	advisable	-0.2548871
-4.181601	advise	-0.2396166
-4.482631	advised	-0.3816707
-4.78366	affability	-0.09822199
-4.78366	affable	-0.0930047
-3.669717	affair	-0.1803484
-5.084691	affairI	-0.1358903
-4.482631	affairs	-0.09892502
-4.607569	affect	-0.1061574
-4.607569	affectation	-0.2259086
-4.30654	affected	-0.2012812
-5.084691	affectedly	-0.14203
-5.084691	affectedlyNo	-0.1404261
-4.607569	affecting	-0.5110301
-3.227358	affection	-0.3972467
-3.742268	affectionate	-0.2250986
-4.78366	affectionately	-0.1395141
-4.130448	affections	-0.1221351
-5.084691	affectionthat	-0.1406699
-5.084691	affects	-0.1419049
-5.084691	affirmative	-0.1050071
-5.084691	affixed	-0.1282964
-5.084691	afflict	-0.1289746
-5.084691	afflicted	-0.1402754
-5.084691	afflicting	-0.1418405
-3.908599	affliction	-0.1096476
-5.084691	afflictionher	-0.1418834
-5.084691	afflictions	-0.1387586
-4.607569	affluence	-0.1352084
-3.938563	afford	-0.3051077
-4.30654	afforded	-0.2103453
-4.607569	affording	-0.2368756
-4.78366	affront	-0.122691
-4.78366	affronting	-0.1336118
-3.742268	afraid	-0.2982933
-2.859381	after	-0.3615053
-5.084691	afterdays	-0.138092
-4.78366	afternoon	-0.1390753
-5.084691	afterward	-0.1420121
-3.579541	afterwards	-0.1250011
-5.084691	afterwardsis	-0.1414829
-2.987781	again	-0.2928109
-5.084691	againBut	-0.1368823
-5.084691	againSo	-0.14203
-5.084691	againand	-0.1393631
-5.084691	againbut	-0.1376843
-5.084691	againhis	-0.14203
-3.292299	against	-0.2932061
-5.084691	againyet	-0.1376338
-3.805937	age	-0.2553889
-5.084691	ages	-0.1405946
-5.084691	aggrandizement	-0.1419656
-5.084691	aggravation	-0.1298391
-5.084691	agitate	-0.1339105
-4.78366	agitated	-0.0930047
-3.938563	agitation	-0.1302943
-3.970747	ago	-0.2202884
-5.084691	agoBut	-0.1418369
-4.78366	agonies	-0.3507705
-4.30654	agony	-0.1077343
-4.385721	agree	-0.2847168
-3.722963	agreeable	-0.2018793
-5.084691	agreeableWant	-0.1298391
-4.181601	agreed	-0.2757412
-5.084691	agreeing	-0.1282964
-4.78366	agreement	-0.1307936
-4.607569	aid	-0.1344054
-4.78366	ailment	-0.1376663
-5.084691	ailments	-0.1398087
-5.084691	aim	-0.1393631
-4.78366	aimed	-0.3602945
-3.908599	air	-0.2678058
-5.084691	airnor	-0.1388306
-4.78366	alacrity	-0.0930047
-3.829418	alarm	-0.1088221
-4.607569	alarmed	-0.1366689
-4.78366	alarming	-0.1309696
-5.084691	alarms	-0.1310246
-5.084691	alienated	-0.1403005
-4.239593	alike	-0.1232884
-4.78366	alive	-0.1347435
-2.306539	all	-0.3678941
-4.78366	allI	-0.1411894
-5.084691	allShe	-0.1413469
-5.084691	alleged	-0.1358903
-5.084691	alleviation	-0.1298391
-5.084691	allfor	-0.1414328
-5.084691	allhis	-0.1050071
-3.704479	allow	-0.2769692
-5.084691	allowable	-0.1420192
-4.482631	allowance	-0.1174361
-5.084691	allowances	-0.1400242
-3.880571	allowed	-0.2406767
-4.78366	allowing	-0.1289377
-5.084691	alloy	-0.1050071
-4.607569	alluded	-0.5110301
-5.084691	allusion	-0.1282964
-3.176206	almost	-0.2701257
-3.669717	alone	-0.1198736
-5.084691	aloneNonot	-0.1417118
-5.084691	aloneand	-0.1419656
-4.084691	along	-0.1772132
-4.78366	aloud	-0.1384777
-5.084691	alphabet	-0.1387766
-3.412593	already	-0.17861
-5.084691	alreadyfor	-0.1404512
-4.607569	also	-0.1240228
-4.78366	altar	-0.1274842
-4.78366	alter	-0.09615371
-3.970747	alteration	-0.3745806
-5.084691	alterations	-0.140139
-4.385721	altered	-0.1800801
-5.084691	alteredso	-0.14203
-5.084691	alternately	-0.14203
-5.084691	alternative	-0.1412001
-4.482631	although	-0.08735531
-3.938563	altogether	-0.1309905
-3.027786	always	-0.1834134
-2.724855	am	-0.5502291
-4.130448	amazement	-0.1791246
-5.084691	amazementand	-0.1413505
-5.084691	amazementwell	-0.14203
-5.084691	amazing	-0.1414721
-5.084691	amazingly	-0.141887
-4.78366	ambition	-0.1214001
-5.084691	amended	-0.1310246
-4.239593	amendment	-0.1235218
-4.30654	amends	-0.5608637
-3.854242	amiable	-0.2596515
-5.084691	amiably	-0.14203
-5.084691	amidst	-0.1289746
-5.084691	amiss	-0.1379225
-3.854242	among	-0.2008819
-4.30654	amongst	-0.2357355
-4.482631	amount	-0.2217046
-5.084691	amounted	-0.1379946
-5.084691	ample	-0.1420264
-4.607569	amply	-0.1419942
-4.78366	amuse	-0.3548419
-4.607569	amused	-0.2655889
-3.970747	amusement	-0.1695741
-4.78366	amusements	-0.1277096
-5.084691	amusing	-0.1310246
-2.5809	an	-0.3590972
-4.78366	ancient	-0.1380415
-1.601531	and	-0.1850142
-4.78366	anew	-0.1296111
-4.607569	angel	-0.1017023
-4.385721	anger	-0.1762972
-5.084691	angrily	-0.1393631
-4.005509	angry	-0.186434
-4.78366	anguish	-0.3507705
-4.239593	animated	-0.1904475
-4.78366	animating	-0.1419048
-4.607569	animation	-0.2272027
-5.084691	animationbut	-0.1376338
-5.084691	ankle	-0.1358903
-5.084691	ankles	-0.1050071
-5.084691	annexed	-0.1282964
-4.78366	annihilation	-0.3507705
-4.385721	announce	-0.1957742
-4.78366	announced	-0.09002608
-4.607569	announcing	-0.127547
-4.482631	annuities	-0.1297876
-4.482631	annuity	-0.11898
-5.084691	annum	-0.1310246
-3.258616	another	-0.1273852
-5.084691	anotherSuch	-0.1352592
-5.084691	anotherand	-0.1418834
-4.78366	anothers	-0.141769
-3.622293	answer	-0.1609694
-4.78366	answerable	-0.09002608
-3.722963	answered	-0.1967351
-4.78366	answering	-0.1396829
-5.084691	answers	-0.1401534
-4.30654	ant	-0.08492896
-5.084691	anticipate	-0.1419692
-4.78366	anticipated	-0.1270369
-5.084691	anticipating	-0.1289746
-5.084691	anticipation	-0.1376338
-5.084691	anticipations	-0.1298391
-3.938563	anxiety	-0.1776447
-3.669717	anxious	-0.5776082
-4.482631	anxiously	-0.1418548
-2.525982	any	-0.3929908
-4.084691	anybody	-0.06618141
-5.084691	anybodys	-0.1418763
-5.084691	anymore	-0.1408097
-3.722963	anything	-0.06389347
-4.607569	apartment	-0.1150432
-5.084691	apartments	-0.1418977
-4.385721	apiece	-0.1675781
-5.084691	apologies	-0.1402754
-4.607569	apologising	-0.2681412
-5.084691	apologize	-0.1417225
-5.084691	apologized	-0.1379225
-4.084691	apology	-0.2303558
-4.607569	apothecary	-0.09267653
-4.78366	apparent	-0.1309696
-4.482631	apparently	-0.1339469
-5.084691	appeal	-0.1282964
-3.704479	appear	-0.2420733
-3.722963	appearance	-0.29816
-4.78366	appearances	-0.1418334
-3.622293	appeared	-0.3593963
-5.084691	appearedbut	-0.1413397
-4.385721	appearing	-0.2780328
-5.084691	appeased	-0.1050071
-4.78366	appetite	-0.1185125
-5.084691	appetites	-0.1405946
-5.084691	applauded	-0.1416725
-4.607569	application	-0.2499023
-4.607569	applied	-0.1232138
-5.084691	applying	-0.1282964
-5.084691	appointed	-0.1050071
-4.607569	appointment	-0.1256957
-5.084691	apprehended	-0.1339105
-4.78366	apprehension	-0.1185125
-4.482631	apprehensions	-0.1369401
-4.78366	apprehensive	-0.129817
-4.607569	approach	-0.2527105
-4.78366	approached	-0.1335973
-4.78366	approaching	-0.1048397
-4.005509	approbation	-0.1386828
-5.084691	appropriate	-0.1420121
-4.239593	approve	-0.4779159
-4.78366	approved	-0.1023136
-5.084691	apricot	-0.14203
-5.084691	aptitude	-0.1282964
-4.78366	arbour	-0.140218
-5.084691	archness	-0.1298391
-4.78366	ardent	-0.1414614
-4.607569	ardour	-0.2527105
-2.760408	are	-0.2669384
-5.084691	areAs	-0.1376338
-5.084691	areyou	-0.1410927
-5.084691	argue	-0.1417297
-4.78366	argument	-0.1295744
-4.482631	arguments	-0.2201563
-4.30654	arise	-0.3289965
-5.084691	ariseand	-0.1339105
-4.78366	arisen	-0.3612319
-4.78366	arm	-0.1358106
-5.084691	armfor	-0.1353536
-4.482631	arms	-0.09751386
-4.130448	arose	-0.1571935
-4.239593	around	-0.2346285
-4.239593	arranged	-0.176585
-4.30654	arrangement	-0.147659
-4.78366	arrangements	-0.0930047
-5.084691	arranging	-0.1405085
-3.653327	arrival	-0.23515
-5.084691	arrive	-0.1358903
-3.854242	arrived	-0.1320259
-5.084691	arrives	-0.1414793
-4.78366	arriving	-0.1304084
-4.78366	art	-0.1414256
-4.78366	artful	-0.1241718
-4.78366	article	-0.09171058
-5.084691	articulate	-0.1419049
-5.084691	articulation	-0.1408921
-5.084691	artificial	-0.1310246
-5.084691	artless	-0.14203
-5.084691	artlessness	-0.1376338
-2.044088	as	-0.5602696
-5.084691	ascended	-0.1289746
-5.084691	ascending	-0.1289746
-5.084691	ascertain	-0.1407738
-4.78366	ascertained	-0.1389602
-4.181601	ashamed	-0.6530114
-4.385721	aside	-0.1850026
-3.566177	ask	-0.2245064
-3.783661	asked	-0.1170855
-4.482631	asking	-0.1250719
-4.78366	asleep	-0.1265113
-4.78366	aspect	-0.1280345
-5.084691	assembled	-0.1393631
-5.084691	assemblies	-0.1310246
-4.482631	assent	-0.08704312
-4.78366	assented	-0.1277576
-5.084691	asserted	-0.1282964
-4.181601	assertion	-0.08068998
-5.084691	assertions	-0.1419942
-4.78366	assiduities	-0.1334442
-5.084691	assiduous	-0.1050071
-4.78366	assigned	-0.1390537
-3.970747	assist	-0.2262501
-3.938563	assistance	-0.117043
-4.385721	assisted	-0.168191
-5.084691	assisting	-0.1050071
-5.084691	associate	-0.1387586
-5.084691	associating	-0.1387586
-5.084691	assuage	-0.1289746
-3.970747	assurance	-0.3258311
-4.084691	assurances	-0.3460793
-3.593329	assure	-0.7549614
-3.686751	assured	-0.4471288
-4.78366	assuring	-0.1324809
-4.043298	astonished	-0.3408399
-5.084691	astonishing	-0.1412001
-5.084691	astonishinghe	-0.1417583
-5.084691	astonishingno	-0.14203
-3.908599	astonishment	-0.1888514
-5.084691	astonishmentbut	-0.1368823
-5.084691	astray	-0.1050071
-5.084691	asunder	-0.1411607
-2.212534	at	-0.8397675
-5.084691	atThey	-0.1412789
-4.78366	ate	-0.1404081
-5.084691	atmosphere	-0.1416224
-4.78366	atone	-0.3588539
-5.084691	atoned	-0.1379225
-4.607569	atonement	-0.2499023
-5.084691	atoning	-0.1379225
-4.385721	attach	-0.1691387
-4.084691	attached	-1.125766
-4.482631	attaching	-0.100992
-3.566177	attachment	-0.3151098
-4.482631	attachments	-0.09237616
-4.607569	attack	-0.1235159
-5.084691	attacked	-0.1339105
-5.084691	attacks	-0.1387586
-4.78366	attainable	-0.0930047
-5.084691	attained	-0.1368823
-3.880571	attempt	-0.3177918
-4.084691	attempted	-0.2941724
-4.181601	attempting	-0.4211076
-4.78366	attempts	-0.1270923
-4.130448	attend	-0.1876566
-4.482631	attendance	-0.1284476
-5.084691	attendant	-0.1406842
-4.78366	attendants	-0.1351176
-3.854242	attended	-0.1555592
-4.084691	attending	-0.2303923
-3.352297	attention	-0.4142936
-5.084691	attentionTo	-0.1415508
-4.181601	attentions	-0.1139888
-4.239593	attentive	-0.1846467
-4.607569	attentively	-0.1376987
-4.78366	attitude	-0.1278905
-4.607569	attract	-0.1267667
-4.607569	attracted	-0.2722539
-4.607569	attraction	-0.1358142
-4.30654	attractions	-0.1797804
-4.78366	attractive	-0.1309623
-4.482631	attribute	-0.2027232
-4.607569	attributed	-0.1184333
-4.78366	attributing	-0.1368678
-5.084691	audacity	-0.1399811
-5.084691	audible	-0.1420121
-5.084691	auditors	-0.1310246
-5.084691	augmented	-0.1420121
-5.084691	augmenting	-0.1405085
-5.084691	aunt	-0.1403723
-5.084691	auspicious	-0.1050071
-5.084691	auspiciously	-0.138092
-5.084691	author	-0.1050071
-4.607569	authorised	-0.1143087
-4.607569	authority	-0.1015493
-5.084691	authoritynot	-0.1376843
-4.78366	authors	-0.1394745
-4.78366	autumn	-0.1043996
-4.78366	avail	-0.1040955
-5.084691	availWas	-0.1353536
-5.084691	availed	-0.1420228
-5.084691	avarice	-0.1409172
-5.084691	avariceor	-0.1407738
-3.880571	avoid	-0.1950794
-4.30654	avoided	-0.2540213
-4.607569	avoiding	-0.128112
-5.084691	avowal	-0.1298391
-5.084691	awaited	-0.1406305
-5.084691	awake	-0.1289746
-5.084691	awaken	-0.1403005
-4.482631	awakened	-0.1233033
-5.084691	awaking	-0.14203
-3.880571	aware	-0.7258401
-3.084691	away	-0.448168
-5.084691	awayand	-0.1376843
-4.607569	awful	-0.1352084
-5.084691	awhile	-0.1413505
-4.607569	awkward	-0.1047073
-5.084691	awkwardness	-0.1353536
-5.084691	awoke	-0.1289746
-4.30654	aye	-0.2124571
-3.880571	ayear	-0.07904961
-5.084691	ayearwere	-0.1410927
-4.78366	baby	-0.1185125
-5.084691	babys	-0.1419049
-4.607569	bachelor	-0.09485701
-3.540623	back	-0.2522318
-5.084691	backLord	-0.1414793
-4.78366	backwardness	-0.1261593
-5.084691	backwards	-0.1310246
-4.043298	bad	-0.2293529
-5.084691	badness	-0.1298391
-4.607569	balls	-0.1268001
-5.084691	banditti	-0.1358069
-5.084691	banish	-0.1408312
-4.607569	banished	-0.1247337
-5.084691	bankers	-0.1050071
-5.084691	banknotes	-0.1416331
-5.084691	banns	-0.1298391
-4.78366	barbarous	-0.1254471
-5.084691	barbarously	-0.14203
-4.78366	bargain	-0.0930047
-4.78366	barouche	-0.1410783
-5.084691	barouches	-0.1419871
-5.084691	bashful	-0.1387586
-5.084691	basis	-0.1298391
-4.30654	basket	-0.1252948
-5.084691	bathed	-0.1387586
-1.999043	be	-0.2169617
-5.084691	beI	-0.1410927
-5.084691	beWhom	-0.1413218
-5.084691	beall	-0.1376843
-5.084691	beamed	-0.1358069
-4.78366	beand	-0.09772761
-3.762471	bear	-0.2610942
-5.084691	bearbut	-0.1353536
-4.78366	bearing	-0.1381929
-5.084691	bears	-0.1368823
-5.084691	beasts	-0.1393631
-5.084691	beat	-0.1418119
-4.084691	beau	-0.09929188
-4.482631	beauties	-0.2109164
-4.043298	beautiful	-0.1193567
-5.084691	beautifully	-0.1050071
-3.762471	beauty	-0.2097533
-4.239593	beaux	-0.1293907
-5.084691	beauxthey	-0.1392732
-5.084691	beauxyou	-0.1408634
-5.084691	bebut	-0.1415473
-3.880571	became	-0.1756934
-3.336503	because	-0.4349305
-5.084691	becauseto	-0.1414936
-3.854242	become	-0.1874864
-4.78366	becoming	-0.1397081
-5.084691	becould	-0.141465
-3.704479	bed	-0.1514407
-4.78366	bedchamber	-0.1002136
-5.084691	bedroom	-0.1050071
-4.78366	bedrooms	-0.1304084
-5.084691	bedsand	-0.1282964
-5.084691	bee	-0.1414507
-5.084691	beef	-0.1393631
-2.46769	been	-0.1707227
-5.084691	beenbut	-0.1368823
-5.084691	beenhow	-0.1417118
-5.084691	beensaw	-0.1398949
-5.084691	beevery	-0.1414185
-5.084691	befall	-0.1398949
-5.084691	befallen	-0.1398949
-5.084691	befalls	-0.1398949
-4.78366	befell	-0.132163
-2.824619	before	-0.3909392
-5.084691	beforeI	-0.1412144
-5.084691	beforeMy	-0.1420014
-5.084691	beforebeg	-0.1408778
-5.084691	beforebut	-0.1353536
-5.084691	beforehand	-0.1387586
-4.181601	beg	-0.2483875
-3.482631	began	-0.355034
-5.084691	beganbut	-0.1387586
-4.385721	begged	-0.1880267
-4.482631	begging	-0.1160346
-4.30654	begin	-0.07910261
-5.084691	beginhow	-0.1376338
-4.084691	beginning	-0.2821586
-5.084691	begins	-0.1387586
-4.239593	begun	-0.1343859
-4.482631	behave	-0.1363648
-4.130448	behaved	-0.1724128
-3.321263	behaviour	-0.3405489
-5.084691	behaviourand	-0.1416903
-4.607569	beheld	-0.1233257
-3.880571	behind	-0.1416029
-5.084691	behold	-0.1402754
-5.084691	beholding	-0.1420264
-5.084691	bein	-0.1404512
-2.905714	being	-0.1850023
-5.084691	beings	-0.1395824
-4.239593	belief	-0.4819573
-3.165612	believe	-0.1864792
-3.637533	believed	-0.1785968
-5.084691	believes	-0.1417011
-4.181601	believing	-0.1640264
-4.78366	bell	-0.1379116
-5.084691	belonged	-0.1417833
-4.181601	belonging	-0.9405054
-5.084691	belongs	-0.1282964
-4.30654	beloved	-0.1370486
-5.084691	below	-0.1282964
-5.084691	bely	-0.1406305
-4.78366	beneath	-0.1049837
-5.084691	benefactress	-0.1298391
-5.084691	beneficial	-0.1420085
-4.482631	benefit	-0.377566
-4.78366	benefited	-0.136875
-4.607569	benevolence	-0.2259086
-5.084691	benignant	-0.1419978
-4.78366	bent	-0.104645
-5.084691	beor	-0.140738
-5.084691	bequeath	-0.1368823
-5.084691	bequeathed	-0.1398841
-5.084691	bequest	-0.1414364
-5.084691	beset	-0.1387586
-5.084691	beshe	-0.1358903
-4.043298	besides	-0.1258898
-4.78366	bespeak	-0.1407451
-5.084691	bespoke	-0.1289746
-3.669717	best	-0.113753
-4.130448	bestow	-0.1197556
-4.239593	bestowed	-0.2598857
-4.607569	bestowing	-0.1364517
-5.084691	bethere	-0.1414578
-4.30654	betrayed	-0.1827061
-4.385721	betraying	-0.08331606
-3.203877	better	-0.3010864
-3.28535	between	-0.4053179
-4.78366	bewitching	-0.1356148
-3.493626	beyond	-0.2227794
-5.084691	beyour	-0.1419656
-5.084691	bias	-0.1358069
-5.084691	biased	-0.1358069
-4.482631	bid	-0.0996742
-5.084691	bidding	-0.1050071
-4.78366	bide	-0.1404153
-5.084691	biggerwith	-0.1415437
-5.084691	billiard	-0.1417297
-5.084691	billiards	-0.1400242
-5.084691	bind	-0.1416903
-5.084691	birth	-0.1050071
-5.084691	bit	-0.1339105
-5.084691	bitch	-0.1298391
-4.78366	bitter	-0.140591
-4.78366	bitterly	-0.1002687
-5.084691	bitternessto	-0.1419549
-5.084691	black	-0.14203
-5.084691	blackest	-0.1420264
-5.084691	blackguard	-0.1410569
-4.607569	blamable	-0.1344236
-4.385721	blame	-0.1185352
-5.084691	blameable	-0.1418334
-5.084691	blamed	-0.1413218
-5.084691	blameless	-0.1420192
-5.084691	blank	-0.1358903
-5.084691	blast	-0.1310246
-5.084691	blasted	-0.1420228
-4.385721	bless	-0.1751484
-4.607569	blessed	-0.09607825
-4.385721	blessing	-0.1434658
-4.78366	blessings	-0.1278905
-5.084691	blights	-0.1358069
-4.385721	blind	-0.2057163
-5.084691	blinded	-0.1395608
-5.084691	blindly	-0.1353536
-5.084691	bliss	-0.1050071
-5.084691	blockhead	-0.1353536
-5.084691	blood	-0.1400242
-5.084691	bloodBut	-0.1385822
-4.607569	bloom	-0.1252948
-5.084691	blooming	-0.14203
-5.084691	blossoms	-0.1353536
-4.239593	blow	-0.08704717
-5.084691	blown	-0.1417011
-5.084691	blue	-0.1420228
-5.084691	blunder	-0.1358903
-5.084691	blundered	-0.1398087
-5.084691	blunt	-0.1420085
-5.084691	bluntly	-0.138092
-5.084691	blush	-0.1418977
-4.482631	blushed	-0.1285582
-5.084691	blushes	-0.1310246
-5.084691	blushing	-0.141794
-5.084691	bluster	-0.1358903
-4.78366	board	-0.138809
-4.607569	boast	-0.2640297
-5.084691	boasting	-0.1298391
-5.084691	bodily	-0.1419728
-3.421933	body	-0.1949588
-5.084691	bodyThank	-0.1385822
-4.78366	bodys	-0.1045009
-5.084691	boiled	-0.14203
-5.084691	boisterous	-0.1420192
-4.607569	bold	-0.1419835
-4.78366	bolder	-0.3629578
-5.084691	boldly	-0.1298391
-5.084691	bones	-0.1298391
-5.084691	bonnet	-0.1417583
-4.30654	book	-0.1479478
-4.130448	books	-0.1985414
-5.084691	booksThomson	-0.1420228
-5.084691	booksellers	-0.1050071
-4.482631	bore	-0.2250355
-4.482631	born	-0.3760106
-4.084691	borne	-0.2194792
-5.084691	borrow	-0.1298391
-5.084691	borrowed	-0.1398841
-3.140208	both	-0.1626538
-4.78366	bottom	-0.1234339
-5.084691	bottoms	-0.1410927
-4.30654	bound	-0.2735896
-5.084691	bout	-0.14203
-4.482631	bow	-0.08770372
-4.78366	bowed	-0.122691
-5.084691	bowing	-0.1282964
-5.084691	bowlinggreen	-0.1419764
-4.385721	boy	-0.08889676
-5.084691	boyish	-0.1419156
-4.482631	boys	-0.1999939
-5.084691	branch	-0.1419728
-5.084691	branched	-0.1414829
-5.084691	braving	-0.1388306
-4.385721	breach	-0.1634658
-5.084691	break	-0.1418298
-3.938563	breakfast	-0.1473666
-5.084691	breakfasting	-0.1393631
-5.084691	breakfastroom	-0.1289746
-4.385721	breaking	-0.2028281
-5.084691	breast	-0.1358903
-4.78366	breath	-0.1330942
-5.084691	breathing	-0.1417833
-5.084691	bred	-0.1416546
-5.084691	breed	-0.1298391
-5.084691	breeding	-0.1298391
-5.084691	bribing	-0.1410569
-4.30654	brief	-0.1402682
-5.084691	bright	-0.1282964
-5.084691	brightened	-0.1393631
-5.084691	brighter	-0.1420121
-5.084691	brightness	-0.1298391
-5.084691	brilliancy	-0.1388306
-4.78366	brilliant	-0.1338522
-3.880571	bring	-0.206165
-4.005509	bringing	-0.1449575
-4.78366	brings	-0.134289
-5.084691	broad	-0.14203
-5.084691	broader	-0.14203
-4.30654	broke	-0.2497
-4.084691	broken	-0.3016174
-5.084691	brokenhearted	-0.1393631
-5.084691	brood	-0.1376338
-5.084691	brooding	-0.1417011
-3.245842	brother	-0.2427236
-5.084691	brotherinlaw	-0.1298391
-4.043298	brothers	-0.1323035
-5.084691	brothersilly	-0.1310246
-5.084691	brotheryou	-0.1419049
-3.360415	brought	-0.1346993
-4.78366	brow	-0.1014591
-4.78366	brown	-0.1402718
-5.084691	bruised	-0.1420228
-5.084691	brush	-0.1420228
-4.30654	build	-0.2653633
-4.482631	building	-0.127011
-5.084691	built	-0.1417011
-5.084691	builtAnd	-0.1050071
-5.084691	bulk	-0.1298391
-5.084691	burnt	-0.1398841
-4.043298	burst	-0.4040674
-5.084691	bursts	-0.1298391
-5.084691	bury	-0.1418548
-4.78366	busily	-0.1419942
-3.482631	business	-0.1849335
-4.607569	bustle	-0.1241569
-4.385721	busy	-0.1602325
-2.393609	but	-0.3591528
-5.084691	butcher	-0.1420085
-4.181601	buy	-0.1237023
-5.084691	buying	-0.1352592
-2.245842	by	-0.5403088
-5.084691	byandby	-0.1414793
-4.482631	bye	-0.1942024
-5.084691	byeGod	-0.1420157
-4.385721	c	-0.08276755
-5.084691	cI	-0.1358903
-5.084691	calculate	-0.1289746
-4.385721	calculated	-0.3086938
-5.084691	calculation	-0.1420157
-3.566177	call	-0.1788296
-3.451222	called	-0.2942255
-4.084691	calling	-0.1949168
-4.78366	calls	-0.1394242
-3.938563	calm	-0.1358651
-4.78366	calmer	-0.104937
-5.084691	calming	-0.1408312
-4.181601	calmly	-0.1420758
-3.880571	calmness	-0.1407351
-5.084691	calmso	-0.14203
-3.181601	came	-0.3911556
-2.815178	can	-0.3128483
-4.78366	canal	-0.351956
-4.78366	candid	-0.1349905
-5.084691	candidly	-0.1310246
-5.084691	candlelight	-0.1415866
-5.084691	candles	-0.1418405
-4.78366	candour	-0.1348779
-5.084691	canit	-0.1408634
-5.084691	canless	-0.1419835
-3.155272	cannot	-0.3580093
-4.130448	cant	-0.2514827
-5.084691	canvassing	-0.1050071
-4.607569	cap	-0.5220967
-5.084691	capability	-0.1298391
-3.854242	capable	-1.32216
-5.084691	capableat	-0.1418012
-5.084691	caprice	-0.1409172
-5.084691	captivate	-0.1418834
-4.607569	captivating	-0.1004614
-4.30654	card	-0.08893313
-4.385721	cards	-0.1562842
-4.482631	cardtable	-0.0947853
-5.084691	cardtables	-0.1414578
-3.566177	care	-0.1598807
-4.385721	careful	-0.2962338
-4.482631	carefully	-0.2015456
-5.084691	carefulness	-0.1358069
-4.78366	careless	-0.3507705
-5.084691	carelessly	-0.1420264
-4.78366	carelessness	-0.1229674
-4.385721	cares	-0.2668641
-5.084691	caresses	-0.1419728
-5.084691	caressing	-0.1050071
-5.084691	caricature	-0.1050071
-4.78366	carpetwork	-0.1401498
-3.528388	carriage	-0.141451
-5.084691	carriageEager	-0.1282964
-4.607569	carriages	-0.2376378
-3.880571	carried	-0.1947854
-4.78366	carries	-0.1370739
-4.385721	carry	-0.1088813
-4.181601	carrying	-0.2174422
-3.566177	case	-0.07105175
-5.084691	cases	-0.1050071
-5.084691	cash	-0.1402754
-4.385721	cast	-0.1776545
-5.084691	casts	-0.1352592
-4.607569	catch	-0.1340343
-4.239593	catching	-0.06898943
-5.084691	cats	-0.1050071
-4.181601	caught	-0.1259813
-3.970747	cause	-0.1242938
-5.084691	causebut	-0.1419335
-5.084691	caused	-0.1282964
-4.30654	caution	-0.1267964
-5.084691	cautiona	-0.1420121
-4.78366	cautious	-0.1298023
-5.084691	cautiously	-0.1376338
-5.084691	cautiousness	-0.1298391
-5.084691	cavil	-0.1050071
-4.482631	cease	-0.1232772
-4.084691	ceased	-0.3748836
-5.084691	celebrated	-0.1050071
-5.084691	celebration	-0.1298391
-4.084691	censure	-0.1355775
-4.78366	censured	-0.1397907
-5.084691	centered	-0.1358069
-4.78366	centre	-0.1281304
-4.30654	ceremony	-0.1505864
-3.669717	certain	-0.2267109
-5.084691	certaina	-0.1419406
-5.084691	certainand	-0.1406699
-3.412593	certainly	-0.1502205
-5.084691	certainties	-0.1419513
-4.482631	certainty	-0.1161066
-5.084691	cessation	-0.1298391
-4.181601	chair	-0.2246397
-4.30654	chaise	-0.148963
-4.78366	chamber	-0.1282189
-3.805937	chance	-0.1548403
-5.084691	chanceYou	-0.1419406
-4.607569	chanced	-0.2614863
-3.686751	change	-0.2474954
-4.239593	changed	-0.226525
-5.084691	changefrom	-0.1352592
-5.084691	changes	-0.1358069
-5.084691	changing	-0.1289746
-5.084691	chaperon	-0.1385822
-3.579541	character	-0.132401
-5.084691	characterbut	-0.1353536
-4.482631	characters	-0.116338
-4.181601	charge	-0.170449
-5.084691	charged	-0.1387586
-4.78366	chariot	-0.3609556
-4.78366	charity	-0.1343763
-4.607569	charm	-0.2388858
-4.78366	charmed	-0.1276653
-3.970747	charming	-0.1893517
-4.30654	charms	-0.1170994
-4.607569	chat	-0.09246428
-5.084691	chatty	-0.1310246
-5.084691	cheap	-0.1419192
-5.084691	cheat	-0.1404512
-4.78366	cheated	-0.1294493
-4.607569	check	-0.1135882
-4.385721	checked	-0.3132347
-4.607569	checking	-0.1274214
-4.78366	cheek	-0.1419942
-4.78366	cheeks	-0.1050032
-5.084691	cheeksdo	-0.1385822
-5.084691	cheered	-0.1395608
-4.043298	cheerful	-0.201012
-5.084691	cheerfulhow	-0.1050071
-5.084691	cheerfuller	-0.1419942
-3.880571	cheerfulness	-0.2067774
-5.084691	cheerfulwhen	-0.1353536
-4.78366	cheerless	-0.1049876
-4.78366	cherished	-0.1406376
-5.084691	cherishing	-0.1398841
-5.084691	cherries	-0.1414328
-5.084691	chicken	-0.1414829
-4.239593	chief	-0.257026
-4.30654	chiefly	-0.1182899
-3.528388	child	-0.1551451
-5.084691	childhe	-0.140139
-3.566177	children	-0.1268087
-5.084691	childs	-0.1420192
-5.084691	chimneyboard	-0.1398087
-4.482631	china	-0.1284808
-4.130448	choice	-0.1641873
-5.084691	choked	-0.1395608
-4.607569	choose	-0.122463
-4.239593	chose	-0.2008027
-5.084691	chosen	-0.1379225
-5.084691	chuckle	-0.1417011
-4.385721	church	-0.1529761
-4.30654	chuse	-0.2769732
-4.607569	chusing	-0.1268593
-4.78366	circle	-0.09171058
-5.084691	circuit	-0.1050071
-5.084691	circumspection	-0.1379225
-3.829418	circumstance	-0.1749288
-5.084691	circumstanced	-0.138092
-3.637533	circumstances	-0.1793331
-3.970747	civil	-0.1705955
-4.482631	civilities	-0.1233369
-3.908599	civility	-0.1629196
-5.084691	civilly	-0.1419692
-4.239593	claim	-0.09133326
-5.084691	claimed	-0.1395608
-5.084691	claiming	-0.1352592
-4.385721	claims	-0.199887
-5.084691	clamorous	-0.141887
-5.084691	clapped	-0.1339105
-5.084691	classed	-0.1310246
-4.239593	clear	-0.2143475
-4.607569	cleared	-0.1268186
-5.084691	clearer	-0.1420014
-5.084691	clearing	-0.1416903
-4.78366	clearly	-0.1282005
-5.084691	clemency	-0.141794
-5.084691	clergyman	-0.1310246
-5.084691	clerk	-0.1282964
-4.385721	clever	-0.1198835
-5.084691	climate	-0.1395824
-5.084691	climbing	-0.1289746
-5.084691	clock	-0.1420014
-5.084691	clogged	-0.1387586
-4.130448	close	-0.3761359
-4.607569	closed	-0.1205599
-5.084691	closely	-0.1419942
-5.084691	closer	-0.1420228
-5.084691	closet	-0.1409172
-4.482631	clothes	-0.1302432
-5.084691	cloud	-0.1402754
-4.78366	clouds	-0.1405623
-5.084691	club	-0.1393631
-5.084691	clue	-0.1413505
-4.482631	coach	-0.2206333
-5.084691	coachmakers	-0.1289746
-5.084691	coachman	-0.1050071
-5.084691	coat	-0.1388306
-5.084691	coats	-0.1408312
-5.084691	cod	-0.1409172
-5.084691	coffee	-0.1417476
-5.084691	coincide	-0.1387586
-3.783661	cold	-0.1446745
-4.78366	coldhearted	-0.1310209
-4.385721	coldness	-0.1547551
-4.78366	colicky	-0.3629578
-4.607569	collect	-0.088618
-4.482631	collected	-0.1392336
-5.084691	collectedmore	-0.14203
-5.084691	collecting	-0.1050071
-5.084691	collection	-0.1298391
-5.084691	colonel	-0.1310246
-4.78366	colonels	-0.104972
-4.043298	colour	-0.1334537
-4.239593	coloured	-0.2372493
-4.482631	colouring	-0.2317342
-4.78366	combat	-0.3548419
-3.176206	come	-0.3619109
-5.084691	comeI	-0.1419799
-5.084691	comeYou	-0.1420014
-5.084691	comefor	-0.1376338
-5.084691	comehow	-0.1414471
-5.084691	comer	-0.1310246
-4.239593	comes	-0.07495627
-5.084691	comeyou	-0.1410927
-3.313839	comfort	-0.3344128
-3.622293	comfortable	-0.2001261
-4.482631	comfortably	-0.2381023
-5.084691	comfortbut	-0.1050071
-5.084691	comforted	-0.1411965
-5.084691	comforter	-0.1298391
-5.084691	comfortno	-0.1353536
-5.084691	comfortnot	-0.1417404
-4.482631	comforts	-0.2133812
-3.528388	coming	-0.3343351
-5.084691	comings	-0.1310246
-4.30654	command	-0.2216303
-4.78366	commanded	-0.1282706
-5.084691	commands	-0.1358069
-4.181601	commendation	-0.1815966
-5.084691	commended	-0.1339105
-5.084691	comment	-0.1050071
-5.084691	comments	-0.1298391
-5.084691	commercial	-0.1420157
-5.084691	commiseration	-0.1379225
-4.482631	commission	-0.1243877
-5.084691	commissioned	-0.1282964
-3.637533	common	-0.1902139
-4.78366	commonest	-0.1417225
-5.084691	commonly	-0.1050071
-4.385721	commonplace	-0.130889
-4.482631	communicate	-0.1151763
-4.385721	communicated	-0.3067637
-4.607569	communicating	-0.08723776
-4.043298	communication	-0.1757663
-4.78366	communicative	-0.1411858
-4.78366	compact	-0.09171058
-3.829418	companion	-0.2097614
-5.084691	companionableness	-0.1282964
-4.30654	companions	-0.1728107
-3.704479	company	-0.2222871
-4.78366	comparative	-0.1420049
-4.607569	comparatively	-0.1359628
-4.607569	compare	-0.2699107
-5.084691	compared	-0.1050071
-5.084691	compares	-0.1368823
-4.005509	comparison	-0.2952472
-4.78366	comparisons	-0.1307936
-5.084691	compass	-0.1416725
-3.829418	compassion	-0.2468289
-5.084691	compassionShe	-0.1418262
-4.385721	compassionate	-0.09745052
-5.084691	compassionfor	-0.1414793
-4.607569	competence	-0.0872337
-4.482631	complacency	-0.09996562
-4.607569	complain	-0.1292911
-4.78366	complained	-0.3507705
-5.084691	complaining	-0.1298391
-4.385721	complaint	-0.174632
-4.78366	complaints	-0.1268075
-4.78366	complaisance	-0.1298795
-4.181601	complete	-0.09053332
-5.084691	completed	-0.1289746
-4.239593	completely	-0.1283886
-5.084691	completelyshut	-0.1416546
-5.084691	completion	-0.1414328
-4.181601	complexion	-0.2270963
-4.607569	compliance	-0.1257069
-5.084691	compliant	-0.1310246
-5.084691	complicated	-0.14203
-4.30654	compliment	-0.1727607
-4.482631	compliments	-0.2133698
-4.78366	composed	-0.1393667
-5.084691	composedly	-0.1395608
-5.084691	composition	-0.1407237
-3.908599	composure	-0.1919686
-5.084691	compound	-0.1419978
-4.181601	comprehend	-0.1207025
-4.607569	comprehended	-0.1320752
-4.482631	comprehension	-0.1864629
-5.084691	comprise	-0.1393631
-5.084691	comprised	-0.1050071
-5.084691	compromise	-0.1310246
-5.084691	compunction	-0.1417011
-4.239593	conceal	-0.1406574
-4.130448	concealed	-0.1836993
-4.482631	concealing	-0.1263928
-4.607569	concealment	-0.1372184
-4.607569	conceit	-0.103998
-5.084691	conceited	-0.1310246
-4.385721	conceive	-0.2051505
-3.704479	concern	-0.2064806
-5.084691	concernWell	-0.1353536
-4.005509	concerned	-0.2029178
-5.084691	concernedColonel	-0.1050071
-4.78366	concerning	-0.1384741
-4.239593	concerns	-0.1156738
-5.084691	concerto	-0.1050071
-5.084691	concession	-0.1417869
-5.084691	concessions	-0.1395608
-5.084691	concessionsbut	-0.1417511
-5.084691	conciliate	-0.1289746
-5.084691	conciliation	-0.1358903
-5.084691	concise	-0.1412288
-4.78366	conclude	-0.1288309
-4.043298	concluded	-0.2475524
-4.607569	concluding	-0.1319838
-4.385721	conclusion	-0.149375
-5.084691	conclusions	-0.1358903
-5.084691	concurrence	-0.1414936
-4.78366	condemnation	-0.3507705
-4.78366	condemned	-0.1313909
-5.084691	condemning	-0.1398949
-4.78366	condescend	-0.3492278
-4.181601	condition	-0.2228895
-5.084691	conditionand	-0.1388306
-5.084691	conditioned	-0.1415473
-5.084691	conditions	-0.1353536
-5.084691	condolence	-0.1282964
-3.553212	conduct	-0.1789734
-5.084691	conductDo	-0.1379946
-4.607569	conducted	-0.2696205
-5.084691	confederacy	-0.1418119
-4.78366	conference	-0.1412216
-4.005509	confess	-0.1323606
-4.607569	confessed	-0.1160421
-5.084691	confessedly	-0.1310246
-4.30654	confession	-0.5899282
-5.084691	confidant	-0.1298391
-5.084691	confidante	-0.1298391
-3.637533	confidence	-0.1834068
-4.607569	confident	-0.1212689
-5.084691	confidential	-0.1419728
-5.084691	confidingeverything	-0.1376843
-4.181601	confined	-0.275052
-4.385721	confinement	-0.1953269
-4.78366	confirm	-0.1353391
-4.78366	confirmation	-0.3507705
-4.78366	confirmed	-0.0993944
-4.607569	confirming	-0.2680939
-5.084691	conform	-0.1282964
-5.084691	conforming	-0.138092
-5.084691	conformity	-0.1298391
-5.084691	confound	-0.1401534
-5.084691	confounded	-0.1050071
-4.78366	confused	-0.1047657
-5.084691	confusedly	-0.1412789
-4.385721	confusion	-0.08686464
-4.482631	congratulate	-0.1955579
-5.084691	congratulated	-0.1339105
-5.084691	congratulating	-0.1411965
-4.78366	congratulations	-0.135437
-4.78366	conjectural	-0.1309952
-4.30654	conjecture	-0.1222873
-4.78366	conjectured	-0.1366978
-4.482631	conjectures	-0.1016827
-5.084691	conjecturing	-0.1407738
-5.084691	conjure	-0.1414829
-5.084691	conjurer	-0.14203
-5.084691	connect	-0.1388306
-4.385721	connected	-0.3558169
-5.084691	connectedShe	-0.1407237
-3.805937	connection	-0.134655
-5.084691	connectionNothing	-0.1050071
-5.084691	connectionbut	-0.1353536
-4.385721	connections	-0.1207888
-5.084691	connectionyou	-0.1419406
-5.084691	conning	-0.1417011
-5.084691	connoisseur	-0.1418548
-5.084691	connoisseurship	-0.1050071
-4.482631	conquest	-0.08969969
-4.78366	conquests	-0.104645
-3.970747	conscience	-0.06809238
-4.78366	conscientious	-0.1413433
-5.084691	conscientiously	-0.1420192
-4.130448	conscious	-0.3719103
-4.043298	consciousness	-1.167077
-3.970747	consent	-0.3232099
-4.482631	consented	-0.2206519
-3.880571	consequence	-0.4578135
-4.78366	consequences	-0.1286909
-4.607569	consequent	-0.1049059
-4.78366	consequently	-0.1412574
-3.783661	consider	-0.2497726
-3.908599	considerable	-0.1943445
-5.084691	considerably	-0.1420228
-4.482631	considerate	-0.1295597
-5.084691	considerately	-0.1420264
-4.043298	consideration	-0.1789822
-4.78366	considerations	-0.1049604
-3.653327	considered	-0.2621814
-4.30654	considering	-0.1770895
-4.78366	considers	-0.1274325
-5.084691	consisted	-0.1298391
-4.78366	consistent	-0.1014395
-5.084691	consists	-0.1298391
-3.970747	consolation	-0.1256045
-5.084691	consolationto	-0.1416081
-4.607569	consoled	-0.1354225
-5.084691	conspicuous	-0.1398087
-5.084691	conspired	-0.1282964
-4.385721	constancy	-0.08563752
-3.762471	constant	-0.1365954
-4.482631	constantly	-0.1350813
-5.084691	constantwhich	-0.1414507
-5.084691	consternation	-0.1358903
-4.78366	constitution	-0.1285103
-5.084691	constitutional	-0.14203
-5.084691	constitutionand	-0.1410569
-5.084691	constrained	-0.1282964
-5.084691	construction	-0.140139
-4.78366	consult	-0.35969
-5.084691	consultation	-0.1368823
-4.78366	consulted	-0.1407989
-5.084691	consumption	-0.14203
-4.482631	contained	-0.2310512
-5.084691	containing	-0.1413576
-4.30654	contempt	-0.1853625
-5.084691	contemptible	-0.1310246
-4.78366	contemptuous	-0.1418298
-5.084691	contemptuously	-0.1390789
-4.78366	contend	-0.1307973
-4.78366	content	-0.1298942
-4.482631	contented	-0.3527164
-4.78366	contenting	-0.3621279
-4.78366	contentment	-0.0930047
-4.482631	contents	-0.3802883
-4.005509	continual	-0.1709826
-5.084691	continually	-0.14203
-4.181601	continuance	-0.2859504
-5.084691	continuanceand	-0.1399811
-5.084691	continuation	-0.1298391
-4.482631	continue	-0.2107373
-3.412593	continued	-0.150061
-5.084691	continuedhe	-0.1419871
-4.239593	continuing	-0.1830031
-4.78366	contracted	-0.1403292
-4.78366	contraction	-0.3507705
-4.78366	contradict	-0.1356655
-4.385721	contradicted	-0.09083499
-5.084691	contradictory	-0.1282964
-4.130448	contrary	-0.1106135
-4.607569	contrast	-0.1397907
-5.084691	contrasted	-0.1418119
-5.084691	contribute	-0.1390789
-4.78366	contributed	-0.3492278
-5.084691	contributing	-0.1393631
-5.084691	contribution	-0.1282964
-4.78366	contrition	-0.1027519
-5.084691	contrivance	-0.1420192
-4.78366	contrived	-0.1389962
-5.084691	contrives	-0.1368823
-5.084691	contriving	-0.14203
-5.084691	controlled	-0.1310246
-4.482631	convenience	-0.07803968
-4.78366	conveniences	-0.1417154
-4.607569	convenient	-0.1279164
-5.084691	conveniently	-0.1418369
-3.566177	conversation	-0.1759148
-5.084691	conversationit	-0.1395824
-5.084691	conversations	-0.1282964
-4.607569	converse	-0.2726504
-4.607569	conversed	-0.5214922
-4.78366	conversing	-0.1365169
-5.084691	convert	-0.1282964
-4.78366	conveyed	-0.09002608
-4.78366	conveying	-0.1267594
-3.805937	conviction	-0.4702537
-4.130448	convince	-0.2587308
-3.653327	convinced	-0.4844583
-4.30654	convincing	-0.08073118
-5.084691	cool	-0.1419335
-4.607569	coolness	-0.1279533
-5.084691	copied	-0.1401534
-4.78366	copy	-0.1311785
-5.084691	copying	-0.1408849
-5.084691	cordial	-0.1310246
-4.30654	cordiality	-0.08163559
-4.78366	cordially	-0.1282595
-5.084691	cordials	-0.1420264
-4.607569	corner	-0.141465
-4.78366	correct	-0.1269814
-5.084691	correctness	-0.1298391
-5.084691	correspond	-0.1408312
-4.607569	correspondence	-0.1031937
-4.30654	cost	-0.1809086
-3.352297	cottage	-0.126802
-5.084691	cottagebut	-0.1420014
-5.084691	cottages	-0.1353536
-5.084691	cottagesand	-0.1403005
-5.084691	couchedIt	-0.1410927
-5.084691	cough	-0.1310246
-2.361235	could	-0.5442309
-5.084691	couldbut	-0.138092
-4.482631	counsel	-0.1223097
-5.084691	counsellor	-0.1298391
-3.686751	countenance	-0.1431758
-5.084691	counter	-0.1400242
-4.607569	counteract	-0.1241904
-5.084691	counteracted	-0.1339105
-5.084691	countless	-0.1050071
-3.607569	country	-0.07852089
-5.084691	countrythe	-0.1419906
-4.482631	county	-0.1225378
-4.084691	couple	-0.3856769
-5.084691	couples	-0.1358069
-4.482631	courage	-0.1256846
-3.607569	course	-0.2607261
-4.78366	court	-0.1357598
-4.78366	courted	-0.1284955
-5.084691	courtesy	-0.1379225
-4.78366	courting	-0.1274029
-4.043298	cousin	-0.06536359
-3.829418	cousins	-0.0993622
-5.084691	covenant	-0.1387766
-4.385721	covered	-0.4120776
-5.084691	covering	-0.1339105
-4.78366	covert	-0.3259385
-4.78366	cows	-0.0930047
-4.607569	coxcomb	-0.1001034
-5.084691	coxcombs	-0.1050071
-5.084691	cramps	-0.1050071
-4.78366	create	-0.1357417
-4.607569	created	-0.1390573
-5.084691	creating	-0.140738
-5.084691	creation	-0.1420157
-3.938563	creature	-0.1463887
-4.607569	creatures	-0.1342526
-4.181601	credit	-0.1129333
-4.78366	creditable	-0.1417261
-5.084691	credulous	-0.1339105
-5.084691	crept	-0.1398087
-3.1982	cried	-0.4692805
-5.084691	cries	-0.1414829
-4.607569	crime	-0.0927806
-5.084691	criminal	-0.1358069
-5.084691	crimsoned	-0.1417011
-4.78366	critical	-0.1401211
-5.084691	critique	-0.1417297
-5.084691	crooked	-0.1420192
-4.78366	cross	-0.1351104
-5.084691	crossing	-0.1289746
-5.084691	crossness	-0.1379946
-4.78366	crowd	-0.3507705
-5.084691	crowned	-0.1368823
-4.239593	cruel	-0.08207886
-5.084691	cruelly	-0.1419692
-5.084691	cruelnothing	-0.1413684
-4.385721	cruelty	-0.1894737
-5.084691	crueltyhe	-0.1416975
-5.084691	crueltywhich	-0.1404261
-4.78366	cry	-0.3624143
-4.385721	crying	-0.1140686
-5.084691	cultivated	-0.1310246
-4.607569	cunning	-0.1298134
-4.482631	curacy	-0.2119587
-5.084691	curate	-0.1298391
-4.78366	cure	-0.1270073
-3.722963	curiosity	-0.1996365
-5.084691	curious	-0.1353536
-4.482631	curricle	-0.3442817
-4.385721	cut	-0.1283628
-5.084691	cutand	-0.1050071
-5.084691	cutlets	-0.1417547
-5.084691	cutting	-0.1289746
-5.084691	cutwhat	-0.1408921
-5.084691	dagger	-0.1282964
-5.084691	daggerswhat	-0.1352592
-4.607569	daily	-0.141937
-5.084691	dairymaid	-0.1395608
-4.78366	damp	-0.1398123
-4.130448	dance	-0.1865903
-5.084691	danced	-0.1403005
-5.084691	dancein	-0.1400242
-5.084691	dances	-0.1405946
-4.385721	dancing	-0.2031274
-3.742268	danger	-0.230567
-4.607569	dangerous	-0.2555981
-3.540623	dare	-1.11195
-4.084691	dared	-0.8228177
-5.084691	dares	-0.1379946
-4.78366	dark	-0.1413254
-5.084691	darker	-0.1050071
-4.78366	darling	-0.1417797
-5.084691	dashing	-0.1415723
-5.084691	date	-0.1413791
-3.579541	daughter	-0.1787393
-5.084691	daughterbetter	-0.1408097
-4.482631	daughterinlaw	-0.1219581
-5.084691	daughterinlaws	-0.1420228
-3.607569	daughters	-0.1344503
-5.084691	dawdled	-0.141676
-5.084691	dawdling	-0.1419049
-5.084691	dawned	-0.1050071
-2.974101	day	-0.209253
-5.084691	dayNo	-0.1404261
-3.451222	days	-0.1385114
-5.084691	daysIn	-0.1352592
-4.482631	dead	-0.1030686
-3.579541	deal	-0.4593421
-5.084691	dealt	-0.1414829
-3.071853	dear	-0.2213682
-5.084691	dearAnd	-0.1379946
-5.084691	dearSure	-0.1385822
-4.30654	dearer	-0.2901376
-4.239593	dearest	-0.1548618
-5.084691	dearly	-0.1420157
-5.084691	dearsaid	-0.1376338
-4.130448	death	-0.3162011
-5.084691	deathNOW	-0.1417869
-5.084691	deathTHAT	-0.1358903
-5.084691	deatha	-0.1403723
-5.084691	deathlike	-0.14203
-5.084691	debate	-0.1418548
-4.607569	debating	-0.1023606
-4.78366	debt	-0.1298795
-5.084691	debts	-0.1310246
-4.607569	decay	-0.07835841
-5.084691	decease	-0.1402754
-4.607569	deceitful	-0.0930007
-5.084691	deceitfulhad	-0.1353536
-4.482631	deceive	-0.08978836
-4.084691	deceived	-0.1932938
-5.084691	deceivedmeeting	-0.1387586
-4.78366	deceiving	-0.1339069
-4.607569	decent	-0.1047229
-5.084691	decently	-0.1420192
-4.78366	deception	-0.1401318
-4.482631	decide	-0.1977698
-4.30654	decided	-0.1144192
-4.78366	deciding	-0.3607401
-4.482631	decision	-0.131746
-5.084691	decisions	-0.1420049
-5.084691	decisive	-0.1419835
-5.084691	decisively	-0.1282964
-4.385721	declaration	-0.1890847
-3.908599	declare	-0.2062521
-3.669717	declared	-0.1739935
-4.78366	declares	-0.1346999
-4.607569	declaring	-0.09701471
-5.084691	decline	-0.1339105
-4.239593	declined	-0.192418
-4.30654	declining	-0.0676683
-4.78366	decorum	-0.1229674
-5.084691	decrease	-0.1298391
-5.084691	decree	-0.1298391
-4.78366	deed	-0.137789
-5.084691	deemed	-0.1420157
-4.385721	deep	-0.211153
-4.607569	deeper	-0.1332947
-4.385721	deeply	-0.1310063
-4.607569	defect	-0.2576319
-5.084691	defective	-0.1379225
-4.78366	defects	-0.1298354
-4.78366	defence	-0.3507705
-5.084691	defenceI	-0.1412144
-4.482631	defend	-0.1315447
-5.084691	defended	-0.1402754
-4.482631	defer	-0.2159526
-4.78366	deference	-0.1377132
-4.78366	deficiencies	-0.09171058
-4.482631	deficiency	-0.2188082
-4.385721	deficient	-0.3233832
-5.084691	define	-0.1050071
-5.084691	defined	-0.1407738
-5.084691	degrade	-0.1282964
-5.084691	degraded	-0.1282964
-3.970747	degree	-0.2191065
-5.084691	degreeam	-0.1353536
-4.30654	degrees	-0.1724419
-5.084691	dejected	-0.1409172
-4.607569	dejection	-0.1176629
-3.908599	delay	-0.1298823
-4.607569	delayed	-0.1261296
-5.084691	delays	-0.1403005
-5.084691	deliberate	-0.1310246
-4.78366	deliberating	-0.1394745
-5.084691	deliberation	-0.1409172
-5.084691	delicacies	-0.1298391
-4.084691	delicacy	-0.3493576
-4.181601	delicate	-0.08504301
-3.722963	delight	-0.2451823
-3.783661	delighted	-0.590716
-3.908599	delightful	-0.1320761
-5.084691	delightfulMy	-0.1417726
-5.084691	delightfullyHow	-0.14203
-5.084691	delineated	-0.1358069
-5.084691	delirium	-0.1398087
-5.084691	deliver	-0.1368823
-4.607569	deliverance	-0.1265113
-4.385721	delivered	-0.1782534
-5.084691	delivery	-0.1353536
-4.78366	demand	-0.139665
-5.084691	demanded	-0.1050071
-4.385721	demands	-0.0902194
-5.084691	demeanor	-0.1310246
-5.084691	demesne	-0.1358069
-5.084691	demonstrations	-0.1298391
-5.084691	demur	-0.1419728
-5.084691	demure	-0.1310246
-4.78366	denial	-0.1358939
-4.385721	denied	-0.1215162
-5.084691	denote	-0.1419656
-5.084691	denoted	-0.1414721
-5.084691	denoting	-0.1339105
-4.239593	deny	-0.1217252
-5.084691	depart	-0.1387586
-5.084691	departed	-0.1282964
-4.78366	departing	-0.1382218
-4.239593	departure	-0.1829297
-4.181601	depend	-0.5154663
-4.130448	depended	-0.2245101
-4.30654	dependence	-0.2795472
-4.482631	dependent	-0.1989537
-4.78366	depending	-0.1396578
-4.607569	depends	-0.1046723
-5.084691	deplorable	-0.1412323
-5.084691	depravity	-0.1298391
-5.084691	depressed	-0.1395608
-4.607569	deprive	-0.2733273
-4.607569	deprived	-0.1210852
-5.084691	derive	-0.1419835
-4.78366	descend	-0.3492278
-5.084691	descendant	-0.1050071
-4.30654	describe	-0.1135195
-4.181601	described	-0.1059788
-5.084691	describedFrom	-0.1289746
-5.084691	describing	-0.1399631
-4.607569	description	-0.1226424
-5.084691	deserted	-0.1310246
-5.084691	desertion	-0.1298391
-5.084691	deserts	-0.1310246
-5.084691	desertsshe	-0.1418441
-4.239593	deserve	-0.2121202
-4.239593	deserved	-0.1058041
-5.084691	deserves	-0.1352592
-4.78366	deserving	-0.3626253
-4.130448	design	-0.2033776
-4.482631	designs	-0.09497252
-5.084691	designsbut	-0.1407738
-4.30654	desirable	-0.09426309
-3.704479	desire	-0.2901541
-4.385721	desired	-0.1139924
-5.084691	desiring	-0.1420192
-4.181601	desirous	-0.4498071
-4.607569	despair	-0.1188481
-5.084691	despairand	-0.1298391
-4.482631	despatch	-0.116118
-5.084691	despatching	-0.1352592
-4.607569	desperate	-0.12823
-4.78366	desperately	-0.1358033
-5.084691	desperation	-0.1400242
-4.78366	despise	-0.3548419
-5.084691	despised	-0.1398949
-5.084691	despising	-0.1405372
-5.084691	despondencebut	-0.1050071
-5.084691	dessert	-0.1310246
-5.084691	destiny	-0.1376591
-5.084691	destroy	-0.1050071
-4.607569	destroyed	-0.137204
-5.084691	destroys	-0.1289746
-4.78366	detail	-0.0930047
-4.482631	detain	-0.2247626
-5.084691	detaining	-0.1405372
-5.084691	detected	-0.1416903
-5.084691	detecting	-0.1420192
-5.084691	detection	-0.1310246
-5.084691	deter	-0.1339105
-5.084691	determinate	-0.1412252
-4.607569	determination	-0.1207926
-4.130448	determine	-0.2102678
-3.461441	determined	-0.3476888
-5.084691	determining	-0.1282964
-5.084691	deterred	-0.1050071
-4.607569	detest	-0.139859
-5.084691	detestably	-0.1408778
-5.084691	detract	-0.1418048
-4.78366	deviation	-0.1378395
-4.482631	devil	-0.1311345
-5.084691	devolved	-0.1398087
-4.482631	devoted	-0.3774548
-5.084691	diabolical	-0.1420014
-4.78366	dictate	-0.1366254
-5.084691	dictateand	-0.1419728
-5.084691	diction	-0.1411178
-2.785838	did	-0.6141628
-5.084691	didI	-0.1419549
-5.084691	didMrs	-0.1050071
-5.084691	didsaid	-0.1390789
-5.084691	didthat	-0.1376338
-4.30654	died	-0.07486871
-5.084691	diedin	-0.1407738
-5.084691	diedit	-0.1402754
-5.084691	dies	-0.1385822
-5.084691	differed	-0.1310246
-3.829418	difference	-0.2742983
-3.653327	different	-0.1222236
-4.78366	differently	-0.1298317
-5.084691	differing	-0.1358069
-4.385721	difficult	-0.2896539
-3.880571	difficulties	-0.1913165
-3.880571	difficulty	-0.18608
-5.084691	difficultyYou	-0.1413218
-4.607569	diffident	-0.09144568
-5.084691	diffuse	-0.1050071
-4.607569	dignified	-0.2651969
-4.482631	dignity	-0.3697895
-5.084691	dilatoriness	-0.1298391
-4.78366	dimensions	-0.1234339
-5.084691	diminished	-0.1410569
-4.78366	diminution	-0.1272957
-4.239593	dine	-0.3743103
-4.482631	dined	-0.2333215
-4.181601	dining	-0.252447
-4.78366	diningroom	-0.1289193
-3.722963	dinner	-0.203628
-4.78366	dinners	-0.1255399
-4.181601	direct	-0.200746
-4.607569	directed	-0.2591138
-5.084691	directing	-0.1339105
-4.130448	direction	-0.176949
-5.084691	directions	-0.1379225
-3.493626	directly	-0.2055876
-4.78366	dirt	-0.1264705
-4.482631	dirty	-0.2211953
-4.78366	disadvantage	-0.3259385
-5.084691	disadvantageBut	-0.1339105
-4.78366	disagreeable	-0.1363974
-5.084691	disagreement	-0.1050071
-5.084691	disagreements	-0.1418083
-4.78366	disappeared	-0.1308853
-4.78366	disappoint	-0.1285951
-3.880571	disappointed	-0.1116497
-4.78366	disappointing	-0.09076662
-3.742268	disappointment	-0.2133398
-4.607569	disappointments	-0.09599879
-5.084691	disapprobation	-0.1298391
-4.78366	disapprove	-0.1277834
-5.084691	disapproved	-0.1408849
-5.084691	disapproves	-0.1050071
-5.084691	disapproving	-0.1353536
-5.084691	disarm	-0.1406305
-5.084691	disastrous	-0.1417726
-5.084691	disbelief	-0.1298391
-5.084691	discarded	-0.1398949
-5.084691	discern	-0.1368823
-5.084691	discerning	-0.1050071
-4.78366	discernment	-0.1298281
-4.607569	discharge	-0.2259086
-4.78366	discharged	-0.1349796
-5.084691	discharging	-0.1401534
-5.084691	disclaiming	-0.1398841
-5.084691	disclosing	-0.1050071
-5.084691	disclosure	-0.1298391
-5.084691	discompose	-0.1385822
-5.084691	discomposed	-0.1298391
-4.78366	discontent	-0.09171058
-5.084691	discontented	-0.1387586
-4.78366	discontents	-0.1044775
-3.854242	discourse	-0.05664039
-4.385721	discover	-0.2505969
-4.239593	discovered	-0.2257738
-4.78366	discovering	-0.1238067
-4.239593	discovery	-0.2504055
-5.084691	discreet	-0.1282964
-4.30654	discretion	-0.1521313
-5.084691	discrimination	-0.1358069
-4.482631	discussion	-0.225879
-5.084691	discussions	-0.1298391
-5.084691	disengagement	-0.1379946
-4.385721	disgrace	-0.1210439
-5.084691	disgraced	-0.1419835
-4.78366	disgraceful	-0.1419585
-4.78366	disgust	-0.134067
-4.607569	disgusted	-0.2704651
-4.78366	disgusting	-0.1418298
-5.084691	dishonorable	-0.14203
-4.78366	disinclination	-0.1240526
-5.084691	disinherited	-0.1289746
-4.78366	disinterested	-0.1416045
-5.084691	disinterestedness	-0.1050071
-4.005509	dislike	-0.2761797
-4.78366	disliked	-0.1402144
-4.607569	disliking	-0.1311638
-5.084691	dismiss	-0.1398949
-4.385721	dismissed	-0.09177881
-5.084691	dismounted	-0.1310246
-5.084691	dismountedshe	-0.1050071
-5.084691	disobedient	-0.1310246
-5.084691	disorder	-0.1282964
-5.084691	disordered	-0.1387766
-5.084691	dispatch	-0.1310246
-5.084691	dispatched	-0.1408097
-5.084691	dispatches	-0.1310246
-5.084691	dispersed	-0.1339105
-5.084691	dispersing	-0.1420121
-5.084691	dispirited	-0.1339105
-4.607569	display	-0.2630952
-4.607569	displayed	-0.1282595
-4.607569	displeased	-0.1352229
-4.607569	displeasure	-0.1203571
-4.385721	disposal	-0.186897
-4.482631	dispose	-0.4806239
-3.938563	disposed	-0.447197
-5.084691	disposing	-0.1298391
-3.805937	disposition	-0.231106
-5.084691	disproportion	-0.1418083
-5.084691	dispute	-0.1339105
-5.084691	disputes	-0.1050071
-5.084691	disqualifications	-0.1379225
-5.084691	disquiet	-0.1310246
-4.78366	disregard	-0.1418798
-4.482631	disregarded	-0.08798711
-5.084691	disrespectfully	-0.1298391
-5.084691	dissatisfaction	-0.1393631
-4.385721	dissatisfied	-0.2826531
-5.084691	dissembling	-0.1417797
-5.084691	dissent	-0.1358903
-5.084691	dissented	-0.1403005
-5.084691	dissimilar	-0.1358069
-4.78366	dissipated	-0.1309146
-4.78366	dissipation	-0.1276837
-5.084691	dissolving	-0.1289746
-4.607569	dissuade	-0.09377612
-4.043298	distance	-0.1974491
-4.130448	distant	-0.1254392
-4.482631	distinction	-0.0931007
-4.482631	distinguish	-0.1300595
-4.482631	distinguished	-0.1872721
-5.084691	distinguishedasthey	-0.1418262
-5.084691	distinguishedwhom	-0.1298391
-4.78366	distinguishing	-0.09076662
-5.084691	distractedly	-0.1419585
-3.704479	distress	-0.1295905
-5.084691	distressbut	-0.1353536
-5.084691	distresscan	-0.1353536
-4.385721	distressed	-0.1135882
-4.482631	distresses	-0.2211209
-4.78366	distressing	-0.0930047
-4.239593	distrust	-0.1688704
-5.084691	distrusts	-0.1388306
-4.385721	disturb	-0.1852528
-4.385721	disturbed	-0.1933481
-4.607569	diverted	-0.2368756
-4.482631	divide	-0.2287507
-4.385721	divided	-0.1214825
-4.607569	dividing	-0.138366
-5.084691	divine	-0.1289746
-5.084691	division	-0.1298391
-5.084691	divorce	-0.1414113
-2.658179	do	-0.3412543
-5.084691	doShe	-0.1420192
-5.084691	doThen	-0.1417476
-5.084691	doand	-0.141744
-5.084691	doat	-0.1417297
-5.084691	doatingly	-0.1419585
-4.607569	doctrine	-0.1222499
-3.431478	does	-0.4001199
-5.084691	doessometimes	-0.1420228
-5.084691	dog	-0.1414113
-5.084691	dogs	-0.1050071
-3.669717	doing	-0.1796362
-5.084691	doingwhat	-0.1376338
-4.239593	domestic	-0.1939721
-3.252182	done	-0.2542393
-5.084691	doneThe	-0.1050071
-3.880571	dont	-0.3417354
-4.78366	doomed	-0.133415
-5.084691	dooming	-0.1414793
-3.622293	door	-0.1936642
-5.084691	doorof	-0.1339105
-4.482631	doors	-0.2229882
-4.78366	doted	-0.1415115
-5.084691	dothe	-0.1420049
-5.084691	doting	-0.1413576
-5.084691	dotted	-0.1417011
-5.084691	doubly	-0.1420157
-3.471907	doubt	-0.2704097
-4.239593	doubted	-0.1640938
-5.084691	doubtednor	-0.1376843
-4.482631	doubtful	-0.1284771
-5.084691	doubther	-0.14203
-4.78366	doubting	-0.1286614
-5.084691	doubtingly	-0.1310246
-5.084691	doubtless	-0.1420157
-4.482631	doubts	-0.1236203
-5.084691	douceur	-0.1358903
-5.084691	dovecote	-0.1413576
-5.084691	dowe	-0.1405946
-3.265147	down	-0.3721941
-5.084691	downMrs	-0.1419764
-4.30654	downs	-0.1454484
-5.084691	drain	-0.1415866
-5.084691	drains	-0.1398087
-4.181601	draw	-0.1681123
-5.084691	drawbackexcept	-0.1289746
-4.043298	drawing	-0.289658
-4.005509	drawingroom	-0.08623382
-5.084691	drawingroomNobody	-0.1358903
-5.084691	drawingroomshe	-0.1419156
-4.607569	drawings	-0.1266446
-4.005509	drawn	-0.1417114
-5.084691	draws	-0.1376843
-4.30654	dread	-0.6859364
-4.482631	dreaded	-0.2201675
-4.043298	dreadful	-0.2073741
-5.084691	dreadfulMy	-0.1419406
-4.78366	dreadfully	-0.139762
-5.084691	dreading	-0.1339105
-5.084691	dreadperhaps	-0.1339105
-5.084691	dream	-0.1298391
-5.084691	dreaming	-0.1407738
-4.239593	dress	-0.07204817
-4.607569	dressed	-0.1228927
-5.084691	dresses	-0.1352592
-4.78366	dressing	-0.1380848
-5.084691	dressingcloset	-0.1310246
-4.78366	dressingroom	-0.1048436
-4.005509	drew	-0.1802826
-4.78366	dried	-0.1416724
-5.084691	drift	-0.1298391
-4.607569	drink	-0.2631357
-4.78366	drinking	-0.116929
-4.385721	drive	-0.1310429
-4.482631	driven	-0.09643958
-5.084691	drives	-0.141794
-4.482631	driving	-0.1343981
-4.385721	droll	-0.09873952
-5.084691	drollall	-0.1415723
-4.78366	drop	-0.1325576
-4.385721	dropped	-0.122833
-5.084691	drops	-0.1415473
-4.482631	dropt	-0.09071837
-4.385721	drove	-0.09286867
-5.084691	drunk	-0.141862
-4.607569	dry	-0.09299269
-5.084691	dryness	-0.1298391
-4.005509	due	-0.5904499
-5.084691	duets	-0.1310246
-4.181601	dull	-0.1240498
-5.084691	dullBut	-0.1353536
-5.084691	dullness	-0.1417654
-5.084691	duly	-0.1419978
-5.084691	dupe	-0.1379225
-5.084691	duration	-0.1420085
-4.084691	during	-0.8193646
-4.482631	duties	-0.123307
-4.084691	duty	-0.1450731
-5.084691	dutyMy	-0.1419549
-5.084691	dwell	-0.1398087
-4.30654	dwelling	-0.1444783
-4.78366	dwelt	-0.1395033
-4.482631	dying	-0.1229599
-5.084691	dyingand	-0.1420192
-3.352297	each	-0.5053615
-5.084691	eachor	-0.1412252
-3.783661	eager	-0.2488762
-3.970747	eagerly	-0.09453335
-4.043298	eagerness	-0.3063627
-4.385721	ear	-0.1165616
-4.607569	earlier	-0.1344054
-5.084691	earlierI	-0.1413326
-4.482631	earliest	-0.1308266
-3.805937	early	-0.271627
-4.607569	earned	-0.1254099
-3.762471	earnest	-0.1536854
-4.043298	earnestly	-0.1517472
-4.239593	earnestness	-0.1235428
-5.084691	earrings	-0.1379225
-4.482631	ears	-0.1269
-4.385721	earth	-0.1013179
-5.084691	earthly	-0.1420085
-3.854242	ease	-0.1729474
-4.78366	easier	-0.1282595
-4.78366	easiest	-0.1412932
-3.653327	easily	-0.1073452
-3.742268	easy	-0.1109766
-4.30654	eat	-0.1992809
-4.607569	eating	-0.2391973
-5.084691	ebullition	-0.1298391
-5.084691	echoed	-0.1387586
-5.084691	eclat	-0.1412288
-5.084691	economical	-0.14203
-5.084691	economically	-0.1419906
-5.084691	economy	-0.1376843
-4.607569	ecstasy	-0.5125727
-5.084691	ecstatic	-0.1419513
-5.084691	edge	-0.1298391
-5.084691	editions	-0.14203
-4.130448	education	-0.1175216
-3.762471	effect	-0.6158032
-5.084691	effected	-0.1417905
-5.084691	effecting	-0.1289746
-4.239593	effects	-0.1716745
-4.78366	effectual	-0.1390717
-5.084691	effectually	-0.14203
-5.084691	efficacy	-0.1298391
-4.181601	effort	-0.06344505
-4.78366	effusion	-0.1282558
-4.78366	effusions	-0.1283591
-4.130448	eight	-0.2196815
-4.385721	eighteen	-0.1653556
-5.084691	eighty	-0.1419978
-3.593329	either	-0.3464409
-5.084691	ejaculation	-0.1050071
-4.482631	elder	-0.2371675
-4.607569	elderly	-0.1415759
-3.783661	eldest	-0.2310478
-5.084691	elect	-0.1050071
-5.084691	election	-0.1310246
-3.854242	elegance	-0.1679352
-5.084691	elegancewant	-0.1298391
-5.084691	elegancewhose	-0.1420157
-4.239593	elegant	-0.2182385
-4.482631	elevated	-0.2195369
-4.78366	eligibility	-0.1298317
-4.239593	eligible	-0.105637
-5.084691	eloping	-0.1417797
-4.385721	eloquence	-0.1630568
-3.451222	else	-0.2435653
-5.084691	elseand	-0.1368823
-5.084691	elseburst	-0.1398087
-4.482631	elsewhere	-0.1936954
-5.084691	elsewhereOh	-0.1050071
-5.084691	elucidation	-0.1379225
-5.084691	em	-0.1414721
-4.78366	embarrassed	-0.1241718
-4.30654	embarrassment	-0.190262
-5.084691	embarrassmentWhether	-0.1390789
-5.084691	embellishment	-0.1298391
-5.084691	embellishments	-0.1298391
-5.084691	embraced	-0.1399811
-5.084691	embraces	-0.1352592
-5.084691	emergence	-0.1050071
-5.084691	emergency	-0.1400242
-5.084691	emigrant	-0.1418798
-5.084691	eminence	-0.1417511
-3.829418	emotion	-0.100091
-5.084691	emotionmy	-0.1417976
-5.084691	emphasis	-0.1398087
-4.482631	employ	-0.1082444
-4.130448	employed	-0.2191
-4.043298	employment	-0.2159313
-4.385721	employments	-0.09811527
-5.084691	emptiness	-0.1298391
-4.385721	enable	-0.2018845
-4.607569	enabled	-0.2659294
-5.084691	enamoured	-0.1417011
-5.084691	enclosure	-0.1298391
-4.482631	encourage	-0.1258998
-4.385721	encouraged	-0.1187124
-3.938563	encouragement	-0.2715882
-5.084691	encouragements	-0.1400242
-4.130448	encouraging	-0.1153006
-5.084691	encroachments	-0.1310246
-5.084691	encumbered	-0.1415866
-3.385721	end	-0.6350863
-5.084691	endear	-0.1368823
-5.084691	endeavor	-0.1282964
-5.084691	endeavoring	-0.1395608
-5.084691	endeavors	-0.1282964
-4.385721	endeavour	-0.3799173
-4.239593	endeavoured	-0.2520375
-4.130448	endeavouring	-1.079986
-4.78366	endeavours	-0.1157044
-4.181601	ended	-0.1896745
-5.084691	ending	-0.1413397
-4.78366	endless	-0.1420121
-5.084691	endowed	-0.1387586
-5.084691	ends	-0.1387586
-5.084691	endthey	-0.1408634
-5.084691	endurance	-0.1298391
-4.78366	endure	-0.1236651
-5.084691	endured	-0.1358069
-5.084691	enemy	-0.1419513
-4.78366	energy	-0.1397835
-5.084691	energyif	-0.1353536
-5.084691	enfeebled	-0.1418334
-4.78366	enforced	-0.3499059
-5.084691	enforcement	-0.1050071
-5.084691	enforcing	-0.1368823
-5.084691	enfranchisement	-0.1403005
-3.970747	engage	-0.181469
-3.504907	engaged	-0.394871
-5.084691	engagedbut	-0.1414721
-3.306539	engagement	-0.2322657
-3.938563	engagements	-0.1686632
-4.30654	engaging	-0.1549768
-5.084691	engross	-0.1393631
-4.607569	engrossed	-0.1291108
-4.239593	enjoy	-0.07354441
-4.482631	enjoyed	-0.1195976
-4.607569	enjoying	-0.1393667
-3.829418	enjoyment	-0.1741928
-5.084691	enjoyments	-0.1395824
-5.084691	enlarge	-0.1405085
-5.084691	enlargement	-0.1298391
-5.084691	enlightened	-0.1398087
-5.084691	ennui	-0.1282964
-5.084691	enormously	-0.1420228
-3.116208	enough	-0.7458251
-5.084691	enoughbut	-0.1050071
-5.084691	enoughfor	-0.1420192
-4.30654	enquire	-0.1870526
-5.084691	enquired	-0.1298391
-4.385721	enquiries	-0.100131
-4.78366	enquiring	-0.1415687
-4.385721	enquiry	-0.09689976
-5.084691	enraged	-0.1418119
-5.084691	enrich	-0.141887
-4.78366	ensued	-0.1404045
-4.607569	ensured	-0.1303864
-5.084691	entanglement	-0.1400242
-4.043298	enter	-0.2905585
-3.566177	entered	-0.4074371
-5.084691	enteredis	-0.1376338
-4.30654	entering	-0.2698406
-5.084691	entertain	-0.1418405
-4.78366	entertained	-0.1327475
-5.084691	entertainment	-0.1298391
-4.78366	enthusiasm	-0.351956
-4.78366	enthusiastic	-0.1419442
-4.78366	entire	-0.1419978
-3.461441	entirely	-0.1184385
-5.084691	entirelynot	-0.1416295
-5.084691	entitled	-0.1282964
-3.908599	entrance	-0.3365293
-4.482631	entreat	-0.09512781
-4.78366	entreated	-0.1313909
-4.30654	entreaties	-0.07858596
-4.385721	entreaty	-0.1066074
-5.084691	entrusted	-0.1358069
-5.084691	entry	-0.1416331
-5.084691	enumeration	-0.1298391
-4.78366	envy	-0.116929
-3.762471	equal	-0.4856228
-5.084691	equality	-0.1310246
-5.084691	equalled	-0.1401534
-3.540623	equally	-0.1271178
-5.084691	equals	-0.1418548
-4.607569	errand	-0.2723513
-4.78366	erred	-0.1355821
-5.084691	erredfor	-0.1050071
-4.482631	error	-0.09954023
-5.084691	errors	-0.1050071
-4.181601	escape	-0.1728171
-4.30654	escaped	-0.3614205
-3.854242	especially	-0.1788628
-4.78366	essential	-0.1420014
-5.084691	establish	-0.1050071
-4.181601	established	-0.1820853
-5.084691	establishing	-0.1388306
-4.239593	establishment	-0.2269439
-3.805937	estate	-0.1294648
-3.880571	esteem	-0.2547234
-4.78366	esteemed	-0.1374099
-5.084691	esteeming	-0.1398949
-4.78366	esteems	-0.1389098
-5.084691	estimable	-0.1412001
-5.084691	estimate	-0.1415687
-4.78366	estimating	-0.1274029
-4.482631	estimation	-0.08816514
-5.084691	estranged	-0.1403005
-5.084691	eternal	-0.1050071
-5.084691	etiquette	-0.1418155
-3.031612	even	-0.1647724
-3.461441	evening	-0.2014641
-5.084691	eveningHad	-0.1390789
-5.084691	eveningI	-0.1420014
-4.607569	evenings	-0.1268704
-3.742268	event	-0.1298011
-4.385721	events	-0.1457144
-4.78366	eventually	-0.1368642
-2.872503	ever	-0.2559389
-5.084691	everHow	-0.1050071
-5.084691	everI	-0.1358903
-5.084691	everlasting	-0.14203
-2.558351	every	-0.5131379
-4.239593	everybody	-0.1524234
-3.938563	everything	-0.08454291
-5.084691	everythingMariannes	-0.1415973
-5.084691	evidence	-0.138092
-4.043298	evident	-0.1714586
-4.78366	evidently	-0.1415866
-4.005509	evil	-0.1210602
-4.78366	evils	-0.1307899
-5.084691	evince	-0.1415687
-4.78366	exact	-0.1398877
-3.669717	exactly	-0.2616675
-5.084691	exactness	-0.1289746
-4.385721	examination	-0.1618277
-4.78366	examine	-0.1300265
-4.78366	examined	-0.133641
-4.607569	examining	-0.1163531
-4.607569	example	-0.1232324
-5.084691	exceed	-0.1289746
-5.084691	exceeded	-0.1376843
-4.607569	exceeding	-0.1044931
-3.686751	exceedingly	-0.1571277
-4.78366	excellence	-0.09171058
-5.084691	excellencies	-0.1298391
-4.043298	excellent	-0.171685
-3.908599	except	-0.1764072
-4.181601	excess	-0.4639198
-4.385721	excessive	-0.1784802
-4.239593	excessively	-0.1009055
-4.385721	exchange	-0.1592569
-5.084691	exchanged	-0.1410569
-4.78366	excite	-0.1048086
-4.30654	excited	-0.1240377
-4.607569	exciting	-0.1354334
-5.084691	exclaim	-0.1358069
-4.130448	exclaimed	-0.3323481
-5.084691	exclaimedImprove	-0.1408312
-5.084691	exclaiming	-0.1418477
-4.482631	exclamation	-0.3785949
-5.084691	exclusively	-0.1050071
-4.482631	excursion	-0.2229141
-5.084691	excursive	-0.14203
-4.005509	excuse	-0.1228902
-5.084691	excuseWhat	-0.1395824
-4.78366	excused	-0.138719
-5.084691	excuses	-0.1050071
-5.084691	execution	-0.1412323
-4.482631	exercise	-0.1261815
-5.084691	exercised	-0.1289746
-5.084691	exercising	-0.1368823
-4.385721	exert	-0.2051027
-5.084691	exerted	-0.1411965
-3.805937	exertion	-0.1604155
-4.607569	exertions	-0.1272957
-5.084691	exertionthey	-0.1413218
-5.084691	exhausted	-0.1418405
-5.084691	exhilarated	-0.1395608
-5.084691	exhilaration	-0.1353536
-5.084691	exigence	-0.1298391
-4.607569	exist	-0.2372901
-5.084691	existed	-0.1418083
-5.084691	existedMariannes	-0.1050071
-4.181601	existence	-0.2441587
-5.084691	exorbitant	-0.1402754
-5.084691	expand	-0.1368823
-5.084691	expatiate	-0.1398087
-3.653327	expect	-0.1227245
-3.722963	expectation	-0.548152
-4.385721	expectations	-0.1498931
-3.553212	expected	-0.1548492
-4.607569	expecting	-0.09071837
-5.084691	expectinginstead	-0.1050071
-5.084691	expects	-0.1385822
-5.084691	expediency	-0.1298391
-4.607569	expedient	-0.1113351
-4.78366	expeditiously	-0.1255993
-5.084691	expel	-0.1403005
-3.970747	expense	-0.3171545
-4.239593	expenses	-0.1395677
-4.482631	expensive	-0.1404189
-5.084691	expensiveness	-0.1395824
-4.482631	experience	-0.1146209
-4.482631	experienced	-0.1326087
-4.78366	experiencing	-0.1249121
-4.239593	explain	-0.1986616
-4.084691	explained	-0.2145354
-4.005509	explanation	-0.1915301
-5.084691	explanations	-0.1419906
-5.084691	explanatory	-0.1298391
-4.78366	expose	-0.1324809
-4.385721	exposed	-0.1613197
-3.938563	express	-0.2243453
-3.938563	expressed	-0.1718997
-4.78366	expressing	-0.3578137
-4.084691	expression	-0.1399471
-4.607569	expressions	-0.2599828
-4.607569	expressive	-0.2639636
-4.607569	expressively	-0.1247894
-4.78366	expressly	-0.1050032
-4.482631	exquisite	-0.2381667
-4.385721	extended	-0.2566358
-5.084691	extending	-0.1289746
-4.607569	extensive	-0.0872337
-4.385721	extent	-0.795862
-5.084691	extentand	-0.1390789
-4.78366	exterior	-0.1049448
-5.084691	external	-0.1418227
-5.084691	extinction	-0.1298391
-5.084691	extinguished	-0.1050071
-5.084691	extolling	-0.1405085
-5.084691	extort	-0.1352592
-5.084691	extorting	-0.1050071
-4.130448	extraordinary	-0.125833
-4.78366	extravagance	-0.1298795
-4.607569	extravagant	-0.1246221
-4.607569	extreme	-0.09142159
-3.970747	extremely	-0.2913611
-5.084691	extremest	-0.1420264
-5.084691	extremity	-0.1379225
-5.084691	extremityIs	-0.1339105
-5.084691	exuberance	-0.1298391
-4.482631	exultation	-0.2219906
-4.78366	exultingly	-0.1035804
-3.938563	eye	-0.229071
-4.78366	eyed	-0.1366037
-4.78366	eyeing	-0.1268593
-3.360415	eyes	-0.1759443
-5.084691	eyeswill	-0.1385822
-5.084691	eyeyour	-0.1418834
-3.742268	face	-0.09629843
-5.084691	faceand	-0.14203
-5.084691	faces	-0.1289746
-4.043298	fact	-0.2560391
-5.084691	facts	-0.138092
-5.084691	fadedworn	-0.1417976
-4.482631	fail	-0.2099975
-4.607569	failed	-0.1256661
-5.084691	failedthe	-0.1420157
-5.084691	failing	-0.1050071
-5.084691	failure	-0.1298391
-4.385721	faint	-0.168263
-5.084691	fainter	-0.1408097
-5.084691	fainting	-0.1420049
-5.084691	faintness	-0.141862
-4.181601	fair	-0.1201602
-5.084691	fairer	-0.1420192
-5.084691	fairly	-0.1419906
-4.385721	faith	-0.09788589
-5.084691	faithful	-0.1282964
-4.78366	faithfully	-0.1048981
-4.30654	fall	-0.1859104
-4.78366	fallen	-0.104571
-4.482631	falling	-0.126226
-4.78366	falls	-0.1354007
-4.607569	false	-0.104972
-4.482631	falsehood	-0.3803877
-5.084691	falsehoodEngaged	-0.1282964
-5.084691	fame	-0.1282964
-5.084691	familiar	-0.1310246
-4.482631	familiarity	-0.3487038
-5.084691	familiarized	-0.1387586
-4.78366	familiarly	-0.125744
-4.607569	families	-0.1349833
-3.209629	family	-0.1803309
-5.084691	familyit	-0.1358903
-5.084691	famous	-0.1385822
-4.084691	fancied	-0.2260077
-5.084691	fanciful	-0.14203
-3.622293	fancy	-0.2476428
-4.607569	fancying	-0.1406663
-3.265147	far	-0.4684204
-4.239593	farewell	-0.1739737
-4.78366	farm	-0.1393487
-5.084691	farmhouse	-0.1408097
-3.394495	farther	-0.1823767
-4.78366	farthest	-0.1420049
-4.607569	fashion	-0.09812316
-5.084691	fashionable	-0.1418334
-4.78366	fashioned	-0.1405659
-4.385721	fast	-0.2554331
-5.084691	faster	-0.1408097
-4.78366	fastidious	-0.1269814
-5.084691	fat	-0.1420228
-4.239593	fate	-0.1611244
-5.084691	fates	-0.1405085
-3.704479	father	-0.09223641
-4.30654	fathers	-0.140401
-4.30654	fatigue	-0.07018012
-5.084691	fatigued	-0.1310246
-4.78366	fatigues	-0.351956
-5.084691	fatiguing	-0.1282964
-4.385721	fault	-0.09045286
-4.607569	faultless	-0.2722683
-4.607569	faults	-0.1286688
-4.78366	faulty	-0.1036741
-3.653327	favour	-0.3112245
-4.30654	favourable	-0.1219506
-3.704479	favourite	-0.1449917
-5.084691	favouriteShe	-0.1050071
-5.084691	favourites	-0.1387586
-5.084691	favouritesWhy	-0.1402754
-3.669717	fear	-0.3090128
-4.005509	feared	-0.1963068
-4.30654	fearful	-0.2870806
-5.084691	fearing	-0.1289746
-4.130448	fears	-0.1705813
-5.084691	feather	-0.1417082
-4.385721	features	-0.1667395
-5.084691	feeble	-0.1050071
-4.78366	feebleness	-0.1234339
-5.084691	feebly	-0.1419978
-5.084691	feed	-0.1339105
-5.084691	feeding	-0.1310246
-3.278511	feel	-0.1566056
-5.084691	feelI	-0.1410927
-3.742268	feeling	-0.09625375
-4.78366	feelingly	-0.1282485
-5.084691	feelingof	-0.1420228
-3.265147	feelings	-0.2425456
-5.084691	feelingso	-0.1417976
-5.084691	feelingsshe	-0.1410533
-5.084691	feelingsurely	-0.1385822
-5.084691	feels	-0.1416546
-4.607569	feet	-0.1023097
-4.78366	feigned	-0.1312554
-5.084691	felicitations	-0.1398087
-4.482631	felicity	-0.08278801
-5.084691	felicityand	-0.1420192
-4.043298	fell	-0.3098632
-4.043298	fellow	-0.146765
-5.084691	fellowI	-0.1050071
-5.084691	fellowto	-0.141465
-3.076091	felt	-0.2615865
-5.084691	felta	-0.1419692
-5.084691	feltbut	-0.1412001
-5.084691	female	-0.14203
-5.084691	females	-0.1410533
-5.084691	femininewas	-0.1368823
-5.084691	fertile	-0.1420085
-4.607569	fervent	-0.1006501
-5.084691	festival	-0.1400242
-4.607569	fetch	-0.1390537
-5.084691	fetches	-0.1418048
-4.78366	fetching	-0.09615371
-4.607569	fettered	-0.2623468
-4.385721	fever	-0.07779118
-4.607569	feverish	-0.138647
-3.227358	few	-0.5457049
-4.78366	fickle	-0.3259385
-5.084691	field	-0.1310246
-4.482631	fifteen	-0.1047385
-4.181601	fifty	-0.2426401
-4.181601	figure	-0.09963085
-4.607569	filigree	-0.1393703
-4.78366	fill	-0.3548419
-4.385721	filled	-0.2751347
-4.385721	finally	-0.2172024
-3.385721	find	-0.2849699
-3.938563	finding	-0.1737159
-5.084691	finds	-0.1368823
-3.686751	fine	-0.1839725
-4.607569	finest	-0.1417583
-4.607569	fingers	-0.08807613
-4.607569	finish	-0.08496561
-4.043298	finished	-0.2047313
-4.78366	finishing	-0.1339069
-5.084691	fir	-0.1289746
-4.043298	fire	-0.142202
-4.607569	firm	-0.1349578
-4.78366	firmer	-0.1416868
-4.482631	firmly	-0.2014678
-4.385721	firmness	-0.1878239
-2.899999	first	-0.1929931
-5.084691	fish	-0.1310246
-4.181601	fit	-0.1151854
-5.084691	fitit	-0.1395824
-4.385721	fitted	-0.2008349
-3.669717	five	-0.4164582
-4.239593	fix	-0.1338027
-3.742268	fixed	-0.436632
-5.084691	fixedBut	-0.1353536
-5.084691	fixedand	-0.1050071
-4.607569	fixing	-0.2658415
-4.607569	flannel	-0.2762208
-5.084691	flaring	-0.14203
-4.482631	flatter	-0.2009381
-4.385721	flattered	-0.3247058
-4.78366	flatteries	-0.1353971
-4.482631	flattering	-0.0886099
-4.385721	flattery	-0.1967873
-5.084691	fled	-0.1403005
-4.78366	flew	-0.1418477
-5.084691	floor	-0.1420157
-5.084691	flourish	-0.1298391
-5.084691	flourishing	-0.1353536
-4.607569	flow	-0.2622546
-5.084691	flowed	-0.1403005
-4.78366	flowergarden	-0.1408455
-5.084691	flowing	-0.1419871
-5.084691	fluctuating	-0.1419549
-5.084691	flushed	-0.1420264
-4.78366	flutter	-0.1313433
-5.084691	fly	-0.1050071
-5.084691	foibles	-0.1352592
-4.78366	folded	-0.1365277
-4.239593	follow	-0.1718439
-3.854242	followed	-0.2017776
-5.084691	followedand	-0.1412001
-4.239593	following	-0.1322215
-4.78366	follows	-0.3259385
-3.938563	folly	-0.2960688
-3.762471	fond	-0.7615412
-4.482631	fondly	-0.1047463
-5.084691	fondness	-0.1298391
-5.084691	food	-0.1379225
-4.607569	fool	-0.1049954
-4.385721	foolish	-0.1640279
-5.084691	foolishbusinessthis	-0.1395824
-5.084691	foolishly	-0.1420192
-4.78366	foot	-0.1264891
-4.78366	footman	-0.3620921
-5.084691	footsteps	-0.1405946
-2.025885	for	-0.5757329
-5.084691	forI	-0.1392732
-5.084691	forbade	-0.1289746
-5.084691	forbear	-0.1419906
-4.482631	forbearance	-0.1015729
-5.084691	forbida	-0.14203
-4.78366	forbidding	-0.1398518
-5.084691	forbore	-0.1050071
-4.130448	force	-0.2252897
-3.722963	forced	-0.4782671
-5.084691	forcibly	-0.1282964
-4.482631	forcing	-0.139248
-4.78366	forebodings	-0.1338522
-5.084691	forego	-0.1289746
-5.084691	foregoing	-0.1419478
-4.78366	forenoon	-0.129015
-5.084691	foreplanned	-0.1358069
-5.084691	foresaw	-0.1352592
-4.482631	foresee	-0.2256986
-5.084691	foreseeing	-0.1393631
-4.78366	foreseen	-0.0930047
-5.084691	foresight	-0.1387766
-5.084691	foretell	-0.1050071
-5.084691	foretold	-0.140738
-4.78366	forfeit	-0.1206012
-5.084691	forfeited	-0.1395608
-5.084691	forfeiting	-0.1339105
-4.78366	forgave	-0.1398697
-4.043298	forget	-0.2043645
-5.084691	forgetting	-0.1050071
-4.181601	forgive	-0.2127217
-4.084691	forgiven	-0.2087213
-4.239593	forgiveness	-0.2500819
-4.043298	forgot	-0.1250566
-4.385721	forgotten	-0.1182371
-4.385721	forlorn	-0.09097971
-3.908599	form	-0.1788651
-4.78366	formal	-0.1418298
-4.607569	formality	-0.1227097
-5.084691	formally	-0.1420157
-3.742268	formed	-0.1324041
-3.637533	former	-0.1307443
-5.084691	formerbut	-0.1379946
-4.482631	formerly	-0.3546699
-4.78366	formidable	-0.1420014
-4.482631	forming	-0.1262001
-4.482631	forms	-0.1833898
-5.084691	forsaking	-0.1405085
-5.084691	forte	-0.1398087
-4.043298	forth	-0.2272847
-5.084691	forthin	-0.1418584
-4.084691	fortitude	-0.2626442
-4.005509	fortnight	-0.1799008
-5.084691	fortnightand	-0.1403184
-4.607569	fortunate	-0.1046294
-4.78366	fortunately	-0.1334807
-3.516489	fortune	-0.1537837
-5.084691	fortuneand	-0.1050071
-4.607569	fortunes	-0.09136939
-4.482631	forty	-0.2008406
-3.829418	forward	-0.2257024
-5.084691	forwarded	-0.1282964
-5.084691	forwarding	-0.1289746
-4.78366	forwards	-0.1379008
-3.252182	found	-0.3161351
-4.482631	foundation	-0.2282423
-5.084691	foundations	-0.138092
-4.239593	founded	-0.3031837
-3.579541	four	-0.272623
-5.084691	fourteen	-0.14203
-5.084691	fourteenth	-0.1419084
-4.78366	fourth	-0.1417726
-5.084691	fowls	-0.1282964
-5.084691	fox	-0.1409172
-4.78366	frame	-0.1228703
-4.385721	frank	-0.06497972
-4.607569	frankness	-0.5137582
-5.084691	frantic	-0.1050071
-4.130448	free	-0.1960481
-5.084691	freeand	-0.1376338
-4.607569	freedom	-0.1166563
-5.084691	freespoken	-0.1050071
-5.084691	frequency	-0.1298391
-4.181601	frequent	-0.1361056
-3.938563	frequently	-0.1103018
-3.970747	fresh	-0.09879477
-5.084691	fretful	-0.1420121
-5.084691	fretted	-0.1310246
-3.403449	friend	-0.1648201
-5.084691	friendand	-0.1413397
-5.084691	friendliest	-0.1418405
-4.78366	friendliness	-0.09171058
-4.239593	friendly	-0.133412
-5.084691	friendnot	-0.1408921
-3.336503	friends	-0.1525634
-5.084691	friendsfrom	-0.1419978
-3.783661	friendship	-0.179258
-5.084691	friendto	-0.1419299
-4.385721	fright	-0.2043556
-5.084691	frighten	-0.1406305
-4.385721	frightened	-0.2092451
-5.084691	frightens	-0.141676
-5.084691	frightful	-0.1420157
-5.084691	frivolous	-0.1420157
-2.399845	from	-0.5332582
-4.607569	front	-0.1111241
-5.084691	frost	-0.1419942
-4.78366	frugality	-0.1310209
-5.084691	fruit	-0.1419728
-5.084691	fruitless	-0.138092
-5.084691	fruittrees	-0.1358069
-5.084691	fulfil	-0.1050071
-4.607569	fulfill	-0.2665839
-4.482631	fulfilled	-0.1360497
-3.637533	full	-0.6684753
-5.084691	fullest	-0.14203
-4.30654	fully	-0.1367774
-5.084691	funeral	-0.1417011
-5.084691	furnished	-0.1050071
-5.084691	furnishing	-0.1405085
-4.130448	furniture	-0.2615951
-5.084691	furniturebut	-0.1412252
-4.30654	further	-0.1666083
-5.084691	fury	-0.1310246
-5.084691	fuss	-0.1415723
-3.686751	future	-0.1604428
-5.084691	futurefor	-0.1413505
-4.30654	gaiety	-0.09530695
-4.78366	gaily	-0.1419871
-4.181601	gain	-0.168131
-3.938563	gained	-0.1459852
-4.607569	gaining	-0.1396219
-5.084691	gales	-0.1298391
-5.084691	gallantry	-0.1419942
-5.084691	galling	-0.1282964
-5.084691	gallop	-0.1398087
-4.30654	game	-0.08038124
-5.084691	gape	-0.1393631
-4.043298	garden	-0.0990531
-5.084691	gardeners	-0.1420264
-5.084691	garret	-0.1419656
-5.084691	garrets	-0.1419549
-4.482631	gate	-0.09099175
-5.084691	gates	-0.1298391
-5.084691	gathered	-0.1403005
-5.084691	gathering	-0.1406842
-3.258616	gave	-0.3415208
-4.043298	gay	-0.1552195
-5.084691	gayAnd	-0.1413218
-5.084691	gaze	-0.14203
-4.78366	gazing	-0.1396794
-3.37712	general	-0.1104322
-4.181601	generally	-0.08568633
-5.084691	generations	-0.1406699
-4.30654	generosity	-0.1226985
-4.482631	generous	-0.1280935
-5.084691	generously	-0.1420228
-5.084691	genial	-0.1417833
-4.482631	genius	-0.08848057
-4.607569	genteel	-0.1371028
-5.084691	genteelly	-0.1310246
-4.78366	gentility	-0.1045671
-4.181601	gentle	-0.1381048
-3.686751	gentleman	-0.06766465
-4.607569	gentlemanlike	-0.09256041
-5.084691	gentlemans	-0.1418906
-4.385721	gentlemen	-0.104828
-4.385721	gentleness	-0.07623469
-5.084691	gently	-0.1376843
-4.482631	genuine	-0.2014833
-5.084691	genuinely	-0.1310246
-3.607569	get	-0.2572511
-5.084691	getGood	-0.1420228
-4.181601	getting	-0.1601302
-5.084691	giddy	-0.1403005
-4.482631	gift	-0.09636019
-5.084691	giggling	-0.138092
-3.566177	girl	-0.1357167
-5.084691	girlI	-0.1410927
-3.908599	girls	-0.1173871
-5.084691	girlshe	-0.1395824
-3.009144	give	-0.3611645
-3.394495	given	-0.2359087
-5.084691	givenbut	-0.1339105
-5.084691	gives	-0.1406305
-3.516489	giving	-0.1895199
-3.471907	glad	-0.8148045
-4.607569	gladly	-0.2700557
-4.607569	glance	-0.2713225
-5.084691	glances	-0.1376338
-4.78366	glass	-0.3507705
-5.084691	glebe	-0.1420157
-4.78366	glimpse	-0.3507705
-5.084691	gloom	-0.1298391
-5.084691	gloomeven	-0.1050071
-5.084691	gloominess	-0.1298391
-4.607569	gloomy	-0.141769
-5.084691	gloried	-0.1358069
-5.084691	gloves	-0.1387586
-5.084691	glow	-0.14203
-5.084691	glowing	-0.1387586
-3.140208	go	-0.3455513
-4.385721	goes	-0.1116724
-3.352297	going	-0.4400896
-5.084691	goingNo	-0.1399811
-5.084691	goings	-0.1298391
-4.78366	gold	-0.1310209
-3.622293	gone	-0.1043497
-5.084691	gonehow	-0.14203
-2.970747	good	-0.2091336
-5.084691	goodThe	-0.1419442
-5.084691	goodat	-0.1418012
-4.607569	goodbreeding	-0.1143506
-5.084691	goodby	-0.1401534
-4.78366	goodfornothing	-0.1390394
-4.607569	goodhearted	-0.2760635
-5.084691	goodhumored	-0.1420264
-4.607569	goodhumoured	-0.1309219
-4.385721	goodnature	-0.2860715
-4.239593	goodnatured	-0.1819633
-4.239593	goodness	-0.1200782
-5.084691	goodnesswith	-0.1352592
