
\data\
ngram 1=6667
ngram 2=17649
ngram 3=20172

\1-grams:
-4.609119	&c	-1.055206
-2.131275	</s>
-1.39631	<COMMA>	-0.7083446
-5.38727	<NON	-0.3391024
-0.3538267	<NONE>	-0.3922151
-1.698673	<PERIOD>	-1.528369
-99	<s>	-1.366792
-3.697074	A	-1.445009
-5.38727	ALL	-0.08836278
-5.38727	ALMOST	-0.08836278
-5.086241	ALWAYS	-0.3750505
-5.38727	AM	-0.08836278
-5.38727	ANY	-0.08836278
-5.38727	ARE	-0.08836278
-5.38727	Abbeyland	-0.08836278
-4.433028	About	-0.7460384
-5.38727	Absence	-0.08836278
-5.38727	Abundance	-0.08836278
-5.38727	Add	-0.08836278
-5.38727	Affecting	-0.08836278
-4.025543	After	-1.12625
-4.785211	Again	-0.4584301
-5.38727	Against	-0.08836278
-4.433028	Ah	-1.010128
-4.273327	All	-0.8921664
-4.131998	Allenham	-0.6595503
-5.38727	Allow	-0.08836278
-5.38727	Almost	-0.08836278
-5.38727	Altogether	-0.3245276
-5.086241	Am	-0.3750505
-5.086241	Among	-0.3750505
-5.086241	Amongst	-0.3750505
-4.688301	An	-0.2719489
-3.238051	And	-2.190763
-4.910149	Annamaria	-0.224747
-4.609119	Anne	-0.3963455
-4.688301	Another	-0.2719489
-5.38727	Anxiety	-0.08836278
-5.38727	April	-0.3245276
-4.433028	Are	-0.7460384
-3.764021	As	-1.379507
-5.38727	Ashamed	-0.08836278
-5.38727	Astonished	-0.08836278
-5.38727	Astonishment	-0.3245276
-3.895909	At	-1.251188
-5.086241	Avignon	-0.05588603
-4.433028	Ay	-0.9822032
-4.542172	Aye	-1.697256
-5.38727	BEEN	-0.08836278
-5.38727	BOTH	-0.08836278
-5.38727	Bad	-0.08836278
-4.609119	Bartlett	-0.8100246
-3.447751	Barton	-1.640902
-5.086241	Bath	-0.3750505
-5.38727	Beautifully	-0.08836278
-4.609119	Because	-0.2029689
-4.910149	Before	-0.4195344
-5.38727	Being	-0.08836278
-5.086241	Believe	-0.3750505
-5.38727	Benevolent	-0.3245276
-4.156822	Berkeley	-1.001311
-5.38727	Besides	-0.08836278
-4.785211	Betty	-0.4584301
-5.38727	Between	-0.08836278
-4.785211	Beyond	-0.4584301
-5.38727	Biddy	-0.08836278
-5.38727	Bishop	-0.3245276
-4.688301	Bond	-0.2719489
-5.38727	Bonomi	-0.08836278
-5.38727	Born	-0.08836278
-3.241143	Brandon	-2.712501
-5.38727	Bristol	-0.3245276
-5.38727	Brown	-0.3245276
-5.38727	Building	-0.3245276
-4.688301	Buildings	-0.2063074
-5.38727	Burgess	-0.3245276
-5.38727	Business	-0.08836278
-2.930905	But	-2.171443
-4.273327	By	-0.8921664
-4.688301	CAN	-0.2719489
-5.38727	CATCHING	-0.08836278
-4.910149	COULD	-0.4195344
-4.542172	Can	-1.461092
-5.38727	Careless	-0.08836278
-4.785211	Careys	-0.2778389
-5.38727	Cartwright	-0.08836278
-5.38727	Casino	-0.08836278
-5.38727	Cassino	-0.3245276
-4.308089	Certainly	-0.7378169
-5.38727	Chagrined	-0.08836278
-4.007059	Charlotte	-0.9268256
-5.38727	Choice	-0.08836278
-5.086241	Christian	-0.3750505
-5.086241	Christmas	-0.3750505
-5.38727	Civil	-0.08836278
-5.38727	Clarke	-0.3335444
-3.955907	Cleveland	-0.7726719
-5.38727	Cold	-0.08836278
-3.156822	Colonel	-2.269192
-5.38727	Columella	-0.08836278
-4.183151	Combe	-1.260006
-4.542172	Come	-0.5707916
-5.38727	Common	-0.3245276
-5.38727	Comparisons	-0.08836278
-5.38727	Concealing	-0.08836278
-5.38727	Concern	-0.08836278
-4.542172	Conduit	-1.461092
-5.38727	Confess	-0.3245276
-5.086241	Consider	-0.6112154
-5.38727	Considering	-0.08836278
-5.38727	Constantia	-0.08836278
-5.38727	Continual	-0.08836278
-5.38727	Conversation	-0.08836278
-4.910149	Cottage	-0.6556993
-4.542172	Could	-1.461092
-5.38727	Court	-0.3245276
-5.086241	Courtland	-0.05588603
-4.785211	Cowper	-0.1588479
-5.38727	Cross	-0.3245276
-5.38727	Cruel	-0.3245276
-4.910149	D	-0.6647161
-5.086241	DEAR	-0.3750505
-4.241143	DID	-0.9700216
-4.609119	DO	-0.8100246
-4.785211	DOES	-0.4584301
-5.38727	DRAW	-0.08836278
-5.38727	Dartford	-0.3335444
-2.991071	Dashwood	-2.094358
-3.843203	Dashwoods	-1.582811
-5.086241	Davies	-0.3750505
-4.785211	Dawlish	-0.2944305
-4.542172	Dear	-0.4088556
-5.38727	Dearest	-0.08836278
-3.955907	Delaford	-1.324157
-5.38727	Dennison	-0.08836278
-5.086241	Depend	-0.3750505
-5.38727	Design	-0.08836278
-5.38727	Determined	-0.08836278
-3.972297	Devonshire	-1.221723
-4.044848	Did	-1.107766
-5.38727	Disappointed	-0.3245276
-5.38727	Disappointment	-0.08836278
-3.989331	Do	-1.161012
-4.433028	Doctor	-0.6055796
-5.086241	Does	-0.3750505
-5.38727	Domestic	-0.08836278
-4.48418	Don	-0.7002809
-4.688301	Donavan	-0.3225196
-4.609119	Dorsetshire	-0.2812201
-5.38727	Down	-0.08836278
-5.086241	Dr	-0.6202322
-5.38727	Drury	-0.08836278
-5.38727	Dullness	-0.08836278
-5.38727	During	-0.08836278
-5.38727	Duty	-0.3245276
-5.38727	EDWARD	-0.08836278
-5.38727	ELINOR	-0.3245276
-5.38727	ESTEEM	-0.08836278
-5.38727	Each	-0.08836278
-5.38727	Eager	-0.08836278
-5.38727	Early	-0.08836278
-4.910149	East	-0.4195344
-5.38727	Easter	-0.08836278
-2.975651	Edward	-2.109719
-2.554762	Elinor	-2.529556
-4.48418	Eliza	-0.2167482
-4.785211	Elliott	-0.2778389
-4.910149	Ellison	-0.224747
-5.086241	Ellisons	-0.05588603
-5.38727	Encouraged	-0.08836278
-5.086241	Engaged	-0.3750505
-5.38727	Engagement	-0.08836278
-4.48418	England	-0.328469
-5.38727	Epicurism	-0.3245276
-5.38727	Esq	-0.3335444
-5.38727	Esteem	-0.08836278
-4.785211	Even	-0.4584301
-4.183151	Every	-0.9764873
-5.38727	Everybody	-0.08836278
-5.38727	Excellent	-0.08836278
-5.38727	Exchange	-0.08836278
-5.086241	Excuse	-0.3750505
-5.38727	Exert	-0.08836278
-4.211179	Exeter	-1.01249
-5.38727	Extend	-0.08836278
-5.38727	Extravagance	-0.08836278
-4.910149	F	-0.2413386
-5.38727	FAITH	-0.08836278
-5.38727	FERRARS	-0.3335444
-3.724513	Fanny	-1.687158
-5.38727	Far	-0.08836278
-5.38727	Farm	-0.3245276
-4.609119	February	-0.2029689
-3.2869	Ferrars	-1.800223
-5.086241	Few	-0.3750505
-5.38727	Fifteen	-0.08836278
-5.086241	Fifty	-0.3750505
-5.086241	Five	-0.3750505
-5.38727	Folly	-0.08836278
-3.955907	For	-1.193196
-5.086241	Forgive	-0.3750505
-4.910149	Fortunately	-0.4195344
-4.609119	Four	-0.8100246
-5.086241	Friday	-0.6112154
-4.241143	From	-0.9221297
-5.38727	Frosts	-0.08836278
-5.38727	GAUCHERIE	-0.08836278
-4.910149	Gardens	-0.224747
-5.38727	Gentleman	-0.08836278
-5.38727	Get	-0.08836278
-5.38727	Gibson	-0.08836278
-5.38727	Gilberts	-0.08836278
-5.38727	Go	-0.08836278
-4.38727	God	-1.055886
-5.38727	Godby	-0.08836278
-5.38727	Going	-0.08836278
-5.38727	Gone	-0.08836278
-4.345878	Good	-0.8252196
-5.38727	Gracious	-0.08836278
-5.38727	Grandeur	-0.08836278
-4.609119	Gray	-0.8100246
-5.38727	Greatness	-0.08836278
-5.086241	Grecian	-0.3750505
-4.38727	Grey	-1.072478
-4.785211	HAD	-0.4584301
-4.785211	HAS	-0.2778389
-4.38727	HE	-1.041544
-3.924873	HER	-0.9681179
-5.38727	HERS	-0.08836278
-4.433028	HIM	-0.3760841
-4.48418	HIS	-0.4450539
-3.989331	Had	-1.161012
-5.38727	Half	-0.08836278
-5.38727	Hamlet	-0.3245276
-5.38727	Hanger	-0.08836278
-5.086241	Hanover	-0.3750505
-4.785211	Happy	-0.2778389
-4.183151	Harley	-0.9764873
-4.38727	Harris	-0.6018094
-4.542172	Harry	-0.5707916
-4.433028	Has	-0.7460384
-4.308089	Have	-0.8599817
-5.38727	Having	-0.08836278
-3.081919	He	-2.361237
-4.785211	Heaven	-0.4584301
-4.910149	Henry	-0.4195344
-5.38727	Henshawe	-0.08836278
-3.462991	Her	-1.675457
-4.308089	Here	-1.120725
-5.086241	Hers	-0.05588603
-5.086241	High	-0.3750505
-3.536012	His	-1.603371
-5.38727	Hitherto	-0.08836278
-5.38727	Holborn	-0.08836278
-5.38727	Holburn	-0.3245276
-5.38727	Hon	-0.3335444
-5.086241	Honiton	-0.6202322
-5.38727	Hope	-0.08836278
-5.38727	Hour	-0.08836278
-5.086241	House	-0.6112154
-3.662995	How	-1.478432
-4.38727	However	-0.8264192
-5.38727	Hum	-0.08836278
-5.38727	Hunters	-0.08836278
-5.38727	Hush	-0.08836278
-2.085373	I	-3.326301
-5.38727	II	-0.08836278
-5.38727	IN	-0.08836278
-5.38727	INconvenience	-0.08836278
-5.086241	IS	-0.3750505
-3.743818	If	-1.553389
-5.38727	Imagine	-0.08836278
-5.38727	Impatient	-0.08836278
-5.38727	Impossible	-0.08836278
-5.38727	Improve	-0.08836278
-5.38727	Impudence	-0.3245276
-3.518039	In	-1.6211
-4.156822	Indeed	-0.9688342
-5.086241	Indies	-0.3750505
-5.38727	Infirmity	-0.08836278
-5.38727	Inn	-0.3245276
-5.38727	Instead	-0.08836278
-5.38727	Invited	-0.08836278
-3.910149	Is	-1.2374
-3.115429	It	-2.020196
-5.38727	JOHN	-0.08836278
-5.38727	James	-0.08836278
-4.609119	January	-0.2812201
-3.018055	Jennings	-2.067488
-3.180445	John	-1.905933
-5.38727	Just	-0.08836278
-5.38727	KNEW	-0.08836278
-5.086241	Kensington	-0.3750505
-5.38727	Kingham	-0.08836278
-5.086241	Know	-0.3750505
-5.38727	Knowing	-0.08836278
-5.086241	L	-0.3750505
-5.38727	LESS	-0.08836278
-5.38727	LET	-0.08836278
-5.38727	LONG	-0.08836278
-5.38727	LOOK	-0.08836278
-5.38727	LOOKED	-0.08836278
-5.38727	LUCY	-0.08836278
-4.910149	La	-0.4195344
-3.391635	Lady	-1.746038
-5.38727	Ladyship	-0.08836278
-5.38727	Lane	-0.08836278
-5.086241	Last	-0.3750505
-5.38727	Laughing	-0.08836278
-5.38727	Law	-0.3245276
-4.910149	Let	-0.4195344
-5.38727	Life	-0.08836278
-4.910149	Like	-0.4195344
-5.086241	Little	-0.3750505
-5.38727	Lodging	-0.08836278
-5.38727	Lombardy	-0.08836278
-3.843203	London	-1.067427
-4.910149	Long	-0.4195344
-4.48418	Longstaple	-0.2891269
-4.910149	Look	-0.224747
-3.924873	Lord	-1.518284
-5.38727	Luckily	-0.08836278
-3.131998	Lucy	-2.821637
-4.785211	M	-0.7036117
-5.38727	MADAM	-0.3245276
-5.086241	MAY	-0.3750505
-4.433028	ME	-0.4915856
-5.38727	MIND	-0.08836278
-5.38727	MONTH	-0.3335444
-4.910149	MUST	-0.4195344
-4.241143	MY	-0.9221297
-4.609119	Ma	-0.8100246
-5.38727	Mab	-0.08836278
-4.910149	Madam	-0.224747
-4.345878	Magna	-0.4952432
-5.086241	Mall	-0.3153765
-4.308089	Mama	-0.9030746
-5.38727	Mansion	-0.08836278
-5.086241	Many	-0.05588603
-4.910149	March	-0.4842374
-3.843203	Margaret	-1.582811
-2.643761	Marianne	-2.440716
-4.910149	Marlborough	-0.2413386
-5.38727	Martha	-0.08836278
-5.086241	Mary	-0.3750505
-5.38727	Master	-0.08836278
-4.785211	May	-0.4584301
-5.086241	Me	-0.05588603
-5.38727	Men	-0.08836278
-4.785211	Michaelmas	-0.1588479
-5.38727	Mid	-0.08836278
-3.37867	Middleton	-1.531959
-4.108517	Middletons	-0.6864279
-5.38727	Midsummer	-0.3245276
-5.38727	Mind	-0.08836278
-5.38727	Mine	-0.08836278
-5.38727	Misery	-0.3245276
-3.069207	Miss	-2.066185
-5.38727	Misses	-0.08836278
-5.38727	Mistress	-0.08836278
-5.086241	Monday	-0.07247761
-5.38727	Months	-0.08836278
-5.38727	More	-0.08836278
-4.156822	Morton	-0.6381234
-5.086241	Most	-0.3750505
-3.136851	Mr	-2.244073
-2.6696	Mrs	-2.709722
-4.910149	Much	-0.4195344
-5.38727	Music	-0.08836278
-5.38727	Must	-0.08836278
-3.58793	My	-1.552218
-4.211179	NOT	-0.9065736
-4.241143	NOW	-0.6531092
-4.542172	Nancy	-0.2665192
-4.542172	Nay	-1.697256
-5.086241	Neither	-0.3750505
-4.688301	Never	-0.2719489
-5.38727	New	-0.08836278
-5.38727	Newton	-0.3245276
-3.484181	No	-1.885345
-4.910149	Nobody	-0.4195344
-5.38727	None	-0.08836278
-4.910149	Nor	-0.4195344
-5.38727	Norfolk	-0.08836278
-3.662995	Norland	-1.247635
-4.065051	Not	-1.088461
-4.108517	Nothing	-1.33464
-5.38727	November	-0.3245276
-4.241143	Now	-1.428614
-5.38727	OCCASION	-0.08836278
-5.38727	ONCE	-0.08836278
-4.308089	ONE	-0.8599817
-5.086241	OUGHT	-0.3750505
-5.38727	OWN	-0.08836278
-4.910149	October	-0.03874275
-4.542172	Of	-1.461092
-5.38727	Offended	-0.08836278
-3.561196	Oh	-1.54607
-4.086241	On	-1.068258
-5.38727	Once	-0.08836278
-4.211179	One	-0.9501584
-4.688301	Only	-0.2719489
-5.38727	Opportunity	-0.08836278
-5.38727	Opposition	-0.08836278
-4.910149	Or	-0.4195344
-5.086241	Other	-0.3750505
-5.38727	Others	-0.08836278
-4.542172	Our	-1.461092
-4.38727	Oxford	-0.4899439
-5.38727	P	-0.3335444
-5.38727	PARTIES	-0.3335444
-5.086241	Pall	-0.3750505
-3.50078	Palmer	-1.779285
-4.38727	Palmers	-0.6713288
-5.38727	Pardon	-0.08836278
-4.044848	Park	-1.050973
-5.38727	Parliament	-0.08836278
-5.38727	Parrys	-0.08836278
-4.785211	Parsonage	-0.2778389
-4.007059	Perhaps	-1.111502
-5.38727	Pity	-0.08836278
-5.38727	Please	-0.08836278
-5.38727	Pleased	-0.08836278
-4.609119	Plymouth	-0.2479823
-3.940113	Poor	-1.208436
-5.38727	Pope	-0.08836278
-5.38727	Portman	-0.08836278
-4.433028	Pratt	-0.6318743
-4.609119	Pray	-0.3870577
-5.38727	Preparation	-0.08836278
-5.38727	Prescriptions	-0.08836278
-5.38727	Priory	-0.3245276
-5.38727	Queen	-0.08836278
-5.38727	Quite	-0.08836278
-5.38727	REALLY	-0.08836278
-4.910149	ROBERT	-0.4195344
-5.38727	Rather	-0.08836278
-5.38727	Reading	-0.08836278
-5.086241	Really	-0.05588603
-5.086241	Recollecting	-0.05588603
-5.38727	Reflection	-0.08836278
-5.38727	Regard	-0.08836278
-5.38727	Relate	-0.08836278
-4.609119	Remember	-0.3870577
-5.086241	Reserved	-0.3750505
-5.38727	Restless	-0.08836278
-5.38727	Richard	-0.08836278
-5.086241	Richardson	-0.3750505
-5.086241	Richardsons	-0.6202322
-3.940113	Robert	-1.485901
-5.38727	Rose	-0.08836278
-5.38727	S	-0.08836278
-5.38727	SHALL	-0.08836278
-4.065051	SHE	-1.363763
-4.785211	SHOULD	-0.2944305
-5.38727	SIR	-0.3245276
-5.38727	SOMETIMES	-0.08836278
-5.086241	STILL	-0.05588603
-5.38727	Sackville	-0.08836278
-5.38727	Sally	-0.08836278
-5.38727	Sandersons	-0.08836278
-5.38727	Saturday	-0.3245276
-5.086241	Scarcely	-0.3750505
-5.38727	Scotland	-0.3335444
-5.086241	Scott	-0.3750505
-5.38727	Secrecy	-0.08836278
-5.38727	Selfish	-0.08836278
-5.086241	September	-0.05588603
-5.38727	Seven	-0.08836278
-5.38727	Shakespeare	-0.3245276
-4.785211	Shall	-0.4584301
-5.38727	Sharpe	-0.08836278
-2.979031	She	-2.464126
-5.38727	Short	-0.08836278
-4.785211	Should	-0.4584301
-5.38727	Shyness	-0.08836278
-5.38727	Simpson	-0.3245276
-5.086241	Since	-0.3750505
-5.38727	Sincerely	-0.08836278
-3.338053	Sir	-1.799117
-5.38727	Sit	-0.08836278
-4.156822	Smith	-1.140385
-3.955907	So	-1.472908
-4.433028	Some	-0.7460384
-5.38727	Somehow	-0.08836278
-5.38727	Somerset	-0.3245276
-4.48418	Somersetshire	-0.3583591
-4.785211	Something	-0.4584301
-4.688301	Sometimes	-0.3391112
-5.38727	Soon	-0.08836278
-5.086241	Sophia	-0.05588603
-5.086241	Sparks	-0.05588603
-5.086241	Square	-0.07247761
-5.38727	St	-0.3335444
-4.910149	Stanhill	-0.224747
-3.807487	Steele	-1.103142
-3.910149	Steeles	-1.501521
-5.38727	Still	-0.08836278
-5.38727	Strange	-0.08836278
-3.734058	Street	-2.219583
-5.38727	Streets	-0.08836278
-4.108517	Such	-1.33464
-5.38727	Sunday	-0.08836278
-5.38727	Supported	-0.08836278
-5.38727	Supposing	-0.08836278
-5.086241	Sure	-0.3750505
-4.910149	Surely	-0.224747
-5.38727	Surprised	-0.08836278
-4.433028	Sussex	-0.3760841
-3.734058	THAT	-1.534908
-5.086241	THEIR	-0.3750505
-4.609119	THEM	-0.2812201
-4.38727	THEN	-0.4899439
-5.38727	THERE	-0.3245276
-5.086241	THESE	-0.3750505
-4.910149	THEY	-0.4195344
-4.688301	THIS	-0.3391112
-5.38727	THREE	-0.08836278
-5.38727	TIME	-0.3245276
-5.38727	TOLD	-0.08836278
-5.38727	TRIED	-0.08836278
-5.38727	TWICE	-0.08836278
-5.38727	TWO	-0.08836278
-5.086241	Take	-0.3750505
-5.086241	Taylor	-0.3750505
-4.48418	Tell	-0.7002809
-5.38727	Temple	-0.3245276
-4.609119	Thank	-0.8100246
-3.785211	That	-1.358822
-3.003455	The	-2.131645
-3.868757	Their	-1.277517
-4.131998	Then	-1.254669
-3.882121	There	-1.415087
-4.609119	These	-0.8100246
-3.447751	They	-1.690521
-5.38727	Think	-0.08836278
-3.616419	This	-1.594746
-4.542172	Thomas	-0.2665192
-5.38727	Thomson	-0.3245276
-5.38727	Those	-0.08836278
-4.308089	Though	-0.8599817
-5.38727	Three	-0.08836278
-5.38727	Thunderbolts	-0.08836278
-4.910149	Thursday	-0.03874275
-5.38727	Thus	-0.08836278
-5.38727	Till	-0.08836278
-5.38727	Time	-0.3245276
-5.38727	Tis	-0.08836278
-3.662995	To	-1.478432
-4.910149	Towards	-0.4195344
-5.38727	Truth	-0.08836278
-4.910149	Tuesday	-0.224747
-4.910149	Twice	-0.4195344
-5.38727	Twill	-0.08836278
-4.542172	Two	-1.461092
-5.38727	US	-0.08836278
-5.38727	Unaccountable	-0.3245276
-4.910149	Undoubtedly	-0.03874275
-5.38727	Ungracious	-0.08836278
-4.38727	Upon	-0.7874311
-5.086241	Use	-0.3750505
-4.910149	VERY	-0.4195344
-5.38727	Valley	-0.08836278
-5.38727	Vanity	-0.3245276
-4.688301	Very	-0.2719489
-5.086241	Volume	-0.3750505
-5.38727	W	-0.08836278
-4.433028	WAS	-0.7460384
-4.910149	WE	-0.4195344
-5.086241	WERE	-0.3750505
-5.38727	WHAT	-0.3245276
-5.38727	WHERE	-0.08836278
-4.688301	WILL	-0.2719489
-5.38727	WILLOUGHBY	-0.3335444
-5.38727	WITHOUT	-0.08836278
-5.38727	WORD	-0.3335444
-4.688301	WOULD	-0.2719489
-5.086241	Wait	-0.3750505
-5.38727	Walker	-0.08836278
-5.38727	Want	-0.08836278
-4.609119	Was	-0.8100246
-5.38727	Watched	-0.08836278
-3.774487	We	-1.369288
-5.086241	Wednesday	-0.05588603
-3.697074	Well	-1.412532
-5.086241	Were	-0.3750505
-5.38727	Westminster	-0.08836278
-4.910149	Westons	-0.4195344
-5.38727	Weymouth	-0.3335444
-3.567727	What	-1.87543
-4.48418	Whatever	-0.7002809
-3.734058	When	-1.408796
-5.086241	Whenever	-0.3750505
-4.609119	Where	-0.2029689
-5.38727	Whereas	-0.3245276
-5.38727	Wherever	-0.08836278
-5.38727	Whether	-0.08836278
-5.38727	Which	-0.3245276
-5.086241	While	-0.3750505
-5.38727	Whitakers	-0.08836278
-4.609119	Whitwell	-0.2812201
-4.433028	Who	-0.7460384
-5.38727	Whoever	-0.08836278
-5.086241	Whom	-0.3750505
-4.007059	Why	-1.379608
-4.785211	Will	-0.4584301
-4.910149	William	-0.224747
-4.542172	Williams	-0.3439401
-5.38727	Willing	-0.08836278
-3.058891	Willoughby	-2.026831
-4.910149	Willoughbys	-0.224747
-4.086241	With	-1.068258
-5.38727	Within	-0.08836278
-5.086241	Without	-0.3750505
-4.910149	Would	-0.4195344
-5.38727	Writing	-0.08836278
-3.972297	YOU	-1.016024
-4.688301	YOUR	-0.2719489
-3.734058	Yes	-1.459963
-4.38727	Yet	-1.041544
-3.280061	You	-2.017146
-3.855792	Your	-1.290106
-5.086241	[At	-0.3750505
-5.086241	]	-0.6257902
-2.081275	a	-3.052249
-5.38727	abandoned	-0.08836278
-5.38727	abatement	-0.08836278
-5.38727	abhor	-0.08836278
-5.086241	abhorred	-0.3750505
-4.785211	abhorrence	-0.2944305
-4.433028	abilities	-0.6055796
-4.910149	ability	-0.4195344
-3.724513	able	-1.718644
-5.38727	ablest	-0.08836278
-4.688301	abode	-0.2063074
-5.38727	abominably	-0.08836278
-5.38727	abounded	-0.08836278
-3.256937	about	-1.73674
-4.086241	above	-1.342574
-5.38727	abridge	-0.08836278
-5.38727	abridgement	-0.3245276
-4.433028	abroad	-1.145666
-4.910149	abruptly	-0.224747
-5.38727	abruptness	-0.3245276
-4.38727	absence	-0.6713288
-4.910149	absent	-0.224747
-4.910149	absolute	-0.4195344
-4.38727	absolutely	-1.072478
-5.38727	abstracted	-0.08836278
-5.38727	abstraction	-0.08836278
-5.38727	abstruse	-0.08836278
-5.086241	absurd	-0.3750505
-4.785211	absurdity	-0.2778389
-5.38727	abundance	-0.3245276
-5.38727	abundantly	-0.08836278
-4.910149	abuse	-0.4195344
-5.38727	abused	-0.08836278
-5.38727	abuses	-0.08836278
-5.38727	acacia	-0.3245276
-5.38727	accelerate	-0.08836278
-5.086241	accent	-0.05588603
-5.38727	accents	-0.3245276
-4.38727	accept	-0.7874311
-4.910149	acceptable	-0.4195344
-5.38727	acceptably	-0.08836278
-4.910149	acceptance	-0.4195344
-4.542172	accepted	-0.3110123
-4.609119	accepting	-0.8100246
-4.688301	accident	-0.3853055
-5.38727	accidental	-0.08836278
-4.688301	accidentally	-0.2719489
-5.38727	accidently	-0.08836278
-4.910149	accommodate	-0.4195344
-5.086241	accommodating	-0.3750505
-4.542172	accommodation	-0.5873832
-5.38727	accommodations	-0.3245276
-5.086241	accompanied	-0.3750505
-4.785211	accompany	-0.4584301
-5.086241	accomplished	-0.05588603
-5.086241	accomplishment	-0.3153765
-5.38727	accordant	-0.08836278
-5.086241	according	-0.3750505
-4.910149	accordingly	-0.03874275
-5.38727	accosted	-0.08836278
-3.743818	account	-1.012346
-5.38727	accounted	-0.08836278
-4.688301	accounts	-0.2509776
-5.38727	accrue	-0.08836278
-5.38727	accurately	-0.08836278
-5.38727	accusation	-0.3245276
-5.38727	accuse	-0.08836278
-5.38727	accustom	-0.08836278
-4.910149	accustomary	-0.4195344
-4.910149	aches	-0.6556993
-5.086241	aching	-0.3750505
-4.308089	acknowledge	-1.151659
-4.345878	acknowledged	-0.7956434
-4.688301	acknowledging	-0.2719489
-4.785211	acknowledgment	-0.2778389
-4.910149	acknowledgments	-0.4842374
-3.581091	acquaintance	-1.509332
-3.972297	acquainted	-1.487451
-5.38727	acquiesced	-0.08836278
-5.086241	acquiescence	-0.07247761
-5.38727	acquired	-0.3245276
-4.910149	acquisition	-0.4195344
-4.785211	acquit	-0.4584301
-5.086241	acquitted	-0.07247761
-5.38727	acquitting	-0.08836278
-4.542172	across	-1.461092
-4.38727	act	-1.055886
-4.785211	acted	-0.3425738
-4.609119	acting	-0.8100246
-4.609119	action	-0.3963455
-4.433028	actions	-0.3483392
-4.433028	active	-0.6055796
-5.086241	acts	-0.3750505
-5.38727	actual	-0.08836278
-4.609119	actually	-0.8100246
-5.38727	acute	-0.08836278
-5.38727	acutely	-0.08836278
-5.086241	acuteness	-0.3750505
-5.38727	adapted	-0.08836278
-4.609119	add	-0.2479823
-3.774487	added	-1.336811
-5.38727	adding	-0.3245276
-4.542172	addition	-0.5873832
-4.785211	additional	-0.4584301
-5.086241	additions	-0.3750505
-4.065051	address	-0.9232704
-4.910149	addressed	-0.4195344
-5.38727	addresses	-0.08836278
-4.785211	addressing	-0.4584301
-5.38727	adequate	-0.08836278
-5.38727	adhering	-0.08836278
-5.086241	adieu	-0.07247761
-5.086241	adieus	-0.3750505
-5.086241	adjoining	-0.3750505
-5.38727	adjusting	-0.08836278
-5.38727	administer	-0.08836278
-5.38727	administering	-0.08836278
-5.38727	admirable	-0.08836278
-4.044848	admiration	-0.8890368
-4.38727	admire	-0.7874311
-4.688301	admired	-0.3853055
-5.38727	admirers	-0.3335444
-4.910149	admires	-0.4195344
-4.910149	admiring	-0.4195344
-5.38727	admission	-0.08836278
-4.609119	admit	-0.2029689
-5.086241	admittance	-0.3750505
-4.688301	admitted	-0.3225196
-4.910149	admitting	-0.4195344
-4.609119	adopt	-0.2195605
-5.086241	adorned	-0.3750505
-4.910149	advance	-0.4195344
-4.433028	advanced	-0.7460384
-5.086241	advancement	-0.3750505
-5.086241	advances	-0.3750505
-5.086241	advancing	-0.05588603
-3.989331	advantage	-0.998991
-4.910149	advantageous	-0.2413386
-4.910149	advantages	-0.2413386
-4.38727	advice	-0.2618706
-4.688301	advisable	-0.3391112
-4.48418	advise	-0.7002809
-4.785211	advised	-0.4584301
-5.086241	affability	-0.3750505
-5.086241	affable	-0.3750505
-3.940113	affair	-1.339951
-4.785211	affairs	-0.2944305
-4.910149	affect	-0.4195344
-4.910149	affectation	-0.224747
-4.48418	affected	-0.8627163
-5.086241	affectedly	-0.07247761
-4.910149	affecting	-0.4195344
-3.506457	affection	-1.863067
-4.044848	affectionate	-1.001058
-5.086241	affectionately	-0.3750505
-4.308089	affections	-1.135067
-5.38727	affects	-0.08836278
-5.38727	affirmative	-0.3335444
-5.38727	affixed	-0.08836278
-5.38727	afflict	-0.08836278
-5.38727	afflicted	-0.08836278
-5.38727	afflicting	-0.08836278
-4.211179	affliction	-0.7678545
-5.38727	afflictions	-0.3245276
-4.910149	affluence	-0.03874275
-4.211179	afford	-0.913804
-4.542172	afforded	-1.461092
-4.910149	affording	-0.4195344
-5.086241	affront	-0.05588603
-5.086241	affronting	-0.3750505
-4.025543	afraid	-1.185621
-3.136851	after	-2.291963
-4.910149	afternoon	-0.4842374
-5.38727	afterward	-0.08836278
-3.910149	afterwards	-1.515864
-3.231935	again	-1.854779
-3.58793	against	-1.552218
-4.131998	age	-0.5965804
-5.38727	ages	-0.08836278
-5.38727	aggrandizement	-0.3335444
-5.38727	aggravation	-0.08836278
-5.38727	agitate	-0.08836278
-5.086241	agitated	-0.05588603
-4.156822	agitation	-0.8646427
-4.211179	ago	-0.4279928
-5.086241	agonies	-0.3750505
-4.48418	agony	-0.2167482
-4.609119	agree	-0.2195605
-3.989331	agreeable	-1.128422
-4.433028	agreed	-0.6055796
-5.38727	agreeing	-0.08836278
-5.086241	agreement	-0.3750505
-4.910149	aid	-0.224747
-5.086241	ailment	-0.3750505
-5.38727	ailments	-0.08836278
-5.38727	aim	-0.08836278
-5.086241	aimed	-0.3750505
-4.131998	air	-0.8018867
-5.086241	alacrity	-0.07247761
-4.131998	alarm	-0.9139082
-4.910149	alarmed	-0.224747
-5.086241	alarming	-0.3750505
-5.38727	alarms	-0.3245276
-5.38727	alienated	-0.08836278
-5.38727	alighted	-0.3245276
-4.48418	alike	-0.2167482
-5.086241	alive	-0.05588603
-2.58177	all	-2.502602
-5.38727	alleged	-0.08836278
-5.38727	alleviation	-0.08836278
-3.989331	allow	-1.135653
-5.086241	allowable	-0.05588603
-4.785211	allowance	-0.2778389
-5.086241	allowances	-0.3750505
-4.156822	allowed	-1.001311
-5.086241	allowing	-0.3750505
-5.38727	alloy	-0.3335444
-4.910149	alluded	-0.4195344
-5.38727	allusion	-0.08836278
-3.473457	almost	-1.665117
-3.882121	alone	-2.071526
-4.38727	along	-0.7377128
-4.910149	aloud	-0.2413386
-5.38727	alphabet	-0.08836278
-3.697074	already	-1.571892
-4.688301	also	-0.3225196
-5.086241	altar	-0.6112154
-5.086241	alter	-0.3750505
-4.211179	alteration	-1.231977
-5.38727	alterations	-0.08836278
-4.542172	altered	-0.5873832
-5.38727	altering	-0.08836278
-5.086241	alternately	-0.3750505
-5.38727	alternative	-0.08836278
-4.688301	although	-0.2719489
-4.241143	altogether	-0.8766105
-3.315388	always	-1.809595
-2.955907	am	-2.413615
-4.345878	amazement	-0.7718751
-5.38727	amazing	-0.08836278
-5.38727	amazingly	-0.08836278
-5.086241	ambition	-0.05588603
-5.38727	amended	-0.3245276
-4.542172	amendment	-0.1615112
-4.609119	amends	-0.8100246
-4.156822	amiable	-0.9322349
-5.38727	amiably	-0.08836278
-5.38727	amidst	-0.08836278
-5.38727	amiss	-0.08836278
-4.131998	among	-1.024792
-4.609119	amongst	-0.8100246
-4.785211	amount	-0.2944305
-5.38727	amounted	-0.08836278
-5.38727	ample	-0.08836278
-4.910149	amply	-0.4195344
-4.785211	amuse	-0.4584301
-4.910149	amused	-0.4195344
-4.241143	amusement	-0.7525344
-5.086241	amusements	-0.3750505
-5.38727	amusing	-0.08836278
-2.858354	an	-2.276238
-5.086241	ancient	-0.3750505
-1.870075	and	-3.230892
-5.086241	anew	-0.3750505
-4.910149	angel	-0.4195344
-4.688301	anger	-0.2509776
-5.38727	angrily	-0.08836278
-4.308089	angry	-0.8096636
-5.086241	anguish	-0.3750505
-4.542172	animated	-1.461092
-5.086241	animating	-0.3750505
-4.910149	animation	-0.224747
-5.38727	ankle	-0.08836278
-5.38727	ankles	-0.3335444
-5.38727	annexed	-0.08836278
-5.086241	annihilation	-0.3750505
-4.688301	announce	-0.2719489
-4.785211	announced	-0.3591654
-4.785211	announcing	-0.4584301
-4.785211	annuities	-0.2778389
-4.785211	annuity	-0.4584301
-5.38727	annum	-0.3245276
-3.523948	another	-1.386681
-3.868757	answer	-0.859822
-5.086241	answerable	-0.07247761
-4.007059	answered	-1.290148
-5.086241	answering	-0.3750505
-5.38727	answers	-0.08836278
-5.38727	anticipate	-0.08836278
-5.086241	anticipated	-0.3750505
-5.38727	anticipating	-0.08836278
-5.38727	anticipation	-0.3245276
-5.38727	anticipations	-0.08836278
-4.156822	anxiety	-0.9681616
-3.924873	anxious	-1.22316
-4.785211	anxiously	-0.2778389
-2.797321	any	-2.248585
-4.345878	anybody	-1.082936
-5.38727	anymore	-0.08836278
-3.989331	anything	-1.128422
-4.785211	apartment	-0.2944305
-5.086241	apartments	-0.3153765
-5.38727	apiece	-0.08836278
-5.38727	apologies	-0.3245276
-4.910149	apologising	-0.224747
-5.38727	apologize	-0.08836278
-5.38727	apologized	-0.08836278
-4.38727	apology	-1.041544
-4.910149	apothecary	-0.03874275
-5.086241	apparent	-0.3750505
-4.785211	apparently	-0.4584301
-5.38727	appeal	-0.08836278
-4.007059	appear	-1.452689
-3.940113	appearance	-1.105793
-5.086241	appearances	-0.05588603
-3.855792	appeared	-0.8727871
-4.609119	appearing	-0.8100246
-5.38727	appeased	-0.3335444
-5.086241	appetite	-0.05588603
-5.38727	appetites	-0.08836278
-5.38727	applauded	-0.3335444
-4.785211	application	-0.3425738
-4.910149	applied	-0.2413386
-5.086241	applying	-0.3750505
-5.38727	appointed	-0.08836278
-4.785211	appointment	-0.2778389
-5.38727	apprehended	-0.08836278
-5.086241	apprehension	-0.3750505
-4.785211	apprehensions	-0.3425738
-5.086241	apprehensive	-0.3750505
-4.785211	approach	-0.2778389
-4.910149	approached	-0.224747
-4.910149	approaching	-0.2413386
-4.273327	approbation	-0.7725789
-5.38727	appropriate	-0.08836278
-4.48418	approve	-0.4450539
-4.910149	approved	-0.2413386
-5.38727	apricot	-0.08836278
-5.38727	aptitude	-0.08836278
-5.086241	arbour	-0.05588603
-5.38727	archness	-0.08836278
-5.086241	ardent	-0.3750505
-4.910149	ardour	-0.224747
-3.037023	are	-1.956654
-5.38727	argue	-0.08836278
-4.910149	argument	-0.4195344
-4.785211	arguments	-0.2778389
-4.542172	arise	-0.5873832
-5.086241	arisen	-0.3750505
-4.910149	arm	-0.224747
-4.785211	arms	-0.3425738
-5.38727	army	-0.3335444
-4.433028	arose	-0.2651632
-4.433028	around	-1.02672
-4.48418	arranged	-0.8461248
-4.688301	arrangement	-0.2719489
-4.910149	arrangements	-0.2413386
-5.086241	arranging	-0.3750505
-3.843203	arrival	-1.436861
-5.38727	arrive	-0.3245276
-4.065051	arrived	-0.6911129
-5.38727	arrives	-0.08836278
-5.086241	arriving	-0.3750505
-5.086241	art	-0.3750505
-5.086241	artful	-0.3153765
-5.086241	article	-0.3750505
-5.38727	articulate	-0.08836278
-5.38727	articulation	-0.3245276
-5.38727	artificial	-0.3245276
-5.38727	artless	-0.3245276
-5.38727	artlessness	-0.3245276
-2.324313	as	-2.886851
-5.086241	ascended	-0.3750505
-5.38727	ascending	-0.08836278
-5.086241	ascertain	-0.3750505
-5.086241	ascertained	-0.3750505
-5.38727	ash	-0.3245276
-4.48418	ashamed	-0.7002809
-4.785211	aside	-0.6945949
-3.830968	ask	-1.214938
-4.044848	asked	-1.107766
-4.688301	asking	-0.2719489
-4.910149	asleep	-0.224747
-5.086241	aspect	-0.07247761
-5.086241	assembled	-0.3750505
-5.38727	assemblies	-0.3245276
-4.785211	assent	-0.1588479
-5.086241	assented	-0.3750505
-5.38727	asserted	-0.08836278
-4.48418	assertion	-0.2167482
-5.38727	assertions	-0.3335444
-5.086241	assiduities	-0.05588603
-5.38727	assiduous	-0.08836278
-5.086241	assigned	-0.3750505
-4.273327	assist	-0.8921664
-4.273327	assistance	-0.6703321
-4.609119	assisted	-0.8100246
-5.38727	assisting	-0.08836278
-5.38727	associate	-0.08836278
-5.38727	associating	-0.08836278
-5.38727	assuage	-0.08836278
-4.241143	assurance	-1.056064
-4.38727	assurances	-1.041544
-3.882121	assure	-1.264552
-3.972297	assured	-1.177402
-5.086241	assuring	-0.3750505
-4.308089	astonished	-0.8599817
-4.785211	astonishing	-0.2778389
-4.156822	astonishment	-1.054342
-5.38727	astray	-0.3335444
-5.38727	asunder	-0.08836278
-2.486903	at	-2.552968
-4.910149	ate	-0.224747
-5.086241	atmosphere	-0.3153765
-5.086241	atone	-0.3750505
-5.38727	atoned	-0.08836278
-4.910149	atonement	-0.4195344
-5.38727	atoning	-0.08836278
-4.688301	attach	-0.2719489
-4.38727	attached	-0.7874311
-4.785211	attaching	-0.2778389
-3.895909	attachment	-1.406151
-5.086241	attachments	-0.3153765
-4.910149	attack	-0.224747
-5.38727	attacked	-0.08836278
-5.38727	attacks	-0.3245276
-5.086241	attainable	-0.3153765
-5.086241	attained	-0.6112154
-4.156822	attempt	-1.286335
-4.345878	attempted	-0.7791055
-4.48418	attempting	-0.7002809
-5.086241	attempts	-0.3750505
-4.345878	attend	-0.8252196
-4.785211	attendance	-0.2778389
-5.38727	attendant	-0.08836278
-5.086241	attendants	-0.07247761
-4.131998	attended	-1.024792
-4.38727	attending	-0.7874311
-3.623842	attention	-1.745682
-4.48418	attentions	-0.6220192
-4.542172	attentive	-0.1615112
-4.910149	attentively	-0.4195344
-4.785211	attitude	-0.3425738
-4.910149	attract	-0.4195344
-4.910149	attracted	-0.4195344
-4.910149	attraction	-0.224747
-4.609119	attractions	-0.2812201
-5.086241	attractive	-0.3750505
-4.688301	attribute	-0.2719489
-4.785211	attributed	-0.4584301
-5.086241	attributing	-0.3750505
-5.38727	audacity	-0.3335444
-5.086241	audible	-0.3750505
-5.38727	auditors	-0.3245276
-5.38727	augment	-0.08836278
-5.38727	augmented	-0.08836278
-5.38727	augmenting	-0.08836278
-5.38727	aunt	-0.08836278
-5.38727	auspicious	-0.3335444
-5.38727	auspiciously	-0.08836278
-5.38727	author	-0.08836278
-4.910149	authorised	-0.4195344
-4.785211	authority	-0.1588479
-5.086241	authors	-0.3750505
-5.086241	autumn	-0.3153765
-4.910149	avail	-0.2413386
-5.38727	availed	-0.08836278
-5.086241	avarice	-0.3750505
-4.065051	avoid	-1.052702
-4.542172	avoided	-1.461092
-4.910149	avoiding	-0.224747
-5.086241	avowal	-0.3750505
-5.38727	await	-0.08836278
-5.38727	awaited	-0.08836278
-5.086241	awake	-0.3750505
-5.38727	awaken	-0.08836278
-4.785211	awakened	-0.2778389
-5.38727	awakening	-0.08836278
-5.38727	awaking	-0.3245276
-4.183151	aware	-1.260006
-3.338053	away	-1.749497
-4.910149	awful	-0.4195344
-5.38727	awhile	-0.08836278
-4.910149	awkward	-0.4195344
-5.38727	awkwardness	-0.3335444
-5.38727	awoke	-0.08836278
-5.38727	ay	-0.3245276
-4.48418	aye	-0.9364457
-4.910149	baby	-0.4195344
-4.910149	bachelor	-0.03874275
-3.785211	back	-1.494853
-5.086241	backwardness	-0.3750505
-5.38727	backwards	-0.08836278
-4.345878	bad	-0.9679208
-5.38727	badness	-0.08836278
-5.38727	bags	-0.08836278
-5.38727	ball	-0.3335444
-4.910149	balls	-0.4195344
-5.38727	banditti	-0.08836278
-5.38727	banish	-0.08836278
-4.910149	banished	-0.4195344
-5.38727	bank	-0.08836278
-5.38727	banker	-0.08836278
-5.38727	banns	-0.08836278
-5.086241	barbarous	-0.3750505
-5.38727	barbarously	-0.08836278
-5.086241	bargain	-0.3153765
-5.086241	barouche	-0.07247761
-5.38727	barouches	-0.3335444
-5.38727	bashful	-0.3245276
-5.38727	basis	-0.08836278
-4.609119	basket	-0.2029689
-5.38727	bathed	-0.08836278
-2.277692	be	-2.806335
-5.38727	beamed	-0.08836278
-4.025543	bear	-1.434206
-5.38727	bearing	-0.08836278
-5.38727	bears	-0.08836278
-5.38727	beasts	-0.08836278
-5.38727	beat	-0.08836278
-4.38727	beau	-0.2394721
-4.785211	beauties	-0.4584301
-4.308089	beautiful	-1.120725
-5.38727	beautifully	-0.08836278
-4.086241	beauty	-1.325431
-4.433028	beaux	-0.8861754
-4.211179	became	-0.9501584
-3.609119	because	-1.318653
-4.131998	become	-1.024792
-4.910149	becoming	-0.2413386
-3.955907	bed	-1.413617
-5.38727	bedchamber	-0.3245276
-5.38727	bedroom	-0.3335444
-5.38727	bedrooms	-0.08836278
-5.38727	beds	-0.08836278
-5.38727	bee	-0.08836278
-5.38727	beef	-0.08836278
-2.745796	been	-2.665875
-5.38727	befall	-0.08836278
-5.38727	befallen	-0.08836278
-5.38727	befalls	-0.08836278
-5.38727	befell	-0.08836278
-3.092804	before	-1.993083
-4.38727	beg	-1.041544
-3.764021	began	-0.8455781
-4.542172	begged	-0.5707916
-4.785211	begging	-0.4584301
-4.542172	begin	-0.5873832
-4.345878	beginning	-0.8252196
-5.38727	begins	-0.08836278
-4.542172	begun	-0.3110123
-4.785211	behave	-0.4584301
-4.38727	behaved	-0.7377128
-3.581091	behaviour	-1.329539
-4.910149	beheld	-0.224747
-4.156822	behind	-1.145239
-5.38727	behold	-0.08836278
-5.38727	beholding	-0.08836278
-3.175083	being	-2.284666
-5.38727	beings	-0.3245276
-4.542172	belief	-1.461092
-3.437881	believe	-1.472749
-3.924873	believed	-0.8700724
-5.38727	believes	-0.08836278
-4.48418	believing	-0.7002809
-5.086241	bell	-0.05588603
-5.38727	belonged	-0.08836278
-4.48418	belonging	-0.7002809
-5.38727	belongs	-0.08836278
-4.609119	beloved	-0.2195605
-5.38727	below	-0.08836278
-5.38727	bely	-0.08836278
-5.086241	beneath	-0.3750505
-5.38727	benefactress	-0.08836278
-5.38727	beneficial	-0.08836278
-4.785211	benefit	-0.4584301
-4.910149	benefited	-0.4195344
-4.910149	benevolence	-0.224747
-5.38727	benignant	-0.08836278
-4.688301	bent	-0.2719489
-5.38727	bequeath	-0.08836278
-5.38727	bequeathed	-0.08836278
-5.38727	bequest	-0.3335444
-5.38727	beset	-0.08836278
-4.308089	besides	-1.120725
-5.086241	bespeak	-0.3750505
-5.38727	bespoke	-0.08836278
-4.007059	best	-1.110694
-4.433028	bestow	-1.010128
-4.542172	bestowed	-0.5707916
-4.910149	bestowing	-0.4195344
-5.38727	betray	-0.08836278
-4.609119	betrayed	-0.8100246
-4.688301	betraying	-0.2719489
-3.495176	better	-1.594045
-3.594879	between	-1.545379
-5.086241	bewitching	-0.3750505
-3.764021	beyond	-1.695727
-5.38727	bias	-0.08836278
-5.38727	biased	-0.08836278
-4.785211	bid	-0.4584301
-5.38727	bidding	-0.08836278
-5.086241	bide	-0.3750505
-5.38727	bigger	-0.08836278
-5.38727	billiard	-0.08836278
-5.38727	billiards	-0.3245276
-5.38727	bind	-0.08836278
-5.086241	bit	-0.3750505
-5.38727	bitch	-0.08836278
-5.086241	bitter	-0.3750505
-5.086241	bitterly	-0.3750505
-5.38727	bitterness	-0.08836278
-5.38727	black	-0.08836278
-5.38727	blackest	-0.08836278
-5.38727	blackguard	-0.08836278
-4.910149	blamable	-0.6556993
-4.688301	blame	-0.3225196
-5.38727	blameable	-0.3245276
-5.38727	blamed	-0.3245276
-5.38727	blameless	-0.3335444
-5.38727	blank	-0.08836278
-5.38727	blast	-0.08836278
-5.38727	blasted	-0.08836278
-4.688301	bless	-0.2719489
-4.910149	blessed	-0.4195344
-4.688301	blessing	-0.2063074
-5.086241	blessings	-0.3750505
-5.38727	blights	-0.3245276
-4.688301	blind	-0.2719489
-5.38727	blinded	-0.08836278
-5.38727	blindly	-0.08836278
-5.38727	bliss	-0.08836278
-5.38727	blockhead	-0.3245276
-5.086241	blood	-0.05588603
-4.910149	bloom	-0.4195344
-5.38727	blooming	-0.3245276
-5.38727	blossoms	-0.3335444
-4.542172	blow	-0.2665192
-5.38727	blown	-0.08836278
-5.38727	blue	-0.08836278
-5.38727	blunder	-0.08836278
-5.38727	blundered	-0.08836278
-5.38727	blunt	-0.08836278
-5.38727	bluntly	-0.08836278
-5.38727	blush	-0.08836278
-4.688301	blushed	-0.2719489
-5.38727	blushes	-0.08836278
-5.38727	blushing	-0.3245276
-5.38727	bluster	-0.08836278
-4.785211	board	-0.2778389
-4.910149	boast	-0.4195344
-5.38727	boasting	-0.08836278
-5.38727	bodily	-0.08836278
-3.671267	body	-1.221724
-5.38727	boiled	-0.08836278
-5.38727	boisterous	-0.08836278
-4.910149	bold	-0.4195344
-5.086241	bolder	-0.3750505
-5.38727	boldly	-0.08836278
-5.38727	bones	-0.08836278
-5.38727	bonnet	-0.3245276
-4.48418	book	-0.3651224
-4.38727	books	-0.4899439
-5.38727	booksellers	-0.3245276
-4.785211	bore	-0.4584301
-5.38727	born	-0.3245276
-4.38727	borne	-0.7377128
-5.38727	borrow	-0.08836278
-5.38727	borrowed	-0.08836278
-3.423483	both	-2.530162
-5.086241	bottom	-0.3750505
-5.38727	bottoms	-0.08836278
-4.609119	bound	-0.2195605
-5.38727	bout	-0.3335444
-4.609119	bow	-0.2029689
-4.785211	bowed	-0.2778389
-5.38727	bowing	-0.08836278
-5.38727	bowling	-0.08836278
-4.609119	boy	-0.8100246
-5.38727	boyish	-0.08836278
-4.785211	boys	-0.3591654
-5.38727	branch	-0.08836278
-5.38727	branched	-0.08836278
-5.38727	braving	-0.08836278
-4.688301	breach	-0.3391112
-5.38727	break	-0.08836278
-4.108517	breakfast	-1.009236
-5.38727	breakfasting	-0.08836278
-4.688301	breaking	-0.2719489
-5.38727	breast	-0.08836278
-5.086241	breath	-0.3153765
-5.38727	breathing	-0.08836278
-4.48418	bred	-0.328469
-4.688301	breeding	-0.3225196
-5.38727	bribing	-0.08836278
-4.609119	brief	-0.3963455
-5.38727	briefly	-0.08836278
-5.38727	bright	-0.3245276
-5.38727	brightened	-0.08836278
-5.38727	brighter	-0.08836278
-5.086241	brightness	-0.3750505
-5.38727	brilliancy	-0.3245276
-5.086241	brilliant	-0.3750505
-4.156822	bring	-1.001311
-4.38727	bringing	-0.7874311
-5.086241	brings	-0.3750505
-5.38727	broad	-0.08836278
-5.38727	broader	-0.08836278
-4.609119	broke	-0.2195605
-4.345878	broken	-0.7791055
-5.38727	brood	-0.3245276
-5.38727	brooding	-0.08836278
-3.473457	brother	-1.615497
-5.38727	brothers	-0.08836278
-3.631396	brought	-1.665811
-5.086241	brow	-0.07247761
-5.086241	brown	-0.05588603
-5.38727	bruised	-0.08836278
-5.38727	brush	-0.08836278
-4.609119	build	-0.2029689
-4.785211	building	-0.1588479
-4.910149	built	-0.2413386
-5.38727	bulk	-0.08836278
-5.38727	burnt	-0.08836278
-4.308089	burst	-0.8599817
-5.38727	bursts	-0.08836278
-5.38727	bury	-0.08836278
-4.910149	busily	-0.4195344
-3.734058	business	-1.635466
-4.910149	bustle	-0.224747
-4.542172	busy	-0.5707916
-2.611296	but	-2.490262
-5.38727	butcher	-0.08836278
-4.48418	buy	-0.7002809
-5.38727	buying	-0.08836278
-2.525736	by	-2.514135
-4.688301	bye	-0.6282043
-5.38727	calculate	-0.08836278
-4.688301	calculated	-0.2719489
-5.38727	calculation	-0.08836278
-3.843203	call	-1.585612
-3.753802	called	-1.457362
-4.273327	calling	-0.8921664
-5.086241	calls	-0.3750505
-4.156822	calm	-0.8646427
-5.086241	calmer	-0.3750505
-5.38727	calming	-0.08836278
-4.48418	calmly	-0.8627163
-4.156822	calmness	-0.8315
-3.437881	came	-1.679873
-3.073403	can	-1.948061
-5.086241	canal	-0.05588603
-4.910149	candid	-0.2413386
-5.38727	candidly	-0.08836278
-5.38727	candlelight	-0.3335444
-5.38727	candles	-0.08836278
-5.086241	candour	-0.3153765
-3.437881	cannot	-1.608026
-5.38727	cant	-0.08836278
-5.38727	canvassing	-0.08836278
-4.910149	cap	-0.4195344
-5.38727	capability	-0.08836278
-4.131998	capable	-1.024792
-5.38727	caprice	-0.3245276
-5.38727	captivate	-0.08836278
-4.910149	captivating	-0.4195344
-4.241143	card	-1.204263
-4.48418	cards	-0.3583591
-3.868757	care	-1.542915
-4.609119	careful	-0.2029689
-4.785211	carefully	-0.4584301
-5.38727	carefulness	-0.08836278
-4.910149	careless	-0.4195344
-5.38727	carelessly	-0.08836278
-5.086241	carelessness	-0.05588603
-4.688301	cares	-0.3225196
-5.38727	caresses	-0.08836278
-5.38727	caressing	-0.08836278
-5.38727	caricature	-0.08836278
-5.086241	carpet	-0.3750505
-3.774487	carriage	-1.419534
-4.785211	carriages	-0.4584301
-4.183151	carried	-0.9764873
-5.086241	carries	-0.3750505
-4.688301	carry	-0.2719489
-4.48418	carrying	-0.7002809
-3.830968	case	-1.449095
-5.38727	casement	-0.08836278
-4.910149	cases	-0.4195344
-5.38727	cash	-0.08836278
-4.688301	cast	-0.2719489
-5.38727	casts	-0.08836278
-4.910149	catch	-0.4195344
-4.48418	catching	-0.7002809
-5.38727	cats	-0.3335444
-4.345878	caught	-0.8252196
-4.241143	cause	-1.428614
-5.38727	caused	-0.08836278
-4.542172	caution	-0.2665192
-5.086241	cautious	-0.3750505
-5.38727	cautiously	-0.3245276
-5.38727	cautiousness	-0.08836278
-5.38727	cavil	-0.3245276
-4.688301	cease	-0.2063074
-4.38727	ceased	-1.055886
-5.086241	ceasing	-0.3750505
-5.38727	ceiling	-0.08836278
-5.38727	celebrated	-0.08836278
-5.38727	celebration	-0.08836278
-4.308089	censure	-0.7378169
-5.086241	censured	-0.3750505
-5.38727	centered	-0.08836278
-5.086241	centre	-0.05588603
-4.542172	ceremony	-0.3110123
-3.882121	certain	-0.9128245
-3.697074	certainly	-1.445009
-5.38727	certainties	-0.08836278
-4.785211	certainty	-0.4584301
-5.38727	cessation	-0.08836278
-5.38727	chained	-0.08836278
-4.433028	chair	-0.3760841
-5.38727	chairs	-0.3245276
-4.542172	chaise	-0.5707916
-4.910149	chamber	-0.224747
-5.38727	chambers	-0.08836278
-4.065051	chance	-1.052702
-4.910149	chanced	-0.4195344
-3.924873	change	-1.121033
-4.48418	changed	-0.7002809
-5.38727	changes	-0.08836278
-5.38727	changing	-0.08836278
-5.38727	chaperon	-0.08836278
-3.868757	character	-1.411308
-4.785211	characters	-0.2778389
-4.433028	charge	-0.9027669
-5.38727	charged	-0.08836278
-5.086241	chariot	-0.6112154
-5.086241	charity	-0.05588603
-4.910149	charm	-0.2413386
-5.086241	charmed	-0.05588603
-4.156822	charming	-1.001311
-4.609119	charms	-0.8100246
-4.910149	chat	-0.6556993
-5.38727	chatty	-0.3245276
-5.38727	cheap	-0.08836278
-5.38727	cheat	-0.08836278
-5.086241	cheated	-0.3750505
-4.785211	check	-0.4584301
-4.688301	checked	-0.2719489
-4.910149	checking	-0.4195344
-5.086241	cheek	-0.05588603
-4.910149	cheeks	-0.2413386
-5.38727	cheered	-0.08836278
-4.241143	cheerful	-0.8047637
-5.38727	cheerfuller	-0.08836278
-4.241143	cheerfulness	-0.521489
-5.086241	cheerless	-0.3750505
-5.086241	cherished	-0.3153765
-5.38727	cherishing	-0.08836278
-5.38727	cherries	-0.08836278
-5.38727	chicken	-0.08836278
-4.542172	chief	-1.461092
-4.542172	chiefly	-1.461092
-3.785211	child	-1.40881
-3.868757	children	-1.10318
-5.38727	chimney	-0.08836278
-4.785211	china	-0.2778389
-4.38727	choice	-0.4899439
-5.38727	choked	-0.08836278
-4.910149	choose	-0.4195344
-4.542172	chose	-0.1615112
-5.38727	chosen	-0.08836278
-5.38727	chuckle	-0.08836278
-4.542172	church	-0.2665192
-4.542172	chuse	-1.461092
-4.910149	chusing	-0.4195344
-5.086241	circle	-0.3750505
-5.38727	circles	-0.3245276
-5.38727	circuit	-0.08836278
-5.38727	circumspection	-0.08836278
-4.108517	circumstance	-1.18869
-5.38727	circumstanced	-0.08836278
-3.924873	circumstances	-1.199505
-5.38727	city	-0.08836278
-4.211179	civil	-0.834727
-4.785211	civilities	-0.3425738
-4.183151	civility	-0.7446221
-5.38727	civilly	-0.08836278
-4.542172	claim	-1.461092
-5.38727	claimed	-0.08836278
-5.38727	claiming	-0.08836278
-4.688301	claims	-0.3391112
-5.38727	clamorous	-0.08836278
-5.38727	clapped	-0.08836278
-5.38727	classed	-0.08836278
-4.433028	clear	-1.010128
-4.910149	cleared	-0.4195344
-5.38727	clearer	-0.08836278
-5.38727	clearing	-0.08836278
-4.910149	clearly	-0.4195344
-5.38727	clergyman	-0.3245276
-5.38727	clerk	-0.08836278
-4.688301	clever	-0.2063074
-5.38727	climate	-0.08836278
-5.38727	climbing	-0.08836278
-4.241143	clock	-0.5538024
-5.38727	clogged	-0.08836278
-4.433028	close	-0.7460384
-4.910149	closed	-0.224747
-5.38727	closely	-0.08836278
-5.38727	closer	-0.08836278
-5.086241	closet	-0.05588603
-5.38727	closing	-0.08836278
-4.785211	clothes	-0.1588479
-5.38727	cloud	-0.08836278
-4.910149	clouds	-0.4195344
-5.38727	club	-0.08836278
-5.38727	clue	-0.3245276
-4.785211	coach	-0.1588479
-5.38727	coachmaker	-0.08836278
-5.38727	coachman	-0.3335444
-5.086241	coat	-0.05588603
-5.38727	coats	-0.08836278
-5.38727	cod	-0.3245276
-5.38727	coffee	-0.08836278
-5.38727	coincide	-0.08836278
-4.025543	cold	-0.90223
-5.38727	colder	-0.08836278
-4.688301	coldness	-0.3225196
-5.086241	colicky	-0.3750505
-5.38727	collation	-0.3335444
-4.785211	collect	-0.4584301
-4.688301	collected	-0.3225196
-5.38727	collecting	-0.08836278
-5.38727	collection	-0.08836278
-4.910149	colonel	-0.224747
-4.345878	colour	-0.2020388
-4.542172	coloured	-0.4088556
-4.785211	colouring	-0.2944305
-5.086241	combat	-0.3750505
-3.409547	come	-1.859418
-5.38727	comer	-0.3245276
-4.48418	comes	-0.7002809
-3.58793	comfort	-1.606091
-3.910149	comfortable	-0.8813991
-4.688301	comfortably	-0.2719489
-5.38727	comforted	-0.08836278
-5.38727	comforter	-0.08836278
-4.785211	comforts	-0.4584301
-3.819069	coming	-1.478138
-5.38727	comings	-0.08836278
-4.241143	command	-1.187672
-5.086241	commanded	-0.05588603
-5.38727	commands	-0.08836278
-4.48418	commendation	-0.3583591
-5.38727	commended	-0.08836278
-5.38727	comment	-0.3335444
-5.38727	comments	-0.08836278
-5.38727	commercial	-0.08836278
-5.38727	commiseration	-0.08836278
-4.785211	commission	-0.4584301
-5.38727	commissioned	-0.08836278
-3.843203	common	-1.150475
-5.086241	commonest	-0.3750505
-5.38727	commonly	-0.08836278
-4.609119	communicate	-0.3963455
-4.609119	communicated	-0.8100246
-4.910149	communicating	-0.4195344
-4.345878	communication	-0.7791055
-5.086241	communicative	-0.07247761
-5.086241	compact	-0.3750505
-4.108517	companion	-0.8705167
-5.38727	companionableness	-0.08836278
-4.609119	companions	-0.412937
-3.940113	company	-1.485901
-5.086241	comparative	-0.3750505
-4.910149	comparatively	-0.4195344
-4.910149	compare	-0.4195344
-5.38727	compared	-0.08836278
-5.38727	compares	-0.08836278
-4.308089	comparison	-0.9891179
-5.086241	comparisons	-0.05588603
-5.38727	compass	-0.3335444
-4.086241	compassion	-0.9536306
-4.688301	compassionate	-0.3391112
-4.910149	competence	-0.224747
-4.688301	complacency	-0.2063074
-4.910149	complain	-0.224747
-4.910149	complained	-0.4195344
-5.38727	complaining	-0.08836278
-4.688301	complaint	-0.2063074
-5.086241	complaints	-0.3750505
-5.086241	complaisance	-0.3750505
-4.542172	complete	-0.5873832
-5.38727	completed	-0.08836278
-4.48418	completely	-0.7002809
-5.38727	completion	-0.3245276
-4.433028	complexion	-0.8861754
-4.910149	compliance	-0.224747
-5.38727	compliant	-0.3245276
-5.38727	complicated	-0.08836278
-4.609119	compliment	-0.2029689
-4.785211	compliments	-0.4584301
-4.785211	composed	-0.2778389
-5.38727	composedly	-0.08836278
-5.38727	composition	-0.3245276
-4.156822	composure	-0.5993426
-5.086241	compound	-0.3750505
-4.48418	comprehend	-0.4450539
-5.086241	comprehended	-0.3750505
-4.785211	comprehension	-0.3591654
-5.38727	comprise	-0.08836278
-5.38727	comprised	-0.08836278
-5.38727	compromise	-0.08836278
-5.38727	compunction	-0.08836278
-4.48418	conceal	-0.8461248
-4.433028	concealed	-0.7460384
-4.785211	concealing	-0.4584301
-4.688301	concealment	-0.3687139
-4.910149	conceit	-0.224747
-5.38727	conceited	-0.08836278
-4.688301	conceive	-0.2719489
-3.955907	concern	-1.168471
-4.241143	concerned	-0.521489
-5.086241	concerning	-0.3750505
-4.48418	concerns	-0.328469
-5.38727	concerto	-0.08836278
-5.38727	concession	-0.08836278
-5.086241	concessions	-0.3750505
-5.38727	conciliate	-0.08836278
-5.38727	conciliation	-0.08836278
-5.38727	concise	-0.3335444
-5.086241	conclude	-0.3750505
-4.345878	concluded	-1.097279
-4.910149	concluding	-0.4195344
-4.688301	conclusion	-0.2063074
-5.38727	conclusions	-0.08836278
-5.38727	concurrence	-0.08836278
-5.086241	condemnation	-0.3750505
-5.086241	condemned	-0.3750505
-5.38727	condemning	-0.08836278
-5.086241	condescend	-0.3750505
-4.38727	condition	-0.4899439
-5.38727	conditioned	-0.3245276
-5.38727	conditions	-0.3335444
-5.38727	condolence	-0.08836278
-3.843203	conduct	-1.568469
-4.785211	conducted	-0.4584301
-5.086241	conference	-0.3750505
-4.308089	confess	-0.5820297
-4.910149	confessed	-0.224747
-5.38727	confessedly	-0.08836278
-4.609119	confession	-0.2195605
-5.38727	confidant	-0.08836278
-5.38727	confidante	-0.3245276
-3.895909	confidence	-1.406151
-4.910149	confident	-0.4195344
-5.38727	confidential	-0.08836278
-5.38727	confiding	-0.08836278
-4.433028	confined	-1.010128
-4.688301	confinement	-0.3225196
-4.910149	confirm	-0.4195344
-5.086241	confirmation	-0.3750505
-5.086241	confirmed	-0.3750505
-4.910149	confirming	-0.4195344
-5.38727	conform	-0.08836278
-5.38727	conforming	-0.3245276
-5.38727	conformity	-0.08836278
-5.38727	confound	-0.08836278
-5.38727	confounded	-0.3335444
-5.086241	confused	-0.6112154
-5.38727	confusedly	-0.3245276
-4.609119	confusion	-0.2195605
-4.688301	congratulate	-0.2719489
-5.38727	congratulated	-0.08836278
-5.38727	congratulating	-0.08836278
-5.086241	congratulations	-0.05588603
-5.086241	conjectural	-0.3750505
-4.609119	conjecture	-0.2812201
-4.910149	conjectured	-0.4195344
-4.785211	conjectures	-0.1588479
-5.38727	conjecturing	-0.08836278
-5.38727	conjure	-0.08836278
-5.38727	conjurer	-0.3245276
-5.38727	connect	-0.08836278
-4.609119	connected	-0.412937
-4.044848	connection	-0.9766167
-4.688301	connections	-0.2509776
-5.38727	conning	-0.08836278
-5.38727	connoisseur	-0.3335444
-5.38727	connoisseurship	-0.3245276
-4.785211	conquest	-0.3425738
-5.086241	conquests	-0.07247761
-4.273327	conscience	-0.8373138
-5.086241	conscientious	-0.05588603
-5.38727	conscientiously	-0.08836278
-4.433028	conscious	-0.7460384
-4.308089	consciousness	-1.135067
-4.345878	consent	-0.7956434
-4.785211	consented	-0.1588479
-4.108517	consequence	-0.9313541
-5.086241	consequences	-0.05588603
-4.910149	consequent	-0.4195344
-5.086241	consequently	-0.3750505
-4.086241	consider	-1.356916
-4.241143	considerable	-0.8838409
-5.38727	considerably	-0.08836278
-4.785211	considerate	-0.4584301
-5.38727	considerately	-0.08836278
-4.308089	consideration	-0.6818034
-5.086241	considerations	-0.05588603
-3.989331	considered	-1.128422
-4.609119	considering	-0.8100246
-5.086241	considers	-0.3750505
-5.38727	consisted	-0.08836278
-5.38727	consistency	-0.3245276
-5.086241	consistent	-0.07247761
-5.38727	consists	-0.08836278
-4.241143	consolation	-0.8766105
-5.086241	consoled	-0.3750505
-5.38727	conspicuous	-0.08836278
-5.38727	conspired	-0.08836278
-4.688301	constancy	-0.3687139
-4.086241	constant	-1.356916
-4.688301	constantly	-0.2719489
-5.38727	consternation	-0.08836278
-4.910149	constitution	-0.224747
-5.38727	constrained	-0.08836278
-5.38727	construction	-0.08836278
-5.086241	consult	-0.3750505
-5.38727	consultation	-0.08836278
-5.086241	consulted	-0.3750505
-5.38727	consumption	-0.3245276
-4.785211	contained	-0.4584301
-5.38727	containing	-0.08836278
-4.609119	contempt	-0.2812201
-5.38727	contemptible	-0.08836278
-5.086241	contemptuous	-0.3750505
-5.38727	contemptuously	-0.3245276
-5.086241	contend	-0.05588603
-5.086241	content	-0.3750505
-4.910149	contented	-0.2413386
-5.086241	contenting	-0.3750505
-4.910149	contentment	-0.2413386
-4.785211	contents	-0.2944305
-4.308089	continual	-0.8599817
-4.433028	continuance	-0.8861754
-5.38727	continuation	-0.08836278
-4.785211	continue	-0.4584301
-3.639082	continued	-1.786931
-4.542172	continuing	-1.461092
-5.38727	contracted	-0.08836278
-5.086241	contraction	-0.3750505
-5.086241	contradict	-0.3750505
-4.688301	contradicted	-0.3225196
-5.38727	contradictory	-0.08836278
-4.345878	contrary	-1.082936
-4.910149	contrast	-0.4195344
-5.38727	contrasted	-0.08836278
-5.38727	contribute	-0.3245276
-5.086241	contributed	-0.3750505
-5.38727	contributing	-0.3245276
-5.38727	contribution	-0.08836278
-5.086241	contrition	-0.05588603
-5.38727	contrivance	-0.08836278
-5.086241	contrived	-0.3750505
-5.38727	contrives	-0.08836278
-5.38727	contriving	-0.08836278
-5.38727	control	-0.3335444
-5.38727	controlled	-0.3245276
-4.688301	convenience	-0.3225196
-5.086241	conveniences	-0.05588603
-4.910149	convenient	-0.4195344
-5.38727	conveniently	-0.08836278
-3.796206	conversation	-1.114423
-5.38727	conversations	-0.08836278
-4.910149	converse	-0.4195344
-4.910149	conversed	-0.4195344
-4.910149	conversing	-0.4195344
-5.38727	convert	-0.08836278
-4.910149	conveyed	-0.4195344
-5.086241	conveying	-0.3750505
-4.086241	conviction	-0.9536306
-4.433028	convince	-0.7460384
-3.895909	convinced	-0.8956396
-4.609119	convincing	-0.8100246
-5.38727	cool	-0.3245276
-5.086241	coolness	-0.05588603
-5.38727	copied	-0.08836278
-5.086241	copy	-0.05588603
-5.38727	copying	-0.08836278
-5.38727	cordial	-0.3245276
-4.609119	cordiality	-0.2812201
-5.38727	cordially	-0.08836278
-5.38727	cordials	-0.08836278
-4.910149	corner	-0.4195344
-5.086241	correct	-0.05588603
-5.38727	correctness	-0.08836278
-5.086241	correspond	-0.6112154
-4.785211	correspondence	-0.2778389
-4.609119	cost	-0.2029689
-5.38727	cote	-0.3245276
-3.639082	cottage	-1.730442
-5.38727	cottages	-0.3335444
-5.38727	couched	-0.08836278
-5.38727	cough	-0.3245276
-2.638308	could	-2.641756
-4.785211	counsel	-0.2778389
-5.38727	counsellor	-0.08836278
-3.940113	countenance	-1.099758
-5.38727	counter	-0.08836278
-5.086241	counteract	-0.05588603
-5.38727	counteracted	-0.08836278
-5.38727	countless	-0.08836278
-3.868757	country	-1.325264
-4.785211	county	-0.2778389
-4.308089	couple	-0.9891179
-5.38727	couples	-0.08836278
-4.785211	courage	-0.2778389
-3.924873	course	-1.501141
-4.910149	court	-0.4195344
-5.086241	courted	-0.3750505
-5.38727	courtesy	-0.3245276
-5.086241	courting	-0.3750505
-4.273327	cousin	-0.9378368
-4.156822	cousins	-1.054342
-5.38727	covenant	-0.08836278
-4.688301	covered	-0.2719489
-5.38727	covering	-0.08836278
-5.086241	covert	-0.3153765
-5.086241	cows	-0.3153765
-4.910149	coxcomb	-0.2413386
-5.38727	coxcombs	-0.3335444
-5.38727	cramps	-0.3245276
-5.086241	create	-0.3750505
-4.910149	created	-0.2413386
-5.38727	creating	-0.08836278
-5.38727	creation	-0.3245276
-4.241143	creature	-0.8047637
-4.910149	creatures	-0.224747
-4.48418	credit	-0.8627163
-5.086241	creditable	-0.3750505
-5.38727	credulous	-0.08836278
-5.38727	crept	-0.08836278
-3.447751	cried	-1.963918
-5.38727	cries	-0.08836278
-4.910149	crime	-0.224747
-5.38727	criminal	-0.08836278
-5.086241	crimsoned	-0.3750505
-5.086241	critical	-0.3750505
-5.38727	critique	-0.08836278
-5.086241	crooked	-0.3153765
-5.086241	cross	-0.3750505
-5.38727	crossing	-0.08836278
-5.38727	crossness	-0.08836278
-4.910149	crowd	-0.224747
-5.38727	crowned	-0.08836278
-4.48418	cruel	-0.7002809
-5.38727	cruelly	-0.08836278
-4.542172	cruelty	-0.3110123
-5.086241	cry	-0.3750505
-4.688301	crying	-0.2063074
-5.38727	cultivated	-0.08836278
-4.910149	cunning	-0.4195344
-4.785211	curacy	-0.2778389
-5.38727	curate	-0.08836278
-5.086241	cure	-0.3750505
-4.007059	curiosity	-1.143978
-5.38727	curious	-0.3335444
-4.785211	curricle	-0.2778389
-5.38727	curtsying	-0.08836278
-4.609119	cut	-0.8100246
-5.38727	cutlets	-0.3335444
-5.38727	cutting	-0.08836278
-4.785211	d	-0.4584301
-5.38727	dagger	-0.08836278
-5.38727	daggers	-0.08836278
-4.785211	daily	-0.4584301
-5.38727	dairy	-0.08836278
-5.086241	damp	-0.3750505
-4.273327	dance	-0.8444257
-5.38727	danced	-0.08836278
-5.38727	dances	-0.3245276
-4.785211	dancing	-0.2944305
-4.044848	danger	-1.001058
-4.910149	dangerous	-0.4195344
-3.830968	dare	-1.31424
-4.345878	dared	-0.8252196
-5.38727	dares	-0.08836278
-5.086241	dark	-0.05588603
-5.38727	darker	-0.3335444
-5.38727	darling	-0.08836278
-5.086241	dashing	-0.3750505
-5.38727	date	-0.3335444
-3.734058	daughter	-1.635466
-3.955907	daughters	-0.9170689
-5.38727	dawdled	-0.08836278
-5.38727	dawdling	-0.08836278
-5.38727	dawned	-0.3335444
-3.214084	day	-1.872509
-3.743818	days	-1.667853
-4.785211	dead	-0.2778389
-3.868757	deal	-1.5744
-5.38727	dealt	-0.08836278
-3.349844	dear	-2.603807
-4.609119	dearer	-0.2195605
-4.48418	dearest	-0.8461248
-5.38727	dearly	-0.08836278
-4.273327	death	-0.7665438
-5.38727	debate	-0.3335444
-5.38727	debated	-0.08836278
-4.910149	debating	-0.4195344
-5.086241	debt	-0.3750505
-5.38727	debts	-0.08836278
-4.910149	decay	-0.224747
-5.38727	decease	-0.08836278
-4.785211	deceitful	-0.4584301
-4.785211	deceive	-0.3425738
-4.345878	deceived	-0.7791055
-5.086241	deceiving	-0.3750505
-4.910149	decent	-0.4195344
-5.38727	decently	-0.08836278
-5.086241	deception	-0.3750505
-4.785211	decide	-0.4584301
-4.609119	decided	-0.2479823
-5.086241	deciding	-0.3750505
-4.785211	decision	-0.3425738
-5.38727	decisions	-0.3245276
-5.38727	decisive	-0.08836278
-5.38727	decisively	-0.08836278
-4.688301	declaration	-0.3687139
-4.183151	declare	-1.245664
-3.955907	declared	-1.503841
-5.086241	declares	-0.3750505
-4.910149	declaring	-0.4195344
-5.38727	decline	-0.08836278
-4.542172	declined	-0.3110123
-4.609119	declining	-0.8100246
-5.086241	decorum	-0.3750505
-5.38727	decrease	-0.08836278
-5.38727	decree	-0.08836278
-5.086241	deed	-0.3750505
-5.38727	deemed	-0.08836278
-4.688301	deep	-0.2719489
-4.910149	deeper	-0.4195344
-5.38727	deepest	-0.08836278
-4.688301	deeply	-0.3225196
-4.910149	defect	-0.4195344
-5.38727	defective	-0.3245276
-5.086241	defects	-0.07247761
-4.910149	defence	-0.4195344
-4.785211	defend	-0.2778389
-5.38727	defended	-0.08836278
-4.785211	defer	-0.4584301
-5.086241	deference	-0.3750505
-5.086241	deficiencies	-0.05588603
-4.785211	deficiency	-0.2778389
-4.688301	deficient	-0.3391112
-5.38727	define	-0.08836278
-5.38727	defined	-0.08836278
-5.38727	defy	-0.08836278
-5.38727	degrade	-0.08836278
-5.38727	degraded	-0.08836278
-4.273327	degree	-0.7725789
-4.688301	degrees	-0.3687139
-5.38727	dejected	-0.08836278
-4.910149	dejection	-0.03874275
-4.211179	delay	-0.7771421
-4.785211	delayed	-0.4584301
-5.38727	delays	-0.08836278
-5.38727	deliberate	-0.08836278
-5.086241	deliberating	-0.3750505
-5.38727	deliberation	-0.08836278
-5.38727	delicacies	-0.08836278
-4.38727	delicacy	-0.2618706
-4.433028	delicate	-1.010128
-4.025543	delight	-0.9959217
-4.086241	delighted	-1.342574
-4.108517	delightful	-1.009236
-5.38727	delightfully	-0.08836278
-5.38727	delineated	-0.08836278
-5.38727	delirium	-0.08836278
-5.38727	deliver	-0.08836278
-4.910149	deliverance	-0.2413386
-4.688301	delivered	-0.2719489
-5.38727	delivery	-0.3245276
-4.910149	demand	-0.4195344
-5.38727	demanded	-0.08836278
-4.688301	demands	-0.3391112
-5.38727	demeanor	-0.3245276
-5.38727	demesne	-0.08836278
-5.38727	demonstrations	-0.08836278
-5.38727	demur	-0.08836278
-5.38727	demure	-0.08836278
-4.910149	denial	-0.4195344
-4.688301	denied	-0.3225196
-5.38727	denote	-0.08836278
-5.38727	denoted	-0.08836278
-5.38727	denoting	-0.08836278
-4.48418	deny	-0.2891269
-5.38727	depart	-0.08836278
-4.910149	departed	-0.224747
-5.086241	departing	-0.3750505
-4.542172	departure	-0.3041887
-4.48418	depend	-0.7002809
-4.48418	depended	-0.8461248
-4.542172	dependence	-0.5873832
-4.785211	dependent	-0.4584301
-5.086241	depending	-0.3750505
-4.910149	depends	-0.2413386
-5.38727	deplorable	-0.3335444
-5.38727	depravity	-0.08836278
-5.38727	depressed	-0.08836278
-4.910149	deprive	-0.4195344
-4.910149	deprived	-0.4195344
-5.38727	derive	-0.08836278
-5.086241	derived	-0.3750505
-5.086241	descend	-0.3750505
-5.38727	descendant	-0.3335444
-4.609119	describe	-0.8100246
-4.433028	described	-0.4915856
-5.38727	describing	-0.08836278
-4.910149	description	-0.2413386
-5.38727	deserted	-0.08836278
-5.38727	desertion	-0.08836278
-5.086241	deserts	-0.05588603
-4.48418	deserve	-0.6220192
-4.609119	deserved	-0.2812201
-5.38727	deserves	-0.08836278
-5.086241	deserving	-0.3750505
-4.38727	design	-1.041544
-4.609119	designs	-0.2812201
-4.609119	desirable	-0.2195605
-4.007059	desire	-1.032812
-4.785211	desired	-0.1588479
-5.38727	desiring	-0.08836278
-4.433028	desirous	-0.7460384
-4.785211	despair	-0.1588479
-4.785211	despatch	-0.1588479
-5.38727	despatching	-0.08836278
-4.910149	desperate	-0.224747
-5.086241	desperately	-0.3750505
-5.38727	desperation	-0.08836278
-5.086241	despise	-0.3750505
-5.38727	despised	-0.08836278
-5.38727	despising	-0.08836278
-5.38727	despondence	-0.08836278
-5.38727	desponding	-0.08836278
-5.38727	dessert	-0.08836278
-5.38727	destination	-0.3245276
-5.38727	destiny	-0.08836278
-5.38727	destroy	-0.08836278
-4.910149	destroyed	-0.4195344
-5.38727	destroys	-0.08836278
-5.38727	destruction	-0.3335444
-5.086241	detail	-0.3750505
-4.785211	detain	-0.4584301
-5.38727	detaining	-0.08836278
-5.38727	detected	-0.08836278
-5.38727	detecting	-0.08836278
-5.38727	detection	-0.3245276
-5.38727	deter	-0.08836278
-5.38727	determinate	-0.3245276
-4.785211	determination	-0.4584301
-4.433028	determine	-0.8861754
-3.734058	determined	-1.193715
-5.38727	determining	-0.08836278
-5.38727	deterred	-0.08836278
-4.910149	detest	-0.4195344
-5.38727	detestably	-0.08836278
-5.38727	detested	-0.08836278
-5.38727	detract	-0.08836278
-5.086241	deviation	-0.3750505
-4.785211	devil	-0.2778389
-5.38727	devolved	-0.08836278
-4.910149	devoted	-0.4195344
-5.38727	diabolical	-0.08836278
-5.086241	dictate	-0.07247761
-5.38727	diction	-0.3335444
-3.065051	did	-2.888587
-4.542172	died	-0.3041887
-5.38727	dies	-0.08836278
-5.38727	differed	-0.3245276
-4.108517	difference	-1.205281
-3.895909	different	-1.143962
-5.086241	differently	-0.3750505
-5.38727	differing	-0.08836278
-4.688301	difficult	-0.2719489
-4.156822	difficulties	-1.140385
-4.108517	difficulty	-1.009236
-4.910149	diffident	-0.4195344
-5.38727	diffuse	-0.3335444
-4.910149	dignified	-0.224747
-4.785211	dignity	-0.2778389
-5.38727	dilatoriness	-0.08836278
-5.086241	dimensions	-0.3750505
-5.38727	diminished	-0.08836278
-5.086241	diminution	-0.3750505
-4.433028	dine	-0.7460384
-4.688301	dined	-0.2719489
-4.38727	dining	-1.072478
-4.007059	dinner	-1.418954
-5.086241	dinners	-0.3750505
-4.433028	direct	-0.4915856
-4.785211	directed	-0.2778389
-5.38727	directing	-0.08836278
-4.38727	direction	-0.8264192
-5.38727	directions	-0.08836278
-3.764021	directly	-1.516042
-5.086241	dirt	-0.05588603
-4.785211	dirty	-0.4584301
-4.910149	disadvantage	-0.2413386
-5.086241	disagreeable	-0.3750505
-5.086241	disappeared	-0.3153765
-5.086241	disappoint	-0.3750505
-4.183151	disappointed	-0.9274907
-5.086241	disappointing	-0.3750505
-4.044848	disappointment	-1.065793
-4.910149	disappointments	-0.224747
-5.38727	disapprobation	-0.08836278
-5.086241	disapprove	-0.3750505
-5.38727	disapproved	-0.08836278
-5.38727	disapproves	-0.08836278
-5.38727	disapproving	-0.3335444
-5.38727	disarm	-0.08836278
-5.38727	disastrous	-0.08836278
-5.38727	disbelief	-0.08836278
-5.38727	discarded	-0.08836278
-5.38727	discern	-0.08836278
-5.38727	discerning	-0.08836278
-5.086241	discernment	-0.3750505
-5.086241	discharge	-0.3750505
-5.086241	discharged	-0.3750505
-5.38727	discharging	-0.08836278
-5.38727	disclaiming	-0.08836278
-5.086241	disclosing	-0.05588603
-5.38727	disclosure	-0.08836278
-5.086241	discompose	-0.3750505
-5.38727	discomposed	-0.08836278
-4.910149	discontent	-0.2413386
-5.38727	discontented	-0.08836278
-5.086241	discontents	-0.3153765
-4.108517	discourse	-0.7844737
-4.785211	discover	-0.4584301
-4.542172	discovered	-1.461092
-5.086241	discovering	-0.3750505
-4.542172	discovery	-0.2665192
-5.38727	discreet	-0.3245276
-4.609119	discretion	-0.2479823
-5.38727	discrimination	-0.08836278
-4.785211	discussion	-0.3591654
-5.38727	discussions	-0.08836278
-5.38727	disengaged	-0.08836278
-5.38727	disengagement	-0.3245276
-4.688301	disgrace	-0.2063074
-5.38727	disgraced	-0.08836278
-5.086241	disgraceful	-0.3750505
-5.086241	disgust	-0.07247761
-4.910149	disgusted	-0.4195344
-5.086241	disgusting	-0.3153765
-5.38727	dishonorable	-0.08836278
-5.086241	disinclination	-0.3750505
-5.38727	disinherited	-0.08836278
-5.086241	disinterested	-0.3750505
-5.38727	disinterestedness	-0.08836278
-4.308089	dislike	-0.8096636
-5.086241	disliked	-0.3750505
-4.910149	disliking	-0.4195344
-5.38727	dismiss	-0.08836278
-4.688301	dismissed	-0.3391112
-5.086241	dismounted	-0.05588603
-5.38727	disobedient	-0.3245276
-5.38727	disorder	-0.08836278
-5.38727	disordered	-0.3245276
-5.38727	dispatch	-0.3245276
-5.38727	dispatched	-0.3245276
-5.38727	dispatches	-0.3245276
-5.38727	dispersed	-0.08836278
-5.38727	dispersing	-0.08836278
-5.086241	dispirited	-0.05588603
-4.910149	display	-0.2413386
-4.910149	displayed	-0.2413386
-4.785211	displeased	-0.2778389
-4.910149	displeasure	-0.224747
-4.688301	disposal	-0.3687139
-4.785211	dispose	-0.4584301
-4.065051	disposed	-1.232156
-5.38727	disposing	-0.08836278
-4.065051	disposition	-0.8627214
-5.38727	disproportion	-0.08836278
-5.38727	dispute	-0.08836278
-5.38727	disputes	-0.3335444
-5.38727	disqualifications	-0.08836278
-5.38727	disquiet	-0.08836278
-5.086241	disregard	-0.07247761
-4.785211	disregarded	-0.3591654
-5.38727	disrespectfully	-0.08836278
-5.38727	dissatisfaction	-0.08836278
-4.609119	dissatisfied	-0.8100246
-5.38727	dissembling	-0.3335444
-5.38727	dissent	-0.08836278
-5.38727	dissented	-0.08836278
-5.38727	dissimilar	-0.08836278
-5.086241	dissipated	-0.05588603
-5.086241	dissipation	-0.6112154
-5.38727	dissolving	-0.08836278
-4.910149	dissuade	-0.4195344
-4.308089	distance	-0.8599817
-4.433028	distant	-0.8861754
-4.785211	distinction	-0.2778389
-4.785211	distinguish	-0.2778389
-4.609119	distinguished	-0.8100246
-5.086241	distinguishing	-0.3750505
-5.38727	distractedly	-0.08836278
-3.972297	distress	-1.453716
-4.609119	distressed	-0.8100246
-4.785211	distresses	-0.2778389
-5.086241	distressing	-0.05588603
-4.542172	distrust	-0.3110123
-5.38727	distrusts	-0.08836278
-4.688301	disturb	-0.2719489
-4.688301	disturbed	-0.3391112
-4.785211	diverted	-0.2944305
-4.785211	divide	-0.2778389
-4.688301	divided	-0.2719489
-4.910149	dividing	-0.224747
-5.38727	divine	-0.08836278
-5.38727	division	-0.08836278
-5.38727	divorce	-0.3335444
-2.917449	do	-2.167711
-5.38727	doat	-0.08836278
-5.38727	doatingly	-0.08836278
-4.910149	doctrine	-0.224747
-3.688301	does	-1.757105
-5.38727	dog	-0.08836278
-3.924873	doing	-1.068804
-4.688301	domestic	-0.2719489
-4.183151	don	-0.9764873
-3.548421	done	-2.405223
-5.086241	doomed	-0.05588603
-5.38727	dooming	-0.08836278
-3.807487	door	-1.562036
-4.910149	doors	-0.224747
-5.086241	doted	-0.07247761
-5.086241	doting	-0.3750505
-5.38727	dotted	-0.08836278
-5.38727	doubly	-0.08836278
-3.724513	doubt	-1.056549
-4.48418	doubted	-0.7002809
-4.785211	doubtful	-0.1588479
-5.086241	doubting	-0.3750505
-5.38727	doubtingly	-0.3245276
-5.38727	doubtless	-0.08836278
-4.688301	doubts	-0.3687139
-5.38727	douceur	-0.3245276
-5.38727	dove	-0.08836278
-3.506457	down	-1.103142
-4.609119	downs	-0.2812201
-5.38727	drain	-0.3335444
-5.38727	drains	-0.08836278
-4.48418	draw	-0.7002809
-5.38727	drawback	-0.08836278
-3.940113	drawing	-1.519636
-4.785211	drawings	-0.4584301
-4.308089	drawn	-1.135067
-5.38727	draws	-0.3245276
-4.542172	dread	-1.461092
-4.785211	dreaded	-0.4584301
-4.241143	dreadful	-0.8838409
-4.910149	dreadfully	-0.03874275
-5.38727	dreading	-0.08836278
-5.38727	dream	-0.08836278
-5.38727	dreaming	-0.08836278
-4.542172	dress	-0.5707916
-4.910149	dressed	-0.6556993
-5.38727	dresses	-0.08836278
-4.688301	dressing	-0.2719489
-4.273327	drew	-0.8921664
-5.086241	dried	-0.3750505
-5.38727	drift	-0.08836278
-4.910149	drink	-0.4195344
-4.910149	drinking	-0.224747
-4.609119	drive	-0.2195605
-4.785211	driven	-0.4584301
-5.38727	drives	-0.08836278
-4.785211	driving	-0.4584301
-4.542172	droll	-0.5707916
-5.086241	drop	-0.3750505
-4.609119	dropped	-0.2479823
-5.38727	drops	-0.3245276
-4.785211	dropt	-0.4584301
-4.609119	drove	-0.8100246
-5.38727	drunk	-0.3335444
-4.910149	dry	-0.224747
-5.38727	dryness	-0.08836278
-4.273327	due	-0.8444257
-5.38727	duets	-0.3245276
-4.38727	dull	-0.3850573
-5.38727	dullness	-0.3245276
-5.38727	duly	-0.08836278
-5.38727	dupe	-0.3245276
-5.38727	duration	-0.3245276
-4.241143	during	-0.9221297
-5.086241	duties	-0.07247761
-4.273327	duty	-0.7665438
-5.38727	dwell	-0.08836278
-4.609119	dwelling	-0.2195605
-5.086241	dwelt	-0.3750505
-4.688301	dying	-0.2063074
-3.654877	each	-1.462876
-4.086241	eager	-1.356916
-4.241143	eagerly	-1.202014
-4.345878	eagerness	-0.7791055
-4.609119	ear	-0.3870577
-4.785211	earlier	-0.2778389
-4.785211	earliest	-0.4584301
-4.108517	early	-1.33464
-4.910149	earned	-0.4195344
-4.044848	earnest	-1.34182
-4.273327	earnestly	-1.169829
-4.48418	earnestness	-0.4259534
-4.785211	ears	-0.3425738
-4.688301	earth	-0.3225196
-5.38727	earthly	-0.08836278
-4.156822	ease	-0.9688342
-5.086241	easier	-0.07247761
-5.086241	easiest	-0.3750505
-3.924873	easily	-1.22316
-5.38727	east	-0.3245276
-4.044848	easy	-1.151698
-4.609119	eat	-0.8100246
-4.910149	eating	-0.224747
-5.38727	ebullition	-0.08836278
-5.38727	echoed	-0.08836278
-5.38727	eclat	-0.3335444
-5.38727	economical	-0.08836278
-5.38727	economically	-0.3245276
-5.38727	economy	-0.08836278
-4.910149	ecstasy	-0.4195344
-5.38727	ecstatic	-0.08836278
-5.38727	edge	-0.08836278
-5.086241	editions	-0.6112154
-4.38727	education	-1.041544
-4.025543	effect	-1.014328
-5.38727	effected	-0.08836278
-5.38727	effecting	-0.08836278
-4.609119	effects	-0.2195605
-5.086241	effectual	-0.6112154
-5.38727	effectually	-0.08836278
-5.38727	efficacy	-0.08836278
-4.48418	effort	-0.328469
-4.910149	effusion	-0.224747
-5.086241	effusions	-0.3750505
-4.38727	eight	-1.058135
-4.609119	eighteen	-0.8100246
-5.38727	eighty	-0.08836278
-3.882121	either	-1.157751
-5.38727	ejaculation	-0.3335444
-4.785211	elder	-0.4584301
-4.910149	elderly	-0.4195344
-4.108517	eldest	-1.33464
-5.38727	elect	-0.3335444
-5.38727	election	-0.08836278
-4.086241	elegance	-0.7087044
-4.48418	elegant	-0.6220192
-4.785211	elevated	-0.4584301
-5.086241	eligibility	-0.05588603
-4.542172	eligible	-0.1615112
-5.38727	eloping	-0.08836278
-4.688301	eloquence	-0.2063074
-3.734058	else	-2.219586
-4.542172	elsewhere	-0.3439401
-5.38727	elucidation	-0.3245276
-5.38727	eluded	-0.08836278
-5.38727	em	-0.08836278
-5.086241	embarrassed	-0.07247761
-4.433028	embarrassment	-0.2389638
-5.38727	embellishment	-0.08836278
-5.38727	embellishments	-0.08836278
-5.38727	embitter	-0.08836278
-5.38727	embraced	-0.08836278
-5.38727	embraces	-0.3245276
-5.38727	emergence	-0.3335444
-5.38727	emergency	-0.3245276
-5.38727	emigrant	-0.08836278
-5.38727	eminence	-0.08836278
-4.065051	emotion	-0.7264971
-5.38727	emphasis	-0.08836278
-4.785211	employ	-0.2778389
-4.345878	employed	-0.7718751
-4.273327	employment	-0.5248709
-4.542172	employments	-0.3110123
-5.38727	emptiness	-0.08836278
-4.688301	enable	-0.2719489
-4.910149	enabled	-0.4195344
-5.38727	enamoured	-0.08836278
-5.38727	enclosure	-0.08836278
-4.785211	encourage	-0.4584301
-4.688301	encouraged	-0.3225196
-4.241143	encouragement	-1.218606
-5.38727	encouragements	-0.08836278
-4.433028	encouraging	-1.02672
-5.38727	encroachments	-0.08836278
-5.38727	encumbered	-0.3335444
-3.654877	end	-1.279008
-5.38727	endear	-0.08836278
-5.38727	endeavor	-0.08836278
-5.38727	endeavoring	-0.3245276
-5.38727	endeavors	-0.08836278
-4.609119	endeavour	-0.8100246
-4.542172	endeavoured	-0.2665192
-4.38727	endeavouring	-1.055886
-5.086241	endeavours	-0.3750505
-4.433028	ended	-0.4915856
-5.38727	ending	-0.08836278
-5.086241	endless	-0.3750505
-5.086241	endowed	-0.3750505
-5.086241	ends	-0.07247761
-5.38727	endurance	-0.08836278
-4.910149	endure	-0.4195344
-5.38727	endured	-0.08836278
-5.38727	enemy	-0.3245276
-4.785211	energy	-0.1588479
-5.38727	enfeebled	-0.08836278
-5.086241	enforced	-0.3750505
-5.38727	enforcement	-0.08836278
-5.38727	enforcing	-0.08836278
-5.38727	enfranchisement	-0.08836278
-4.211179	engage	-0.9501584
-3.785211	engaged	-1.626461
-3.594879	engagement	-1.774645
-4.241143	engagements	-0.7987285
-4.609119	engaging	-0.8100246
-5.086241	engross	-0.3750505
-4.910149	engrossed	-0.4195344
-4.542172	enjoy	-0.1615112
-4.785211	enjoyed	-0.4584301
-4.910149	enjoying	-0.4195344
-4.108517	enjoyment	-0.8705167
-5.38727	enjoyments	-0.3245276
-5.38727	enlarge	-0.08836278
-5.38727	enlargement	-0.08836278
-5.38727	enlightened	-0.08836278
-5.38727	ennui	-0.3245276
-5.38727	enormously	-0.08836278
-3.37867	enough	-1.81535
-4.609119	enquire	-0.8100246
-5.38727	enquired	-0.08836278
-4.688301	enquiries	-0.3391112
-5.086241	enquiring	-0.3750505
-4.688301	enquiry	-0.3687139
-5.38727	enraged	-0.08836278
-5.38727	enrich	-0.08836278
-5.086241	ensued	-0.07247761
-4.910149	ensured	-0.4195344
-5.38727	entanglement	-0.08836278
-4.308089	enter	-1.135067
-3.785211	entered	-1.643604
-4.609119	entering	-0.2029689
-5.38727	entertain	-0.08836278
-5.086241	entertained	-0.3750505
-5.38727	entertainment	-0.08836278
-5.086241	enthusiasm	-0.3750505
-5.086241	enthusiastic	-0.3750505
-5.086241	entire	-0.3750505
-3.764021	entirely	-1.128969
-5.38727	entitled	-0.08836278
-4.131998	entrance	-0.9638228
-4.688301	entreat	-0.2719489
-5.086241	entreated	-0.3750505
-4.542172	entreaties	-0.3439401
-4.688301	entreaty	-0.3687139
-5.38727	entrusted	-0.08836278
-5.38727	entry	-0.08836278
-5.38727	enumeration	-0.08836278
-5.38727	environs	-0.08836278
-5.38727	envy	-0.08836278
-4.065051	equal	-1.378105
-5.38727	equality	-0.3245276
-5.38727	equalled	-0.08836278
-3.807487	equally	-1.337103
-5.38727	equals	-0.08836278
-5.38727	ere	-0.08836278
-4.910149	errand	-0.224747
-4.910149	erred	-0.4195344
-4.785211	error	-0.1588479
-5.38727	errors	-0.08836278
-4.48418	escape	-0.8461248
-4.542172	escaped	-1.461092
-4.131998	especially	-0.9139082
-5.086241	essential	-0.3750505
-5.086241	establish	-0.3750505
-4.345878	established	-1.11387
-5.38727	establishing	-0.08836278
-4.542172	establishment	-0.5707916
-4.108517	estate	-0.8192557
-4.211179	esteem	-0.7771421
-5.086241	esteemed	-0.3750505
-5.38727	esteeming	-0.08836278
-5.086241	esteems	-0.3750505
-5.38727	estimable	-0.08836278
-5.38727	estimate	-0.08836278
-5.086241	estimating	-0.3750505
-4.785211	estimation	-0.2778389
-5.38727	estranged	-0.08836278
-5.38727	eternal	-0.3335444
-5.38727	etiquette	-0.3335444
-3.308089	even	-1.903075
-3.6797	evening	-2.273946
-5.086241	evenings	-0.3750505
-4.007059	event	-1.273004
-4.688301	events	-0.3391112
-5.086241	eventually	-0.3750505
-3.167162	ever	-1.919134
-5.38727	everlasting	-0.08836278
-2.838267	every	-2.296267
-4.609119	everybody	-0.2195605
-4.183151	everything	-1.260006
-5.38727	evidence	-0.3245276
-4.273327	evident	-1.155487
-4.910149	evidently	-0.4195344
-4.273327	evil	-1.169829
-5.086241	evils	-0.05588603
-5.38727	evince	-0.08836278
-5.086241	exact	-0.05588603
-3.955907	exactly	-1.503841
-5.38727	exactness	-0.08836278
-4.688301	examination	-0.3687139
-4.785211	examine	-0.4584301
-5.086241	examined	-0.3750505
-4.785211	examining	-0.4584301
-4.910149	example	-0.4195344
-5.38727	exceeded	-0.08836278
-4.910149	exceeding	-0.4195344
-3.972297	exceedingly	-1.145456
-5.086241	excellence	-0.3750505
-5.38727	excellencies	-0.08836278
-4.345878	excellent	-0.8252196
-4.156822	except	-1.001311
-5.38727	excepting	-0.08836278
-4.48418	excess	-0.7002809
-4.688301	excessive	-0.3391112
-4.542172	excessively	-0.3110123
-4.785211	exchange	-0.1588479
-5.38727	exchanged	-0.08836278
-5.086241	excite	-0.3750505
-4.609119	excited	-0.2812201
-4.910149	exciting	-0.4195344
-5.38727	exclaim	-0.3245276
-4.308089	exclaimed	-0.5820297
-5.38727	exclaiming	-0.3245276
-4.785211	exclamation	-0.4584301
-5.38727	exclamations	-0.08836278
-5.38727	exclusively	-0.08836278
-4.785211	excursion	-0.4584301
-5.38727	excursive	-0.08836278
-4.211179	excuse	-1.248569
-4.910149	excused	-0.2413386
-5.38727	excuses	-0.3245276
-5.38727	execution	-0.3335444
-4.688301	exercise	-0.2063074
-5.38727	exercised	-0.08836278
-5.38727	exercising	-0.08836278
-4.785211	exert	-0.4584301
-5.086241	exerted	-0.3750505
-4.065051	exertion	-1.146113
-4.910149	exertions	-0.4195344
-5.38727	exhausted	-0.08836278
-5.38727	exhilarated	-0.08836278
-5.38727	exhilaration	-0.08836278
-5.38727	exigence	-0.08836278
-4.910149	exist	-0.2413386
-4.910149	existed	-0.2413386
-4.48418	existence	-0.2167482
-5.38727	exorbitant	-0.08836278
-5.38727	expand	-0.08836278
-5.38727	expatiate	-0.08836278
-3.955907	expect	-1.089999
-3.972297	expectation	-1.02138
-4.688301	expectations	-0.3687139
-3.796206	expected	-1.114424
-4.688301	expecting	-0.2719489
-5.086241	expects	-0.3750505
-5.38727	expediency	-0.08836278
-4.910149	expedient	-0.224747
-5.086241	expeditiously	-0.3750505
-5.38727	expel	-0.08836278
-4.273327	expense	-1.02388
-4.542172	expenses	-0.1615112
-4.688301	expensive	-0.3687139
-5.38727	expensiveness	-0.08836278
-4.785211	experience	-0.2944305
-4.785211	experienced	-0.2778389
-5.086241	experiencing	-0.05588603
-4.48418	explain	-0.7002809
-4.345878	explained	-1.11387
-4.308089	explanation	-0.6818034
-5.086241	explanations	-0.07247761
-5.38727	explanatory	-0.08836278
-5.086241	expose	-0.3750505
-4.688301	exposed	-0.3225196
-4.211179	express	-0.913804
-4.241143	expressed	-0.8766105
-4.910149	expressing	-0.4195344
-4.273327	expression	-0.7665438
-4.910149	expressions	-0.4195344
-4.910149	expressive	-0.4195344
-4.910149	expressively	-0.4195344
-5.086241	expressly	-0.3750505
-4.785211	exquisite	-0.4584301
-4.688301	extended	-0.3391112
-5.38727	extending	-0.08836278
-4.910149	extensive	-0.2413386
-4.688301	extent	-0.2719489
-5.086241	exterior	-0.3750505
-5.38727	external	-0.08836278
-5.38727	extinction	-0.08836278
-5.38727	extinguished	-0.08836278
-5.38727	extolling	-0.08836278
-5.38727	extort	-0.08836278
-5.38727	extorted	-0.08836278
-5.38727	extorting	-0.08836278
-4.48418	extraordinary	-0.8627163
-5.086241	extravagance	-0.6112154
-4.910149	extravagant	-0.4195344
-4.785211	extreme	-0.4584301
-4.273327	extremely	-0.8921664
-5.38727	extremest	-0.08836278
-5.086241	extremity	-0.05588603
-5.38727	exuberance	-0.08836278
-4.785211	exultation	-0.4584301
-5.086241	exultingly	-0.07247761
-4.108517	eye	-1.014592
-5.086241	eyed	-0.3750505
-5.086241	eyeing	-0.3750505
-3.639082	eyes	-1.786931
-3.989331	face	-1.20469
-5.38727	faces	-0.08836278
-4.308089	fact	-0.5292557
-5.38727	facts	-0.08836278
-5.38727	faded	-0.08836278
-4.785211	fail	-0.4584301
-4.785211	failed	-0.3425738
-5.38727	failing	-0.08836278
-5.38727	failure	-0.08836278
-4.609119	faint	-0.2029689
-5.38727	fainter	-0.08836278
-5.38727	fainting	-0.08836278
-5.38727	faintness	-0.3335444
-4.48418	fair	-0.8461248
-5.38727	fairer	-0.08836278
-5.38727	fairly	-0.08836278
-4.688301	faith	-0.3225196
-5.38727	faithful	-0.08836278
-5.086241	faithfully	-0.3750505
-4.609119	fall	-0.3963455
-5.086241	fallen	-0.3750505
-4.910149	falling	-0.4195344
-5.086241	falls	-0.3750505
-4.910149	false	-0.4195344
-4.785211	falsehood	-0.4584301
-5.38727	fame	-0.08836278
-5.38727	familiar	-0.3245276
-4.785211	familiarity	-0.4584301
-5.38727	familiarized	-0.08836278
-5.086241	familiarly	-0.3750505
-4.910149	families	-0.4195344
-3.484181	family	-1.604903
-5.38727	famous	-0.08836278
-4.38727	fancied	-0.7874311
-5.38727	fanciful	-0.08836278
-3.895909	fancy	-1.530105
-4.910149	fancying	-0.4195344
-3.561196	far	-1.556557
-4.542172	farewell	-1.461092
-4.910149	farm	-0.4195344
-3.697074	farther	-1.496946
-5.086241	farthest	-0.3750505
-5.38727	fascinating	-0.08836278
-4.688301	fashion	-0.3853055
-5.086241	fashionable	-0.3750505
-4.910149	fashioned	-0.4195344
-4.609119	fast	-0.3870577
-5.38727	faster	-0.08836278
-5.086241	fastidious	-0.3750505
-5.38727	fat	-0.3245276
-4.609119	fate	-0.3963455
-5.38727	fates	-0.3245276
-3.910149	father	-1.061787
-4.609119	fatigue	-0.2812201
-5.086241	fatigued	-0.05588603
-5.086241	fatigues	-0.05588603
-5.38727	fatiguing	-0.08836278
-4.688301	fault	-0.3391112
-4.910149	faultless	-0.2413386
-4.910149	faults	-0.224747
-4.910149	faulty	-0.4195344
-3.955907	favour	-0.9779779
-4.609119	favourable	-0.2029689
-4.025543	favourite	-1.014328
-5.086241	favourites	-0.07247761
-3.972297	fear	-1.32491
-4.273327	feared	-1.02388
-4.609119	fearful	-0.8100246
-5.38727	fearing	-0.08836278
-4.38727	fears	-0.4899439
-5.38727	feather	-0.08836278
-5.38727	feature	-0.3335444
-4.688301	features	-0.3687139
-5.38727	feeble	-0.3335444
-5.086241	feebleness	-0.3750505
-5.38727	feebly	-0.08836278
-5.086241	feed	-0.3750505
-5.38727	feeding	-0.08836278
-3.567727	feel	-1.453738
-3.940113	feeling	-1.155708
-5.086241	feelingly	-0.3750505
-3.523948	feelings	-1.670073
-5.38727	feels	-0.08836278
-4.910149	feet	-0.03874275
-5.086241	feigned	-0.05588603
-5.38727	felicitations	-0.08836278
-4.785211	felicity	-0.2944305
-4.308089	fell	-0.816894
-4.273327	fellow	-0.9378368
-3.366081	felt	-1.414981
-5.38727	female	-0.08836278
-5.38727	females	-0.08836278
-5.38727	feminine	-0.08836278
-5.38727	fertile	-0.08836278
-4.910149	fervent	-0.4195344
-5.38727	festival	-0.08836278
-4.910149	fetch	-0.4195344
-5.38727	fetches	-0.08836278
-5.086241	fetching	-0.3750505
-4.785211	fettered	-0.4584301
-4.688301	fever	-0.3225196
-4.910149	feverish	-0.224747
-3.50078	few	-1.958968
-5.086241	fickle	-0.3153765
-5.38727	field	-0.08836278
-4.785211	fifteen	-0.2944305
-4.48418	fifty	-0.7002809
-4.48418	figure	-0.4450539
-4.910149	filigree	-0.4195344
-5.086241	fill	-0.3750505
-4.688301	filled	-0.2719489
-5.38727	final	-0.08836278
-4.609119	finally	-0.8100246
-3.654877	find	-1.78828
-4.241143	finding	-1.202014
-5.38727	finds	-0.08836278
-3.989331	fine	-1.307876
-4.785211	finest	-0.4584301
-5.38727	finger	-0.3335444
-4.910149	fingers	-0.4842374
-4.910149	finish	-0.4195344
-4.308089	finished	-0.6818034
-5.086241	finishing	-0.3750505
-5.38727	fir	-0.3245276
-4.211179	fire	-0.822274
-4.910149	firm	-0.224747
-5.086241	firmer	-0.3750505
-4.785211	firmly	-0.4584301
-4.688301	firmness	-0.3687139
-3.185874	first	-1.900539
-5.38727	fish	-0.08836278
-4.433028	fit	-0.6318743
-4.688301	fitted	-0.2719489
-3.895909	five	-1.251188
-4.48418	fix	-0.7002809
-4.007059	fixed	-1.117924
-4.910149	fixing	-0.4195344
-5.086241	flannel	-0.3750505
-5.38727	flaring	-0.08836278
-4.785211	flatter	-0.2778389
-4.785211	flattered	-0.4584301
-5.086241	flatteries	-0.05588603
-4.688301	flattering	-0.2719489
-4.688301	flattery	-0.3687139
-5.086241	flew	-0.3750505
-5.086241	floor	-0.6112154
-5.38727	flourish	-0.08836278
-5.38727	flourishing	-0.3335444
-4.910149	flow	-0.4195344
-5.38727	flowed	-0.08836278
-5.086241	flower	-0.3750505
-5.38727	flowing	-0.3245276
-5.38727	fluctuating	-0.3335444
-5.38727	flushed	-0.08836278
-5.086241	flutter	-0.05588603
-5.38727	fly	-0.08836278
-5.38727	foibles	-0.3245276
-5.086241	folded	-0.3750505
-4.542172	follow	-0.5707916
-4.156822	followed	-1.140385
-4.38727	following	-0.7874311
-5.086241	follows	-0.3750505
-4.241143	folly	-0.6531092
-4.086241	fond	-1.356916
-4.910149	fondly	-0.4195344
-5.38727	fondness	-0.08836278
-5.38727	food	-0.08836278
-4.910149	fool	-0.03874275
-4.609119	foolish	-0.2029689
-5.38727	foolishly	-0.08836278
-5.086241	foot	-0.3750505
-5.086241	footman	-0.3750505
-5.38727	footsteps	-0.08836278
-2.301623	for	-2.609006
-5.38727	forbade	-0.08836278
-5.38727	forbear	-0.08836278
-4.785211	forbearance	-0.1588479
-5.38727	forbid	-0.08836278
-5.38727	forbidden	-0.08836278
-5.086241	forbidding	-0.3750505
-5.38727	forbore	-0.3335444
-4.345878	force	-0.8252196
-4.007059	forced	-1.436097
-5.38727	forcibly	-0.08836278
-4.785211	forcing	-0.4584301
-5.086241	forebodings	-0.05588603
-5.38727	forego	-0.08836278
-5.38727	foregoing	-0.08836278
-5.086241	forenoon	-0.07247761
-5.38727	foreplanned	-0.08836278
-5.38727	foresaw	-0.08836278
-4.785211	foresee	-0.2778389
-5.38727	foreseeing	-0.08836278
-5.086241	foreseen	-0.3750505
-5.38727	foresight	-0.08836278
-5.38727	foretell	-0.08836278
-5.086241	foretold	-0.3750505
-5.38727	forfeit	-0.08836278
-5.38727	forfeited	-0.08836278
-5.38727	forfeiting	-0.08836278
-5.086241	forgave	-0.05588603
-4.345878	forget	-1.097279
-5.38727	forgetting	-0.08836278
-4.48418	forgive	-0.8627163
-4.433028	forgiven	-1.010128
-4.785211	forgiveness	-0.2944305
-4.308089	forgot	-0.816894
-4.609119	forgotten	-0.2195605
-4.688301	forlorn	-0.3391112
-4.211179	form	-1.086028
-5.086241	formal	-0.3750505
-4.910149	formality	-0.224747
-5.38727	formally	-0.08836278
-4.044848	formed	-1.080135
-3.910149	former	-1.017623
-4.688301	formerly	-0.2719489
-5.086241	formidable	-0.3750505
-4.910149	forming	-0.224747
-4.785211	forms	-0.2778389
-5.38727	forsaking	-0.08836278
-4.688301	forte	-0.2063074
-4.273327	forth	-0.8444257
-4.38727	fortitude	-0.7377128
-4.273327	fortnight	-0.7203497
-4.785211	fortunate	-0.4584301
-5.38727	fortunately	-0.08836278
-3.819069	fortune	-1.091561
-4.910149	fortunes	-0.224747
-4.785211	forty	-0.7036117
-4.086241	forward	-0.9074364
-5.38727	forwarded	-0.08836278
-5.38727	forwarding	-0.08836278
-5.086241	forwards	-0.05588603
-3.554762	found	-1.43356
-4.785211	foundation	-0.2778389
-5.38727	foundations	-0.08836278
-4.542172	founded	-0.5707916
-3.855792	four	-1.261961
-5.086241	fourteen	-0.3750505
-5.38727	fourteenth	-0.08836278
-5.086241	fourth	-0.3750505
-5.38727	fowls	-0.08836278
-5.38727	fox	-0.3245276
-5.086241	frame	-0.3750505
-4.688301	frank	-0.2063074
-4.910149	frankness	-0.4195344
-5.38727	frantic	-0.3335444
-4.38727	free	-1.041544
-4.910149	freedom	-0.4195344
-5.38727	freeze	-0.08836278
-4.48418	frequent	-0.8461248
-4.273327	frequently	-0.8921664
-4.241143	fresh	-1.202014
-5.38727	fretful	-0.08836278
-5.38727	fretted	-0.3245276
-3.662995	friend	-2.290651
-5.38727	friendliest	-0.08836278
-5.086241	friendliness	-0.3750505
-4.542172	friendly	-0.5873832
-3.594879	friends	-1.774645
-4.108517	friendship	-1.193543
-4.688301	fright	-0.3225196
-5.38727	frighten	-0.08836278
-4.688301	frightened	-0.2719489
-5.38727	frightens	-0.08836278
-5.38727	frightful	-0.08836278
-5.38727	frivolous	-0.08836278
-5.38727	froid	-0.3245276
-2.672941	from	-2.770216
-4.688301	front	-0.3225196
-4.910149	frost	-0.4842374
-5.086241	frugality	-0.05588603
-5.086241	fruit	-0.3750505
-5.38727	fruitless	-0.08836278
-5.38727	fulfil	-0.08836278
-4.910149	fulfill	-0.4195344
-4.785211	fulfilled	-0.1588479
-3.910149	full	-1.214834
-5.38727	fullest	-0.08836278
-4.609119	fully	-0.3963455
-5.38727	funeral	-0.08836278
-5.086241	furnished	-0.05588603
-5.38727	furnishing	-0.08836278
-4.38727	furniture	-0.2821597
-4.609119	further	-0.8100246
-5.38727	fury	-0.3245276
-5.38727	fuss	-0.08836278
-3.940113	future	-1.081352
-4.609119	gaiety	-0.2812201
-5.086241	gaily	-0.3750505
-4.48418	gain	-0.7002809
-4.211179	gained	-0.913804
-4.910149	gaining	-0.4195344
-5.38727	gales	-0.08836278
-5.38727	gallantry	-0.08836278
-5.38727	galling	-0.08836278
-5.38727	gallop	-0.08836278
-4.609119	game	-0.2812201
-5.38727	gape	-0.08836278
-4.273327	garden	-0.6544455
-5.38727	gardener	-0.08836278
-5.38727	garret	-0.08836278
-5.38727	garrets	-0.08836278
-4.688301	gate	-0.2509776
-5.38727	gates	-0.08836278
-5.38727	gathered	-0.08836278
-5.38727	gathering	-0.08836278
-3.542172	gave	-1.597297
-4.308089	gay	-0.5292557
-5.38727	gaze	-0.3335444
-5.086241	gazing	-0.3750505
-3.654877	general	-1.453924
-4.38727	generally	-0.7874311
-5.38727	generations	-0.3245276
-4.609119	generosity	-0.2812201
-4.688301	generous	-0.3225196
-5.38727	generously	-0.08836278
-5.38727	genial	-0.08836278
-4.785211	genius	-0.2778389
-4.785211	genteel	-0.2778389
-5.38727	genteelly	-0.3245276
-5.086241	gentility	-0.3750505
-4.48418	gentle	-0.8461248
-3.940113	gentleman	-0.851436
-5.086241	gentlemanlike	-0.07247761
-4.688301	gentlemen	-0.2719489
-4.688301	gentleness	-0.3687139
-5.38727	gently	-0.3245276
-4.785211	genuine	-0.2778389
-5.38727	genuinely	-0.08836278
-3.895909	get	-1.251188
-4.48418	getting	-0.7002809
-5.38727	giddy	-0.08836278
-4.785211	gift	-0.1588479
-5.38727	giggling	-0.08836278
-5.38727	gigs	-0.3335444
-3.830968	girl	-1.449096
-4.183151	girls	-1.028013
-3.297365	give	-1.681668
-3.654877	given	-1.333445
-5.38727	gives	-0.08836278
-3.807487	giving	-1.652261
-3.743818	glad	-1.699339
-4.910149	gladly	-0.4195344
-4.688301	glance	-0.2719489
-5.38727	glances	-0.08836278
-4.910149	glass	-0.224747
-5.38727	glebe	-0.3245276
-5.086241	glimpse	-0.3750505
-5.38727	gloom	-0.3245276
-5.38727	gloominess	-0.08836278
-4.910149	gloomy	-0.4195344
-5.38727	gloried	-0.08836278
-5.38727	gloves	-0.08836278
-5.38727	glow	-0.08836278
-5.086241	glowing	-0.3750505
-3.400499	go	-2.011172
-4.688301	goes	-0.3687139
-3.623842	going	-1.422064
-5.38727	goings	-0.08836278
-5.086241	gold	-0.05588603
-3.855792	gone	-2.097854
-3.167162	good	-1.919135
-5.38727	goodby	-0.3245276
-4.542172	goodness	-0.2665192
-5.086241	goodwill	-0.3153765
-5.086241	gossip	-0.05588603
-3.955907	got	-1.503841
-5.086241	gout	-0.05588603
-5.086241	govern	-0.3750505
-4.785211	governed	-0.4584301
-5.38727	governing	-0.08836278
-5.086241	gown	-0.6112154
-5.38727	gowns	-0.08836278
-5.086241	grace	-0.05588603
-4.785211	graceful	-0.1588479
-5.38727	gracefulness	-0.08836278
-5.086241	graces	-0.3750505
-4.785211	gracious	-0.4584301
-5.086241	graciousness	-0.3750505
-5.086241	gradually	-0.3750505
-4.910149	grand	-0.4195344
-5.086241	grandeur	-0.05588603
-5.38727	grandmothers	-0.3245276
-5.086241	granted	-0.05588603
-5.38727	grass	-0.08836278
-5.38727	grate	-0.08836278
-4.273327	grateful	-0.8516561
-4.785211	gratefully	-0.4584301
-5.086241	gratification	-0.05588603
-5.086241	gratify	-0.3750505
-4.609119	gratifying	-0.8100246
-4.156822	gratitude	-1.140385
-4.183151	grave	-0.805171
-4.910149	gravel	-0.4195344
-4.910149	gravely	-0.224747
-4.688301	gravity	-0.3687139
-3.217009	great	-1.716876
-3.807487	greater	-1.232384
-3.940113	greatest	-1.208436
-4.308089	greatly	-0.8599817
-5.086241	greatness	-0.07247761
-4.542172	green	-0.2665192
-4.542172	grew	-1.461092
-5.38727	grey	-0.08836278
-4.308089	grief	-0.5292557
-5.38727	grievance	-0.08836278
-5.086241	grieve	-0.3750505
-5.086241	grieved	-0.07247761
-5.38727	grieves	-0.08836278
-4.688301	grieving	-0.2719489
-5.086241	grievous	-0.3750505
-5.086241	groom	-0.3750505
-5.38727	gross	-0.08836278
-4.48418	ground	-0.328469
-5.086241	grounded	-0.3750505
-4.48418	grounds	-0.328469
-5.38727	group	-0.08836278
-4.688301	growing	-0.2719489
-4.609119	grown	-0.8100246
-5.38727	grows	-0.08836278
-5.38727	grudge	-0.08836278
-5.086241	guard	-0.3750505
-5.086241	guarded	-0.3750505
-5.086241	guardian	-0.6202322
-5.38727	guardians	-0.3245276
-5.086241	guardianship	-0.3750505
-5.086241	guarding	-0.3750505
-4.433028	guess	-1.010128
-4.785211	guessed	-0.2944305
-5.38727	guessing	-0.3335444
-4.910149	guest	-0.03874275
-4.785211	guests	-0.1588479
-5.38727	guidance	-0.08836278
-5.38727	guide	-0.3245276
-4.688301	guided	-0.2719489
-4.542172	guilt	-1.461092
-4.688301	guilty	-0.3225196
-4.910149	guineas	-0.4195344
-5.086241	gum	-0.05588603
-5.086241	gun	-0.05588603
-4.542172	habit	-1.461092
-5.38727	habitation	-0.08836278
-4.910149	habits	-0.224747
-5.086241	hackneyed	-0.3750505
-2.406359	had	-2.587318
-4.131998	hair	-0.6595503
-3.654877	half	-1.462876
-5.38727	hall	-0.3245276
-5.38727	hallooing	-0.08836278
-5.38727	ham	-0.08836278
-3.764021	hand	-1.429999
-5.086241	handed	-0.3750505
-4.785211	handkerchief	-0.3425738
-5.38727	handle	-0.08836278
-4.156822	hands	-0.822212
-3.955907	handsome	-1.413617
-5.38727	handsomely	-0.08836278
-5.086241	handsomer	-0.07247761
-5.086241	handsomest	-0.3750505
-5.38727	hang	-0.08836278
-4.688301	hanging	-0.2719489
-4.308089	happen	-1.137316
-3.910149	happened	-1.034215
-5.38727	happening	-0.08836278
-5.086241	happens	-0.6202322
-4.542172	happier	-1.461092
-4.609119	happiest	-0.8100246
-4.785211	happily	-0.4584301
-3.58793	happiness	-1.502598
-3.414143	happy	-1.674142
-5.38727	harbour	-0.08836278
-4.433028	hard	-1.010128
-4.785211	hardened	-0.4584301
-5.38727	hardening	-0.08836278
-5.38727	hardily	-0.08836278
-3.581091	hardly	-1.558952
-5.38727	hardness	-0.08836278
-5.086241	hardship	-0.3750505
-5.38727	hardships	-0.08836278
-4.688301	harm	-0.3391112
-5.38727	harmless	-0.3245276
-5.38727	harmony	-0.3245276
-5.38727	harp	-0.3245276
-5.086241	harshly	-0.3750505
-5.38727	hartshorn	-0.08836278
-3.086241	has	-2.024401
-5.086241	haste	-0.3750505
-4.910149	hastened	-0.4195344
-5.086241	hastening	-0.3750505
-4.308089	hastily	-1.120725
-4.785211	hasty	-0.4584301
-5.086241	hat	-0.6112154
-4.910149	hate	-0.4195344
-5.086241	hated	-0.3750505
-5.38727	hateful	-0.3335444
-5.38727	hates	-0.08836278
-5.38727	hating	-0.08836278
-5.38727	hauteur	-0.3245276
-2.483096	have	-2.245482
-3.639082	having	-1.485901
-5.38727	hazard	-0.08836278
-5.38727	hazarded	-0.08836278
-5.38727	hazarding	-0.08836278
-5.38727	hazy	-0.08836278
-2.437393	he	-2.756629
-3.819069	head	-1.374952
-5.38727	headache	-0.3245276
-5.38727	headed	-0.08836278
-5.38727	heads	-0.3245276
-5.38727	headstrong	-0.08836278
-5.38727	healing	-0.08836278
-4.273327	health	-0.3273633
-5.38727	healthful	-0.08836278
-5.38727	healthy	-0.3245276
-3.548421	hear	-1.344569
-3.495176	heard	-1.296372
-5.38727	hearer	-0.3245276
-3.955907	hearing	-1.472908
-5.38727	hears	-0.08836278
-3.29036	heart	-1.796788
-4.38727	hearted	-1.055886
-4.308089	heartily	-0.8599817
-5.38727	heartiness	-0.08836278
-5.38727	hearts	-0.08836278
-5.38727	hearty	-0.08836278
-5.38727	heat	-0.08836278
-5.38727	heath	-0.08836278
-4.910149	heaven	-0.4195344
-4.910149	heavens	-0.4195344
-5.086241	heavily	-0.05588603
-4.241143	heavy	-1.202014
-4.785211	height	-0.1588479
-5.086241	heighten	-0.3750505
-4.910149	heightened	-0.4195344
-4.910149	heightening	-0.4195344
-5.38727	heights	-0.08836278
-5.38727	heir	-0.08836278
-5.38727	heirs	-0.3335444
-4.48418	held	-0.7002809
-4.108517	help	-1.009236
-5.086241	helping	-0.3750505
-5.38727	helpless	-0.08836278
-5.38727	helpmate	-0.3245276
-5.086241	hence	-0.3750505
-5.38727	henceforth	-0.08836278
-5.38727	henceforward	-0.08836278
-5.38727	hens	-0.08836278
-2.007602	her	-3.076271
-3.697074	here	-0.912525
-4.609119	hereafter	-0.8100246
-5.38727	hero	-0.08836278
-5.38727	heroically	-0.08836278
-5.38727	heroism	-0.08836278
-4.211179	hers	-0.8846413
-2.987597	herself	-2.097819
-4.910149	hesitated	-0.4195344
-5.086241	hesitatingly	-0.3750505
-4.688301	hesitation	-0.2063074
-5.086241	hiding	-0.3750505
-4.38727	high	-1.072478
-5.086241	higher	-0.3750505
-4.910149	highest	-0.4195344
-4.241143	highly	-1.218606
-5.38727	hilarity	-0.3245276
-4.542172	hill	-0.3439401
-4.308089	hills	-0.8096636
-2.58862	him	-2.495753
-3.338053	himself	-1.749497
-5.38727	hinder	-0.08836278
-5.086241	hindrance	-0.3750505
-4.542172	hint	-0.2665192
-5.086241	hinted	-0.3750505
-4.910149	hints	-0.224747
-2.424428	his	-2.700555
-5.38727	history	-0.08836278
-5.38727	hit	-0.08836278
-5.38727	hither	-0.3245276
-4.542172	hitherto	-0.5707916
-5.38727	ho	-0.08836278
-5.38727	hoarded	-0.08836278
-4.308089	hold	-0.816894
-5.38727	holding	-0.08836278
-5.38727	holds	-0.08836278
-5.086241	holidays	-0.07247761
-5.086241	hollow	-0.3750505
-3.567727	home	-1.522493
-5.38727	homes	-0.3245276
-4.542172	honest	-0.3110123
-4.785211	honestly	-0.4584301
-5.086241	honesty	-0.3750505
-5.38727	honeysuckles	-0.3335444
-5.086241	honor	-0.3750505
-5.38727	honorable	-0.08836278
-5.38727	honorably	-0.08836278
-4.156822	honour	-0.9538196
-4.785211	honourable	-0.3425738
-5.38727	honourably	-0.08836278
-4.785211	honoured	-0.4584301
-5.38727	honours	-0.08836278
-5.38727	hop	-0.08836278
-3.447751	hope	-1.640901
-4.108517	hoped	-0.8192557
-4.609119	hopeless	-0.2195605
-4.131998	hopes	-0.9570584
-4.785211	hoping	-0.2778389
-5.38727	horizon	-0.3245276
-4.910149	horrible	-0.4195344
-4.785211	horrid	-0.4584301
-5.38727	horridly	-0.3335444
-4.785211	horror	-0.3425738
-5.086241	horrors	-0.05588603
-4.48418	horse	-0.328469
-4.910149	horseback	-0.224747
-4.308089	horses	-0.5820297
-5.38727	hospitable	-0.08836278
-5.38727	hospitality	-0.08836278
-5.38727	hostess	-0.3245276
-5.38727	hostile	-0.08836278
-5.086241	hot	-0.3153765
-3.843203	hour	-1.178262
-3.807487	hours	-1.171547
-3.188613	house	-1.897815
-4.910149	household	-0.224747
-4.688301	housekeeper	-0.3687139
-5.086241	housekeeping	-0.05588603
-5.086241	housemaid	-0.6112154
-4.688301	houses	-0.2719489
-3.12482	how	-2.172388
-3.231935	however	-2.19408
-5.38727	howsever	-0.3245276
-5.38727	hue	-0.3335444
-4.785211	human	-0.4584301
-4.910149	humanity	-0.4195344
-4.910149	humble	-0.4195344
-5.38727	humbled	-0.3245276
-5.38727	humiliating	-0.08836278
-5.38727	humiliations	-0.3245276
-4.910149	humility	-0.224747
-5.38727	humored	-0.3245276
-4.433028	humour	-0.3483392
-4.433028	humoured	-1.010128
-5.38727	humouring	-0.08836278
-4.065051	hundred	-1.378105
-4.785211	hung	-0.4584301
-5.38727	hunt	-0.3335444
-5.38727	hunted	-0.08836278
-4.910149	hunters	-0.224747
-5.38727	hunts	-0.3335444
-4.345878	hurried	-0.8252196
-4.48418	hurry	-0.8461248
-5.086241	hurrying	-0.3750505
-4.38727	hurt	-0.7377128
-3.764021	husband	-1.516042
-5.086241	husbands	-0.3750505
-5.38727	hussy	-0.3245276
-5.38727	huswifes	-0.08836278
-5.086241	hysterical	-0.05588603
-4.688301	hysterics	-0.3391112
-5.38727	ice	-0.08836278
-4.007059	idea	-0.9866176
-4.345878	ideas	-1.082936
-5.38727	identify	-0.08836278
-4.542172	idle	-0.3041887
-5.38727	idled	-0.08836278
-4.785211	idleness	-0.1588479
-5.38727	idolized	-0.08836278
-2.994574	if	-1.933199
-4.308089	ignorance	-0.8599817
-4.688301	ignorant	-0.2719489
-3.697074	ill	-1.097871
-5.38727	illaudable	-0.3245276
-5.086241	illiberal	-0.3750505
-5.086241	illiterate	-0.05588603
-4.308089	illness	-0.3843085
-5.38727	illusion	-0.08836278
-5.38727	illustration	-0.08836278
-5.38727	image	-0.08836278
-5.38727	imagery	-0.08836278
-5.38727	imaginable	-0.08836278
-4.910149	imaginary	-0.4195344
-4.308089	imagination	-1.120725
-5.38727	imaginations	-0.08836278
-4.241143	imagine	-0.7471791
-4.48418	imagined	-0.4450539
-5.086241	imagining	-0.3750505
-5.38727	imbibed	-0.08836278
-5.38727	imitate	-0.08836278
-4.025543	immediate	-1.417614
-3.536012	immediately	-1.833513
-5.38727	imminent	-0.08836278
-5.38727	immoderately	-0.3335444
-5.086241	immovable	-0.3750505
-5.38727	imparted	-0.08836278
-5.086241	impartial	-0.3750505
-5.38727	impartiality	-0.08836278
-4.609119	impatience	-0.8100246
-4.48418	impatient	-0.7002809
-4.910149	impatiently	-0.4195344
-5.38727	impediment	-0.08836278
-5.38727	impenetrable	-0.08836278
-5.086241	imperfect	-0.07247761
-5.38727	imperfection	-0.08836278
-5.38727	imperfections	-0.08836278
-5.086241	imperfectly	-0.3750505
-4.688301	impertinence	-0.3687139
-4.542172	impertinent	-0.5873832
-5.086241	impertinently	-0.3750505
-5.086241	impetuous	-0.3750505
-4.785211	implied	-0.1588479
-5.38727	implies	-0.08836278
-5.38727	imply	-0.08836278
-5.38727	impolitic	-0.08836278
-4.211179	importance	-0.7227054
-4.308089	important	-1.137316
-5.38727	importunate	-0.08836278
-5.38727	importunity	-0.08836278
-5.38727	impose	-0.08836278
-4.785211	impossibility	-0.4584301
-3.843203	impossible	-2.110443
-5.38727	impoverished	-0.3335444
-5.38727	impoverishing	-0.08836278
-5.38727	impracticable	-0.3335444
-4.542172	impression	-1.461092
-5.38727	imprint	-0.08836278
-5.38727	improperly	-0.08836278
-4.688301	impropriety	-0.2719489
-4.785211	improve	-0.4584301
-4.542172	improved	-0.5873832
-4.48418	improvement	-0.3583591
-4.542172	improvements	-0.5873832
-5.38727	improvident	-0.08836278
-4.609119	improving	-0.8100246
-4.345878	imprudence	-0.7718751
-4.910149	imprudent	-0.4195344
-5.38727	imprudently	-0.3245276
-5.38727	impudence	-0.3335444
-5.38727	impudently	-0.08836278
-4.910149	impulse	-0.4195344
-4.688301	imputed	-0.3225196
-2.114269	in	-3.839375
-5.38727	inadvertence	-0.3245276
-5.38727	inarticulate	-0.08836278
-4.785211	inattention	-0.2778389
-5.38727	inattentive	-0.3245276
-4.785211	incapable	-0.4584301
-5.38727	incautiousness	-0.3335444
-5.38727	incessant	-0.08836278
-5.38727	incessantly	-0.08836278
-5.38727	inch	-0.08836278
-5.38727	incitement	-0.08836278
-5.38727	incivility	-0.08836278
-4.156822	inclination	-0.8315
-5.086241	inclinations	-0.07247761
-4.542172	inclined	-0.5707916
-5.38727	inclosing	-0.08836278
-5.38727	included	-0.08836278
-5.38727	including	-0.08836278
-5.38727	incoherently	-0.08836278
-4.044848	income	-0.8281278
-5.38727	incommode	-0.08836278
-5.38727	incommoded	-0.08836278
-5.38727	incompatible	-0.08836278
-5.086241	incomprehensible	-0.3750505
-5.38727	inconsiderable	-0.3245276
-5.38727	inconsiderately	-0.08836278
-5.086241	inconsistency	-0.3750505
-4.609119	inconstancy	-0.2812201
-5.38727	inconstant	-0.08836278
-4.273327	inconvenience	-0.8444257
-4.785211	inconveniences	-0.4584301
-5.38727	inconvenient	-0.08836278
-4.308089	increase	-1.135067
-4.211179	increased	-0.8994618
-4.785211	increasing	-0.4584301
-5.38727	incredulity	-0.3245276
-4.785211	incumbent	-0.2778389
-5.38727	incurable	-0.08836278
-5.38727	incurred	-0.08836278
-5.086241	incurring	-0.05588603
-5.086241	indecision	-0.07247761
